BROAD_SAMPLE,0,1,2,3,4,5,6,7,8,9,10,11,12,13,14,15,16,17,18,19,20,21,22,23,24,25,26,27,28,29,30,31,32,33,34,35,36,37,38,39,40,41,42,43,44,45,46,47,48,49,50,51,52,53,54,55,56,57,58,59,60,61,62,63,64,65,66,67,68,69,70,71,72,73,74,75,76,77,78,79,80,81,82,83,84,85,86,87,88,89,90,91,92,93,94,95,96,97,98,99,100,101,102,103,104,105,106,107,108,109,110,111,112,113,114,115,116,117,118,119,120,121,122,123,124,125,126,127,128,129,130,131,132,133,134,135,136,137,138,139,140,141,142,143,144,145,146,147,148,149,150,151,152,153,154,155,156,157,158,159,160,161,162,163,164,165,166,167,168,169,170,171,172,173,174,175,176,177,178,179,180,181,182,183,184,185,186,187,188,189,190,191,192,193,194,195,196,197,198,199,200,201,202,203,204,205,206,207,208,209,210,211,212,213,214,215,216,217,218,219,220,221,222,223,224,225,226,227,228,229,230,231,232,233,234,235,236,237,238,239,240,241,242,243,244,245,246,247,248,249,250,251,252,253,254,255,256,257,258,259,260,261,262,263,264,265,266,267,268,269,270,271,272,273,274,275,276,277,278,279,280,281,282,283,284,285,286,287,288,289,290,291,292,293,294,295,296,297,298,299,300,301,302,303,304,305,306,307,308,309,310,311,312,313,314,315,316,317,318,319,320,321,322,323,324,325,326,327
BRDN0001487609,-0.4874270260334015,0.3471488952636719,-0.524058997631073,4.814444541931152,0.19175833463668823,-1.5632731914520264,0.4854937493801117,-0.21584120392799377,-0.26769599318504333,0.19293370842933655,0.4868777096271515,-0.49575406312942505,-0.35509324073791504,-0.366611510515213,-0.5865511298179626,0.2767646312713623,0.5493552088737488,0.23289990425109863,-0.32635506987571716,-0.28592005372047424,0.6901002526283264,0.9874427318572998,-0.3571781516075134,0.1519162505865097,-0.46899497509002686,0.3847583830356598,-0.987779438495636,-0.2354220449924469,0.19187960028648376,-1.704152226448059,0.13820146024227142,0.513190507888794,0.974405825138092,-0.13942736387252808,0.9507779479026794,0.3238452076911926,-0.30759742856025696,0.34829750657081604,0.27922409772872925,0.5481984615325928,-0.45107659697532654,0.41413936018943787,-0.32691994309425354,-0.35196807980537415,-0.6956372857093811,-1.9059158563613892,-0.24916167557239532,-2.32263445854187,0.46478888392448425,-0.7093387842178345,0.5733575820922852,-0.6031841039657593,-0.33783361315727234,1.0527245998382568,-1.3993287086486816,0.2810361683368683,-0.2713617980480194,1.2397894859313965,0.5516682267189026,0.191495880484581,0.28657323122024536,0.1756342053413391,0.3083966076374054,0.8565732836723328,0.36536911129951477,0.7787986993789673,0.31019100546836853,-0.5981178879737854,-0.23348404467105865,-0.4453366994857788,0.5731697082519531,0.4910687506198883,0.9458019733428955,0.368539422750473,-0.23067162930965424,0.5262500047683716,0.3799271285533905,0.3921036422252655,0.2730850279331207,0.3692590594291687,-0.5688442587852478,-0.709303617477417,0.7334374785423279,0.5144835114479065,0.4027840495109558,-2.154768705368042,0.5769252181053162,-1.1461714506149292,0.29124322533607483,0.18927015364170074,-0.21084226667881012,0.19580364227294922,0.57502681016922,0.582196056842804,-0.39853599667549133,-0.2563032805919647,-0.3973982632160187,-0.15473221242427826,0.7286649346351624,0.4283241331577301,0.2047167867422104,-0.28174492716789246,0.4041234850883484,-0.4894590675830841,-0.17937928438186646,-0.2896372079849243,0.32009753584861755,0.6723226308822632,-0.28008779883384705,0.05212956666946411,0.18356432020664215,0.7393791675567627,0.4969531297683716,0.3745201826095581,0.5816228985786438,-0.38001900911331177,-0.3349539041519165,-0.6625637412071228,-0.39190226793289185,-0.4748402535915375,-0.7131791710853577,-0.794912576675415,-0.1268770396709442,1.0537689924240112,-0.34720560908317566,0.4875692129135132,-0.41909363865852356,0.02991577796638012,-0.14491472,-0.14446841,-0.043794356,0.2335352,0.040002618,-0.10487868,-0.057042442,-0.08979779,-0.009175227,0.0071225907,-0.10555233,-0.209226,-0.112742044,0.43256092,0.066315666,0.2241751,0.2776856,-0.03749182,0.18855786,-0.3563421,-0.14667693,0.016365077,-0.0990142,0.31653124,-0.13267654,-0.10753135,0.10793633,0.19863631,0.17894019,0.085504174,0.39058954,0.08262905,0.034941208,-0.2610167,-0.037920088,-0.09513082,-0.12949266,0.17478098,-0.11027052,0.10564095,-0.3152955,-0.03303256,-0.1900682,-0.038332026,-0.028360287,-0.3315999,0.30312803,-0.2183316,-0.025740502,-0.22565635,-0.2345632,0.031363513,-0.35909835,0.13849577,0.123478994,0.056629572,-0.22661233,-0.020433202,0.40139663,-0.4881664,-0.0026560088,-0.31251356,-0.35771206,-0.0861553,0.35634053,0.18631351,0.16780552,-0.104744144,0.090831935,-0.26194263,-0.0773444,-0.12603119,0.36956257,-0.045120962,0.053633176,0.030092629,0.15414055,0.16715083,0.42200804,0.30799222,-0.32623014,0.15609853,-0.30010608,0.009909066,-0.20330968,-0.35835356,0.09105793,-0.23712881,0.0786789,0.36057243,0.109274335,-0.3846986,-0.16500176,0.24455318,0.33028957,-0.15489991,-0.17770164,-0.09908684,-0.05900756,-0.009789991,0.06834467,0.5075504,0.06856616,0.03152574,0.19039237,-0.105316676,0.01853801,0.09477728,0.17172626,-0.03276383,0.0897165,-0.09954514,-0.022228343,-0.30723628,0.10936577,0.09211327,0.14157663,0.10655337,0.15676895,-0.19987807,0.10960347,0.16770379,0.19744422,0.3426056,-0.101061955,0.10199123,0.048335,-0.25898698,-0.012307095,0.25564235,-0.020754881,-0.337332,-0.09459324,-0.028795762,-0.103533745,-0.23607042,-0.24981873,0.16283183,0.10126408,-0.41846597,-0.036603406,-0.13609105,-0.007495279,0.38045377,0.06717407,0.20788825,0.19419198,-0.053163957,0.05176966,-0.017568953,0.00016779755,-0.13513717,-0.3490049,-0.06079681,0.21376073,-0.19798936,-0.0293307,0.124563515,-0.14605793,-0.013312566,0.006850664,-0.010748172,-0.039057504,0.07044512,-0.32813582,-0.0524167,0.12816043,0.039661225,0.10880276,0.32976887,-0.098748446,-0.014192837,0.177097,0.16999845,-0.079331614,0.22165844,0.049315915,-0.020063043,0.43304875,-0.4023482,-0.052435037,-0.1940118,0.064426735,0.26846048,-0.08569022,-0.19236572,0.26662475,0.08701543,0.117015764,0.22043584,0.13727257,0.4017606,0.37101907,-0.10616928,0.24047649,-0.26122612,0.14375563,0.068433955,-0.32907766,-0.022664174
BRDN0001479298,-0.6381471157073975,0.3006308972835541,-0.44036102294921875,5.08850622177124,0.2941991984844208,-1.7140936851501465,0.37980329990386963,-0.2612888514995575,-0.2729202210903168,0.1352396458387375,0.5884430408477783,-0.7892442345619202,-0.22048406302928925,-0.4804852306842804,-0.35002732276916504,0.2522529363632202,0.5324323177337646,0.2997802495956421,-0.5259906649589539,-0.25436437129974365,0.6544068455696106,0.43749895691871643,-0.23285731673240662,0.385996550321579,-0.2811838984489441,0.5684773921966553,-1.2142612934112549,-0.2980838119983673,0.36019015312194824,-1.5171595811843872,0.35850703716278076,0.4395214319229126,0.9475253820419312,-0.30375397205352783,1.0602623224258423,0.3757953643798828,-0.21758070588111877,0.6587855815887451,0.2941630780696869,0.7018864154815674,-0.5256401896476746,0.20448198914527893,-0.34699228405952454,-0.3732345402240753,-0.37111061811447144,-2.332287311553955,-0.14282825589179993,-2.7277145385742188,0.54140305519104,-0.5366291403770447,0.37927624583244324,-0.4955938160419464,-0.30853891372680664,1.1524357795715332,-0.9710888266563416,0.41852042078971863,-0.13531561195850372,0.9892024993896484,0.47039517760276794,0.35875752568244934,0.35754409432411194,-0.03929886966943741,0.3452129662036896,1.0670145750045776,0.4179067611694336,0.4633899927139282,0.31291458010673523,-0.4925951659679413,-0.21132273972034454,-0.34467676281929016,0.3245731294155121,0.4797559976577759,0.7345012426376343,0.29767170548439026,-0.1877140998840332,0.771817147731781,0.5736840963363647,0.3269514739513397,0.31114301085472107,0.3679627478122711,-0.25353720784187317,-0.9518813490867615,0.36459648609161377,0.4208942651748657,0.47639620304107666,-2.0281591415405273,0.5522992014884949,-1.3132268190383911,0.459151953458786,0.32014524936676025,-0.3375087082386017,0.2613217830657959,0.6755654215812683,0.4654192626476288,-0.41474592685699463,-0.39569976925849915,-0.38330841064453125,-0.3781031370162964,0.47766292095184326,0.5072234272956848,0.2741994857788086,-0.3638204336166382,0.22178278863430023,-0.5744865536689758,-0.34238916635513306,-0.540408730506897,0.3183678090572357,0.8267099857330322,-0.23835334181785583,0.22452913224697113,0.41791456937789917,0.3711358308792114,0.5589600205421448,0.22459688782691956,0.42615631222724915,-0.029230237007141113,-0.23326930403709412,-0.9399519562721252,-0.27912721037864685,-0.44076064229011536,-0.5599240660667419,-0.5193319320678711,-0.292261004447937,0.8772889971733093,-0.11939571052789688,0.5680492520332336,-0.4674001634120941,0.26843059062957764,0.23610426,0.064843714,-0.016760042,-0.2006349,-0.26611435,-0.07889124,0.057834327,0.1734892,0.2551119,-0.011654868,0.06418734,0.054988667,0.08089105,-0.094622955,0.11265789,0.03309458,-0.2193236,-0.040920082,0.070922896,0.107326195,-0.11126264,0.09184744,-0.108318545,0.11047591,-0.0008079677,0.16731556,-0.060899224,0.21146224,0.028959438,-0.11561738,0.3757049,-0.01996906,0.28421855,-0.17443638,-0.2033249,-0.23066866,-0.11362773,0.24626538,0.027609885,0.11894302,-0.16667652,0.26609322,-0.24609567,-0.05303853,0.18830949,-0.009501374,0.18352643,-0.12844037,-0.0837,-0.15474685,-0.081892364,0.12494948,-0.31809303,-0.015176955,-0.39605698,-0.09448171,-0.24168572,0.037489302,0.10728117,0.060211293,-0.038339954,-0.63571626,-0.23091052,0.09301494,-0.10433554,-0.32290465,-0.2819047,-0.044491865,0.2089027,-0.08402903,-0.04372338,-0.07211615,0.10767327,0.018754942,0.018319087,0.16807084,0.008108369,-0.034198076,0.021907736,0.22985911,0.078251064,0.0109769385,-0.2305668,0.044522267,0.1447454,-0.3753125,0.21713896,0.32972685,0.19088142,0.049802884,0.2611685,-0.12723023,0.24387461,-0.0916187,0.15321536,0.0027628439,-0.24724199,0.27098706,-0.12086695,-0.058579803,0.15741858,0.21894376,-0.13223639,-0.21039845,0.0049873106,-0.055183165,-0.06429604,-0.07147697,0.07326074,0.0030936135,0.088751905,-0.14664923,-0.20576327,0.13930559,-0.010143894,0.042040154,-0.16268048,-0.042330693,0.14301111,-0.1527122,-0.115601115,0.13325605,-0.09110583,0.06584004,-0.16706412,0.03339866,0.0038455287,0.027325716,-0.5125996,0.24827303,0.11594046,0.082337804,0.18809412,0.063428044,-0.19974895,-0.3091923,0.020129105,0.01888841,0.032260656,-0.08483457,0.33370456,0.15824352,0.41692114,0.15113012,0.025210168,0.09611522,0.06273219,0.04464573,-0.1706984,-0.22429457,-0.16842382,0.14474931,-0.028719561,-0.023748381,0.10860252,-0.2951439,-0.034159865,0.051292468,-0.12514481,-0.088388905,-0.13723728,0.107131995,-0.1983647,0.19048941,0.0771443,-0.016399797,-0.15231556,-0.45085493,-0.03108504,0.078088924,0.25078076,-0.10618995,0.04218537,0.09489383,-0.02376986,-0.08984641,-0.15151818,-0.24364491,-0.04708219,-0.51563966,0.051925845,-0.120697826,-0.29047805,0.17713356,0.05223568,0.22537419,-0.05553353,-0.16674235,0.16465318,0.09206751,0.11169311,0.2203446,-0.0062902905,-0.20917207,-0.17555632,-0.38928378,0.05319013,-0.14258447,-0.03509616,0.024886522
BRDN0001479710,-0.5819029211997986,0.3858550786972046,-0.524179220199585,5.18607759475708,0.2309338003396988,-1.8209134340286255,0.16854362189769745,-0.28923165798187256,-0.27087655663490295,0.3674354553222656,0.7302480340003967,-0.7897369861602783,-0.3516230881214142,-0.48874637484550476,-0.5144106149673462,0.3778252601623535,0.6245039701461792,0.24833165109157562,-0.36956796050071716,-0.2563434839248657,0.5633037090301514,0.6325950026512146,-0.2163560837507248,0.28437620401382446,-0.34508636593818665,0.49824535846710205,-1.146463394165039,-0.19675980508327484,0.29082635045051575,-1.5626869201660156,0.22782930731773376,0.5050727128982544,1.0095490217208862,-0.2767567038536072,1.2033342123031616,0.45633840560913086,-0.17967766523361206,0.5823951363563538,0.12266118079423904,0.7530393600463867,-0.5583199262619019,0.1676197499036789,-0.13792075216770172,-0.4540702700614929,-0.43523675203323364,-2.4065513610839844,-0.2070537507534027,-2.6059165000915527,0.4889785051345825,-0.6334527730941772,0.5432150363922119,-0.5274934768676758,-0.2917589843273163,1.1317729949951172,-1.0591917037963867,0.2951061427593231,-0.19498644769191742,1.1233519315719604,0.5526086688041687,0.34742271900177,0.2312232404947281,-0.05554383620619774,0.35155266523361206,0.9082019329071045,0.48779287934303284,0.4739876091480255,0.3035854399204254,-0.5703665018081665,-0.2293909192085266,-0.4350752532482147,0.35521695017814636,0.35385143756866455,0.8377260565757751,0.4910385012626648,-0.1084967628121376,0.7401124835014343,0.325736403465271,0.39562633633613586,0.2711038589477539,0.40395042300224304,-0.2821023762226105,-0.7692407965660095,0.5509071350097656,0.5742082595825195,0.4330960214138031,-2.0099987983703613,0.5332345962524414,-1.358986496925354,0.4919625222682953,0.20558284223079681,-0.2622794806957245,0.3050353527069092,0.6258323192596436,0.46185991168022156,-0.21949607133865356,-0.39827919006347656,-0.43775931000709534,-0.25279390811920166,0.5939706563949585,0.4887162148952484,0.3034592866897583,-0.394478976726532,0.2791396379470825,-0.5379636287689209,-0.25094306468963623,-0.5184120535850525,0.30653300881385803,0.7434374094009399,-0.22987164556980133,0.13132625818252563,0.28649333119392395,0.3533742129802704,0.5537313222885132,0.4210986793041229,0.3733257055282593,-0.05225179344415665,-0.28755807876586914,-0.8378519415855408,-0.3425477147102356,-0.49746081233024597,-0.5936406254768372,-0.693726122379303,-0.27040284872055054,0.9520301818847656,-0.23007765412330627,0.4765434265136719,-0.45878326892852783,0.12206920981407166,-0.088159144,0.31950924,-0.07105634,-0.03031881,-0.15319575,0.07192149,0.20236512,-0.039837908,0.16105711,0.34614065,-0.03904486,0.123188436,-0.02249201,0.15558162,-0.16664179,-0.26513198,-0.43520653,-0.44430888,0.011762693,0.16117714,-0.028569167,0.07539397,0.035822686,0.12714292,0.05886867,-0.2045306,-0.023280485,0.01793207,0.24125698,0.48867214,-0.17441726,-0.14044629,-0.433445,-0.028569693,-0.010909492,-0.2223964,-0.21245697,0.0697424,-0.28982776,-0.16764693,0.003732494,-0.021185711,0.14202698,-0.3652237,0.15297875,0.22977522,-0.038975593,-0.025800634,-0.10531335,0.25404325,0.058081325,0.036484167,-0.09053156,0.26244083,0.4915137,0.29216665,-0.2313465,-0.08498128,-0.43594757,-0.00797079,-0.015371488,-0.42573035,-0.16143365,0.09599823,-0.01027779,-0.057767738,-0.080991015,0.106838,-0.0373452,-0.44135037,-0.15297715,0.14346936,0.25314078,-0.32461485,0.04593487,0.06704053,0.13659593,-0.13114326,0.07450099,0.34725612,-0.091360874,0.1140488,0.09893411,0.10887728,0.22992812,-0.22160013,-0.4006759,-0.18754034,-0.08493999,-0.3840985,0.06278254,0.14748225,-0.13470595,-0.15344937,-0.14126435,-0.27750412,0.23969643,0.15318139,0.22940879,-0.25691313,-0.111498386,-0.16483621,-0.4738255,-0.06561779,-0.32534367,-0.014014564,0.3811202,-0.11610532,0.11716916,0.2156599,-0.040414426,0.07154836,-0.41211194,-0.17104599,0.4390778,0.0950452,-0.08784185,0.20032652,-0.14290841,0.018412927,-0.07357485,0.2993537,-0.19576086,0.12897561,-0.048942782,0.1571087,-0.22974156,0.0122219045,-0.082413435,-0.14361867,-0.08445335,0.033494063,0.20699814,0.19954665,-0.025789728,-0.13907062,0.21998101,0.0024935082,-0.5014819,0.050283987,0.03082389,-0.11188355,0.29109362,0.115073614,0.09259166,0.05140787,-0.08719025,0.07636909,0.12601404,-0.20271917,-0.07300682,-0.09252329,0.21311687,0.054166272,0.48249108,-0.3849108,0.29245743,0.17628302,0.10459045,-0.095967844,0.12242602,-0.008442992,-0.29645708,-0.2411695,0.50412387,-0.12889823,-0.18881682,-0.113049984,-0.19846274,-0.30909178,-0.19939981,0.05802446,0.0951508,0.513878,-0.041030407,0.28780842,-0.07874901,-0.4602054,0.15175912,0.25072524,-0.024285082,0.123326086,-0.11777809,-0.07371045,0.14801334,0.31098557,0.13802285,0.17878813,-0.040078662,0.08131471,0.17155276,0.23787968,0.016804595,-0.024685396,-0.09557212,0.06073277,-0.13560504,0.0077869594,-0.115865596,0.00029750008
BRDN0000733096,-0.6310873031616211,0.3153800666332245,-0.6287789344787598,4.864506244659424,0.1885019689798355,-1.6411586999893188,0.3661813735961914,-0.2828057110309601,-0.38540858030319214,0.15008482336997986,0.6225283145904541,-0.6898135542869568,-0.32336199283599854,-0.3541041314601898,-0.4194694757461548,0.3864038586616516,0.5574318170547485,0.25900447368621826,-0.4869748055934906,-0.38681527972221375,0.6237500905990601,0.71756511926651,-0.3624328374862671,0.28850945830345154,-0.19977670907974243,0.43478134274482727,-1.1152679920196533,-0.17468903958797455,0.2693140208721161,-1.4307886362075806,0.35610705614089966,0.48897942900657654,0.8112815618515015,-0.3999437093734741,1.0937243700027466,0.43620434403419495,-0.1467227190732956,0.5018996596336365,-0.2000061422586441,0.6708381175994873,-0.5490961074829102,0.2255307286977768,-0.24475353956222534,-0.3960285186767578,-0.493782639503479,-2.326019048690796,-0.10614924877882004,-2.5207815170288086,0.5208186507225037,-0.6994117498397827,0.4007485508918762,-0.5272509455680847,-0.204118549823761,1.1563185453414917,-1.1260639429092407,0.3515413701534271,-0.19955505430698395,1.1618374586105347,0.6306977272033691,0.3657303750514984,0.3159109950065613,-0.19017361104488373,0.3550402820110321,0.9950913786888123,0.4046502113342285,0.6436495184898376,0.34283265471458435,-0.46380650997161865,-0.1508459597826004,-0.45181509852409363,0.2457573413848877,0.4234989881515503,0.951229989528656,0.5561677813529968,-0.201026052236557,0.6184319257736206,0.4864092767238617,0.42728251218795776,0.31452247500419617,0.3834896981716156,-0.42655622959136963,-0.8598306179046631,0.5092061758041382,0.44485899806022644,0.43356800079345703,-2.186790943145752,0.5912733674049377,-1.2888450622558594,0.34261998534202576,0.31892573833465576,-0.1503412127494812,0.343445360660553,0.6598277688026428,0.3857347369194031,-0.20374661684036255,-0.22234435379505157,-0.3426454961299896,-0.25076672434806824,0.5632141828536987,0.40770184993743896,0.12886668741703033,-0.32733777165412903,0.5080134868621826,-0.46477511525154114,-0.16680355370044708,-0.4802624583244324,0.37670329213142395,0.6708874106407166,-0.3339293301105499,-0.028633881360292435,0.3279277980327606,0.4991474151611328,0.5850538611412048,0.5052633881568909,0.49964770674705505,-0.2998397648334503,-0.1308089643716812,-0.7663177251815796,-0.43074485659599304,-0.3969472050666809,-0.7245622277259827,-0.6454906463623047,-0.24637919664382935,0.7335964441299438,-0.2244490683078766,0.41365575790405273,-0.502063512802124,0.23126579821109772,-0.16519922,-0.07437269,0.03990023,-0.008197409,0.09305131,-0.2119882,0.08261617,0.11632476,0.28396428,0.079714596,0.03048547,0.5907953,-0.2239511,0.26133612,0.14999416,0.026178524,0.024798593,0.14216383,0.112240404,0.11484839,-0.20355347,0.2945309,-0.06048164,0.21364035,-0.0058054384,0.077160664,-0.14569502,0.14951529,0.21542905,0.045726556,0.04799642,-0.0277533,0.30283245,-0.123683624,-0.03743841,0.26158828,0.10174626,-0.06755732,-0.2850932,0.21596637,-0.1977831,0.24675146,-0.16114314,-0.26245147,0.27527264,-0.039862152,-0.11893445,0.02969983,-0.07864068,0.3447501,-0.1853611,0.04738691,0.23944752,-0.20406258,-0.32217216,0.22264291,-0.05271764,-0.121039666,-0.12018207,-0.11016255,0.25947294,-0.33013934,0.003207394,0.13788342,0.043036353,-0.23207854,-0.082246855,0.1201845,-0.10289237,0.08156997,-0.115408204,0.049082052,-0.21093993,-0.20985673,-0.1029741,0.0430078,0.06440078,0.03761938,0.14869587,0.015071282,3.2328484e-05,0.15347807,0.07770009,0.086669624,0.06940326,0.34228268,0.32224974,-0.21499483,-0.17980993,-0.22757594,0.064783,-0.09514243,-0.052573387,-0.28851053,-0.08216243,0.13833374,0.37808043,0.1099885,-0.0041330024,0.08444862,0.25398332,0.0803129,-0.17739515,0.1784604,-0.26322618,-0.23427911,-0.054583143,-0.02022999,0.30916405,-0.075873755,0.18636471,-0.5612109,0.06930625,0.15324894,0.018044025,-0.08666246,0.16682167,-0.18535133,0.108026415,0.37014338,-0.084372915,-0.00044903794,0.124464616,-0.05946803,-0.20337728,0.06216113,-0.20021436,0.37101293,0.17729966,0.8263999,-0.13196254,-0.31528723,-0.094135314,0.34479225,0.10611994,-0.049500283,0.2107524,-0.15887047,0.05546319,0.0035249782,-0.040257733,0.07047567,-0.0620873,0.12730716,0.021891002,0.09583448,-0.07617504,-0.12690379,-0.20481853,-0.24985181,-0.096338764,-0.2802317,0.21043687,0.1159229,0.12808587,-0.18852171,0.14919661,-0.5647566,-0.080769636,-0.095253736,-0.093001276,0.08810612,-0.2402463,-0.16775624,0.20985767,-0.54866815,0.15907556,-0.27308124,0.19129066,0.14310563,0.16386886,-0.055981923,0.07368351,0.0050119124,-0.17140034,-0.011881299,-0.29146576,-0.18640058,0.10219019,-0.44357222,0.079771474,0.2179629,-0.13290274,-0.40003425,-0.07228962,0.24333355,0.038559254,0.14461264,0.08930775,0.103479885,0.14567758,-0.35180834,-0.059112832,0.1557933,-0.15849422,-0.0019870028,-0.13121268,-0.2058067,-0.0027582361,-0.12236715
BRDN0001482390,-0.4265459179878235,0.3980199098587036,-0.23859986662864685,4.672924995422363,0.09946183860301971,-1.537717342376709,0.3582916557788849,-0.3267996311187744,-0.3179190754890442,0.32196974754333496,0.5374563932418823,-0.5169980525970459,-0.33122050762176514,-0.3415951430797577,-0.6643165349960327,0.41293466091156006,0.5098451972007751,0.11762526631355286,-0.34481334686279297,-0.12260527163743973,0.518334150314331,0.9547892212867737,-0.4658775329589844,0.15916742384433746,-0.12854646146297455,0.37486517429351807,-0.9534696936607361,-0.06128131225705147,-0.08570694178342819,-1.4900422096252441,-0.11193647235631943,0.5223842263221741,0.9363976120948792,-0.02409374713897705,1.2688237428665161,0.29290711879730225,-0.1637566089630127,0.37932196259498596,-0.2679023742675781,0.5927202701568604,-0.4417748749256134,0.7086217999458313,-0.08095348626375198,-0.40254080295562744,-0.752370297908783,-1.733802080154419,-0.3786303400993347,-1.6802977323532104,0.1905840039253235,-0.9947534203529358,0.7508198022842407,-0.6310304999351501,-0.30825164914131165,1.09869384765625,-1.228634238243103,0.5813747644424438,-0.05392545089125633,1.2300772666931152,0.5161942839622498,0.21353624761104584,-0.031764186918735504,-0.21738338470458984,0.1669413447380066,0.8051069378852844,0.5679973363876343,0.5042070746421814,0.36904144287109375,-0.42923155426979065,-0.23081420361995697,-0.37356650829315186,0.42646369338035583,0.18789105117321014,0.937395453453064,0.5264277458190918,-0.3401657044887543,0.7820098400115967,0.1977633535861969,0.43539664149284363,0.2090802639722824,0.41078490018844604,-0.455549031496048,-0.6503161787986755,0.8547292351722717,0.5195015668869019,0.44543027877807617,-2.2218897342681885,0.8134642243385315,-1.0843830108642578,0.21165403723716736,0.11838869750499725,-0.08591243624687195,0.1883111149072647,0.38386449217796326,0.5856492519378662,-0.16721712052822113,-0.13960447907447815,-0.3403073847293854,-0.1064414530992508,0.6031857132911682,0.22565579414367676,0.19622598588466644,-0.31821727752685547,0.3544623851776123,-0.5072650909423828,-0.26446855068206787,-0.4537592828273773,0.2782471477985382,0.8136888742446899,-0.2191717028617859,-0.05729774385690689,-0.007325578946620226,0.28661730885505676,0.46308642625808716,0.4489585757255554,0.3746868371963501,-0.3539717197418213,-0.3751819431781769,-0.6516647338867188,-0.3235219419002533,-0.35709962248802185,-0.702643871307373,-1.153305172920227,-0.13621288537979126,0.925122082233429,-0.3392717242240906,0.42602860927581787,-0.396403968334198,-0.06208600848913193,-0.2836914,-0.41704395,0.31865078,-0.008718501,0.057782803,-0.20877738,-0.18069452,0.028144998,0.16747591,0.1720268,-0.1147851,0.037006486,0.09723307,0.68130255,-0.002763282,0.10979658,-0.09692184,-0.19706014,0.03645221,0.16043405,-0.25550103,0.04560589,-0.28437558,-0.050944556,-0.35897145,-0.050045837,-0.1484274,-0.13013956,0.04770699,-0.18058239,0.31240767,0.022058854,-0.13985592,-0.31786758,0.21705383,0.039695065,-0.08350269,-0.11053206,-0.07571761,0.3396686,0.03636655,-0.1409076,-0.054305438,-0.07736071,0.07925546,-0.22325464,0.23355956,0.110632494,0.21253754,0.049523596,-0.063015126,0.22493869,-0.24700238,0.08912059,0.0016467992,0.20386101,-0.29472628,-0.0013729634,-0.19436774,0.022093253,-0.08407074,-0.36072263,-0.22558334,0.15427858,0.15815504,-0.009721309,0.1658055,0.084047645,0.30977663,-0.10950708,0.18195982,0.15124243,-0.2907696,0.13785411,-0.13116083,0.2909918,0.072795905,0.17526397,0.035323665,-0.1288863,0.055153247,-0.20465502,-0.39859113,0.19149156,-0.14098987,-0.22134599,0.3055191,-0.06936026,0.07773434,-0.046705272,0.16176362,-0.35878742,-0.13418002,0.16010791,0.08296454,-0.06385803,-0.270502,-0.10270344,0.07755724,-0.113514595,0.23008552,-0.1503613,-0.19004199,0.19730788,0.020601062,0.24285665,0.35870445,0.24298607,0.23739241,0.11928212,0.1496145,-0.18716958,0.09183656,-0.16646472,0.30000094,0.08569423,-0.3188324,0.29146308,0.43056554,-0.13800772,0.047772452,0.2995285,0.0880211,0.4066794,0.43002388,0.03328803,-0.14224185,-0.11422215,-0.6516731,0.089207515,0.08350727,0.06333545,0.2284165,0.2374461,-0.02896734,-0.23290476,0.2957978,0.35071132,-0.103983566,-0.19106124,0.1082859,-0.046890184,0.2684373,0.70413345,0.05308294,0.10889479,-0.047470786,0.34422553,-0.18266834,-0.2799027,0.070703074,-0.34621432,0.003619664,-0.098836526,0.41293058,-0.23284958,-0.25048825,-0.05240768,-0.3421209,0.28579304,-0.060862824,-0.09025759,-0.24829292,0.26196882,-0.37152746,-0.12546067,0.38578868,0.0928095,0.11074941,0.33911896,-0.01023193,-0.493523,-0.1081225,0.007936647,0.050393265,-0.060756274,-0.0034372478,-0.24682464,0.20819315,-0.39299005,-0.13558151,-0.001680247,-0.2880314,0.34854132,-0.24571688,0.16868868,0.24497603,0.23707193,0.06975236,-0.32550567,-0.027861582,0.47195908,-0.18218274,0.36910576,0.46047497,0.2630952,-0.050837863,-0.37097508,-0.12037145,0.1457488
BRDN0001480256,-0.6103159189224243,0.3665046989917755,-0.4903295636177063,4.971475601196289,0.17647333443164825,-1.6493743658065796,0.511451005935669,-0.23397158086299896,-0.32954251766204834,0.06739579141139984,0.594498872756958,-0.6741211414337158,-0.35630449652671814,-0.43736371397972107,-0.47296276688575745,0.4207834005355835,0.5628289580345154,0.2352745682001114,-0.4442068338394165,-0.3073893189430237,0.6812326908111572,0.7680776715278625,-0.27951523661613464,0.257468044757843,-0.17916002869606018,0.4634656608104706,-1.2667467594146729,-0.18618439137935638,0.2988418638706207,-1.498907446861267,0.3685952126979828,0.47257816791534424,0.9161643385887146,-0.3229754567146301,1.050315499305725,0.4930817782878876,-0.2896815538406372,0.5087870955467224,-0.009670788422226906,0.6602279543876648,-0.4400574862957001,0.2724514901638031,-0.38102254271507263,-0.3151164650917053,-0.44060489535331726,-2.343456268310547,-0.013786719180643559,-2.592928171157837,0.3600173890590668,-0.57086580991745,0.535377025604248,-0.5065740346908569,-0.22709140181541443,1.0896111726760864,-1.1580893993377686,0.2691386938095093,-0.13203498721122742,1.179082989692688,0.5116124749183655,0.3688518702983856,0.20379891991615295,-0.10953963547945023,0.4134472906589508,0.964465856552124,0.41476449370384216,0.6090362071990967,0.3907570540904999,-0.5707666873931885,-0.25229769945144653,-0.40962743759155273,0.3547377288341522,0.51690274477005,0.9451772570610046,0.4294441044330597,-0.229471817612648,0.4968275725841522,0.3417969346046448,0.3283700942993164,0.32636716961860657,0.4325198829174042,-0.3023918569087982,-0.8598204255104065,0.5452277064323425,0.38782432675361633,0.521942675113678,-2.1599349975585938,0.5831310749053955,-1.2993698120117188,0.36783257126808167,0.31433722376823425,-0.2613101899623871,0.30057379603385925,0.5769906640052795,0.4971994459629059,-0.2567235231399536,-0.3517070710659027,-0.39082515239715576,-0.3325364887714386,0.5477617383003235,0.46097561717033386,0.21152864396572113,-0.383431613445282,0.48372629284858704,-0.4269089698791504,-0.1895400881767273,-0.4350323975086212,0.4466688930988312,0.6074014902114868,-0.29191848635673523,-0.0720980241894722,0.23246903717517853,0.4907383620738983,0.617733895778656,0.2665923833847046,0.49007484316825867,-0.17016953229904175,-0.19111596047878265,-0.8118074536323547,-0.36136454343795776,-0.5454795360565186,-0.5916408896446228,-0.617080807685852,-0.21675562858581543,0.9628455638885498,-0.2599171996116638,0.5724850296974182,-0.514192521572113,0.14414085447788239,0.15571198,-0.18687236,-0.2554005,-0.025153443,0.02574547,-0.37502798,0.2399514,0.392488,0.1724188,0.02919517,-0.16268182,0.34377232,0.18972173,0.0026941923,0.060597792,0.10837858,-0.33824646,0.318596,0.27485165,0.079227865,-0.15346542,0.1966906,-0.2476949,0.14744379,0.120084584,0.11736073,-0.02886193,-0.17455027,-0.15977512,0.13584086,0.10429029,0.2661417,0.26223788,0.17776698,0.13361838,-0.0427458,0.04268017,-0.019910134,-0.2820417,0.3665886,-0.0713369,0.06678682,0.060492475,-0.12028433,0.06970418,0.11471805,0.17739414,-0.043298982,0.003122816,0.23507991,0.11172209,-0.24929039,-0.011611127,-0.15619794,-0.40400144,-0.1639286,0.0047028796,0.20074125,-0.12804422,0.18070404,0.07930427,-0.3684194,-0.17785142,0.2424079,-0.047744814,-0.4061933,-0.49588042,0.07819845,0.42465407,-0.0528424,-0.052328024,0.5779887,0.18296868,-0.017318621,-0.033030204,0.22505002,-0.040889822,-0.2891985,0.25568318,0.23596123,-0.07461562,-0.21234241,-0.20772493,0.09985715,-0.27637246,-0.23492353,0.16347003,0.18872829,0.06557402,0.032373272,0.10542936,0.09446394,0.18005158,-0.23287661,0.09231546,-0.09464118,-0.12869583,0.06645522,-0.038230564,0.09203435,0.15277413,0.09223852,-0.24990256,-0.24201342,0.16135839,0.39687058,0.15976591,-0.0945137,0.32161847,0.17285256,-0.0065864753,-0.09749827,-0.30848032,0.084805846,0.49397978,0.097525306,-0.15365677,-0.16196248,0.034556158,-0.040979154,0.4729045,0.119692296,0.13811906,-0.06669862,-0.4625185,0.04619936,-0.055359118,-0.16368073,-0.39537627,0.29864976,-0.0083357785,-0.269254,0.17062056,0.22188516,-0.021284351,-0.290604,0.116201356,-0.37436834,0.017556753,-0.0068154037,0.47430834,-0.17787218,0.19401674,0.2636317,-0.12000798,-0.182515,0.17108928,0.005206359,0.15933043,-0.28185523,-0.098063655,-0.109068826,-0.100904725,0.18344119,0.18286969,-0.21349582,-0.08620761,0.047385287,-0.25678676,-0.089313045,-0.09566659,-0.1087396,-0.31087676,0.25663853,0.24982579,-0.07774342,-0.03598816,-0.41329017,0.18739316,0.14063288,0.49394792,0.04837008,0.041082468,0.26166558,-0.26570737,0.06869163,-0.10328674,-0.21466741,0.020066146,-0.26131198,-0.11534854,-0.039454,-0.3250031,0.18154746,0.052451216,0.06956637,-0.043879617,0.08198317,0.031521406,0.23703752,-0.09419024,0.16968916,-0.102347374,-0.13470346,-0.45821205,-0.19186905,-0.041481216,-0.26464975,0.24437872,0.026333256
BRDN0001485619,-0.5733700394630432,0.3751996159553528,-0.460832417011261,5.026395797729492,0.18081893026828766,-1.620864987373352,0.47885754704475403,-0.3181075155735016,-0.25146836042404175,0.22900079190731049,0.5975873470306396,-0.744423508644104,-0.3002307116985321,-0.4334089159965515,-0.39824044704437256,0.24758373200893402,0.5317248702049255,0.3079589903354645,-0.4090516269207001,-0.332124799489975,0.5824622511863708,0.6232475638389587,-0.23973363637924194,0.3285306394100189,-0.34736117720603943,0.5831894278526306,-1.1570894718170166,-0.29275205731391907,0.29904475808143616,-1.550744891166687,0.44572684168815613,0.4335661232471466,0.9775407314300537,-0.24815286695957184,1.059491515159607,0.35585522651672363,-0.21212337911128998,0.4528050422668457,0.188945010304451,0.6478338241577148,-0.5701358318328857,0.31111153960227966,-0.3548111617565155,-0.30641496181488037,-0.5199925303459167,-2.3077290058135986,-0.08285295218229294,-2.77066707611084,0.5490434169769287,-0.5370795130729675,0.3970683217048645,-0.5215585231781006,-0.3491470515727997,1.1763005256652832,-1.1260946989059448,0.2839317321777344,-0.18212422728538513,1.1303478479385376,0.4077751934528351,0.3022356629371643,0.39474251866340637,0.2175835520029068,0.3580464720726013,0.9380285739898682,0.2583475112915039,0.7315216660499573,0.3279629349708557,-0.5734481811523438,-0.22220374643802643,-0.40205708146095276,0.44036340713500977,0.46988409757614136,0.8449085354804993,0.2906903028488159,-0.08372685313224792,0.6920160055160522,0.46790286898612976,0.33955854177474976,0.26690346002578735,0.39896729588508606,-0.22498589754104614,-0.8687618374824524,0.44449594616889954,0.36056575179100037,0.44072216749191284,-1.9204087257385254,0.6042273044586182,-1.4024858474731445,0.38257521390914917,0.24703146517276764,-0.31611937284469604,0.2563386857509613,0.7104211449623108,0.4460887014865875,-0.38017740845680237,-0.4514988958835602,-0.3499048948287964,-0.2990180552005768,0.633263885974884,0.5734460949897766,0.1631680279970169,-0.37941381335258484,0.29817989468574524,-0.4880638122558594,-0.33801400661468506,-0.44869229197502136,0.3326652944087982,0.7292523980140686,-0.2520712614059448,0.08084152638912201,0.3636130094528198,0.5389050841331482,0.6284822821617126,0.3125103712081909,0.445513516664505,-0.21463094651699066,-0.280441552400589,-0.8455087542533875,-0.38222381472587585,-0.5746006965637207,-0.5050967335700989,-0.4630671441555023,-0.2878764867782593,0.9132450222969055,-0.25772717595100403,0.662004292011261,-0.3585209846496582,0.19745765626430511,-0.4380203,0.06472774,-0.35744098,-0.09439289,-0.34712684,-0.14111412,0.20333953,-0.027679788,0.25671437,0.025894297,-0.070406504,-0.014398404,0.09848547,0.11336289,0.08907171,0.4612906,0.21227881,-0.45154688,0.15554361,-0.028852928,-0.17495757,-0.048023146,0.012190013,0.22970513,-0.40957224,-0.14416225,-0.06921129,0.28888795,0.30170518,-0.4999881,0.3962303,0.06876561,0.30590895,-0.003780953,-0.12335939,0.09117573,-0.13131225,-0.2784569,0.06608044,0.16615121,-0.3297839,-0.037759237,-0.24543265,0.1320689,0.034440804,0.31663373,0.20303465,0.15473026,-0.07471329,-0.19498198,-0.23967361,-0.077024214,0.28174347,-0.08401051,-0.22427672,-0.011581649,0.02252188,-0.21693188,0.3527697,-0.16042332,0.07060079,-0.51599723,-0.17121437,-0.16775148,0.21451874,0.06961987,-0.040929083,0.15839323,-0.09076088,-0.42500082,-0.021730259,0.14224875,-0.004791018,0.21139702,-0.6014175,0.26193497,-0.0054933657,0.27730697,0.22251375,0.20861132,-0.15281393,0.097421154,-0.11618412,0.27752414,-0.1494442,-0.16899319,-0.01723496,-0.18342677,0.35999015,-0.07723561,0.1568881,-0.12255127,-0.4058721,-0.25188527,0.5471295,-0.28486905,0.048672237,0.114166096,0.16069779,0.06583833,0.24974595,0.37633938,0.048780438,0.20186755,0.18989846,-0.2253983,0.02091077,-0.062336676,-0.06135825,-0.23821388,0.19459581,0.40083164,-0.083102584,0.06916519,0.061728362,0.085167795,0.3535357,-0.48060632,-0.003978537,-0.15764666,0.13185075,-0.18351525,0.1539826,0.10158264,0.059932027,-0.014502558,0.23811956,0.38475788,0.04006862,-0.25145772,0.0031078944,-0.2907673,0.24140225,0.0064526238,-0.00012556677,-0.6024574,-0.030859886,-0.035689592,-0.1703482,-0.3816216,0.3734486,0.08829823,-0.11635927,0.29325423,-0.19279605,-0.30540213,-0.026505612,0.29925704,0.060269926,0.22088732,0.18039545,0.16069941,-0.2869266,-0.07193224,0.17319518,-0.12654115,0.05033582,-0.06810689,0.09692279,-0.17085709,0.15323868,-0.12118531,-0.4587744,0.4476122,-0.16617866,-0.15593514,0.17760131,-0.086353846,0.111116186,0.3782711,0.1633966,0.2414929,0.12351899,-0.25054258,-0.23003559,0.09101462,0.2956106,0.20440567,0.21699853,-0.069074936,0.014734044,0.03555508,-0.18580887,-0.0077938796,0.22180168,0.18375765,0.17487875,-0.1736118,0.15311384,-0.25401035,0.14848423,0.28181928,0.20102498,0.13214983,-0.3525911,0.019090794,0.21550247,-0.3830921,-0.2555053,-0.35751334
BRDN0001149518,-0.5387701988220215,0.370685875415802,-0.49560996890068054,5.06648063659668,0.1995038092136383,-1.6218419075012207,0.3956640362739563,-0.23482345044612885,-0.32959768176078796,0.20166267454624176,0.6411550045013428,-0.7189702391624451,-0.4139990508556366,-0.4163277745246887,-0.42850789427757263,0.29586607217788696,0.6016330718994141,0.25102680921554565,-0.34141552448272705,-0.3130108118057251,0.6468597054481506,0.7493156790733337,-0.3228236734867096,0.37958958745002747,-0.21502412855625153,0.4533819854259491,-1.1815794706344604,-0.2360847145318985,0.2937972843647003,-1.4858932495117188,0.26949542760849,0.43401405215263367,0.8393909931182861,-0.09443303942680359,1.0613048076629639,0.4586919844150543,-0.18293513357639313,0.3682814836502075,0.10456860810518265,0.6345434784889221,-0.6212001442909241,0.30225276947021484,-0.30817851424217224,-0.22754861414432526,-0.5738602876663208,-2.228877305984497,-0.14224746823310852,-2.551333427429199,0.4657323658466339,-0.857452392578125,0.44137823581695557,-0.5096622109413147,-0.35537129640579224,1.037450909614563,-1.3640384674072266,0.358981192111969,-0.2699601352214813,1.14827299118042,0.5194205641746521,0.284111350774765,0.3283875286579132,0.03783112391829491,0.3833462595939636,0.8556827902793884,0.3908238708972931,0.7311868667602539,0.338823139667511,-0.6739904284477234,-0.14725570380687714,-0.3953531086444855,0.4291721284389496,0.4901185929775238,0.9257959127426147,0.3183755576610565,-0.19247661530971527,0.5721873641014099,0.469495952129364,0.3879094421863556,0.27316853404045105,0.3641662895679474,-0.36236807703971863,-0.7574887871742249,0.6050021648406982,0.41620761156082153,0.5129966735839844,-2.0774011611938477,0.6094284653663635,-1.308671236038208,0.36601608991622925,0.3254929184913635,-0.21817149221897125,0.27143633365631104,0.6730359792709351,0.5150170922279358,-0.28198501467704773,-0.3438212275505066,-0.43545398116111755,-0.19613002240657806,0.637225329875946,0.5002427101135254,0.23955537378787994,-0.27868345379829407,0.30922800302505493,-0.48445042967796326,-0.19459182024002075,-0.39193516969680786,0.33353838324546814,0.6188790798187256,-0.22856472432613373,0.026342380791902542,0.29561012983322144,0.40566447377204895,0.5586403012275696,0.31807005405426025,0.6085541248321533,-0.36441805958747864,-0.28051939606666565,-0.7669308185577393,-0.3872908651828766,-0.5202556848526001,-0.4373040497303009,-0.5179376006126404,-0.3736341595649719,0.8100816607475281,-0.2466234266757965,0.5068845152854919,-0.4163031578063965,0.04169910028576851,0.15484557,0.1429162,0.13638444,-0.22097565,0.022997772,-0.11065594,0.062318653,0.3966177,0.27232257,0.16067393,0.2666137,0.3150732,-0.19747335,0.33186063,-0.09864377,0.22326797,-0.018356021,-0.1953028,0.05251037,-0.072543606,0.082605764,0.19359648,0.1811492,0.087698676,-0.045433573,-0.1607778,0.18577753,-0.27538514,0.0034353654,0.21171074,0.08972865,0.1174264,0.104946464,0.28469434,-0.0017552665,0.012740437,0.02004118,-0.024350135,-0.031755418,-0.24983948,-0.16920075,0.10478552,0.1259608,-0.1488353,0.10349067,0.23765439,-0.080385,0.15015504,-0.07217812,0.12489857,-0.223807,-0.12626138,0.014562438,0.13158275,0.038097076,0.009228227,-0.12897266,-0.35535067,-0.22491385,-0.061688863,0.008198987,-0.11599955,0.011670582,0.13638072,-0.056544453,0.054015756,-0.1792917,0.17671557,-0.022627553,-0.044365045,0.15954164,-0.23854373,0.022998266,-0.07934715,0.33589274,-0.12617856,-0.00834614,-0.09585424,0.24465138,0.23611853,-0.18139279,-0.19613817,-0.19748391,0.3077254,-0.32782978,-0.32456845,-0.21173286,-0.089759775,0.14252032,0.061383624,0.28525797,-0.1840812,-0.25702843,0.21454076,0.043219533,-0.19596747,-0.10181698,-0.077222645,-0.103328146,0.029667975,-0.32390517,-0.0179702,-0.05926018,-0.070185386,0.29580826,0.1083589,0.033329956,-0.04156007,0.10223069,0.11184598,-0.13117728,-0.10466812,-0.23628156,0.08916415,0.01638243,0.103539765,-0.054782383,-0.29576004,0.22376041,0.045134887,-0.15145679,0.28255302,-0.13338439,0.11213042,-0.11630333,-0.06634679,0.41719717,-0.07437942,0.11831854,-0.15296285,0.15567154,-0.087636,0.09350825,-0.15095314,-0.10982734,0.0007182836,0.14509481,0.09036528,0.010750732,-0.013311877,-0.28613925,-0.14739491,0.14692716,0.26409507,0.35675806,0.20360377,0.14975746,-0.14350921,-0.41420367,0.10264811,-0.33558235,0.099232435,0.16506888,0.1191142,0.117018394,-0.08419146,0.104773626,0.038110103,0.06827325,0.007813074,-0.22137047,0.20034416,-0.13251905,0.103101626,-0.028116394,-0.018073602,-0.20890404,0.02184598,-0.13484432,0.22906145,0.041254897,0.23402701,0.06810615,0.22972633,0.24136312,0.017885737,0.110276155,0.19819047,0.035482418,-0.16684093,-0.010047938,-0.019838184,-0.051365923,-0.19185361,0.019431897,0.26568437,0.1735648,-0.118570864,0.104670525,-0.12867902,-0.13579565,-0.015093338,0.45672357,0.05987279,-0.0015684745,0.19872531,-0.19457522,-0.010028681,-0.24312514,-0.17831229
BRDN0000562836,-0.5979931354522705,0.34589532017707825,-0.5010278224945068,4.886539936065674,0.28060123324394226,-1.726234793663025,0.37904176115989685,-0.2838250398635864,-0.24734662473201752,0.18727445602416992,0.6312730312347412,-0.8595111966133118,-0.24333371222019196,-0.369388222694397,-0.4945988953113556,0.30624035000801086,0.5666863322257996,0.33509892225265503,-0.3952797055244446,-0.22566555440425873,0.6854480504989624,0.55122309923172,-0.27103373408317566,0.3183564841747284,-0.3071751892566681,0.5122050046920776,-1.2218234539031982,-0.27037927508354187,0.42026394605636597,-1.7192364931106567,0.3937220871448517,0.4740356206893921,1.008840560913086,-0.35375306010246277,1.0266332626342773,0.3990074098110199,-0.16075104475021362,0.5255944728851318,0.35608142614364624,0.6066057085990906,-0.5547977089881897,0.15584228932857513,-0.2773403227329254,-0.3321308493614197,-0.4338380694389343,-2.3727288246154785,-0.1591314673423767,-2.590501070022583,0.4560912847518921,-0.6375552415847778,0.4285842180252075,-0.5931436419487,-0.39286068081855774,1.1065001487731934,-1.1432528495788574,0.2896934151649475,-0.1559954136610031,1.0720279216766357,0.587628185749054,0.3973112404346466,0.24686874449253082,-0.05248452350497246,0.4745752513408661,0.9975873827934265,0.45865488052368164,0.6668474674224854,0.29874786734580994,-0.5126670598983765,-0.23572160303592682,-0.4630015194416046,0.4401364028453827,0.4676928222179413,0.7866394519805908,0.41507551074028015,-0.15559454262256622,0.5623517632484436,0.3771609365940094,0.30463969707489014,0.3026997745037079,0.45625755190849304,-0.25637465715408325,-0.8233617544174194,0.5265764594078064,0.4843328595161438,0.511055588722229,-1.9408118724822998,0.5786656737327576,-1.3676596879959106,0.43096134066581726,0.32251644134521484,-0.36980485916137695,0.2686016857624054,0.6387618780136108,0.4143340289592743,-0.27486753463745117,-0.43008336424827576,-0.3562142252922058,-0.34906765818595886,0.5895792245864868,0.5038586854934692,0.28341466188430786,-0.4081719219684601,0.25887295603752136,-0.5316283702850342,-0.2616524398326874,-0.46021461486816406,0.3922828435897827,0.6362400054931641,-0.1771630197763443,0.16068080067634583,0.3183155953884125,0.5311129093170166,0.5732648372650146,0.4552021324634552,0.3204233944416046,-0.1412712186574936,-0.2448248416185379,-0.7871384024620056,-0.4017225503921509,-0.5171785950660706,-0.5213994383811951,-0.5893046855926514,-0.30938541889190674,0.8643426299095154,-0.14911140501499176,0.5642196536064148,-0.4517231285572052,0.21971465647220612,0.25751662,0.2060032,-0.3432095,0.08454982,-0.12908132,0.0700289,-0.26239243,0.08519786,0.6212709,-0.32536018,0.2724883,0.4010377,-0.108830646,-0.19264218,0.1339357,-0.23971118,-0.20150091,0.31856996,-0.048846148,-0.22168231,0.111385345,0.20823155,-0.019896088,0.37172705,0.36045468,0.23562019,-0.22116339,-0.19004986,-0.06739576,0.2683722,0.06276119,-0.033279143,-0.18647262,0.012001019,0.29978538,0.06585393,0.097986996,-0.01688492,-0.033290956,-0.46636853,-0.38196236,0.31353074,0.25497404,0.08892455,0.14503133,0.3344592,0.37287813,0.3021426,0.17663306,-0.3214012,0.12509541,-0.22563182,-0.3505319,-0.018210609,-0.20303321,0.644059,0.06461348,-0.08590523,-0.11257994,0.079327464,0.029231958,-0.0031617223,-0.12005747,-0.17906709,0.06251986,0.178849,-0.21354544,-0.07003405,-0.15410118,-0.22758406,-0.09465844,-0.11633854,0.07394652,0.11489749,0.28574383,0.5278155,-0.46051073,0.07518803,-0.2839516,0.18661591,0.10216775,-0.40054366,-0.18824078,-0.033914212,0.57153136,0.07697445,-0.09187511,-0.058036752,-0.58345574,-0.4139563,-0.1620309,0.24863176,-0.3101847,0.036467556,-0.13770457,-0.12379672,-0.039631955,-0.059043024,0.28451893,-0.053639207,0.46039075,0.07956525,0.11274693,-0.5072257,0.18312559,0.3184034,0.5880348,0.23804276,0.12426874,0.2783382,0.3143847,-0.18291165,-0.031610236,0.19808112,0.057310496,0.3623479,-0.054929864,-0.06269401,0.17405316,0.046225704,-0.25950283,0.19840015,0.10302437,-0.34999943,-0.287545,0.28206336,0.49432167,-0.26043975,-0.52238685,0.0815245,-0.33786118,0.14978452,0.056723524,0.46345934,-0.43901393,-0.23885626,-0.48806375,0.058732975,0.32688037,-0.027432805,0.17336401,-0.23083328,0.11520157,0.33446562,-0.46286973,0.22460105,-0.31183782,0.009120928,-0.009604525,-0.27757704,-0.28352448,-0.025393989,0.36476475,-0.13334133,0.26213726,-0.43341184,0.3255635,-0.03372675,0.52552986,-0.14215416,0.0593698,-0.23920362,-0.47942913,-0.60913485,-0.018404057,-0.41036564,-0.038271904,-0.11884264,0.20383936,0.10227124,0.0003381884,-0.04406795,-0.14422432,0.0315676,-0.20551702,0.20751703,-0.10992354,0.09029056,-0.16785152,0.46819273,-0.041145537,0.05617182,-0.31380615,-0.25182465,0.24845938,0.06676495,0.020431194,0.06702212,0.06728043,-0.33964017,-0.27129054,-0.11264632,0.29802063,0.407215,-0.11123543,-0.0675251,-0.046371646,0.037173796,0.24228999,-0.18883988
BRDN0001483314,-0.6805412769317627,0.3141818940639496,-0.507451057434082,5.106594085693359,0.19221998751163483,-1.7163268327713013,0.35807374119758606,-0.26945874094963074,-0.2736591100692749,0.2231602668762207,0.6500760912895203,-0.8618833422660828,-0.3830007314682007,-0.35686710476875305,-0.48267823457717896,0.3456888496875763,0.5566748976707458,0.22435539960861206,-0.43755289912223816,-0.2999221980571747,0.5147640109062195,0.6261582970619202,-0.27724123001098633,0.3314948081970215,-0.275190144777298,0.5045003294944763,-1.0943230390548706,-0.1823004186153412,0.23645463585853577,-1.4390085935592651,0.4311906695365906,0.47486764192581177,0.8997440934181213,-0.25925731658935547,0.9989109039306641,0.389064222574234,-0.17762909829616547,0.5074766278266907,-0.20084229111671448,0.7044108510017395,-0.5937178134918213,0.2740592658519745,-0.31171587109565735,-0.401734322309494,-0.4795937240123749,-2.337528705596924,-0.09601333737373352,-2.5973141193389893,0.5250309109687805,-0.6775190234184265,0.43763017654418945,-0.5080640316009521,-0.17944373190402985,1.060965657234192,-1.1241589784622192,0.2764141261577606,-0.21082520484924316,1.096073031425476,0.5548031330108643,0.33028480410575867,0.32229307293891907,-0.04041774570941925,0.38306131958961487,0.9515479803085327,0.35830309987068176,0.5551283359527588,0.39204108715057373,-0.5445931553840637,-0.18638215959072113,-0.44605281949043274,0.2953718304634094,0.4777880609035492,0.883139431476593,0.4656619131565094,-0.21900242567062378,0.6406024694442749,0.5368581414222717,0.4444669485092163,0.21445931494235992,0.3046778440475464,-0.3982710540294647,-0.8086878061294556,0.47144806385040283,0.44627630710601807,0.4765782654285431,-2.105161666870117,0.5309362411499023,-1.3264788389205933,0.4092699885368347,0.33983907103538513,-0.1790974885225296,0.3603054881095886,0.6234332323074341,0.5324830412864685,-0.24367137253284454,-0.2812938392162323,-0.3642173111438751,-0.2625659704208374,0.635976254940033,0.5085513591766357,0.11291270703077316,-0.30998751521110535,0.4356221854686737,-0.41651564836502075,-0.22205887734889984,-0.49195945262908936,0.3230898082256317,0.7519763708114624,-0.3156856596469879,0.015897609293460846,0.4045526683330536,0.4828161299228668,0.6040878295898438,0.5287440419197083,0.42650508880615234,-0.20797863602638245,-0.20161519944667816,-0.7724498510360718,-0.41442519426345825,-0.46027472615242004,-0.6237542629241943,-0.6171078085899353,-0.22270728647708893,0.9156615734100342,-0.2376379519701004,0.41532066464424133,-0.47986850142478943,0.15774966776371002,-0.3183688,-0.069659024,-0.39587402,-0.337692,-0.42195675,-0.3076335,-0.2903951,-0.16567963,0.0862421,-0.055074695,0.17888856,0.009298141,-0.10281145,0.12886363,-0.06754164,0.11530759,-0.1300953,-0.35142872,-0.046884455,0.19863133,0.07848688,-0.18060714,-0.28117508,-0.06381811,0.050052885,0.06869775,-0.012834727,0.20388749,0.3457857,-0.15930858,0.4182384,0.4639922,0.066458166,0.16934846,-0.021010851,-0.37858123,-0.13673061,-0.05052945,0.32452893,0.26474875,-0.014256086,0.0952077,-0.18213508,-0.13065046,-0.16460447,-0.10181736,0.35635072,-0.21462312,0.2727829,-0.043092728,-0.13771868,0.46407813,0.40919587,0.1856072,0.019858146,0.083460964,-0.17222936,-0.088764176,-0.072832815,-0.37768418,-0.04732388,-0.5075196,-0.1119636,0.062137954,-0.3241388,-0.14770709,-0.0151360575,0.080626965,0.50010395,0.054938436,0.2014238,-0.24813746,-0.07810393,0.34939888,-0.06880227,-0.1941293,-0.110971004,0.1256037,0.06070786,0.4686506,0.20370798,-0.051490944,-0.29858845,0.32273358,-0.014409497,-0.38523084,-0.11728891,-0.22914222,-0.29347965,0.040139537,-0.21176325,-0.2241538,-0.1261851,0.25712168,-0.02444728,0.11565219,0.07000134,-0.13882418,-0.2379672,0.25195426,-0.13251832,-0.11225423,-0.03850406,-0.09730873,0.16066214,0.043387145,0.5044168,-0.07562072,-0.2937661,0.36091095,0.21198596,-0.19416516,-0.1311971,0.04112499,0.50885665,0.38666126,-0.042228695,0.31643355,0.008638244,0.11392943,0.18197195,0.41578597,0.041894693,0.36937457,0.056936864,-0.022569856,0.06707468,-0.2974269,-0.15022542,-0.12217322,-0.35925213,-0.093722254,0.07499355,0.27615637,-0.008388847,-0.124876946,0.2341952,0.1247258,0.3116589,0.30975333,0.37413353,-0.021452466,-0.003716622,0.16121437,-0.11347299,0.02021379,0.22836567,0.056092992,0.003094301,-0.10916272,-0.10869394,-0.10558448,0.008201611,-0.047141913,0.50276536,-0.02389818,0.07091562,-0.00029372578,-0.27361062,-0.078749076,-0.10948242,-0.007338563,0.11050555,-0.110131614,-0.3048763,-0.13788278,0.19964257,-0.37093878,-0.029509826,0.21432127,-0.1589585,-0.1301463,0.3525851,-0.04055392,-0.0005807882,-0.097508356,-0.5541186,-0.14057684,0.41988322,0.12453505,-0.32547033,0.09686963,0.20300096,0.008386686,0.17245592,-0.06955466,0.25535744,0.35323432,-0.2809733,-0.21036378,0.20325653,-0.022682892,0.24867149,0.2926704,0.08393308,-0.06476238,-0.04119438,-0.008769211,-0.3133296,0.20175375
BRDN0001484659,-0.5777409076690674,0.36498337984085083,-0.4637913405895233,5.064950942993164,0.2191239446401596,-1.7302451133728027,0.33433282375335693,-0.319105863571167,-0.19195662438869476,0.24220280349254608,0.6729769110679626,-0.8479211926460266,-0.3298541009426117,-0.44670867919921875,-0.5053932666778564,0.3449433147907257,0.5384816527366638,0.2786480188369751,-0.3238358199596405,-0.24961203336715698,0.6511464715003967,0.6645470261573792,-0.17304648458957672,0.16500712931156158,-0.3252194821834564,0.4493444561958313,-1.175166130065918,-0.27200043201446533,0.30812159180641174,-1.664246678352356,0.1896434724330902,0.5106089115142822,1.02141535282135,-0.18169474601745605,1.0239142179489136,0.3464796841144562,-0.28946006298065186,0.5568764209747314,0.3817997872829437,0.6793912053108215,-0.5297946929931641,0.15753382444381714,-0.19748367369174957,-0.3698641061782837,-0.6115576028823853,-2.3580801486968994,-0.2006189376115799,-2.595258951187134,0.4068678021430969,-0.5825857520103455,0.46018093824386597,-0.6145901083946228,-0.38549235463142395,1.1021320819854736,-1.2320269346237183,0.2340782731771469,-0.1763906329870224,1.2376987934112549,0.4730317294597626,0.3615851402282715,0.26564663648605347,0.29068171977996826,0.4923895001411438,0.9504557251930237,0.37997281551361084,0.6743752360343933,0.3183353543281555,-0.5479686260223389,-0.23833313584327698,-0.4191732406616211,0.46943628787994385,0.5180108547210693,0.7906652092933655,0.3985341787338257,-0.14195387065410614,0.5615747570991516,0.3643365204334259,0.31592366099357605,0.3644460439682007,0.4610461890697479,-0.34557440876960754,-0.8520990014076233,0.5419946908950806,0.5005929470062256,0.5131241083145142,-1.951818585395813,0.6179973483085632,-1.4391459226608276,0.39044439792633057,0.25050273537635803,-0.21094363927841187,0.2744174301624298,0.6369022130966187,0.5086894035339355,-0.2404557168483734,-0.467673122882843,-0.375475138425827,-0.3216390311717987,0.664016604423523,0.5054216980934143,0.27227240800857544,-0.4561445415019989,0.2260170429944992,-0.4919046461582184,-0.28711068630218506,-0.30148884654045105,0.41108620166778564,0.6420908570289612,-0.19063888490200043,0.1373605877161026,0.2552270293235779,0.5237805247306824,0.5814724564552307,0.10636553168296814,0.4158029556274414,-0.11934050917625427,-0.2763003408908844,-0.8242278695106506,-0.37713858485221863,-0.5387928485870361,-0.5813028216362,-0.5814510583877563,-0.1828863024711609,1.0079096555709839,-0.2420666664838791,0.552664041519165,-0.3359678089618683,0.055932220071554184,0.37146312,-0.07277029,0.07243638,0.40368298,0.249183,-0.08473056,0.15866941,0.48441365,0.4466126,-0.025659503,0.0065741064,0.48468533,-0.22707342,0.4296657,-0.1900996,-0.3212824,-0.12467628,-0.26819333,-0.038178783,0.011225657,0.04733651,-0.009333594,0.18736611,-0.15392764,-0.013509218,0.25465155,0.14179124,0.123461485,0.5154002,0.34297878,-0.050896574,-0.014650537,-0.13790452,-0.044919487,0.11547435,-0.15284897,-0.3028868,0.14259997,-0.300269,0.019893937,0.19508322,0.089193486,-0.03504999,-0.3018028,-0.10978062,-0.041683182,-0.3874089,-0.25633988,-0.19439965,0.29797497,-0.02104473,-0.13400193,0.1184754,-0.28375652,0.09414969,0.45255014,-0.15344135,0.0517892,-0.3728868,-0.273116,-0.102209374,-0.10893337,0.13152325,-0.08179245,0.09726226,0.1705688,0.11389733,0.14524868,-0.2602777,-0.46255785,0.25584707,0.08388588,0.22409193,-0.50904465,-0.23456363,-0.00849054,0.07751719,-0.22441556,-0.13452409,0.09591019,-0.14445975,0.16189438,-0.096492656,-0.012806469,0.07192493,0.14864397,-0.17458387,-0.42587814,0.1527386,-0.3557522,0.09476014,-0.23569956,-0.0071890275,-0.17148957,-0.04542733,-0.10721037,-0.024275007,0.2347964,-0.07161821,-0.19163804,0.32211608,0.016056087,-0.1871441,-0.4085471,0.025876965,0.023539389,0.49381283,-0.028768519,0.13233122,0.12319653,0.1153271,0.070479155,-0.27756268,0.23051095,0.025552148,0.029151546,0.081520826,-0.0712435,-0.00022172874,0.10875912,-0.33353147,0.35917407,-0.14063115,-0.30387452,-0.2468256,-0.052899037,-0.0063138097,-0.11276324,-0.13831788,0.20192227,0.14050117,-0.3698016,0.4307399,0.41997692,0.3694485,-0.07916503,0.18649326,0.4313724,-0.29646358,0.116433054,0.308883,-0.0795708,0.32992876,-0.029514927,0.2517245,0.25587294,-0.08567226,-0.37217066,-0.08256059,-0.24545966,-0.13770962,-0.11796797,0.3125553,0.099632435,-0.11021912,-0.38406262,0.32262033,0.1702766,0.3584789,-0.10112555,0.040856406,0.25802886,-0.08804782,-0.32726115,0.31336918,-0.53859717,0.11988307,0.07754344,0.048771992,-0.15289293,0.11648894,-0.08056916,-0.3524833,0.13958165,0.21253733,0.081655644,-0.26651427,0.25729528,-0.058950804,0.12547933,0.10940363,-0.08343738,0.17893909,-0.21568944,0.1585192,0.5752062,-0.1625799,0.069400355,-0.014976526,-0.419077,-0.10546719,-0.01051885,0.1903354,-0.060872726,-0.13319486,-0.11285596,0.060516592,0.24229757,0.17833397,-0.17571226
BRDN0001487070,-0.6600833535194397,0.3659524917602539,-0.6282296776771545,5.079075336456299,0.23929929733276367,-1.690977931022644,0.46537286043167114,-0.28274717926979065,-0.19912214577198029,0.11807812005281448,0.5916169285774231,-0.7648986577987671,-0.3322310149669647,-0.43855971097946167,-0.3751291036605835,0.30759844183921814,0.505744218826294,0.2786096930503845,-0.4227560758590698,-0.31107914447784424,0.6645269989967346,0.6933227181434631,-0.26326364278793335,0.17064279317855835,-0.360175222158432,0.49031779170036316,-1.1919394731521606,-0.20368170738220215,0.3646983206272125,-1.6174331903457642,0.3444041609764099,0.49073895812034607,0.9815924167633057,-0.30207955837249756,0.9485687017440796,0.4205297529697418,-0.26540708541870117,0.5074921250343323,0.18164585530757904,0.6849513649940491,-0.4548693895339966,0.24259494245052338,-0.29617398977279663,-0.3320194184780121,-0.43353378772735596,-2.3061318397521973,-0.13724420964717865,-2.533111810684204,0.49753686785697937,-0.48006361722946167,0.5499156713485718,-0.5264711976051331,-0.19734854996204376,1.072845697402954,-1.2413612604141235,0.21839609742164612,-0.14339658617973328,1.116599440574646,0.44643986225128174,0.3706064224243164,0.22590337693691254,0.020551348105072975,0.4545535147190094,1.032509207725525,0.30229127407073975,0.6343355178833008,0.34318187832832336,-0.5788355469703674,-0.2618005573749542,-0.36851879954338074,0.4851903021335602,0.496725857257843,0.8762792944908142,0.363130122423172,-0.15057453513145447,0.553371250629425,0.3953119218349457,0.3308095633983612,0.261004239320755,0.4777682423591614,-0.41766443848609924,-0.9409903883934021,0.42385193705558777,0.4131157100200653,0.5450040698051453,-2.1612932682037354,0.7193199992179871,-1.317884922027588,0.4187173843383789,0.32329317927360535,-0.20206059515476227,0.36205288767814636,0.6143878102302551,0.31395402550697327,-0.2952975928783417,-0.40925294160842896,-0.3927067816257477,-0.36836615204811096,0.6235343217849731,0.47753360867500305,0.21735745668411255,-0.4072361886501312,0.3237966001033783,-0.42747554183006287,-0.25523871183395386,-0.4071159362792969,0.3828681707382202,0.590302050113678,-0.25539132952690125,0.10486741364002228,0.2905891239643097,0.5537011623382568,0.6503928899765015,0.309849351644516,0.5118699669837952,-0.048749204725027084,-0.254139244556427,-0.9113020300865173,-0.36094093322753906,-0.4981183111667633,-0.6669320464134216,-0.5612474679946899,-0.2454426884651184,0.9727148413658142,-0.20477157831192017,0.5665749311447144,-0.539592981338501,0.18337583541870117,-0.07756486,0.22980542,0.01520607,0.1141855,0.09795013,0.070572,0.29977602,0.2772366,0.107832186,-0.2276938,0.12912402,0.16293852,-0.29323435,0.13918906,0.45774192,-0.123570316,-0.16383265,-0.21591374,0.08551906,-0.30550757,-0.27256608,-0.13556325,-0.03989408,0.02690329,0.11314353,-0.22011718,-0.022045793,-0.07065322,-0.35292438,0.3684972,0.14417192,0.008318944,-0.28536168,0.045715116,0.24456972,-0.124940634,-0.28017178,0.13300754,0.0045257593,-0.43268538,-0.15636565,0.12377129,0.0455578,-0.26333272,0.40805936,0.06658931,0.118132174,0.23896411,-0.043318078,0.35714543,-0.2710658,-0.38361025,-0.03973719,0.34279346,0.12300969,0.37929386,0.037098993,-0.018965842,-0.44711626,-0.051701766,0.0736434,-0.17516997,0.25239527,-0.4126979,-0.24901551,0.12218317,0.10851653,0.09473376,-0.23162909,-0.07516699,-0.021313893,-0.19878145,0.16591288,0.34152266,-0.033041246,-0.15929347,0.1450039,-0.20347118,-0.2622047,0.117328964,-0.20345016,-0.17034617,-0.04770416,-0.115973085,0.6421817,-0.17038253,-0.1799148,-0.12502909,-0.19319382,-0.23363817,0.25937873,-0.1380297,-0.5908126,-0.043016065,-0.057897855,-0.23705274,0.10211564,-0.09079026,0.31851846,-0.25585797,0.013980387,-0.05281228,-0.34152254,-0.268705,-0.059830014,0.1038003,0.3047669,0.019066488,-0.07411256,0.06176853,0.28414616,-0.14784296,-0.63988024,0.0139515065,0.08626464,0.053827982,-0.06556775,-0.22003797,0.36627993,-0.06680245,-0.469454,0.42643473,0.05217785,0.22567557,0.070902936,-0.028334212,0.19229224,0.44086808,-0.112702936,-0.15838067,0.059969578,-0.12584174,-0.10000023,0.083674714,0.40575227,0.014328338,-0.5566481,0.22563757,0.28318292,0.2074554,0.034599442,0.17458822,0.12032716,0.074565135,0.15814918,0.05200176,-0.08637991,-0.5435664,-0.033977292,-0.11743554,-0.28256834,-0.020272007,0.15280356,-0.028227562,0.038335353,0.0980706,0.3395624,-0.0077680084,0.004818803,0.2206961,0.39618766,-0.31070364,-0.018578343,-0.30445954,0.35569298,0.02144123,-0.727278,0.12885278,0.34711123,0.10519927,0.048458107,0.34755868,-0.17962511,0.49189875,-0.515882,0.20596455,-0.34410915,0.29101557,0.027360806,-0.029194962,0.07829534,-0.08616991,0.27718902,0.24479656,0.33885193,0.0653906,0.2643754,-0.21104902,0.080673516,-0.2599805,-0.1858321,-0.061865292,-0.109718494,0.32523105,-0.47744983,0.2140789,-0.23293339,-0.19589332,0.21744916,-0.2471948
BRDN0001486718,-0.6823483109474182,0.2846958041191101,-0.6079545617103577,5.175565242767334,0.3816715478897095,-1.6619149446487427,0.3223101794719696,-0.20659412443637848,-0.40165433287620544,0.18937435746192932,0.633888840675354,-0.766964316368103,-0.2723892033100128,-0.39059630036354065,-0.5052539110183716,0.2860385775566101,0.5927717685699463,0.35533663630485535,-0.4406152069568634,-0.2679753303527832,0.7308251857757568,0.5790235996246338,-0.3817574381828308,0.4248104393482208,-0.20192740857601166,0.4860297441482544,-1.2592453956604004,-0.20542174577713013,0.29064518213272095,-1.6839661598205566,0.437996506690979,0.46138831973075867,0.8537309169769287,-0.4601650536060333,1.0424338579177856,0.4993226230144501,-0.20842643082141876,0.7324350476264954,-0.14493733644485474,0.661733090877533,-0.4934731721878052,0.20353955030441284,-0.3986538052558899,-0.4176865518093109,-0.4037530720233917,-2.173340320587158,-0.062737837433815,-2.6766140460968018,0.39107903838157654,-0.6456195116043091,0.4097590148448944,-0.5522590279579163,-0.24840809404850006,1.331532597541809,-1.2054294347763062,0.15260463953018188,-0.18138641119003296,1.0160059928894043,0.6840018630027771,0.39486896991729736,0.33952492475509644,-0.024494094774127007,0.3308360278606415,1.001041293144226,0.44909095764160156,0.6597606539726257,0.4097362458705902,-0.6324333548545837,-0.20454192161560059,-0.46842116117477417,0.36737897992134094,0.4308736026287079,0.9011858105659485,0.4215775430202484,-0.23595763742923737,0.4921683371067047,0.48792019486427307,0.3698190450668335,0.2082926630973816,0.37466126680374146,-0.30429208278656006,-0.9188232421875,0.4984748959541321,0.37829044461250305,0.44228649139404297,-2.1312944889068604,0.6532737612724304,-1.303877592086792,0.46807774901390076,0.34327173233032227,-0.19143293797969818,0.33737921714782715,0.49931570887565613,0.3838430643081665,-0.3426729440689087,-0.3072497546672821,-0.5742672085762024,-0.3720664083957672,0.6210054159164429,0.5850883722305298,0.3292801082134247,-0.34923654794692993,0.3632899224758148,-0.370360404253006,-0.15364108979701996,-0.4780896008014679,0.3777935206890106,0.6772476434707642,-0.27630913257598877,0.05495868995785713,0.4126127362251282,0.5909494161605835,0.526069700717926,0.3705434799194336,0.5378328561782837,-0.35496389865875244,-0.09987767040729523,-0.8509827256202698,-0.35847628116607666,-0.6558018922805786,-0.6152557730674744,-0.6573196649551392,-0.21695969998836517,0.8564971685409546,-0.263543963432312,0.6164215207099915,-0.4547894299030304,0.29348838329315186,-0.39038482,-0.13676143,-0.26634213,0.23648551,0.065956526,-0.044888917,0.087420404,-0.2775427,-0.08217634,0.030697655,0.066707045,-0.040784333,-0.026999982,0.530999,-0.014902095,0.3665827,0.11860758,-0.18175632,0.39315337,-0.19096553,-0.16640559,-0.24533246,0.086258076,0.45840424,-0.16130961,-0.052915275,0.24718982,0.06724771,0.24247026,0.029266248,0.26320025,0.0076879812,0.042386092,-0.18777898,-0.018134002,0.14439534,-0.21401516,0.12020785,-0.13775466,0.16366026,-0.2779225,0.09076641,-0.103538,-0.23742619,-0.0127191385,0.23741664,0.34954897,-0.119094975,-0.10361682,-0.17775539,-0.10901599,-0.374492,0.17468263,0.18573037,-0.19109814,-0.04464089,-0.17360863,-0.061761506,0.36718634,-0.2240952,0.033170536,-0.2825716,-0.4635921,-0.1479458,0.3185096,0.4452343,0.41976508,-0.114258654,0.0065791365,-0.30615994,-0.08196109,0.1410975,0.17634524,0.19152535,0.04540001,0.0040227775,0.28557214,0.36456776,0.33743203,0.12193459,-0.09507335,0.011260475,-0.44326618,0.050123047,-0.5266112,-0.42301917,-0.019168118,-0.1054478,0.05872602,0.30103165,0.18438992,-0.2904246,-0.158897,0.07138468,0.38685483,-0.36172712,0.030667681,-0.019564288,0.01883094,-0.07490007,-0.20745566,0.47395173,0.13456754,0.08179553,0.11853593,-0.15051726,0.2380257,0.11427346,0.24362482,-0.3140614,0.10897079,-0.044146247,0.14077163,-0.18573143,0.09672033,0.5903515,-0.0004919159,-0.20335561,0.1866267,-0.46043423,0.12571076,-0.032620277,0.21472982,0.26308694,-0.109971486,0.18727082,0.11621317,-0.45287287,0.11968711,0.32004675,0.013671172,-0.3638661,0.02955264,-0.08840267,-0.19625488,0.26275927,-0.3181979,0.11371962,0.22686677,-0.4623201,0.0061899847,0.03533546,-0.15617007,0.4998344,-0.0031824438,0.15150665,-0.15595837,0.19693865,0.002592324,0.15271376,-0.1018884,-0.09486586,-0.2310866,0.37165633,0.17059954,-0.31406805,0.073430784,0.13686521,0.05192985,0.011328543,-0.068004824,-0.07782408,-0.17505464,0.114906736,-0.26549897,-0.19468261,0.18158317,-0.205393,0.042257097,0.28782046,0.036718328,0.27549183,0.28802443,0.010055404,0.2085927,0.060729027,0.31071946,-0.038906984,0.2223191,-0.42845905,0.16206971,-0.12002978,-0.09154853,0.15435378,0.10648285,0.12544134,0.69564176,0.1261281,0.15343136,-0.035454087,0.19108973,0.5220258,0.31653285,0.1521284,0.27466246,0.024689618,0.14860138,-0.16705905,-0.21430323,-0.053468246
BRDN0000990412,-0.6501620411872864,0.3209543228149414,-0.370559424161911,4.7934651374816895,0.38901302218437195,-1.6850731372833252,0.44645312428474426,-0.24747489392757416,-0.34254521131515503,0.1697721630334854,0.5714961886405945,-0.6172164678573608,-0.2256726324558258,-0.37346509099006653,-0.38436782360076904,0.2452004998922348,0.5754981637001038,0.38426294922828674,-0.3563177287578583,-0.22570419311523438,0.6941359043121338,0.5863593220710754,-0.31010544300079346,0.17669600248336792,-0.26409465074539185,0.47949573397636414,-1.169143795967102,-0.3061659038066864,0.30669906735420227,-1.7918422222137451,0.24853350222110748,0.41863372921943665,1.1028265953063965,-0.32094496488571167,0.8817336559295654,0.4444338083267212,-0.15309636294841766,0.7536097168922424,0.4288175702095032,0.5540650486946106,-0.48985064029693604,0.23858194053173065,-0.267455130815506,-0.4621843099594116,-0.41758832335472107,-1.9660643339157104,-0.11637380719184875,-2.425452470779419,0.2397899478673935,-0.6379021406173706,0.4105418026447296,-0.6143394112586975,-0.5575218796730042,1.2803670167922974,-1.2565077543258667,0.25691911578178406,-0.12850123643875122,1.0404776334762573,0.7286415100097656,0.3469533324241638,0.22591757774353027,0.1717744916677475,0.3509509861469269,0.8835350275039673,0.5066149234771729,0.5991873145103455,0.21766982972621918,-0.5510525107383728,-0.34483206272125244,-0.4663800299167633,0.3261474072933197,0.428009957075119,0.9545873999595642,0.4097916781902313,-0.22030054032802582,0.618897020816803,0.19610944390296936,0.21004797518253326,0.26532137393951416,0.4140820801258087,-0.4012678861618042,-0.7643665075302124,0.4952116906642914,0.42123591899871826,0.5419661998748779,-2.0984854698181152,0.6446133255958557,-1.1936932802200317,0.4163019359111786,0.27758002281188965,-0.2361605018377304,0.3334975242614746,0.6917025446891785,0.4020747244358063,-0.2713877260684967,-0.1966044008731842,-0.4661613702774048,-0.370319664478302,0.5479611158370972,0.36442452669143677,0.25877517461776733,-0.3716578781604767,0.3790871500968933,-0.43916675448417664,-0.25485584139823914,-0.44264280796051025,0.4511078894138336,0.6384115815162659,-0.25520089268684387,0.16643886268138885,0.3192514479160309,0.640540599822998,0.4814024865627289,0.19186283648014069,0.23798590898513794,-0.18095283210277557,-0.021069427952170372,-0.7818723917007446,-0.4547155499458313,-0.49272164702415466,-0.6901113390922546,-0.9087851047515869,-0.18794454634189606,1.0392247438430786,-0.2815062701702118,0.47924861311912537,-0.3727855384349823,0.11711911857128143,0.09207264,0.16494462,-0.37605754,0.033948738,0.02785719,0.027544342,0.3074478,0.0036787933,0.07576743,0.120963365,-0.27207592,-0.17728129,-0.17833441,0.11642201,0.06340843,-0.097148165,0.16476087,-0.39711207,-0.10960241,0.30738637,0.04670388,-0.1437069,-0.013815177,0.19684687,-0.31517154,0.089638405,-0.0735622,0.24998476,0.24488933,-0.43741456,0.15890607,-0.065316014,-0.21998791,-0.18288654,-0.07950211,0.24971247,-0.31693143,0.026246337,-0.09940513,-0.03811785,-0.28198582,0.33703047,-0.23746516,-0.18026629,0.2696033,0.06768458,0.024982572,-0.26376098,0.006013095,-0.041693255,0.09044755,0.04453357,0.15090512,-0.20463258,0.45207903,0.12398574,-0.1769078,-0.2744184,-0.27141365,0.11642313,0.1937706,-0.35866588,0.38535023,-0.13228779,0.049697973,-0.010910605,-0.28242415,0.19005933,0.14180045,-0.053608205,0.33273727,-0.3552042,0.4674259,-0.15298717,-0.10152056,-0.053739067,0.10445941,-0.18347141,0.31022373,0.45371196,-0.03026616,-0.2173591,-0.10966124,0.27006808,-0.3497148,0.09840281,-0.21309398,-0.14712068,0.07650495,-0.22555794,0.20170952,-0.28241226,-0.4382606,-0.0055511855,0.18043397,-0.28101403,0.24623586,0.12803996,0.188777,0.06950016,0.27786094,-0.25447145,-0.15875919,-0.29883128,-0.12898988,-0.18738449,0.063939184,0.03478597,0.05828515,-0.27469745,-0.021356778,-0.091835715,-0.17189927,-0.28116575,0.29236665,-0.41065475,-0.025416914,-0.34898838,0.18517107,-0.18842492,-0.16394846,-0.24380715,0.16536768,-0.1619665,-0.08698629,0.036975816,0.24627551,-0.12620094,-0.2751161,0.13245253,-0.3284269,0.04280003,0.36555037,0.22233796,-0.24226825,-0.44069532,0.10510324,-0.23305783,0.14059657,-0.08277902,0.10677031,0.089378566,0.06313453,0.13107237,0.072719574,0.37386775,0.18950799,0.3750167,-0.22128245,0.28892022,-0.079256564,0.22371721,0.023799555,0.17306894,-0.08563533,-0.10320392,-0.23813897,0.4924024,0.14683546,-0.16545041,-0.26714745,0.073649995,0.098956585,-0.17166428,0.09104549,-0.45787266,-0.24009608,-0.18987614,0.18758814,-0.09374468,0.10603057,-0.08319061,0.11398239,0.022368185,0.111574456,-0.08234462,-0.19700797,-0.31645474,0.15899523,-0.22215012,0.25050277,0.09659,0.10877512,0.17432475,0.011209437,0.3692789,0.28035864,0.23281433,0.2453797,0.23652169,-0.0868035,0.37510812,0.30041093,-0.024162024,-0.17709474,0.082449645,0.19419096,-0.46627617,0.024658447,0.31048977
BRDN0000562944,-0.6030293107032776,0.36777058243751526,-0.4722207188606262,4.927261829376221,0.18495382368564606,-1.6659164428710938,0.5014928579330444,-0.2263142168521881,-0.24994681775569916,0.22490505874156952,0.6338710188865662,-0.7764955759048462,-0.28306761384010315,-0.4877789318561554,-0.43591544032096863,0.31501609086990356,0.6027724742889404,0.2973436415195465,-0.3702227473258972,-0.2900666296482086,0.5852205157279968,0.7099296450614929,-0.23534367978572845,0.2485130876302719,-0.33204957842826843,0.48085835576057434,-1.2587355375289917,-0.24975381791591644,0.35542523860931396,-1.5832804441452026,0.3207133412361145,0.4730675518512726,0.9944495558738708,-0.26693496108055115,1.1152931451797485,0.377996563911438,-0.2648235559463501,0.5797867178916931,0.21746569871902466,0.6615198254585266,-0.5507735013961792,0.2932945489883423,-0.2928595542907715,-0.26122912764549255,-0.4657362997531891,-2.387737512588501,-0.1596168726682663,-2.636401414871216,0.46624746918678284,-0.5935061573982239,0.4168514013290405,-0.5126757025718689,-0.37976691126823425,0.9946533441543579,-1.1454119682312012,0.2516637146472931,-0.22967906296253204,1.207618236541748,0.488984614610672,0.35066893696784973,0.2912331223487854,0.18348436057567596,0.4371495246887207,0.9780375957489014,0.3363460600376129,0.7191606163978577,0.3673132061958313,-0.49039900302886963,-0.24120642244815826,-0.37157103419303894,0.4502338171005249,0.5074597001075745,0.7783967852592468,0.35359275341033936,-0.10591800510883331,0.6717798113822937,0.4028083086013794,0.28488853573799133,0.333687961101532,0.4836234152317047,-0.4408753514289856,-0.8311808109283447,0.5877721905708313,0.37171661853790283,0.4868043065071106,-2.059506416320801,0.5291606187820435,-1.3551032543182373,0.3653808534145355,0.3128608763217926,-0.2885908782482147,0.34506043791770935,0.7055218815803528,0.43008944392204285,-0.2667009234428406,-0.4241752624511719,-0.39700090885162354,-0.22383886575698853,0.577603280544281,0.5204184651374817,0.19336266815662384,-0.41400089859962463,0.28943932056427,-0.5176188349723816,-0.2504626512527466,-0.3594861626625061,0.33318331837654114,0.630736768245697,-0.2726232707500458,0.08577235788106918,0.33946406841278076,0.5125226378440857,0.6072497963905334,0.14775989949703217,0.47731906175613403,-0.16616572439670563,-0.38663581013679504,-0.8758085370063782,-0.43335190415382385,-0.4414117932319641,-0.5338658690452576,-0.5286489725112915,-0.23176957666873932,0.8340002298355103,-0.17312534153461456,0.6652668714523315,-0.5297797918319702,0.06524503231048584,0.18736878,0.04639513,0.085890494,-0.23371856,0.07006489,-0.17209351,0.24392325,0.36703277,0.8403254,-0.19699775,0.13669273,0.11563061,-0.3479785,0.5438893,0.14212833,-0.093896486,-0.10086877,-0.1933462,-0.13556702,0.13044345,-0.30443498,-0.04006986,-0.040693864,-0.010965255,0.12460942,0.093827635,0.19673087,-0.20956284,0.18461968,-0.19504993,-0.2366643,0.031271443,-0.25729886,0.07641919,0.35820568,0.12601414,0.1472946,-0.310201,-0.34089172,0.03698764,0.24269074,-0.26121297,0.17090331,0.32225627,0.047349285,-0.1714239,-0.1608649,0.01672526,-0.11032748,-0.07984386,0.09419294,-0.10402553,0.38310325,-0.015101166,0.16401663,0.23472853,-0.55079466,-0.17817499,-0.13378596,-0.28097597,-0.3186295,0.028451549,-0.004317199,0.0895214,-0.050495245,0.2646038,-0.38994026,0.20403604,0.1588374,-0.14712957,-0.035120092,0.26555935,0.080488466,0.17048809,0.17696063,-0.11892124,-0.13913131,0.16474944,-0.28391913,-0.44714028,0.2857337,-0.31069025,-0.33696303,-0.25524822,0.40251786,-0.19241962,0.03846246,-0.28117615,0.034153625,0.11729335,0.10834023,-0.33946759,-0.114099376,-0.040679686,0.08770247,-0.05719406,-0.0662715,-0.0048143594,-0.037910163,-0.0016406068,-0.4767387,-0.020947054,-0.55087996,-0.20654963,0.43578318,-0.08545356,0.4902784,0.04522067,0.18077074,-0.19061701,0.339109,-0.06860114,-0.31631362,-0.04087074,0.52154416,-0.08448303,-0.22773913,-0.45987612,-0.27269012,-0.12159887,-0.106193535,0.01513638,0.538899,0.33061472,0.3726386,-0.2006204,0.20488203,-0.045736473,-0.2964374,-0.31075874,0.27166435,-0.2967042,-0.100290336,0.3325046,-0.2809735,0.25287348,0.021025373,0.06723751,0.07000501,-0.23887469,0.3168323,-0.19620787,0.15552245,-0.017120851,0.015297378,-0.09686409,-0.4529979,-0.13603823,-0.20139356,-0.43092865,-0.33093524,-0.27376312,0.26650995,-0.23873217,0.18414436,-0.1107718,-0.05401008,-0.33683488,-0.026915537,0.041029856,-0.048372805,0.1821089,-0.25553107,0.026893578,0.20877635,0.08612478,-0.11502544,-0.13746321,0.26017144,0.3042338,-0.08566941,0.4959171,0.0566483,0.4112536,0.282155,-0.012596804,0.0406479,-0.20602147,-0.042797573,0.05238245,0.10157289,0.058290575,0.005478896,-0.19906752,0.050744027,0.006222258,0.19431017,-0.13839471,0.04828212,-0.20294464,0.1363236,-0.1205316,0.42615005,0.066468924,0.28259906,0.32384512,-0.18691298,-0.25426373,0.16068864,0.16226576
BRDN0001162216,-0.7424459457397461,0.21426154673099518,-0.5345116257667542,5.096513271331787,0.3669203519821167,-1.6575809717178345,0.3691157102584839,-0.18460091948509216,-0.4428879916667938,0.07323286682367325,0.5473660826683044,-0.7496955990791321,-0.22397436201572418,-0.4194020926952362,-0.3870779871940613,0.2542165219783783,0.5543948411941528,0.39413678646087646,-0.5110849738121033,-0.16372963786125183,0.6172112822532654,0.43334391713142395,-0.30409562587738037,0.4423285722732544,-0.3129819929599762,0.6638641953468323,-1.260221004486084,-0.2423343062400818,0.3290708661079407,-1.5891460180282593,0.5128008127212524,0.37062767148017883,0.7974560260772705,-0.4635053873062134,1.0373733043670654,0.41830331087112427,-0.13460756838321686,0.6765029430389404,-0.1502038985490799,0.7313479781150818,-0.49666693806648254,0.22296810150146484,-0.40910643339157104,-0.41549351811408997,-0.35304710268974304,-2.2564125061035156,-0.028826916590332985,-2.7869133949279785,0.6094433069229126,-0.5648059844970703,0.3404388427734375,-0.5135959982872009,-0.28430044651031494,1.2403450012207031,-1.1322288513183594,0.2847130596637726,-0.19680790603160858,0.9987969994544983,0.5499097108840942,0.31716564297676086,0.4171237051486969,-0.16457600891590118,0.39204102754592896,1.0572046041488647,0.33265459537506104,0.5176519155502319,0.3801310360431671,-0.5261265635490417,-0.1641036421060562,-0.4044760465621948,0.3024783432483673,0.378398060798645,0.9037338495254517,0.37230488657951355,-0.18585504591464996,0.6308770775794983,0.4552760124206543,0.36212053894996643,0.2689606845378876,0.4474489092826843,-0.2980848252773285,-0.9351236820220947,0.4550011456012726,0.24364367127418518,0.5357118248939514,-2.0529580116271973,0.6416411995887756,-1.27519690990448,0.3823767900466919,0.3496975004673004,-0.20058594644069672,0.362628310918808,0.6782520413398743,0.3679094612598419,-0.39121341705322266,-0.33722466230392456,-0.5281704068183899,-0.3802258372306824,0.572788655757904,0.5516580939292908,0.2210661768913269,-0.39182403683662415,0.3991093635559082,-0.36949434876441956,-0.20299644768238068,-0.5174435973167419,0.32066547870635986,0.7336949706077576,-0.266071617603302,0.1453879028558731,0.530953586101532,0.4890117943286896,0.5255123376846313,0.5898325443267822,0.5141329765319824,-0.23040619492530823,-0.05789187178015709,-0.7989788055419922,-0.3035898208618164,-0.4661496877670288,-0.6201816201210022,-0.7042800784111023,-0.2720394432544708,0.74853515625,-0.17367862164974213,0.46186351776123047,-0.5920129418373108,0.2913734018802643,0.21860945,0.31396458,0.03144985,0.08871075,0.22620781,0.15175186,0.23798856,0.09999789,0.27862084,-0.053851787,0.076746084,0.26450717,-0.092073426,0.12786384,0.07477178,-0.18182272,-0.294779,-0.12459636,-0.14015251,-0.29353288,-0.33510625,-0.29402727,0.16829531,-0.4131684,0.16457453,0.1720428,0.14770834,-0.15422104,-0.3430429,0.18993424,-0.07443555,0.011695441,-0.14047478,0.47207507,0.15157534,0.27067772,-0.0055008605,0.19399185,-0.21661162,-0.31753325,-0.28723902,0.39028013,-0.01410679,-0.23286332,0.094739996,-0.33254027,0.2235118,0.31388423,-0.01132767,-0.12619193,-0.1490141,-0.12471078,-0.292878,0.008589629,0.22260028,0.29165497,0.15045354,-0.124346465,-0.25611326,-0.18837187,-0.036007393,-0.1571597,0.21246935,-0.30195364,-0.0848371,0.2549301,0.14101583,0.11760783,-0.005518723,0.21231975,0.005981295,-0.310754,0.11833569,0.3055976,-0.03173975,0.18465897,0.11384768,-0.12293315,-0.4029681,0.12815167,-0.46910328,-0.06562454,-0.29410246,0.21167703,0.38666087,0.10328648,-0.024356682,-0.384468,0.07244275,-0.5155147,0.20960696,-0.2692647,0.18719538,0.15255304,0.18793592,-0.1011037,-0.065885074,0.080906995,0.1475718,0.060776744,0.18180226,0.092999354,0.1109958,-0.09236274,0.027111705,0.07057003,0.39820758,-0.057246916,0.05515452,0.38072634,-0.014582215,-0.08397762,-0.36179146,0.07473922,0.052281942,0.061737705,0.15854368,-0.21572329,0.12748674,0.13952418,-0.0046542864,0.13741755,0.09643275,0.29935217,-0.0658439,-0.15174608,0.1412449,0.20288904,-0.39188978,-0.35592604,0.11476209,-0.20492713,0.12770106,0.2309631,0.16064738,0.22466165,-0.017942313,0.13483718,0.21050948,-0.15960726,-0.23664494,-0.18714212,-0.03415911,0.2615477,-0.10557497,-0.20289612,-0.38770968,-0.49118748,0.06119551,-0.038169276,-0.2603877,0.048198324,0.38274875,0.08483139,0.019783553,0.26636544,-0.2251376,0.11385339,0.13350533,-0.1712687,0.06964809,-0.39803013,-0.3901226,0.022292914,0.42661414,-0.20860659,-0.19607659,0.09123097,0.08540919,-0.11889785,-0.09247974,-0.11727982,0.026388252,0.60079956,0.081450246,0.16831997,-0.15493815,0.20511246,-0.07487855,0.13227265,0.10055531,-0.1584298,0.050939992,0.24337631,0.43204328,-0.15319942,-0.1705111,-0.014846612,0.20148392,-0.2874626,-0.042314418,-0.014550353,-0.07225976,0.12257032,-0.24636935,-0.12602472,0.10381348,0.06456783,0.20206454,-0.097675696
BRDN0000563627,-0.5833461284637451,0.3853602111339569,-0.33077722787857056,4.488290309906006,0.09407401084899902,-1.5539127588272095,0.4413501024246216,-0.25702935457229614,-0.21004681289196014,0.32700517773628235,0.5901682376861572,-0.7131537199020386,-0.40409210324287415,-0.24576522409915924,-0.6499459147453308,0.39219796657562256,0.5852577686309814,0.2162555754184723,-0.2579335868358612,-0.3026861548423767,0.5985931754112244,0.9268518686294556,-0.4173487722873688,0.15317995846271515,-0.3432384729385376,0.3868708610534668,-1.0731199979782104,-0.19046849012374878,0.20911864936351776,-1.7411537170410156,0.30357626080513,0.48717430233955383,1.0526165962219238,-0.13907445967197418,0.8596248030662537,0.4724985957145691,-0.2474183440208435,0.4732031524181366,0.08370380103588104,0.6273443698883057,-0.5012341141700745,0.4947947561740875,-0.294256329536438,-0.2928086519241333,-0.6438101530075073,-2.1373298168182373,-0.1397903561592102,-2.305689811706543,0.31427013874053955,-0.6593088507652283,0.6475000977516174,-0.5691490769386292,-0.24714860320091248,1.0547924041748047,-1.4145909547805786,0.17574147880077362,-0.21095672249794006,1.2375739812850952,0.5842092037200928,0.25030434131622314,0.1966385394334793,0.33917081356048584,0.3262726664543152,0.9098583459854126,0.38166558742523193,0.7168453931808472,0.4544791281223297,-0.6702907681465149,-0.2621719539165497,-0.5662955641746521,0.5358232855796814,0.6413977146148682,0.997270405292511,0.3332911431789398,-0.2058480829000473,0.4615093469619751,0.45178768038749695,0.29243794083595276,0.26357534527778625,0.43016430735588074,-0.5615617632865906,-0.7451639771461487,0.5897923111915588,0.5372456908226013,0.48128023743629456,-2.099410057067871,0.664181649684906,-1.2768927812576294,0.42378708720207214,0.25792762637138367,-0.19276246428489685,0.30142197012901306,0.6755827069282532,0.4817221760749817,-0.15563462674617767,-0.2208050787448883,-0.4581551253795624,-0.1628178209066391,0.7586573958396912,0.46650072932243347,0.04265499487519264,-0.2682306170463562,0.35527247190475464,-0.4489659070968628,-0.16580794751644135,-0.24500440061092377,0.28465330600738525,0.5597329139709473,-0.3053840696811676,-0.024792952463030815,0.22714783251285553,0.632541298866272,0.5026016235351562,0.159601628780365,0.3742043375968933,-0.16651855409145355,-0.30246293544769287,-0.7661082744598389,-0.4803507626056671,-0.47022178769111633,-0.692389726638794,-0.8151987195014954,-0.24567855894565582,0.991641640663147,-0.3443587124347687,0.5089326500892639,-0.47196418046951294,-0.10266125947237015,0.24846984,-0.07598946,-0.013113754,-0.13626002,0.08199189,-0.021474674,0.13442503,-0.23445858,0.16905816,-0.20598207,0.11321124,0.072190724,-0.0005145194,-0.09676937,-0.055111624,0.010114633,0.03000167,0.029388929,-0.16237101,-0.112475604,0.025831899,-0.59641725,-0.184055,-0.2841989,0.09640525,0.026299188,0.07865783,0.021698603,-0.076918006,0.10568086,0.3909943,0.07096788,0.02802029,0.22828834,0.28273082,0.09474576,0.30631363,0.19505264,-0.30479676,-0.12044016,-0.35034686,0.2634121,0.0666542,0.18308052,0.099953994,-0.00882281,0.061112642,0.43938506,-0.11812466,0.111149654,-0.34137216,-0.017664373,0.05498431,-0.120939255,-0.24765481,0.10706596,0.09355861,-0.12760656,0.17408064,-0.15820895,-0.13368638,-0.028258853,0.38605306,-0.12858535,-0.029075056,0.21968977,-0.3161169,0.15928945,0.016468469,0.1686311,0.02783224,-0.18272659,-0.08751325,0.112192966,-0.0089882435,-0.13046736,0.10458776,0.16216812,0.0056289523,0.118150726,-0.2969529,-0.19137228,-0.08145482,0.26410088,0.084473215,-0.04874679,-0.026712457,-0.18179724,0.10705747,-0.35551736,0.06934213,-0.14608118,0.20614107,-0.071625985,0.21568313,-0.11345977,0.049813386,-0.11971457,0.2768747,0.31648615,0.1945588,-0.15092233,0.23347731,0.11607827,0.056609694,-0.18908101,0.29134023,-0.12158213,0.018066514,0.073971644,-0.17236367,-0.2030359,-0.039032727,0.19608355,0.094962016,-0.012973074,-0.053490102,-0.013587059,0.33168435,0.16415507,-0.21241039,-0.108370274,0.1860925,0.09363568,-0.2581618,0.075633116,0.17681879,0.28473812,-0.17598853,0.07850581,-0.09510573,-0.18092576,-0.06256869,0.15980159,-0.060154058,-0.105419375,-0.078550324,0.028752457,-0.0075841327,0.0215592,0.17944698,-0.016374761,-0.009350322,0.17906028,-0.20682546,-0.27517247,-0.018456277,-0.18975893,-0.0768597,-0.19718282,-0.11191904,-0.2173482,0.07213706,-0.020959478,-0.16117543,0.13459526,-0.21156925,0.2289117,-0.026831353,-0.106540024,-0.047404613,0.13338387,-0.066013195,-0.11282059,-0.27068922,-0.11951823,-0.089947216,0.069629095,0.105980076,0.017329868,-0.35052457,0.12369348,0.038945775,0.09573583,-0.06702546,-0.006915187,-0.04844629,0.06584687,0.10832469,-0.07452464,0.11455675,0.114268154,0.0014064147,0.14045417,0.13078603,0.013761608,0.17118075,-0.094082884,0.10269643,-0.08727235,-0.14363931,-0.09571038,0.04571042,-0.14424942,-0.21853079,-0.1280065,-0.18099032,0.10350924,-0.19730109,-0.38334915
BRDN0001488605,-0.647110641002655,0.2709917724132538,-0.5721086859703064,5.179332733154297,0.38251927495002747,-1.718027949333191,0.4088490307331085,-0.23438619077205658,-0.4524902403354645,0.11118623614311218,0.5808166265487671,-0.8114297389984131,-0.2661575376987457,-0.4140048921108246,-0.4299277365207672,0.29691973328590393,0.5697639584541321,0.2960101068019867,-0.4428219497203827,-0.20688177645206451,0.6138842105865479,0.48230454325675964,-0.31904494762420654,0.380018025636673,-0.2671314477920532,0.5080410242080688,-1.3052113056182861,-0.2608043849468231,0.2896174490451813,-1.7053704261779785,0.505721390247345,0.38447844982147217,0.9000669717788696,-0.44077110290527344,1.007025122642517,0.40903186798095703,-0.2629595696926117,0.6865663528442383,0.01229910459369421,0.6733783483505249,-0.561502993106842,0.16561728715896606,-0.3976561725139618,-0.4087139368057251,-0.2960284948348999,-2.1980316638946533,-0.0759207084774971,-2.7704527378082275,0.4586905539035797,-0.43124493956565857,0.3110916316509247,-0.5625471472740173,-0.3613465130329132,1.3400371074676514,-1.1259487867355347,0.16105952858924866,-0.15527845919132233,0.9579103589057922,0.6085270047187805,0.3945336639881134,0.3327770531177521,-0.09439733624458313,0.4016832113265991,1.0276261568069458,0.4153780937194824,0.5666966438293457,0.41381552815437317,-0.6838012337684631,-0.27458086609840393,-0.5135354399681091,0.3477458953857422,0.4953175485134125,0.8595197796821594,0.43653440475463867,-0.2059822678565979,0.5530133247375488,0.4720935523509979,0.4143381118774414,0.26702120900154114,0.5307216048240662,-0.278382271528244,-0.9081706404685974,0.45844748616218567,0.25671613216400146,0.510410487651825,-2.068243980407715,0.5924574136734009,-1.3405985832214355,0.44156473875045776,0.39904144406318665,-0.1632586568593979,0.48094823956489563,0.5837225317955017,0.3499659299850464,-0.3161299228668213,-0.3195681571960449,-0.5288524627685547,-0.4183323085308075,0.5971724987030029,0.5203829407691956,0.3578723073005676,-0.3401959240436554,0.34987011551856995,-0.37978240847587585,-0.20336976647377014,-0.47712716460227966,0.4883957803249359,0.6744935512542725,-0.2655841112136841,0.10059189796447754,0.4055035412311554,0.6056622862815857,0.5437088012695312,0.4534282684326172,0.5133265852928162,-0.27965259552001953,-0.07005852460861206,-0.8619768619537354,-0.36463662981987,-0.5871028900146484,-0.49148958921432495,-0.6464043855667114,-0.243140310049057,0.8426082730293274,-0.20333892107009888,0.5524439215660095,-0.4749676585197449,0.367635041475296,0.2208532,-0.3231097,-0.05141224,0.08356539,0.074366674,-0.2098047,-0.019297436,0.43371084,-0.07098507,-0.069362156,0.011329917,-0.17680116,-0.5664873,-0.15274276,0.16001432,0.049731452,0.28624493,-0.2305546,0.113688536,0.26645538,-0.19477816,0.06420186,0.11897048,0.13959055,-0.07625707,-0.2256419,-0.061126802,-0.20920719,0.26598394,-0.0033817147,0.13578612,0.27198783,0.43370396,-0.38130143,-0.0979589,-0.24132796,0.033596575,0.2934689,0.056468096,0.020342253,-0.20374164,0.06286005,0.077046596,0.04080575,0.37755358,-0.032587834,0.21558942,-0.34060267,-0.15891634,0.03342728,0.36891082,0.5225931,-0.33670884,0.20050064,0.12679975,0.289049,-0.07849676,-0.21220636,0.36242205,-0.11132868,-0.08540473,-0.36598504,-0.5821516,0.2020915,0.34222552,-0.2337209,0.009266002,0.018474335,0.36355013,0.08315257,0.0967698,0.052774195,0.16810629,-0.23349582,-0.23839088,0.1004251,-0.21496305,0.1923203,0.23479675,0.3973608,-0.29130036,-0.10035471,0.0045691538,0.1769737,0.046826202,-0.13831392,0.12846082,-0.054994773,0.15205395,0.408571,0.20576778,-0.18901303,0.1674878,0.04111027,0.29423892,-0.040127274,-0.19040392,0.2443942,-0.2663103,0.25042826,0.22921553,0.32927677,-0.006822046,-0.27959564,-0.069823325,-0.09486316,0.010153947,-0.045211464,-0.47864228,0.16331507,0.27283275,-0.19018088,-0.2909343,-0.1610924,0.6880487,-0.049281728,0.3907385,0.18175665,-0.34342843,0.1967478,-0.18599695,0.12329889,0.11692276,0.07072531,-0.15690787,0.08070507,-0.2051324,0.13312219,-0.040673044,-0.06507816,-0.09959034,-0.16923629,-0.040340524,0.22365187,-0.28961396,-0.43390328,-0.0969286,-0.11997089,0.076967895,0.023503674,-0.037374824,0.04294205,-0.26170176,0.1955054,-0.05180023,-0.084225655,0.23965204,-0.36617208,0.07250045,-0.48030195,0.10936436,-0.046455268,0.18754745,-0.10225992,-0.030369444,-0.34424925,-0.14272489,-0.13600934,0.088041134,0.09642845,0.15098466,-0.38361698,0.103050515,-0.023867574,-0.00040082305,-0.54960686,-0.24136084,-0.0073307436,0.27461013,-0.10927011,-0.31126726,0.0028665701,-0.0112415245,-0.15694956,-0.5927301,0.1967414,0.038508013,0.25949594,0.28783286,-0.12889503,0.12423776,0.2499435,-0.13731791,0.03969782,0.23115183,0.014078135,0.44295257,0.30452776,0.12854446,-0.034340907,0.17504534,0.05669579,-0.07731171,0.34065375,0.42835432,-0.25720426,0.1289657,-0.2714695,-0.122328505,0.07256062
BRDN0001481237,-0.6190999746322632,0.4461560547351837,-0.3769044876098633,4.878244400024414,0.19456754624843597,-1.6753489971160889,0.3203258514404297,-0.22390387952327728,-0.29680490493774414,0.1469244360923767,0.6693487763404846,-0.7907564043998718,-0.3574887812137604,-0.4138827621936798,-0.4934556782245636,0.32031330466270447,0.4909878075122833,0.3158275783061981,-0.260057270526886,-0.21267575025558472,0.7304345965385437,0.7279934287071228,-0.2801131010055542,0.1412600874900818,-0.26514294743537903,0.3475232422351837,-1.1771048307418823,-0.21864590048789978,0.2254738211631775,-1.730004906654358,0.06566909700632095,0.5476589202880859,0.9605571627616882,-0.10732895880937576,0.9739698171615601,0.44794341921806335,-0.12684078514575958,0.6151273846626282,0.386588454246521,0.6680324673652649,-0.47497785091400146,0.15148335695266724,-0.14211077988147736,-0.38346022367477417,-0.6177182197570801,-2.1054956912994385,-0.22080408036708832,-2.2717573642730713,0.19467778503894806,-0.7367650866508484,0.5520258545875549,-0.6572239398956299,-0.34562599658966064,1.2341010570526123,-1.3589304685592651,0.27096906304359436,-0.1919081062078476,1.2000535726547241,0.49082356691360474,0.3854783773422241,0.14391539990901947,0.26099202036857605,0.4234287142753601,0.8526454567909241,0.4984000325202942,0.6566843390464783,0.24515685439109802,-0.6303983926773071,-0.28333142399787903,-0.39086073637008667,0.44566914439201355,0.4057251811027527,0.8447631597518921,0.475058376789093,-0.2307131141424179,0.49807989597320557,0.2556860148906708,0.2914859652519226,0.3762466609477997,0.4617161452770233,-0.4383317232131958,-0.7860409021377563,0.5748661756515503,0.6841608285903931,0.5407432317733765,-2.0308568477630615,0.6523532271385193,-1.240821361541748,0.422972172498703,0.37231767177581787,-0.21158923208713531,0.23158220946788788,0.5395343899726868,0.42977002263069153,-0.22120429575443268,-0.3246849775314331,-0.4675672650337219,-0.24496473371982574,0.5464299321174622,0.269118994474411,0.23980331420898438,-0.3698013424873352,0.26890286803245544,-0.4193999469280243,-0.24711035192012787,-0.4407341778278351,0.4420911967754364,0.5395269393920898,-0.11079084128141403,0.09948048740625381,0.1634082943201065,0.5243011713027954,0.4320320785045624,0.18963314592838287,0.3234389126300812,-0.2544151544570923,-0.11768100410699844,-0.6990172266960144,-0.4134974181652069,-0.4572072923183441,-0.7208635807037354,-0.6683036684989929,-0.20570117235183716,1.1238422393798828,-0.3112379014492035,0.4694860577583313,-0.3609178960323334,0.11318531632423401,0.014474774,-0.15132712,0.123528205,-0.19300811,-0.055310525,0.06371093,0.12877457,0.115598835,-0.11096922,-0.2029099,0.037134726,0.14642748,0.043408014,0.079379745,-0.16771793,-0.09442724,0.022704156,-0.27052975,0.04764476,0.02063186,0.00081266515,0.09744329,-0.26476705,0.0025374677,-0.076666676,0.17812744,-0.028646959,-0.07982559,-0.13222234,0.021920478,0.011676539,-0.115358055,-0.24914971,-0.4899448,-0.13143308,0.02519986,-0.07225059,-0.010207289,-0.20282274,-0.29704627,0.106970996,0.21133526,-0.52244467,-0.13685313,0.11556116,0.21142642,0.3293919,-0.14476778,-0.1331899,0.22099109,0.37459466,0.38134933,-0.2473607,-0.38575414,-0.09104495,0.19550596,-0.16204207,-0.115832984,0.35949385,0.07891268,0.19284165,-0.059884667,0.25073683,0.15480876,0.23339048,0.022728173,-0.19016843,0.010548016,0.2586837,-0.12303273,-0.06531427,0.15634747,-0.11155995,0.158489,0.12054261,-0.09735214,0.05285695,0.17184179,0.43160045,0.40570042,-0.2383909,0.2869715,-0.14574528,-0.07428977,0.11541954,0.18919803,0.13847496,-0.032317664,0.0073013506,0.027893366,-0.197177,-0.34523427,-0.1576272,0.18023516,0.038421217,-0.08488496,-0.022754109,0.15351473,-0.3011897,0.15993465,0.15561068,0.44605535,-0.005546772,-0.35189733,-0.08903343,-0.27554518,-0.081223205,-0.15770407,-0.16145651,0.07037522,-0.016399955,0.039076988,-0.11318472,0.049803816,0.20194818,-0.18559486,0.063725464,0.2918555,-0.01675595,-0.3193282,-0.1387592,-0.013623073,0.2797892,0.116845824,-0.121508844,0.069138736,0.08303651,-0.20835255,-0.119855896,-0.033193324,-0.064177975,-0.053320237,0.04779535,0.04293545,0.17701893,-0.23322064,-0.07148991,0.08104739,0.13116282,-0.22628215,0.2343232,0.2088941,-0.380911,0.41781592,0.3082744,-0.07396712,0.12927851,-0.051740017,0.2736421,-0.32796997,0.2005288,0.26201892,-0.053240847,0.035443727,0.08926156,-0.24718204,-0.17824076,0.054022416,0.04761233,0.06710173,-0.07976231,0.08599628,0.34764072,-0.26967165,0.10134819,-0.005543251,0.02182018,0.2860521,0.136697,0.16347633,-0.24273491,-0.009550208,0.06367801,0.11387962,-0.06805327,0.27894258,-0.1390255,0.049288046,0.2909891,-0.085792966,-0.14724624,-0.14225353,-0.009000786,-0.06428533,-0.033416457,-0.108353384,0.042504005,0.09290322,0.05821354,-0.14044504,0.057208255,-0.088370934,0.16649096,0.09148461,0.24228959,-0.047533337,-0.051935926,-0.24108729,-0.31569523,-0.415519
BRDN0001488463,-0.6669660210609436,0.3120203912258148,-0.3501286804676056,4.983088493347168,0.2774156332015991,-1.686133861541748,0.19556431472301483,-0.23173990845680237,-0.3055824935436249,0.33407729864120483,0.5856937766075134,-0.7692273855209351,-0.14657807350158691,-0.429222971200943,-0.35826557874679565,0.3988548517227173,0.54190593957901,0.388089656829834,-0.42284727096557617,-0.214225634932518,0.5781269073486328,0.5813473463058472,-0.17749923467636108,0.2576061487197876,-0.32064303755760193,0.42041969299316406,-1.14064359664917,-0.3131422698497772,0.33109205961227417,-1.7450358867645264,0.3777279853820801,0.4279733896255493,1.0504659414291382,-0.36148005723953247,1.0270047187805176,0.30277153849601746,-0.14650560915470123,0.5797147154808044,0.27384522557258606,0.6697997450828552,-0.6122728586196899,0.12259216606616974,-0.23299670219421387,-0.35587719082832336,-0.28464561700820923,-2.2769057750701904,-0.13421876728534698,-2.5343780517578125,0.34614890813827515,-0.6218311190605164,0.3140573799610138,-0.5867425203323364,-0.523239254951477,1.1404457092285156,-1.0923428535461426,0.2798691987991333,-0.14804217219352722,1.096625804901123,0.6764704585075378,0.3869958817958832,0.23975872993469238,-0.01074924785643816,0.39402782917022705,0.9328956604003906,0.4970613420009613,0.6380877494812012,0.24293117225170135,-0.47631722688674927,-0.32496681809425354,-0.4353015720844269,0.31158968806266785,0.38596031069755554,0.8541693091392517,0.37791773676872253,-0.10487089306116104,0.8491332530975342,0.35093221068382263,0.29346999526023865,0.37991568446159363,0.4554414451122284,-0.17038020491600037,-0.8092809915542603,0.5531134605407715,0.4833357036113739,0.45347949862480164,-2.013592004776001,0.5808768272399902,-1.3019675016403198,0.4373016357421875,0.28056901693344116,-0.3433639705181122,0.34137681126594543,0.698699414730072,0.34479692578315735,-0.2842615842819214,-0.3251534402370453,-0.4337730407714844,-0.3668160140514374,0.5041496753692627,0.40565645694732666,0.2708376944065094,-0.37533190846443176,0.3648603558540344,-0.5851293802261353,-0.258844256401062,-0.5574468374252319,0.39116841554641724,0.6432197093963623,-0.28145769238471985,0.10713107138872147,0.4146663546562195,0.49225327372550964,0.5218566656112671,0.3742520213127136,0.26820266246795654,-0.1376800537109375,-0.165823832154274,-0.7654938101768494,-0.36392199993133545,-0.5169410705566406,-0.6454768776893616,-0.702431857585907,-0.2322072982788086,0.8883737325668335,-0.18709006905555725,0.5294709205627441,-0.4251452386379242,0.23479242622852325,0.23240626,-0.32230496,-0.036244195,-0.15781711,-0.17742331,0.17921501,-0.1135762,0.022750955,0.4264,-0.2255918,-0.24090135,0.12637515,-0.25324702,-0.05836613,0.4353965,0.075508736,0.06514875,0.14964984,0.14250213,-0.07891242,-0.15762289,0.09146257,-0.13565151,-0.13626947,-0.34409985,0.124883,0.021286834,0.21378738,0.08151925,0.104342625,0.5246275,-0.41985834,0.3185114,-0.2558549,-0.29143783,-0.23500343,-0.1404776,0.5283248,-0.053228285,-0.612799,-0.15358697,0.18110663,-0.55978847,-0.049216375,-0.08106528,0.13405368,0.07634285,0.017470567,-0.10832676,-0.5826754,-0.06763811,-0.1748948,-0.15906025,-0.108988136,-0.13183996,-0.2740119,-0.6254351,0.108989395,-0.094952844,-0.26783133,-0.13292046,-0.30899683,-0.50990695,0.070900686,0.20879093,-0.19490021,-0.1578396,0.23602019,0.35877985,-0.32747072,0.048597615,-0.27360943,0.03337132,0.14144854,-0.25898224,0.17300081,0.2613876,0.74659586,0.24445379,0.14448124,-0.12601678,0.283792,-0.032998867,0.026350418,0.3582111,-0.49052268,0.3211045,-0.6300117,0.40686268,-0.31380495,-0.0023576808,-0.2250069,-0.111444764,0.32750133,-0.052020356,-0.49039647,0.10287147,0.08378094,-0.23415495,-0.21087912,-0.21677807,0.156878,0.015615031,-0.45599905,-0.54865545,-0.17354164,0.18448804,0.08929763,0.0825891,0.5254644,-0.21026382,-0.20324345,0.035200387,0.56420857,0.2535261,-0.25536716,0.11222019,0.14452554,-0.090296134,-0.27533278,-0.36346456,-0.41118172,0.33516243,-0.014602712,-0.2650128,-0.27218232,-0.08661602,-0.3010603,0.0874749,0.2534997,-0.31140092,-0.375698,0.102095015,-0.15648945,-0.17170772,-1.0135672,-0.20685096,-0.06336851,0.43492842,0.37432835,0.12042254,0.05983974,-0.0024028951,0.013450706,0.13293663,0.43343094,0.20264469,0.19943306,-0.30535698,0.18534757,0.09935629,-0.28367403,-0.011751648,-0.36699077,-0.109178096,-0.26069364,-0.020850973,0.22206351,-0.23307198,0.20887277,-0.12425436,-0.19178487,0.0347852,-0.28152877,0.34585112,0.4502336,-0.44832042,-0.07082642,-0.08920526,0.35790157,-0.1353904,-0.25079778,-0.13615854,-0.14404508,0.29758897,0.36511773,-0.10786134,0.261887,-0.17582487,0.21076056,0.047123447,0.3029239,-0.12879816,0.14195889,0.3600163,0.11486742,0.3390076,0.26678127,-0.30049926,0.5209577,-0.026305102,0.3524134,0.09219316,-0.088556014,0.296416,-0.017928792,0.17975396,-0.39511353,-0.24715905,-0.2907519
