BROAD_SAMPLE,0,1,2,3,4,5,6,7,8,9,10,11,12,13,14,15,16,17,18,19,20,21,22,23,24,25,26,27,28,29,30,31,32,33,34,35,36,37,38,39,40,41,42,43,44,45,46,47,48,49,50,51,52,53,54,55,56,57,58,59,60,61,62,63,64,65,66,67,68,69,70,71,72,73,74,75,76,77,78,79,80,81,82,83,84,85,86,87,88,89,90,91,92,93,94,95,96,97,98,99,100,101,102,103,104,105,106,107,108,109,110,111,112,113,114,115,116,117,118,119,120,121,122,123,124,125,126,127,128,129,130,131,132,133,134,135,136,137,138,139,140,141,142,143,144,145,146,147,148,149,150,151,152,153,154,155,156,157,158,159,160,161,162,163,164,165,166,167,168,169,170,171,172,173,174,175,176,177,178,179,180,181,182,183,184,185,186,187,188,189,190,191,192,193,194,195,196,197,198,199,200,201,202,203,204,205,206,207,208,209,210,211,212,213,214,215,216,217,218,219,220,221,222,223,224,225,226,227,228,229,230,231,232,233,234,235,236,237,238,239,240,241,242,243,244,245,246,247,248,249,250,251,252,253,254,255,256,257,258,259,260,261,262,263,264,265,266,267,268,269,270,271,272,273,274,275,276,277,278,279,280,281,282,283,284,285,286,287,288,289,290,291,292,293,294,295,296,297,298,299,300,301,302,303,304,305,306,307,308,309,310,311,312,313,314,315,316,317,318,319,320,321,322,323,324,325,326,327,328,329,330,331,332,333,334,335,336,337,338,339,340,341,342,343,344,345,346,347,348,349,350,351,352,353,354,355,356,357,358,359,360,361,362,363,364,365,366,367,368,369,370,371,372,373,374,375,376,377,378,379,380,381,382,383,384,385,386,387,388,389,390,391,392,393,394,395,396,397,398,399,400,401,402,403,404,405,406,407,408,409,410,411,412,413,414,415,416,417,418,419,420,421,422,423,424,425,426,427,428,429,430,431,432,433,434,435,436,437,438,439,440,441,442,443,444,445,446,447,448,449,450,451,452,453,454,455
ccsbBroad304_14741,-0.4098474383354187,0.6267181038856506,-0.7574728727340698,0.5664429664611816,0.1457413136959076,0.47014084458351135,0.5497214198112488,0.826111912727356,-0.7737678289413452,-0.28278249502182007,-5.308043956756592,0.9193383455276489,-0.3184436857700348,0.7627990245819092,1.1863901615142822,0.3265414535999298,-1.635969638824463,-0.6983817219734192,0.9782366156578064,0.03834643214941025,-0.4832915663719177,-0.3945344090461731,-0.8458983302116394,-1.3759797811508179,0.7902010679244995,-0.4739236533641815,-0.4594089686870575,0.21442289650440216,-0.25894397497177124,-0.5668580532073975,-0.9346071481704712,0.3741528391838074,0.9811779856681824,0.41854411363601685,0.6806136965751648,-0.6220056414604187,0.6780505180358887,0.5781792402267456,-0.9032170176506042,1.1435741186141968,0.4602183699607849,-0.882164716720581,0.6133571267127991,-0.8277456164360046,0.645036518573761,-1.0377123355865479,-0.47835180163383484,-1.018760085105896,-0.6455515623092651,-0.4541025459766388,-1.5807209014892578,-0.33294278383255005,-1.491083025932312,0.9334844350814819,-0.7801644802093506,-0.6883741021156311,-0.3303023874759674,-0.7374215722084045,-0.5983760952949524,0.5946069359779358,0.2527463734149933,-1.1706032752990723,-1.1560043096542358,0.34693485498428345,-0.7063899040222168,0.44830000400543213,0.396813303232193,0.7053353786468506,0.3959691822528839,0.9287903904914856,-0.6818892359733582,0.2026832103729248,1.3521618843078613,0.3661116063594818,-1.413035273551941,-0.6494333148002625,0.7305371761322021,-0.6183500289916992,-0.4035620391368866,-0.4945373237133026,0.6591049432754517,-1.0557899475097656,0.8981875777244568,-0.9320005774497986,-0.5218815803527832,-0.6168955564498901,0.1844090074300766,0.5093082785606384,-1.694539189338684,0.3291752338409424,-0.30296987295150757,-0.580577552318573,0.4140703082084656,-0.7248024940490723,0.17935813963413239,-0.6952972412109375,0.9418110847473145,1.1535470485687256,1.0285899639129639,-0.8859120011329651,-0.9386164546012878,-0.5732876062393188,-0.4646592140197754,-2.002645492553711,0.4851866066455841,0.702930748462677,0.48658567667007446,-0.16056180000305176,-0.7048421502113342,0.16082432866096497,-0.6174399256706238,-0.7691923379898071,0.502189576625824,-0.4871360659599304,-0.3879089951515198,0.46749401092529297,0.22640861570835114,0.6518599390983582,0.8626375794410706,-0.12168986350297928,-1.2982934713363647,-0.5677212476730347,1.608543872833252,-0.8457863926887512,-0.6515786647796631,0.7931555509567261,0.8390862345695496,0.3758631944656372,0.7492379546165466,0.7911782264709473,-0.41273966431617737,-0.6961092948913574,-0.28324049711227417,0.6511825919151306,-0.6624796986579895,-1.3739070892333984,0.3062937557697296,0.7342147827148438,1.1492573022842407,-0.4075697958469391,-0.1700516939163208,-0.5737533569335938,-0.17959167063236237,0.7471870183944702,0.43107396364212036,1.2714852094650269,1.17959463596344,-0.4425036609172821,0.5021581649780273,0.25039711594581604,0.580956757068634,1.2637584209442139,0.5369542241096497,-0.3652476966381073,0.39541980624198914,1.736079454421997,-0.4459982216358185,0.29256898164749146,-0.6062454581260681,-0.4624541401863098,-0.7033216953277588,0.4194073975086212,0.6717125773429871,-0.5198578238487244,-0.4890037775039673,-0.8844687342643738,-0.0038290226366370916,0.7702767848968506,-0.7978906631469727,0.6461824774742126,0.7766970992088318,-1.0250674486160278,0.5681934952735901,0.4498434066772461,0.5858874320983887,-0.5923434495925903,-1.0740002393722534,1.1718305349349976,0.725641667842865,-1.4278221130371094,0.7123293876647949,0.6408783793449402,0.9719431400299072,-0.7535004019737244,0.5293391346931458,1.1464887857437134,0.682207465171814,-0.8426864743232727,0.9195238351821899,1.0212479829788208,0.37416040897369385,-0.7289682626724243,-0.710882842540741,0.8050705790519714,0.5866197347640991,-0.6076424717903137,0.5079664587974548,0.3148464560508728,-1.072882056236267,0.9836214780807495,0.8605872988700867,-0.5501924157142639,0.6852331757545471,-0.36122927069664,1.1913460493087769,0.7843272089958191,0.9924728274345398,0.7289248108863831,-0.7289235591888428,0.5730247497558594,0.7454432845115662,0.9822092652320862,-0.33189311623573303,-0.9344969987869263,-1.2279819250106812,0.10568291693925858,-0.6218560934066772,-0.8135167956352234,0.9241989850997925,-1.0768847465515137,-0.2452937513589859,-0.8231524229049683,0.1245403066277504,0.6859778761863708,-0.6613927483558655,0.5212938785552979,0.6330042481422424,0.7338816523551941,-0.6166351437568665,0.24135717749595642,-0.4363155663013458,-0.9511701464653015,0.7870866656303406,0.3543356955051422,-0.41625624895095825,0.9485486149787903,-0.5759549140930176,-0.5105643272399902,0.6159641742706299,-1.2534245252609253,0.9020222425460815,0.17651955783367157,0.08174904435873032,-0.5394868850708008,0.8473516702651978,-0.9669261574745178,0.9305020570755005,0.04575019329786301,0.5337041616439819,0.19700737297534943,0.7878828048706055,0.28406935930252075,-0.8000848889350891,-1.2432546615600586,1.9821536540985107,2.39981746673584,0.1928602,0.095869325,0.12707141,-0.27755386,-0.049440593,-0.06043788,-0.027672205,0.1637927,-0.027720576,-0.3077397,-0.11396623,-0.53936714,0.01046281,-0.2650642,0.14915611,-0.042501904,-0.070579454,-0.38207403,-0.08773123,-0.36884695,0.17822064,0.039744727,-0.15597908,-0.24167006,0.5386176,-0.2672928,-0.48864532,0.020689908,0.21780361,0.26883525,0.23471531,-0.0003028742,0.014384424,-0.048885692,0.33888084,-0.15010892,0.12949532,0.0019355702,-0.14090917,0.5276712,-0.040306233,0.22009386,-0.44338286,0.26198748,-0.06680926,-0.027700834,-0.37067345,-0.053966075,-0.22048934,0.13303196,-0.2629458,0.21626315,-0.33529997,0.05994632,-0.12074526,0.089305416,-0.08318971,-0.32086492,0.024201263,0.071103595,0.3223704,-0.38301203,-0.1307352,0.03461894,-0.030418016,-0.15041377,-0.12661271,0.4317756,0.2669278,0.26327315,0.010135394,0.07712561,-0.20908542,0.35189164,0.02014686,-0.07331652,0.38921452,0.0044205515,-0.25917798,-0.05611281,-0.10545735,0.07937006,-0.5112093,0.19423287,-0.27628884,-0.21880338,0.22613807,0.19007084,-0.066421,-0.20906533,0.14523566,-0.18509084,-0.04881311,0.35935706,0.3391749,0.025893137,0.34143883,0.3451913,0.07649668,-0.016516127,0.28096592,0.28294456,-0.14372541,0.10824471,0.39188167,0.058093812,-0.07402444,-0.12230341,-0.21010685,0.07863381,0.18395272,-0.17519873,0.14913048,0.28930274,0.014600474,0.017878434,-0.3581592,-0.33757794,0.31548786,-0.092635095,-0.14166304,-0.12652497,-0.2595332,0.20038757,-0.17592725,-0.27814677,0.32204863,-0.28559375,0.21602732,-0.14745747,0.23183583,-0.20490967,-0.044998705,-0.17375904,-0.5212362,-0.23231715,-0.07378632,0.05365969,-0.24357158,-0.5815459,0.20271249,-0.09345345,-0.13301206,-0.09662439,0.1427068,-0.3462789,0.06281905,-0.2657271,0.104302496,-0.41439244,-0.30087835,-0.1649679,-0.44188842,0.090189114,0.03403911,0.4740166,0.06534205,0.049173098,-0.04453448,-0.53189313,-0.11917939,0.048922427,-0.6054854,0.1481561,0.04918169,-0.16626345,-0.0647939,0.2198366,0.37935892,0.030440552,-0.32845113,-0.25346053,-0.2638647,0.21394162,0.103870906,-0.2133557,0.09223967,-0.30647916,0.06974161,-0.3468037,0.19115272,0.27293134,0.014920666,-0.0050525246,0.056734852,0.48366472,0.028669009,-0.112650745,-0.055684473,0.16125429,0.0022948335,-0.22686687,-0.26822633,0.21468323,-0.3976533,0.19779317,-0.17664558,0.037243783,-0.23840407,-0.44490692
ccsbBroad304_01144,-0.39425820112228394,0.6528075933456421,-0.7205047607421875,0.5900822877883911,0.12945786118507385,0.44960397481918335,0.5046558380126953,0.6925023198127747,-0.7905570268630981,-0.32751819491386414,-5.188151836395264,1.0305249691009521,-0.35198548436164856,0.7460794448852539,1.1833640336990356,0.32456907629966736,-1.66883385181427,-0.7496199011802673,0.8292794823646545,-0.10799968987703323,-0.45956408977508545,-0.37794971466064453,-0.8226752877235413,-1.4453303813934326,0.7847943902015686,-0.4474199712276459,-0.6664129495620728,0.21530646085739136,-0.29010874032974243,-0.6358148455619812,-0.860316276550293,0.31921637058258057,1.0045056343078613,0.5316085815429688,0.620951235294342,-0.645846426486969,0.5877838134765625,0.512531042098999,-0.7807068824768066,1.1688646078109741,0.536346971988678,-0.9504477381706238,0.590513288974762,-0.7771825194358826,0.6366522908210754,-1.0096039772033691,-0.5006213784217834,-1.0029951333999634,-0.7798258662223816,-0.3706466555595398,-1.591464877128601,-0.381026029586792,-1.3615177869796753,0.9827232956886292,-0.7447330951690674,-0.6013068556785583,-0.3263537585735321,-0.7416890859603882,-0.6029168963432312,0.6777569651603699,0.19413955509662628,-1.1312812566757202,-1.0615293979644775,0.3943948745727539,-0.6727900505065918,0.46644264459609985,0.4614642560482025,0.7211475372314453,0.3955996036529541,0.917044460773468,-0.7295323014259338,0.19754691421985626,1.3750224113464355,0.37820544838905334,-1.3716355562210083,-0.6769528388977051,0.7002675533294678,-0.6286278963088989,-0.35612812638282776,-0.48943501710891724,0.6676919460296631,-1.0178697109222412,0.9383416771888733,-0.9891458749771118,-0.43513524532318115,-0.6476908326148987,0.28525450825691223,0.5002309679985046,-1.5605716705322266,0.4643772542476654,-0.4152807891368866,-0.5924787521362305,0.50368332862854,-0.7280054092407227,0.28847259283065796,-0.6396580338478088,1.0223965644836426,1.079699993133545,1.056894063949585,-0.985694408416748,-0.9655750393867493,-0.5371094346046448,-0.466575026512146,-1.9975758790969849,0.5686137676239014,0.6830260753631592,0.4251168668270111,-0.22466446459293365,-0.6520793437957764,0.15711800754070282,-0.5432164072990417,-0.7664439082145691,0.5618308782577515,-0.4728133976459503,-0.4136093556880951,0.507682204246521,0.20444418489933014,0.8130108714103699,0.797295868396759,-0.03593678027391434,-1.271288275718689,-0.4817003309726715,1.5680861473083496,-0.8795560002326965,-0.6605936288833618,0.8696410655975342,0.8405182361602783,0.34009799361228943,0.7398936152458191,0.9080371260643005,-0.42076048254966736,-0.7538150548934937,-0.34576353430747986,0.6144223809242249,-0.6326982378959656,-1.37400484085083,0.38478943705558777,0.5904125571250916,1.101853370666504,-0.47579604387283325,-0.26683804392814636,-0.5011231899261475,-0.28495240211486816,0.8121510744094849,0.3194464147090912,1.3812382221221924,1.1948097944259644,-0.4231834411621094,0.5751872062683105,0.2806164622306824,0.5951255559921265,1.1658473014831543,0.4998847246170044,-0.3072435259819031,0.4372554421424866,1.786562442779541,-0.43573638796806335,0.21286216378211975,-0.6166680455207825,-0.5271176695823669,-0.6426475644111633,0.535264790058136,0.7555184960365295,-0.5305067896842957,-0.5234200358390808,-0.9888277649879456,0.034274790436029434,0.8328680396080017,-0.7144649624824524,0.7004007697105408,0.8378140926361084,-1.1183888912200928,0.6009961366653442,0.4115926921367645,0.6476576328277588,-0.6355446577072144,-0.9758564829826355,1.1975843906402588,0.708157479763031,-1.4573532342910767,0.6658396124839783,0.5742186307907104,1.0236079692840576,-0.6975073218345642,0.5243380069732666,1.069401741027832,0.5733276605606079,-0.8852245211601257,0.9117797613143921,0.9794449210166931,0.3656691908836365,-0.7065260410308838,-0.6420875787734985,0.8364489674568176,0.6422086358070374,-0.6899396777153015,0.449978768825531,0.3428989350795746,-1.0823607444763184,0.9515304565429688,0.7137605547904968,-0.5205599069595337,0.6852126717567444,-0.3774300813674927,1.1415053606033325,0.770402193069458,1.017816185951233,0.817836582660675,-0.8249570727348328,0.5289983153343201,0.7141697406768799,1.01114821434021,-0.42033445835113525,-0.9130499362945557,-1.1756154298782349,0.14100421965122223,-0.6535581350326538,-0.7341358661651611,0.8816553950309753,-1.046255350112915,-0.33427694439888,-0.7587822079658508,-0.06953397393226624,0.5696726441383362,-0.6711559295654297,0.4493614733219147,0.6177707314491272,0.6196804046630859,-0.6339117884635925,0.326454222202301,-0.4886590540409088,-0.8711665272712708,0.797156035900116,0.33742815256118774,-0.17971669137477875,0.8756213784217834,-0.6229860782623291,-0.4594005048274994,0.5271798968315125,-1.228374719619751,0.803003191947937,0.324082612991333,0.03481242433190346,-0.6042991876602173,0.7895083427429199,-0.9679964184761047,0.9519937634468079,0.08590435236692429,0.5220720767974854,0.19259338080883026,0.8202347755432129,0.2993279695510864,-0.8381116390228271,-1.280028223991394,1.9228464365005493,2.389875650405884,-0.13321313,0.16637097,-0.26406065,0.12030286,-0.08094194,-0.013675323,-0.03748275,-0.22170642,0.058260664,0.18533133,-0.26850358,0.21445502,0.028525855,-0.08061163,-0.22499387,-0.15695362,0.12250661,0.059120998,-0.2724046,0.049454052,-0.38742623,0.3173949,0.09225165,0.10797325,0.10964854,0.059216667,-0.16405308,-0.16878058,-0.21841061,-0.14184861,-0.029757818,-0.04892418,-0.20397004,-0.12508546,0.12198018,-0.064466074,0.025036002,-0.174614,-0.16266242,0.20574811,-0.18259685,0.09007148,-0.04805056,-0.14308509,0.33884984,0.029294297,0.03284515,0.12560362,0.13667811,-0.09130379,-0.39886457,0.04722359,-0.17671953,0.1707346,0.045556538,0.14117193,0.10154741,0.050119128,-0.14811777,0.045371696,0.24069315,-0.12939228,-0.080201246,-0.1700108,-0.10118171,-0.43537998,0.037683696,-0.03931772,-0.06293263,0.065844946,0.052436125,0.19978671,0.07294045,0.052931625,-0.047016557,-0.00076284824,0.17300634,0.00839708,0.1514762,0.17241974,-0.16460298,0.110199235,-0.026221512,0.13475153,0.101134375,0.05208475,-0.17184235,-0.21042804,-0.3845092,-0.0020963235,-0.33552295,-0.09121026,-0.29644492,-0.1764,0.01364879,-0.15137237,-0.0756439,0.07230593,0.1967057,0.12324549,-0.02779076,-0.1184264,-0.32421276,0.037306167,-0.09466136,-0.17314221,0.001767673,-0.25298837,-0.07007241,0.031996,0.05699213,0.07060112,0.18653087,0.061391413,0.3156099,-0.24038008,-0.1268447,-0.5953658,-0.05047987,-0.13360846,0.14488463,-0.1051048,0.022887979,0.15051898,-0.0063089454,-0.04366179,0.070238374,0.09117202,-0.0025173323,0.051328503,0.02594638,-0.18682998,-0.1288092,0.26704055,-0.052354254,-0.22870313,0.11293886,0.034135498,-0.07195327,-0.062275443,0.0033514192,0.10290663,0.39064085,0.2632513,0.11849495,0.08553368,-0.07547248,0.08625714,-0.2246106,0.25719362,-0.025557755,0.00072448596,-0.06450745,-0.018288307,0.11302489,-0.31754038,0.10483966,-0.038319685,0.0809947,0.0064805197,-0.018210046,-0.031774774,0.110877104,-0.25894442,0.108937174,-0.19670689,-0.18005581,-0.022786668,-0.12030131,0.085205615,-0.011895315,0.06091749,-0.12713869,0.122913375,-0.17400159,0.25946018,0.15372723,-0.39176765,-0.25230277,-0.24338882,0.1330645,0.07130747,-0.08414414,0.015103436,0.08261047,-0.008167849,0.2993694,0.096354954,0.15315391,0.031500816,0.11178458,-0.20270151,-0.019143043,0.030796656,-0.058750372,0.0752685,-0.3706528,-0.14331967,0.14637141,-0.051334623
ccsbBroad304_06701,-0.4185344874858856,0.6212846636772156,-0.7865781188011169,0.5917558073997498,0.18368227779865265,0.5070706009864807,0.5292866230010986,0.8270696997642517,-0.7724184393882751,-0.25057753920555115,-5.127066135406494,0.932210385799408,-0.33378517627716064,0.7783947587013245,1.1479042768478394,0.28237032890319824,-1.649428129196167,-0.6986978650093079,0.953576922416687,0.08285996317863464,-0.49664440751075745,-0.44175225496292114,-0.8103423118591309,-1.397979736328125,0.7796832919120789,-0.5203921794891357,-0.44269517064094543,0.19014525413513184,-0.28854188323020935,-0.5403731465339661,-0.8999484181404114,0.3780372738838196,0.9581522345542908,0.41298413276672363,0.6615907549858093,-0.6154109835624695,0.6520885825157166,0.5534002184867859,-0.8846631646156311,1.205182433128357,0.41864484548568726,-0.8930165767669678,0.6808508634567261,-0.8674173355102539,0.6276453733444214,-1.0560088157653809,-0.5101824402809143,-0.9814540147781372,-0.6212785243988037,-0.43630900979042053,-1.558581829071045,-0.3615131974220276,-1.454309105873108,0.9508363008499146,-0.7617543935775757,-0.6871846914291382,-0.34557512402534485,-0.7453133463859558,-0.617760181427002,0.5996192097663879,0.27078354358673096,-1.1829830408096313,-1.1354472637176514,0.33169063925743103,-0.7173166871070862,0.46051347255706787,0.41477054357528687,0.6735676527023315,0.45300614833831787,0.8857879042625427,-0.711970865726471,0.1984541416168213,1.3256973028182983,0.3747814893722534,-1.4243476390838623,-0.6141916513442993,0.7495100498199463,-0.6547147035598755,-0.37258583307266235,-0.5112042427062988,0.631087064743042,-1.0189813375473022,0.8459848761558533,-0.9041967988014221,-0.49386921525001526,-0.6667993664741516,0.15989434719085693,0.5187456607818604,-1.6420398950576782,0.34974610805511475,-0.32446548342704773,-0.6059600114822388,0.40133213996887207,-0.7049763202667236,0.17697900533676147,-0.7136582136154175,0.9359745383262634,1.1310293674468994,1.1036431789398193,-0.8865971565246582,-0.884212851524353,-0.5647274255752563,-0.48886916041374207,-2.009752035140991,0.49371522665023804,0.7033480405807495,0.4591096043586731,-0.13624592125415802,-0.7224589586257935,0.1558162420988083,-0.5867559313774109,-0.7814428806304932,0.49473005533218384,-0.5174264311790466,-0.37965118885040283,0.43669214844703674,0.21801693737506866,0.6247900128364563,0.8921819925308228,-0.11087081581354141,-1.2526788711547852,-0.5719648003578186,1.560014247894287,-0.8670596480369568,-0.6392041444778442,0.794800341129303,0.858368456363678,0.37636226415634155,0.7324504852294922,0.7694169282913208,-0.3822261691093445,-0.700066089630127,-0.24362392723560333,0.642527163028717,-0.6570716500282288,-1.3616456985473633,0.29910075664520264,0.6874722838401794,1.075934886932373,-0.38832640647888184,-0.20105504989624023,-0.5551632642745972,-0.18808026611804962,0.7478285431861877,0.40139925479888916,1.3067066669464111,1.1197811365127563,-0.45838332176208496,0.48066791892051697,0.2169543355703354,0.5889289379119873,1.2759559154510498,0.5359046459197998,-0.34104955196380615,0.4187158942222595,1.7174702882766724,-0.42642414569854736,0.2922958731651306,-0.6108395457267761,-0.4549131393432617,-0.7077122330665588,0.42398741841316223,0.6440004706382751,-0.5171055197715759,-0.5128900408744812,-0.8600669503211975,0.039460837841033936,0.7352526783943176,-0.7781078219413757,0.6423764228820801,0.7965428233146667,-1.0494688749313354,0.5849578976631165,0.4465785622596741,0.5378990173339844,-0.5810241103172302,-1.0752301216125488,1.2165706157684326,0.6417384743690491,-1.4151519536972046,0.7176693081855774,0.6705999374389648,1.0335522890090942,-0.7305022478103638,0.5410647392272949,1.140933632850647,0.6730111837387085,-0.8291916847229004,0.9306450486183167,1.0551427602767944,0.3755580186843872,-0.7192329168319702,-0.721455991268158,0.7885633707046509,0.48928922414779663,-0.5905946493148804,0.49209165573120117,0.3151019811630249,-1.044346570968628,0.9666123986244202,0.8047615885734558,-0.5275116562843323,0.65586918592453,-0.39141562581062317,1.1943080425262451,0.7632961273193359,1.0323625802993774,0.7365132570266724,-0.7001388669013977,0.5937094688415527,0.7415525317192078,0.9511876702308655,-0.3266844153404236,-0.8803877234458923,-1.2031164169311523,0.14278623461723328,-0.6380213499069214,-0.7771122455596924,0.912701427936554,-1.0710147619247437,-0.24506644904613495,-0.8392245769500732,0.13312898576259613,0.7350976467132568,-0.6584726572036743,0.5340523719787598,0.6274563074111938,0.7485380172729492,-0.5495429039001465,0.17516650259494781,-0.4462338089942932,-0.9208173751831055,0.7659177780151367,0.33935850858688354,-0.40003594756126404,0.9282350540161133,-0.5354529023170471,-0.5155397057533264,0.5535867214202881,-1.2068917751312256,0.904575526714325,0.1367776244878769,0.1122177317738533,-0.5746692419052124,0.8082530498504639,-0.9247575998306274,0.9027069807052612,0.0655965656042099,0.5482622981071472,0.202370747923851,0.7847619652748108,0.3175022006034851,-0.7762455940246582,-1.2652792930603027,2.029358148574829,2.3172359466552734,-0.18910071,-0.1280898,-0.094423786,0.054103177,0.059764702,0.28806514,-0.01181295,0.041679665,0.083059005,-0.39741954,0.113538995,0.18208282,-0.08358961,-0.13421017,-0.2958922,-0.20219092,0.1650433,-0.27421927,-0.14085044,-0.084140375,0.057416216,0.17016454,-0.105965376,0.22664613,0.12172062,0.1402484,-0.027999777,-0.011551458,0.017648974,0.08338534,-0.10659983,-0.037673824,-0.14799224,-0.26645693,-0.40357742,0.024047447,0.024218295,0.19054486,0.03198303,0.21188188,-0.17646885,-0.12572148,-0.11996956,0.13374968,-0.012286582,-0.10121584,0.120347366,0.08893222,-0.09626168,-0.05526201,-0.014261423,0.09107317,-0.21027185,0.10433329,-0.23494798,0.12629405,-0.10673093,-0.20804623,-0.12461841,-0.060132213,-0.029697616,0.05668491,-0.031638112,0.19012523,0.20124361,-0.1281301,-0.15756494,0.06947007,0.12293208,0.07499082,0.1951535,0.00022257346,0.34116456,-0.020948036,0.2506809,0.108610965,0.15564467,-0.16199972,0.24832192,0.099655464,-0.062253296,0.14286652,-0.18989573,0.15459533,-0.33448482,0.08974467,-0.023008145,0.16891952,-0.15438296,-0.320206,-0.021316955,-0.15342174,0.14426856,0.08719944,-0.08079977,-0.08085048,0.06695373,-0.029573455,-0.10844704,0.10944437,0.2037357,-0.06114412,-0.17821383,-0.20262164,0.40646824,0.01641428,0.17597483,-0.027270045,0.088686675,0.023824045,0.060184706,-0.06680082,-0.06982751,0.3460666,0.24152279,-0.1398064,0.072611466,-0.14904433,-0.36872974,-0.1660955,0.15718493,0.072479054,0.1144427,0.10817948,-0.086548746,0.01222861,-0.07195235,0.04826901,-0.04374831,-0.3448588,-0.13656723,-0.24604085,0.15168537,0.09361314,0.11210555,0.20541662,0.10637947,0.013318045,0.29090217,-0.017733604,0.009931407,0.0065881773,-0.14596412,0.1474703,-0.20472592,-0.2849136,0.077566296,-0.010442781,-0.17850506,-0.06773037,0.0072098356,0.10973015,0.1116976,0.16293715,-0.23751259,-0.1958638,-0.05310581,0.2394594,-0.11176235,-0.21548367,-0.01641763,-0.21622603,0.28188106,-0.19754331,-0.3300631,-0.12576772,0.32228872,0.05242651,0.14813131,0.07136944,0.078410745,-0.10611989,-0.046900693,-0.43636778,-0.01903884,0.22392187,0.098087296,0.10821651,-0.07463999,0.03152829,-0.029915553,0.089407325,0.05206702,0.25240815,-0.061140556,0.051612798,0.018459087,0.12273522,0.049144782,-0.020427719,0.21231289,-0.13336374,-0.107397325,0.17777815,-0.08406894,0.17133455,-0.14518672,0.10169044,-0.089437455,-0.043603316
ccsbBroad304_14770,-0.4774439334869385,0.6054337620735168,-0.8388781547546387,0.5368078351020813,0.1581244319677353,0.46303850412368774,0.5372896790504456,0.853152334690094,-0.7397823333740234,-0.20856420695781708,-5.127714157104492,0.8414722084999084,-0.3033977746963501,0.7946299314498901,1.1059904098510742,0.30330654978752136,-1.644984245300293,-0.7215180993080139,1.0524543523788452,0.14757239818572998,-0.44764244556427,-0.43761205673217773,-0.8218663930892944,-1.391065001487732,0.8027355074882507,-0.5221376419067383,-0.33763110637664795,0.20395611226558685,-0.2363809496164322,-0.4484960734844208,-0.9446024298667908,0.408626526594162,0.9432122111320496,0.31664609909057617,0.7558131217956543,-0.6362175345420837,0.6852446794509888,0.6058313250541687,-0.9577599167823792,1.1356524229049683,0.3598889708518982,-0.7793350219726562,0.6435069441795349,-0.9038905501365662,0.6454969644546509,-1.0355383157730103,-0.42189157009124756,-1.0415288209915161,-0.6058658957481384,-0.4364296793937683,-1.5357587337493896,-0.28973448276519775,-1.5018260478973389,0.8939400911331177,-0.8354426622390747,-0.7944850921630859,-0.3660128116607666,-0.743873655796051,-0.5709459185600281,0.5809853672981262,0.27940455079078674,-1.1997625827789307,-1.184795618057251,0.3266279101371765,-0.7092517614364624,0.5074637532234192,0.2757869064807892,0.6350070834159851,0.38427573442459106,0.9832545518875122,-0.6479675769805908,0.18240408599376678,1.3101783990859985,0.3570898473262787,-1.4106817245483398,-0.5982691645622253,0.7689939141273499,-0.5517951846122742,-0.41976407170295715,-0.45037373900413513,0.6585443019866943,-1.073933720588684,0.8277073502540588,-0.8916963934898376,-0.6130289435386658,-0.6386256814002991,0.11428319662809372,0.5674357414245605,-1.7136203050613403,0.2683858573436737,-0.23375742137432098,-0.5531975626945496,0.3503037691116333,-0.7514039874076843,0.12317423522472382,-0.7516138553619385,0.8658333420753479,1.1565204858779907,1.0776234865188599,-0.7940106391906738,-0.8645290732383728,-0.6262505054473877,-0.5506319403648376,-2.0266385078430176,0.42217546701431274,0.7244778871536255,0.5206531882286072,-0.05967835336923599,-0.7429662346839905,0.16000697016716003,-0.6152467131614685,-0.8605254292488098,0.45616278052330017,-0.4837343692779541,-0.39706557989120483,0.42730191349983215,0.23984335362911224,0.5813116431236267,0.9408823847770691,-0.1499127596616745,-1.2534326314926147,-0.5451943278312683,1.547830581665039,-0.7865707874298096,-0.6269975900650024,0.7593384385108948,0.8535178303718567,0.36959847807884216,0.6848732829093933,0.7238220572471619,-0.3524550497531891,-0.677250862121582,-0.19127430021762848,0.650187075138092,-0.6602749228477478,-1.349711537361145,0.23172727227210999,0.7860189080238342,1.102163314819336,-0.36305636167526245,-0.14996695518493652,-0.6217420697212219,-0.10597649961709976,0.7148565053939819,0.4509018063545227,1.3129171133041382,1.1064953804016113,-0.40750938653945923,0.4559624195098877,0.21993611752986908,0.6016860604286194,1.284286379814148,0.5285134315490723,-0.37302520871162415,0.3537089228630066,1.6766542196273804,-0.45013442635536194,0.3269530236721039,-0.6637414693832397,-0.429106742143631,-0.6946104168891907,0.34290745854377747,0.6298041939735413,-0.48186492919921875,-0.43356820940971375,-0.8213611245155334,-0.03113982453942299,0.7278679013252258,-0.8028358817100525,0.6329390406608582,0.6937808394432068,-1.029286503791809,0.5612500905990601,0.48085519671440125,0.5007085800170898,-0.6402935981750488,-1.1665892601013184,1.1034191846847534,0.6896655559539795,-1.4001760482788086,0.7119924426078796,0.6934998631477356,0.9883391261100769,-0.7843407392501831,0.5460763573646545,1.19716477394104,0.7436171770095825,-0.8770260810852051,0.9183943271636963,1.0555447340011597,0.34197503328323364,-0.7262129783630371,-0.8235476016998291,0.8616021871566772,0.5140222907066345,-0.6185486912727356,0.5434578657150269,0.3184603154659271,-1.0251940488815308,1.0467437505722046,0.9642245769500732,-0.5796789526939392,0.6483246684074402,-0.29688113927841187,1.2079551219940186,0.7804737687110901,1.0061545372009277,0.6646656394004822,-0.685352087020874,0.614479660987854,0.7587178945541382,0.9199457764625549,-0.2720695436000824,-0.8853341341018677,-1.194543719291687,0.20192867517471313,-0.5945345759391785,-0.8334348797798157,0.964826762676239,-1.1183229684829712,-0.18545059859752655,-0.8903065919876099,0.22734573483467102,0.7965617179870605,-0.6056600213050842,0.5698161125183105,0.6437387466430664,0.7432439923286438,-0.6215589642524719,0.14814648032188416,-0.3895418047904968,-0.9829002618789673,0.7887154817581177,0.30963030457496643,-0.544407844543457,0.9893835783004761,-0.5441408157348633,-0.5119470357894897,0.634001612663269,-1.207293152809143,1.0026694536209106,0.1435510516166687,0.11955150961875916,-0.5261083841323853,0.9368720650672913,-0.9744257926940918,0.964028000831604,0.04281729459762573,0.5330381393432617,0.16593150794506073,0.7455195784568787,0.2703538239002228,-0.734647274017334,-1.2331838607788086,2.0056021213531494,2.247772216796875,-0.4256134,-0.061258826,-0.36644587,-0.07173698,-0.1777416,0.076609805,0.052237716,0.40955037,0.46432805,-0.13590588,0.039401364,0.37291256,-0.27043715,-0.13369638,0.07634482,-0.3529289,-0.0435892,-0.03435256,-0.14416024,0.07447448,-0.2573138,0.010817946,-0.020966798,-0.22289036,0.27913824,-0.31996965,-0.012601909,0.033724844,-0.1190302,0.11563774,-0.29633373,-0.020596206,-0.07318261,-0.13661122,0.33140805,-0.26666588,0.20368218,-0.14005598,-0.051548645,0.31447443,-0.1594145,-0.39986137,0.09397426,0.22416654,0.07640345,-0.028474249,0.02192936,0.34739393,-0.10512415,-0.00016417858,-0.104617655,0.32711968,0.23982702,-0.11477675,-0.044258498,0.24957019,-0.23753312,0.3679251,-0.17457516,-0.20257516,-0.29030764,-0.14144164,-0.36197355,0.1231642,-0.30562046,-0.1957442,-0.1199484,0.1878237,0.1321862,0.27481613,0.08543372,0.14396265,-0.23562676,-0.05928287,0.057965644,-0.15994763,0.20503919,0.20400749,-0.25322896,-0.083310954,0.37780988,0.020949213,-0.14117391,-0.1509788,0.19587569,0.077361934,0.15836504,-0.054572806,-0.31352487,-0.17324507,-0.094535336,-0.21608153,-0.023583978,0.06481672,-0.2912318,0.035437334,0.18469828,-0.2584807,0.054624464,-0.025295435,0.0044423807,0.40041807,-0.1571669,-0.25351098,0.10794613,-0.02118851,0.30088648,-0.07109837,-0.115467004,-0.042353798,0.39895204,-0.06926244,-0.030716797,-0.070501536,0.45017275,-0.3287563,0.07226402,-0.32013288,-0.2477551,-0.23486358,-0.021619936,0.1961751,0.26398715,0.37070155,0.12283971,-0.15209816,-0.00862633,-0.1518739,0.4610734,-0.1357974,-0.13491641,-0.044436187,-0.17735681,0.25354287,-0.300374,-0.057339154,0.115880065,-0.19734737,0.33015475,-0.021726806,0.11758603,-0.23570578,-0.12145781,-0.20945811,-0.054503523,0.17740613,-0.48208183,-0.15119898,0.031054027,-0.6213451,0.12794647,0.24757461,-0.13044,-0.29906332,0.25081348,-0.07556054,0.11939953,-0.016725514,-0.018939735,-0.15676922,-0.3215264,0.24336553,0.046261005,-0.32950172,0.12915604,-0.23875952,0.1651474,-0.39127454,0.29762113,0.005714185,-0.06590424,0.18678252,0.05583058,-0.0054694046,-0.21404879,-0.034928303,0.09588943,-0.22947146,-0.29090247,-0.107605875,0.3077894,0.10845877,-0.08756679,-0.061023403,-0.06233885,-0.17159191,0.30485764,-0.14569023,0.27675727,-0.17628692,0.038190212,-0.30484515,0.43541926,-0.23460293,-0.11395177,0.2747635,-0.1673082,-0.28703624,0.21594705,0.2371091
ccsbBroad304_14679,-0.42370566725730896,0.6637400984764099,-0.7436009049415588,0.6070970892906189,0.17731745541095734,0.5153774619102478,0.5670371651649475,0.7465731501579285,-0.7728469967842102,-0.32594823837280273,-5.1005167961120605,0.9935671091079712,-0.3253334164619446,0.7157702445983887,1.1722545623779297,0.30728405714035034,-1.6929079294204712,-0.7369455099105835,0.8979118466377258,-0.0438179150223732,-0.46367353200912476,-0.4118569791316986,-0.8667588233947754,-1.4397449493408203,0.7466930150985718,-0.4903394281864166,-0.6095793843269348,0.20411592721939087,-0.2960928678512573,-0.5841398239135742,-0.8720583915710449,0.3439583480358124,1.0148478746414185,0.45615050196647644,0.624090313911438,-0.6622248888015747,0.6153632402420044,0.5232113003730774,-0.8289111852645874,1.1959037780761719,0.5121286511421204,-0.9604758024215698,0.6697195172309875,-0.8402461409568787,0.6297687292098999,-1.0498384237289429,-0.5362909436225891,-1.012082576751709,-0.713175356388092,-0.40545132756233215,-1.6235265731811523,-0.3558094799518585,-1.4969700574874878,0.9764600396156311,-0.7608134150505066,-0.6059737801551819,-0.372350811958313,-0.7578116655349731,-0.6200383901596069,0.6515827775001526,0.27257040143013,-1.1668120622634888,-1.0840377807617188,0.356193482875824,-0.685287356376648,0.45451831817626953,0.4214552938938141,0.7461181282997131,0.4081357717514038,0.907762348651886,-0.7193326950073242,0.18524307012557983,1.3797624111175537,0.4021381735801697,-1.3626106977462769,-0.6482436060905457,0.7243788838386536,-0.6431997418403625,-0.3700357973575592,-0.4984970688819885,0.6811864376068115,-0.9736413359642029,0.9237395524978638,-0.982921302318573,-0.46151649951934814,-0.6709764003753662,0.22996751964092255,0.5216625332832336,-1.5839319229125977,0.4499959945678711,-0.33077096939086914,-0.5749837160110474,0.4861333966255188,-0.7143512964248657,0.23635977506637573,-0.6492769718170166,0.9934832453727722,1.1289502382278442,1.1097475290298462,-0.9572555422782898,-0.9794074296951294,-0.5549786686897278,-0.47893115878105164,-2.0293829441070557,0.5164514183998108,0.6698510646820068,0.44079285860061646,-0.15665480494499207,-0.7162634134292603,0.1569642871618271,-0.5685796737670898,-0.7981176376342773,0.5318801403045654,-0.4743773937225342,-0.4395400285720825,0.47987988591194153,0.22763174772262573,0.7419054508209229,0.8404251933097839,-0.06523280590772629,-1.2791997194290161,-0.5251507759094238,1.6090807914733887,-0.8891503810882568,-0.6574066877365112,0.8528186082839966,0.8930890560150146,0.31748494505882263,0.7300732731819153,0.8683955073356628,-0.42677268385887146,-0.7406055927276611,-0.3007566034793854,0.6013244986534119,-0.6188700795173645,-1.4160513877868652,0.3534194827079773,0.6136365532875061,1.1095554828643799,-0.41249778866767883,-0.276090532541275,-0.553088903427124,-0.2798147201538086,0.7966116070747375,0.3774318993091583,1.3610504865646362,1.1984553337097168,-0.4082573354244232,0.5174185037612915,0.24976323544979095,0.5747507214546204,1.265139102935791,0.525823712348938,-0.34320148825645447,0.4341472387313843,1.780509352684021,-0.47545793652534485,0.24824032187461853,-0.597054660320282,-0.5109976530075073,-0.6672806143760681,0.503078281879425,0.7212527990341187,-0.4846506416797638,-0.56095951795578,-0.9527484774589539,0.0360071025788784,0.8537935018539429,-0.7430417537689209,0.671185314655304,0.7969258427619934,-1.1254569292068481,0.5894933938980103,0.41603875160217285,0.623512864112854,-0.639826774597168,-1.033385157585144,1.1816930770874023,0.6644055247306824,-1.439436912536621,0.6916932463645935,0.61183762550354,1.0389474630355835,-0.6932690143585205,0.546635627746582,1.111458420753479,0.6396013498306274,-0.900008499622345,0.9050273299217224,0.9896299242973328,0.35974735021591187,-0.6967908143997192,-0.6943525671958923,0.8765202164649963,0.6143779754638672,-0.6798967719078064,0.4750792980194092,0.335014671087265,-1.0750011205673218,0.9348637461662292,0.7863028049468994,-0.5469695925712585,0.7291959524154663,-0.3443787097930908,1.167121171951294,0.8105888366699219,1.054922103881836,0.7677337527275085,-0.7819328904151917,0.5449815988540649,0.7318748235702515,0.9644351601600647,-0.3954472839832306,-0.9154360890388489,-1.193218469619751,0.1743011772632599,-0.6653797030448914,-0.7302536368370056,0.9037142992019653,-1.0481631755828857,-0.31106486916542053,-0.7687647938728333,0.02491861581802368,0.6508747339248657,-0.6982852220535278,0.4754880368709564,0.5982298851013184,0.6591997742652893,-0.5765956044197083,0.21949727833271027,-0.4692108631134033,-0.9199082851409912,0.7840701341629028,0.36200588941574097,-0.29212769865989685,0.8610256314277649,-0.5945638418197632,-0.4807814359664917,0.5775798559188843,-1.26437509059906,0.8654922842979431,0.23696519434452057,0.016903724521398544,-0.5745211839675903,0.8231881856918335,-0.9757780432701111,0.9527415037155151,0.08916645497083664,0.5285171866416931,0.22893473505973816,0.8059328198432922,0.2948148250579834,-0.8071981072425842,-1.2868878841400146,2.022667407989502,2.390326738357544,-0.12331672,-0.0029540954,0.33826703,-0.09832971,-0.13413897,0.013705979,0.23817104,-0.13496286,0.048263036,-0.17948014,0.27886388,0.14614388,-0.19321227,0.093489245,0.21343249,-0.1300239,-0.1338032,0.2942291,-0.06968481,-0.09886723,0.072143346,-0.08546118,-0.09827473,-0.11125322,0.29354724,0.013580158,-0.07125788,-0.07425474,-0.13549101,0.29399997,-0.022155847,-0.21142802,-0.053590182,0.015428645,0.03743032,0.32597798,-0.23288925,-0.14064617,-0.092293665,-0.30378783,-0.28562567,0.40393293,-0.06497361,0.25399595,0.40136713,0.073874846,0.07868352,-0.06517212,-0.05340765,0.15436615,-0.16626878,-0.13216414,-0.10352897,0.09636223,0.10604995,0.00046492892,0.005701958,-0.07896776,-0.14207833,-0.016577354,-0.029539421,0.09488139,0.25136906,0.13875172,0.29548866,0.257771,-0.036828216,0.07732367,-0.021424504,-0.12639168,0.12596364,0.39098033,-0.09788563,0.46018237,0.17884746,-0.29283828,0.10401191,0.1947382,0.10887818,0.1491549,-0.34502953,-0.09232832,-0.0050495616,0.089210585,-0.2210142,-0.0690453,-0.2105489,-0.16118306,0.016611932,-0.11310272,0.042019602,-0.07112447,-0.055257563,0.043005247,0.16079484,-0.4551495,-0.16204147,-0.046831425,0.24846038,0.034785144,0.27763918,0.123872675,0.2345734,-0.06296789,-0.038977683,0.017664514,0.41646996,-0.1386375,0.20710748,-0.030673578,0.10882973,-0.15314898,0.042377815,-0.06200826,-0.1241985,0.026032213,-0.008364227,-0.24196596,0.21628234,0.01662879,-0.18687043,-0.0075868424,0.15455858,0.24978566,-0.156898,0.013792319,0.12523587,-0.002593441,-0.115458064,-0.05898726,-0.27840495,-0.16568427,-0.20482704,0.15657751,-0.06208168,-0.17243911,-0.3251154,0.07047247,-0.036597934,-0.18874091,-0.14926732,0.16130762,0.31374696,0.037481003,0.03055333,-0.04402989,0.04607613,-0.32763502,-0.23224123,0.020955473,-0.25490957,-0.03720104,0.29620823,-0.093662925,0.22721304,-0.14027967,0.07351901,0.28674868,0.0046089995,-0.18112345,0.04426844,-0.15431997,0.042129632,-0.0424015,0.0012821049,-0.07155979,-0.29557252,0.09569276,0.0023228657,-0.045933586,0.041479968,0.12889303,0.42816597,0.089006096,0.12815025,0.19404167,0.091033995,0.037404187,0.15596429,-0.30054286,-0.07090951,0.12785967,-0.15009841,-0.14797285,0.2860089,0.2535608,0.39425322,0.08286338,0.05642125,0.14532386,-0.01570503,-0.23164423,0.31051204,-0.055141024,0.0557371,0.24280027,-0.01844809,-0.07726587,0.11183512,-0.05999912
ccsbBroad304_07061,-0.5037838220596313,0.5643467903137207,-0.9166201949119568,0.5591211915016174,0.1369984745979309,0.4762198328971863,0.5422404408454895,0.9122289419174194,-0.7329776883125305,-0.16492576897144318,-5.170557498931885,0.7982958555221558,-0.22066354751586914,0.7923244833946228,1.0574063062667847,0.3516038954257965,-1.5285840034484863,-0.7058454155921936,1.186876893043518,0.19802816212177277,-0.4269300401210785,-0.4291785955429077,-0.8296821713447571,-1.2602245807647705,0.7746734023094177,-0.48286616802215576,-0.2948283851146698,0.20177696645259857,-0.23731400072574615,-0.37656715512275696,-0.9197947382926941,0.3883988559246063,0.8394923210144043,0.2665330469608307,0.8509030342102051,-0.6849668025970459,0.6752333641052246,0.6335155367851257,-0.9397070407867432,1.0542027950286865,0.2708275318145752,-0.6882891654968262,0.6145167350769043,-0.9224987030029297,0.6405050158500671,-1.012415885925293,-0.37145525217056274,-1.0783019065856934,-0.5360713601112366,-0.49530816078186035,-1.4694048166275024,-0.23647455871105194,-1.5042619705200195,0.8437833189964294,-0.8966315984725952,-0.9001564979553223,-0.38085636496543884,-0.7187973856925964,-0.6478630304336548,0.6017286777496338,0.22948768734931946,-1.136401891708374,-1.2168933153152466,0.2807684540748596,-0.6525133848190308,0.5051339268684387,0.19286377727985382,0.6548982262611389,0.4547916352748871,0.9823921918869019,-0.5763422846794128,0.18302059173583984,1.3163625001907349,0.3301241397857666,-1.360059380531311,-0.5775091648101807,0.774304211139679,-0.3849857747554779,-0.5016413331031799,-0.4245809018611908,0.6898931264877319,-1.0620225667953491,0.7811960577964783,-0.8381636738777161,-0.5917871594429016,-0.6233751773834229,0.05640672892332077,0.5939515829086304,-1.7017595767974854,0.15299370884895325,-0.13960029184818268,-0.48811230063438416,0.3441089689731598,-0.8191549181938171,0.03390884771943092,-0.7865285277366638,0.8198767304420471,1.117163062095642,0.9989138245582581,-0.7580363750457764,-0.9420755505561829,-0.6958107948303223,-0.5683395266532898,-2.030506134033203,0.32523590326309204,0.7638137340545654,0.5460264682769775,-0.08928468823432922,-0.7383395433425903,0.11899963766336441,-0.6324129700660706,-0.8612310290336609,0.45412251353263855,-0.450825572013855,-0.43830257654190063,0.33899348974227905,0.288151353597641,0.5892253518104553,0.9490571618080139,-0.18152789771556854,-1.2367538213729858,-0.553033709526062,1.5711008310317993,-0.7502621412277222,-0.5518712997436523,0.7073498368263245,0.8881288170814514,0.3810953199863434,0.6144506931304932,0.6278363466262817,-0.2579483091831207,-0.6216875910758972,-0.1393633782863617,0.6353522539138794,-0.6311134696006775,-1.3385615348815918,0.24085840582847595,0.8135193586349487,1.15656316280365,-0.3896561563014984,-0.1464761197566986,-0.6046929955482483,-0.0765855610370636,0.6953927278518677,0.49964550137519836,1.2509760856628418,1.1288604736328125,-0.37619727849960327,0.43121644854545593,0.20884880423545837,0.5572994947433472,1.331151008605957,0.42968547344207764,-0.4149332344532013,0.2988588511943817,1.5496007204055786,-0.48565077781677246,0.3227309584617615,-0.7522434592247009,-0.3473140597343445,-0.6971016526222229,0.2684880793094635,0.6034925580024719,-0.4154528081417084,-0.43107086420059204,-0.7570962309837341,-0.13426172733306885,0.762569785118103,-0.7739862203598022,0.5624422430992126,0.6076972484588623,-0.9863758683204651,0.4818660616874695,0.5079726576805115,0.4118458330631256,-0.6704117655754089,-1.217553973197937,1.1541862487792969,0.7242878675460815,-1.3378063440322876,0.7101008892059326,0.750313401222229,1.0128276348114014,-0.830692708492279,0.4950425922870636,1.2097804546356201,0.7579731345176697,-0.9222760200500488,0.9737186431884766,1.0264052152633667,0.3057957887649536,-0.6975939273834229,-0.8646210432052612,0.8634463548660278,0.5383710265159607,-0.6488161087036133,0.5537008047103882,0.2846623361110687,-0.9527077674865723,0.9912653565406799,0.9854482412338257,-0.5732281804084778,0.7169614434242249,-0.3109612464904785,1.2837332487106323,0.8715468645095825,0.878624439239502,0.603549599647522,-0.6349563598632812,0.643950879573822,0.7409866452217102,0.8007110357284546,-0.2626173794269562,-0.8791379928588867,-1.1647727489471436,0.25507017970085144,-0.5765935778617859,-0.7728952765464783,1.0055345296859741,-1.1117115020751953,-0.09534424543380737,-0.8773381114006042,0.32880279421806335,0.7590790390968323,-0.5321780443191528,0.5787288546562195,0.6697612404823303,0.718019962310791,-0.599859356880188,0.1528346687555313,-0.42362073063850403,-1.0356638431549072,0.7484462261199951,0.340335875749588,-0.6667347550392151,0.9609763026237488,-0.5058760643005371,-0.5181934833526611,0.7327995896339417,-1.169712781906128,1.1090495586395264,0.13190245628356934,0.14297138154506683,-0.44698119163513184,0.8922219276428223,-0.9433335065841675,1.00960111618042,0.032706763595342636,0.5143630504608154,0.14318029582500458,0.7355361580848694,0.23372121155261993,-0.7830237746238708,-1.177571415901184,1.866081953048706,2.167154550552368,0.14302725,-0.22403729,-0.1694555,-0.046065513,-0.20174152,-0.1737607,-0.083404884,-0.028464733,-0.060787905,-0.15031143,0.020466713,0.15742144,0.08680602,-0.112774305,-0.3091134,0.04531184,0.06669388,-0.38986292,-0.06627108,0.09878925,-0.025794033,0.20609196,-0.06158295,0.112699695,0.28612104,0.16146417,-0.16479512,-0.14836065,-0.120283216,0.15888473,0.060317487,0.067104466,-0.037430342,-0.29639167,-0.29009417,-0.02984868,-0.065632805,0.09149821,-0.36104065,-0.015351167,-0.048574198,0.15462406,0.15772577,-0.050593935,0.23663169,0.124895394,0.22726023,-0.019536264,-0.12062405,0.19426346,0.16910778,0.027601099,-0.21300374,-0.15222932,-0.033377305,0.07659999,0.040696666,0.09951392,-0.099462144,-0.0140997125,-0.06373934,-0.013758816,-0.2974518,0.13205822,-0.059208523,-0.34497446,-0.06937903,-0.1872326,-0.09381804,-0.02796932,-0.2503505,-0.17815244,-0.13065216,-0.088838235,-0.05759528,0.15094307,0.05316779,0.15733017,0.1677229,0.10587817,-0.09386714,0.043709103,0.29564843,-0.0119397715,0.15018028,0.13649131,-0.09714315,0.18333933,-0.051018625,-0.07634103,-0.21265464,-0.38596636,0.18108891,-0.014812651,-0.05567811,-0.020507874,-0.09608028,0.36602816,-0.14549945,0.13107921,0.18163809,-0.09856397,0.28649086,-0.18419185,0.20504555,0.0062493174,-0.09385525,-0.1691725,-0.12454151,-0.0516153,0.33271638,0.05665828,-0.043528985,0.3930983,0.14527439,0.25058034,0.17089678,-0.26918185,0.0028520022,-0.029233793,0.036794677,-0.11870462,0.4136413,0.090752564,-0.27847525,0.25329655,0.036474727,-0.10984634,-0.10893139,0.23472625,-0.0357418,-0.31984565,-0.10982299,0.09860051,-0.1484621,-0.17838311,0.19044587,0.055101212,0.3409821,-0.031179678,0.40944493,-0.033553366,0.12269915,-0.096460894,0.333305,0.29440212,-0.0061982353,0.027509952,0.1661767,-0.02900242,-0.010009473,0.047900457,0.113574676,-0.39105013,-0.0006109948,-0.04408821,-0.21830499,0.08144114,-0.13601378,-0.3041153,-0.6425386,0.032665752,0.15625466,-0.0032516054,-0.033202354,0.11783053,-0.26169458,-0.06692406,0.18371134,0.10732813,-0.05511102,0.1375821,-0.38128012,-0.036052246,-0.088961326,0.3882957,0.21442243,-0.22244006,-0.06120238,-0.062102355,0.12981933,-0.09762374,-0.18256178,-0.015681304,-0.00091169897,0.20288986,0.14089078,-0.044334542,-0.15251502,-0.031479344,0.18362851,-0.16099657,-0.13708289,-0.31318018,-0.46654928,-0.042579874,-0.21449134,-0.29800263,0.0040189256,0.1113875
ccsbBroad304_00526,-0.35471007227897644,0.6928574442863464,-0.6828678250312805,0.6482229828834534,0.1698123812675476,0.48747676610946655,0.5301910042762756,0.691434383392334,-0.7991757392883301,-0.3608993887901306,-5.095741271972656,1.1421635150909424,-0.4180668592453003,0.7195126414299011,1.2097989320755005,0.27436813712120056,-1.6941992044448853,-0.7376784682273865,0.7880988717079163,-0.13573327660560608,-0.5358896255493164,-0.42385926842689514,-0.8297902345657349,-1.4890531301498413,0.7873302102088928,-0.4975847005844116,-0.6225290894508362,0.2014242708683014,-0.3387373387813568,-0.6258153915405273,-0.9018274545669556,0.3549259603023529,1.0428661108016968,0.4671003520488739,0.5544646978378296,-0.6328904032707214,0.5759973526000977,0.5040042996406555,-0.8016610741615295,1.1971447467803955,0.5312338471412659,-1.0085222721099854,0.6851642727851868,-0.7837114334106445,0.6154099702835083,-1.0305441617965698,-0.5371803641319275,-0.9705380201339722,-0.7882551550865173,-0.39704179763793945,-1.633548617362976,-0.36089831590652466,-1.3929730653762817,0.9757658839225769,-0.6713017225265503,-0.5800873637199402,-0.36626529693603516,-0.7439365386962891,-0.6125136017799377,0.6708102822303772,0.28366100788116455,-1.1494827270507812,-1.0818698406219482,0.40149325132369995,-0.670608401298523,0.3945264220237732,0.47209078073501587,0.775068461894989,0.4097139537334442,0.8632787466049194,-0.7804844379425049,0.16243870556354523,1.3973779678344727,0.4009314775466919,-1.3742899894714355,-0.6748654246330261,0.7086220979690552,-0.7400814294815063,-0.3176565170288086,-0.5296798348426819,0.6557369828224182,-0.9536947011947632,0.9706693291664124,-0.9864652752876282,-0.4689704179763794,-0.6611928939819336,0.279425710439682,0.4483431875705719,-1.5730763673782349,0.56972736120224,-0.4278301000595093,-0.6288729310035706,0.5073360204696655,-0.7067458629608154,0.3173637390136719,-0.5956169366836548,1.0674107074737549,1.074063777923584,1.102001428604126,-0.959686815738678,-0.9600164890289307,-0.46109411120414734,-0.39375174045562744,-2.0217959880828857,0.5753352046012878,0.6478587985038757,0.3884550631046295,-0.19456984102725983,-0.70993971824646,0.16151586174964905,-0.5423439145088196,-0.7186828851699829,0.5652294158935547,-0.5048593878746033,-0.39568665623664856,0.525372326374054,0.22269228100776672,0.7562358379364014,0.8135510683059692,-0.0462457537651062,-1.311905026435852,-0.5292468667030334,1.5988065004348755,-0.8928704857826233,-0.7224634885787964,0.8773477673530579,0.8140953779220581,0.35113275051116943,0.7480486035346985,0.9241001009941101,-0.47520753741264343,-0.7276654243469238,-0.30760321021080017,0.6579203605651855,-0.5670122504234314,-1.4009819030761719,0.3893304169178009,0.5637569427490234,1.091683030128479,-0.4401276409626007,-0.265680730342865,-0.46867984533309937,-0.3351195454597473,0.8112742304801941,0.2838622033596039,1.3944370746612549,1.2372993230819702,-0.43791434168815613,0.553295373916626,0.2651638388633728,0.5536092519760132,1.2005126476287842,0.5252073407173157,-0.3151799142360687,0.46068263053894043,1.8518931865692139,-0.42683956027030945,0.21065156161785126,-0.5342802405357361,-0.537376880645752,-0.6930198073387146,0.5984328389167786,0.7563328146934509,-0.593300998210907,-0.5488762855529785,-0.9869661331176758,0.07152432203292847,0.8285808563232422,-0.7690138816833496,0.6827594637870789,0.8769755363464355,-1.1227047443389893,0.6061092019081116,0.40359005331993103,0.6585584282875061,-0.5988204479217529,-0.9520680904388428,1.1864186525344849,0.6740813851356506,-1.4485156536102295,0.6353347301483154,0.5536535382270813,1.0104047060012817,-0.6887786388397217,0.5491739511489868,1.0246710777282715,0.6144911646842957,-0.8661479353904724,0.8895204067230225,0.9961240887641907,0.3639080822467804,-0.6933427453041077,-0.5782718062400818,0.7887270450592041,0.6099634170532227,-0.6470004320144653,0.4180986285209656,0.3606751263141632,-1.0905091762542725,0.8982266783714294,0.7152084112167358,-0.4961177706718445,0.679541289806366,-0.4094915986061096,1.104383111000061,0.7439284324645996,1.0935890674591064,0.8274605870246887,-0.838537871837616,0.48279523849487305,0.7537931799888611,1.0413105487823486,-0.4756854772567749,-0.9370397329330444,-1.1895333528518677,0.15085437893867493,-0.6839938759803772,-0.7047989964485168,0.8531448841094971,-0.9948011636734009,-0.36960774660110474,-0.7600304484367371,-0.049455370754003525,0.6669166088104248,-0.6830766797065735,0.460733026266098,0.5897029042243958,0.6546444892883301,-0.5705585479736328,0.24093759059906006,-0.44393032789230347,-0.8253308534622192,0.7654420733451843,0.40814411640167236,-0.18928822875022888,0.8753291368484497,-0.6222432851791382,-0.44944775104522705,0.5070854425430298,-1.2730709314346313,0.7250322699546814,0.30058616399765015,0.04463401064276695,-0.6356179714202881,0.7769265174865723,-0.988489031791687,0.8830872774124146,0.093559630215168,0.5255421996116638,0.19052401185035706,0.8050597906112671,0.3481156527996063,-0.7654353976249695,-1.3490670919418335,2.0141170024871826,2.4464175701141357,0.1098983,-0.10274304,0.13892762,-0.4730459,0.3792422,0.32992426,0.044454172,0.38096264,0.38002875,0.032077957,0.08583179,0.1757575,-0.40967616,0.09953104,0.33551413,-0.29076928,0.19631855,-0.5469565,-0.10053851,0.019222338,-0.011892297,-0.6326339,-0.24121815,-0.1787867,0.19130684,-0.23016189,0.039497238,0.04256262,-0.14981773,0.2249797,0.1720132,-0.12697232,-0.33069664,0.51199514,0.11688118,0.14403841,-0.25354916,-0.11962026,0.16088936,0.18178482,0.15468702,0.0871866,-0.14443281,-0.14789581,-0.040410228,0.16845885,0.30929187,-0.06766893,-0.030821133,0.13321587,-0.2767106,-0.09544722,-0.0381766,-0.080642745,0.25932017,0.0076987473,-0.6586651,-0.17261943,0.049119644,-0.415363,-0.4146906,-0.6595789,0.18163832,-0.21622358,-0.07422565,0.26611647,-0.1463625,0.316603,0.021094915,-0.063119754,-0.1730304,-0.24892266,0.2094045,-0.10753654,0.086166434,0.08266541,0.32522714,0.050051622,-0.11787516,-0.14273867,-0.044803716,-0.5037927,-0.03997877,0.18999365,0.4043865,-0.12721993,0.23808411,-0.7540801,0.1458066,-0.3093159,0.027811872,0.11247182,-0.17134778,0.051957443,-0.08171278,0.0060728923,-0.064220026,-0.22723937,0.3087167,0.29887837,-0.06523555,-0.028650204,-0.15371436,0.15872017,-0.12508377,0.11701589,0.15269084,-0.25339293,0.0377277,0.20881014,0.27719373,0.12726875,-0.07201185,-0.16313758,0.2146951,0.17380762,0.08884594,-0.08813124,-0.05562247,-0.35877576,-0.43320614,0.2575632,0.15764275,0.038880832,-0.14991792,-0.40679833,0.025154164,-0.37848213,0.19335711,0.15429707,0.16147424,0.28079388,-0.15988418,-0.16697893,0.1255733,-0.25841132,-0.32772902,-0.049612865,0.59220815,-0.10306873,0.17127076,-0.13541739,0.018089592,0.12035799,0.04628784,0.49873203,-0.44151795,-0.09618579,-0.048069086,-0.33346254,-0.13833556,-0.20060405,0.44463956,0.19192559,0.01385776,-0.28901562,-0.048390288,-0.21262862,-0.07475684,0.24449173,0.10014854,0.15911612,-0.012029941,-0.06174921,0.827631,0.20355597,-0.29928634,-0.31786656,0.19926804,0.135688,-0.16332918,0.5176997,0.2512103,-0.043825738,-0.009218149,0.11137563,0.005155199,0.05464454,-0.15789837,0.15829222,0.41340718,0.080605224,0.14578529,0.24571626,-0.038487688,-0.0007827417,0.17443849,0.29622695,0.18730457,-0.21441883,-0.16261742,0.1374791,0.11998482,-0.16666004,-0.15739258,0.4665652,0.046533022,0.11298147,0.15797019,-0.069364406
ccsbBroad304_07557,-0.3013981282711029,0.7001122832298279,-0.6811733841896057,0.6664567589759827,0.1595117747783661,0.4830227792263031,0.5165328979492188,0.6124295592308044,-0.7744847536087036,-0.36231669783592224,-5.0556159019470215,1.2115271091461182,-0.4753939211368561,0.715458333492279,1.254052758216858,0.29003044962882996,-1.7333046197891235,-0.6891235113143921,0.7134717702865601,-0.24119320511817932,-0.5097417831420898,-0.4014856219291687,-0.7833856344223022,-1.512387990951538,0.8081666827201843,-0.47851505875587463,-0.705342710018158,0.17063181102275848,-0.3460833430290222,-0.7220098972320557,-0.8114774227142334,0.3355935215950012,1.0225623846054077,0.553159236907959,0.5090517997741699,-0.6263777017593384,0.5197144746780396,0.4229074716567993,-0.7236468195915222,1.26961350440979,0.5871955752372742,-1.081272840499878,0.6576371192932129,-0.7671838402748108,0.5724877715110779,-1.0582361221313477,-0.5692219138145447,-0.9309947490692139,-0.8217980265617371,-0.3446902632713318,-1.6849361658096313,-0.40248987078666687,-1.284303903579712,1.0347956418991089,-0.6693263649940491,-0.4620112180709839,-0.3673611283302307,-0.7416042685508728,-0.5781614780426025,0.7247674465179443,0.21086055040359497,-1.1240233182907104,-1.0268301963806152,0.47509559988975525,-0.663829505443573,0.3976151943206787,0.6329363584518433,0.7727327346801758,0.39083173871040344,0.8337152600288391,-0.8400143980979919,0.17921817302703857,1.4112575054168701,0.35840868949890137,-1.3529226779937744,-0.6822426319122314,0.6544489860534668,-0.7752252817153931,-0.24677610397338867,-0.506804347038269,0.6223057508468628,-0.9328302145004272,0.9383638501167297,-0.9937416315078735,-0.3701547682285309,-0.699763298034668,0.3406917154788971,0.42450687289237976,-1.4885625839233398,0.6231023073196411,-0.519135057926178,-0.6796180605888367,0.5706947445869446,-0.6770325899124146,0.31404516100883484,-0.5549279451370239,1.1299915313720703,1.0715680122375488,1.1402157545089722,-1.0613138675689697,-0.9566739797592163,-0.44554662704467773,-0.35366302728652954,-2.029540777206421,0.597091019153595,0.6709307432174683,0.35946545004844666,-0.27766910195350647,-0.6696476340293884,0.1581960767507553,-0.5526086688041687,-0.6954929828643799,0.6192150712013245,-0.5178057551383972,-0.4302884042263031,0.5190134048461914,0.174081489443779,0.8095552325248718,0.724532425403595,-0.0021262159571051598,-1.3086297512054443,-0.5091527700424194,1.6250933408737183,-0.9660323262214661,-0.7245004773139954,0.9044514894485474,0.8447374105453491,0.3708060681819916,0.7739462852478027,0.92121422290802,-0.4938983917236328,-0.7473361492156982,-0.36203423142433167,0.6665366888046265,-0.5947990417480469,-1.4115204811096191,0.43293535709381104,0.5304074287414551,1.0471575260162354,-0.45062533020973206,-0.2623879015445709,-0.3901596963405609,-0.35653650760650635,0.835861086845398,0.2547002136707306,1.3856074810028076,1.2488125562667847,-0.45118626952171326,0.6083785891532898,0.2345466911792755,0.5559404492378235,1.1804503202438354,0.5145283341407776,-0.28535449504852295,0.5091029405593872,1.8731147050857544,-0.45103901624679565,0.21062208712100983,-0.48358017206192017,-0.5733556747436523,-0.6854490637779236,0.6743693947792053,0.822303295135498,-0.6109533905982971,-0.5741806626319885,-1.0389115810394287,0.09946715086698532,0.7878484725952148,-0.7330266237258911,0.6963715553283691,0.9685268998146057,-1.1380091905593872,0.6550495624542236,0.362646222114563,0.6812759637832642,-0.5969960689544678,-0.8429813385009766,1.2160824537277222,0.6748660802841187,-1.4505091905593872,0.6179669499397278,0.5271264314651489,1.0662404298782349,-0.6414374709129333,0.5159151554107666,0.9790940880775452,0.562583863735199,-0.7830869555473328,0.8824761509895325,0.9888391494750977,0.36484163999557495,-0.6955252885818481,-0.5447982549667358,0.7431120276451111,0.6600675582885742,-0.6508141756057739,0.3503971993923187,0.3449253439903259,-1.0998563766479492,0.8728843927383423,0.6012986898422241,-0.467668741941452,0.6577111482620239,-0.499484658241272,1.0779179334640503,0.7010951638221741,1.1413418054580688,0.8891250491142273,-0.8503150939941406,0.4987560510635376,0.7773290276527405,1.0481383800506592,-0.5057194828987122,-0.9556031227111816,-1.1772860288619995,0.08809966593980789,-0.7103608250617981,-0.6495307087898254,0.8130502700805664,-1.003848671913147,-0.3912484347820282,-0.7522739171981812,-0.187077134847641,0.5792252421379089,-0.7011707425117493,0.40873485803604126,0.5750998258590698,0.6348177790641785,-0.5792279243469238,0.2929404377937317,-0.5423398017883301,-0.7720745205879211,0.7875174880027771,0.3887084126472473,0.012774689123034477,0.8891386985778809,-0.6277158856391907,-0.4888264834880829,0.48488733172416687,-1.2873958349227905,0.6297758221626282,0.35456064343452454,0.06990904361009598,-0.6524447798728943,0.706723690032959,-0.9620371460914612,0.7865163087844849,0.09603037685155869,0.5091267824172974,0.1863696128129959,0.8453508019447327,0.34768030047416687,-0.7945964932441711,-1.3644788265228271,1.9752109050750732,2.4204261302948,0.20884617,0.20230216,0.24598642,0.04961283,-0.2761112,0.26161474,0.030275092,-0.026897388,0.30844805,-0.055490926,-0.1920131,-0.08068766,-0.32949936,-0.09722643,0.084039636,-0.2711245,-0.19955215,-0.29003835,-0.32271755,-0.10515688,-0.38267535,0.013947599,0.001068111,0.070336044,0.36894313,-0.05950507,0.14037982,-0.06827397,-0.19197652,0.058031183,0.035938673,-0.17890497,-0.0698043,0.072111405,0.045199562,-0.10697675,-0.35600266,-0.09961134,-0.07115069,-0.108263016,-0.048836138,0.05045701,0.22181335,-0.27660713,0.030189253,-0.13148938,0.045496363,-0.1863504,-0.14332081,0.18113694,-0.12228933,-0.12021204,0.02432164,0.041993644,0.2255244,0.24261694,0.10184396,0.07734965,-0.24260315,0.12654506,-0.11440552,-0.37487385,0.09578714,-0.2504967,-0.14655273,0.09565215,0.12829448,-0.092120916,-0.24940717,0.05721248,0.24612069,-0.13626505,-0.089991584,0.29704586,0.05380659,0.27330297,0.17503782,-0.033320706,0.30650344,0.20309737,-0.33354613,0.17234233,-0.24928029,-0.041934375,0.13662446,-0.13406847,-0.0999927,-0.2535998,0.13022272,-0.056803416,0.03436741,0.1263889,-0.19726412,-0.27011055,-0.27563617,-0.487779,-0.010198725,0.032426555,0.397131,0.20609908,0.09173009,-0.10289225,0.05133247,-0.20239665,0.053399723,-0.19836633,0.5134713,-0.22056451,0.11280656,-0.056430083,0.100848146,0.0024484717,-0.016956594,-0.09759463,-0.061762184,-0.34974882,-0.116216555,-0.7409909,-0.03922736,-0.4962843,-0.097946405,-0.0066102557,0.24573562,-0.00635906,0.024854066,-0.38368344,0.15464132,0.31204274,0.045589708,-0.019326605,-0.05335396,-0.17945436,-0.06607042,0.13199522,-0.3597892,-0.34151334,-0.11998832,0.24556293,0.18828458,-0.13726047,-0.3634661,0.2395303,0.08364272,0.24319643,0.1651552,0.3804861,0.1791162,-0.13636312,-0.39285406,0.21199256,-0.29612678,0.025915047,0.21830645,-0.119858496,0.33674702,-0.15065445,0.061995175,-0.11945707,0.15475239,-0.07359575,0.055537637,-0.30183926,0.43528318,-0.1401964,0.24821045,-0.14392523,-0.40017006,-0.115811214,0.06262735,-0.11569274,-0.082308315,0.31629586,0.08561075,-0.19154309,-0.111724995,0.15885124,-0.028663991,-0.055195056,-0.24981134,0.018189179,0.45425826,0.44270548,-0.15906125,0.00022653854,0.16639656,0.18912719,0.70352733,0.26098,0.075621136,0.2650104,-0.60176903,-0.10369948,0.017106885,0.23576999,-0.026552053,0.4191862,0.10164777,0.3132074,0.16757344,0.08562213
ccsbBroad304_00811,-0.47199106216430664,0.5679997205734253,-0.9325231313705444,0.5059024095535278,0.17239198088645935,0.48245155811309814,0.5775783061981201,0.8503586053848267,-0.717790424823761,-0.22040358185768127,-5.284090042114258,0.8148984909057617,-0.22994902729988098,0.7719404697418213,1.0695422887802124,0.3556163012981415,-1.6433496475219727,-0.7269883155822754,1.1202561855316162,0.11411305516958237,-0.39691951870918274,-0.36977821588516235,-0.840511679649353,-1.2878856658935547,0.7473962903022766,-0.4851459860801697,-0.3416610658168793,0.18519282341003418,-0.2349565327167511,-0.45410025119781494,-0.8692915439605713,0.37063002586364746,0.8947786092758179,0.2889930307865143,0.7809116840362549,-0.6990065574645996,0.6605172157287598,0.6332917213439941,-0.9127352833747864,1.0783706903457642,0.32468631863594055,-0.7424011826515198,0.6270768642425537,-0.9468048214912415,0.6838287711143494,-1.0874226093292236,-0.4020528197288513,-1.0810120105743408,-0.5740251541137695,-0.4685034155845642,-1.5265870094299316,-0.269013375043869,-1.5342789888381958,0.8867570161819458,-0.8872925639152527,-0.8307256698608398,-0.3743380606174469,-0.75855952501297,-0.6154496073722839,0.5894641876220703,0.22608165442943573,-1.1601946353912354,-1.1383812427520752,0.28378018736839294,-0.6830437183380127,0.5771480798721313,0.24411828815937042,0.6300796866416931,0.4068169593811035,0.9715365171432495,-0.5834957361221313,0.21981054544448853,1.3516345024108887,0.3641047179698944,-1.3931390047073364,-0.5354070663452148,0.7534782886505127,-0.44596731662750244,-0.5018651485443115,-0.42888402938842773,0.6617105603218079,-1.0691745281219482,0.8020201921463013,-0.9030815958976746,-0.5619626641273499,-0.598703920841217,0.08935520797967911,0.634067952632904,-1.6886487007141113,0.20386257767677307,-0.14266380667686462,-0.5058506727218628,0.3942832052707672,-0.7794943451881409,0.07504082471132278,-0.8004817366600037,0.9035802483558655,1.2045810222625732,1.098610520362854,-0.8268861174583435,-0.8788772225379944,-0.6637763381004333,-0.5361416935920715,-2.0256993770599365,0.36222678422927856,0.7758495211601257,0.5893305540084839,-0.11844320595264435,-0.7625930905342102,0.10771339386701584,-0.6203644871711731,-0.8853051662445068,0.4939384162425995,-0.5275999307632446,-0.4593856930732727,0.3748016059398651,0.27564167976379395,0.6033298969268799,0.9461736083030701,-0.15869905054569244,-1.2175192832946777,-0.5132388472557068,1.5579456090927124,-0.821134090423584,-0.5617438554763794,0.738675594329834,0.8702822923660278,0.3762001395225525,0.6974891424179077,0.6947596669197083,-0.3132636547088623,-0.666700005531311,-0.22925332188606262,0.5752049088478088,-0.7200111150741577,-1.335995078086853,0.27051305770874023,0.8073090314865112,1.0980644226074219,-0.4132135808467865,-0.17019890248775482,-0.6418421268463135,-0.1405222862958908,0.7036290168762207,0.5047601461410522,1.3265433311462402,1.0907968282699585,-0.3741525113582611,0.46959012746810913,0.19963689148426056,0.5128294229507446,1.3047938346862793,0.4528366029262543,-0.39051124453544617,0.3059566020965576,1.6071652173995972,-0.531538188457489,0.3424156606197357,-0.6949373483657837,-0.4060482680797577,-0.7018874287605286,0.30178847908973694,0.5689364075660706,-0.39995077252388,-0.44593504071235657,-0.8295645713806152,-0.08629605174064636,0.8039005398750305,-0.8095922470092773,0.6185178756713867,0.6296581625938416,-1.0539411306381226,0.5323007106781006,0.4796101450920105,0.4692108631134033,-0.6474315524101257,-1.132069706916809,1.1880568265914917,0.7167719006538391,-1.3407206535339355,0.7662537097930908,0.7354822754859924,1.0259250402450562,-0.7738531827926636,0.49413177371025085,1.2058104276657104,0.7247524261474609,-0.9217466115951538,0.9220835566520691,1.0107390880584717,0.3632708489894867,-0.7221047878265381,-0.8472711443901062,0.8697282671928406,0.49142420291900635,-0.6711656451225281,0.5267091989517212,0.30609726905822754,-1.0468857288360596,0.9941112995147705,0.882631778717041,-0.5632629990577698,0.7378641366958618,-0.2863614857196808,1.2547446489334106,0.8313961625099182,0.9313141107559204,0.631070077419281,-0.6440218687057495,0.6971533894538879,0.7225720882415771,0.8523467183113098,-0.25483599305152893,-0.8667793273925781,-1.2212965488433838,0.20030471682548523,-0.5673180818557739,-0.7752835750579834,0.9680470824241638,-1.131564974784851,-0.08975932002067566,-0.8981859683990479,0.2519780397415161,0.726884126663208,-0.5615035891532898,0.5631561875343323,0.6867347359657288,0.7144405841827393,-0.5862364768981934,0.17894817888736725,-0.4194563329219818,-1.0083929300308228,0.8006759881973267,0.3164067566394806,-0.5325652956962585,0.9428868889808655,-0.5282508730888367,-0.47455281019210815,0.6419124007225037,-1.1763958930969238,1.0821385383605957,0.1325281858444214,0.061914991587400436,-0.48468056321144104,0.873375654220581,-0.9593899250030518,1.0226445198059082,0.08117473125457764,0.5406336188316345,0.17606200277805328,0.8069013357162476,0.26766929030418396,-0.7312920093536377,-1.1971895694732666,1.9974170923233032,2.2418370246887207,0.03602548,0.26650885,-0.41593155,0.1303066,-0.17336926,-0.5159137,0.28028965,0.34873638,0.19679359,0.0059024626,-0.045794256,0.088926874,0.09794506,0.023542376,-0.09295557,0.010394618,0.30911702,0.07305529,0.17751312,0.011994597,-0.119389534,-0.17172292,-0.26617402,0.09311997,0.040312953,0.11197507,0.048972905,-0.08449722,-0.048013713,0.04748986,0.22629708,0.43509004,0.30693415,0.00060336693,-0.10366333,-0.07496129,-0.18737291,0.2029608,-0.2511772,-0.02961362,-0.031657346,0.14173217,-0.18902665,-0.116888344,0.12255737,-0.020128742,0.14463188,-0.09302486,-0.06837998,0.214458,-0.09269392,0.13496965,0.06757245,-0.17754634,-0.14247277,0.16187952,-0.019093402,0.04525585,-0.024379354,0.2114913,-0.026515113,-0.32722548,0.040306047,0.019038668,0.0023400509,-0.21075563,0.15793607,0.20032278,0.39806357,0.12432221,0.01568059,-0.26070288,-0.065374136,0.12211762,0.07182367,0.32818192,-0.09459111,0.03704244,0.20345709,0.26796138,-0.061384477,-0.08048357,0.010461492,-0.018307569,0.0068088244,0.12789367,0.072815835,-0.27530888,-0.2531461,-0.051655505,-0.16162834,-0.23560426,0.058208372,0.029282078,-0.16398051,-0.030244654,0.18830211,0.16354012,0.1728456,0.2611512,-0.08921176,-0.06314791,-0.16265096,-0.18087414,-0.2526094,-0.23744307,0.079014584,-0.050708253,0.14418197,0.06668773,0.14475466,-0.24884243,-0.019950973,0.31970444,-0.07118368,0.057664175,0.08855476,-0.19000305,0.12810981,-0.25453976,-0.115951985,-0.14837116,-0.024574948,0.17655201,0.09427234,-0.07345968,0.006086683,0.14201252,0.037452582,0.47515807,-0.108984254,-0.21093538,-0.10738835,0.4101446,-0.16094911,-0.15043484,0.099955216,-0.42465177,0.2280624,0.010485053,0.2305463,-0.09539406,-0.208231,0.089017786,0.22949204,0.21402857,0.39149183,-0.12491515,0.2081407,-0.16730237,0.19996095,-0.11645663,0.11856214,0.14526348,0.3864461,-0.06745566,-0.1563131,0.058258567,-0.101853885,0.081284024,-0.04153781,0.2666006,-0.06776535,-0.098430976,0.0053703645,-0.37761748,0.0009724799,-0.3351098,0.14670335,0.09769045,-0.21625541,-0.27246755,-0.18424283,0.20705938,-0.09477022,0.15477736,-0.2421666,-0.21434863,0.23636381,-0.28511566,0.32519832,0.0955527,0.04827542,-0.29394245,0.23052149,0.041533213,0.095539354,0.07977118,-0.008847627,-0.3532413,-0.0072807893,-0.05106297,-0.09534052,-0.25238934,-0.44752258,-0.013679292,0.073386274,-0.1817559,-0.040877152,0.14125325
ccsbBroad304_06483,-0.5273211002349854,0.6148554086685181,-0.8000964522361755,0.6094935536384583,0.13609881699085236,0.49011194705963135,0.5472810864448547,0.9126721024513245,-0.7725681066513062,-0.09811414778232574,-5.205033302307129,0.7748808264732361,-0.3061513304710388,0.7856596112251282,1.0947320461273193,0.2979748845100403,-1.608393907546997,-0.6512925028800964,1.084882378578186,0.2081967145204544,-0.4670160710811615,-0.4971920847892761,-0.8140407204627991,-1.2844247817993164,0.7828004956245422,-0.4975205063819885,-0.3146527409553528,0.19163689017295837,-0.2258676439523697,-0.5030468702316284,-0.9090520143508911,0.39160239696502686,0.9063515067100525,0.400801420211792,0.7414083480834961,-0.6161999106407166,0.6992203593254089,0.5944793820381165,-0.8928807377815247,1.2008979320526123,0.3247925043106079,-0.8380684852600098,0.6017614603042603,-0.9212786555290222,0.6134389638900757,-0.9751570820808411,-0.49023768305778503,-0.978013813495636,-0.5337916016578674,-0.46070170402526855,-1.4699115753173828,-0.380765825510025,-1.4570730924606323,0.9618706703186035,-0.8332579731941223,-0.7949107885360718,-0.3706655502319336,-0.7067976593971252,-0.6703998446464539,0.5558068752288818,0.20572291314601898,-1.1253808736801147,-1.1530072689056396,0.34043005108833313,-0.6964617967605591,0.44248145818710327,0.39114394783973694,0.6142407655715942,0.45489197969436646,0.8925154209136963,-0.6072346568107605,0.22104331851005554,1.3025716543197632,0.3456777334213257,-1.3839147090911865,-0.5838209986686707,0.7351168990135193,-0.5413483381271362,-0.438134104013443,-0.3985637426376343,0.62657630443573,-1.0556135177612305,0.8097469806671143,-0.8203991651535034,-0.5365973114967346,-0.6746769547462463,0.05192721635103226,0.4851723313331604,-1.6723356246948242,0.20537441968917847,-0.35127243399620056,-0.6026179790496826,0.359190434217453,-0.7799464464187622,0.12682649493217468,-0.7888529300689697,0.9153130054473877,1.141301155090332,0.9896004796028137,-0.8190942406654358,-0.8330491185188293,-0.5839744210243225,-0.5670498609542847,-2.022343873977661,0.4260270893573761,0.7985880970954895,0.5225620865821838,-0.18578624725341797,-0.7198591232299805,0.14237448573112488,-0.6852055788040161,-0.796794056892395,0.4556005001068115,-0.5532439947128296,-0.3860523998737335,0.4059540927410126,0.20524165034294128,0.5127111673355103,0.8415552973747253,-0.1344422549009323,-1.226650595664978,-0.5830591320991516,1.4525585174560547,-0.7853213548660278,-0.6550931930541992,0.7449233531951904,0.8972985744476318,0.4138670563697815,0.6785433888435364,0.6681694984436035,-0.3756190836429596,-0.7003459334373474,-0.23563285171985626,0.7077053785324097,-0.585102915763855,-1.3414019346237183,0.2693706750869751,0.7769226431846619,1.1486120223999023,-0.3855810761451721,-0.13354207575321198,-0.5445042252540588,-0.08214918524026871,0.6654050946235657,0.4751944839954376,1.2418752908706665,1.0948563814163208,-0.4968864321708679,0.48684677481651306,0.17667151987552643,0.6236261129379272,1.2680366039276123,0.5045188665390015,-0.399997353553772,0.38325297832489014,1.5852923393249512,-0.5116466879844666,0.3472321927547455,-0.6915149688720703,-0.36171185970306396,-0.75136798620224,0.3456779718399048,0.5603533387184143,-0.4668329656124115,-0.4406808912754059,-0.7696608901023865,0.006096573546528816,0.6426138877868652,-0.7750269174575806,0.6386975049972534,0.7317491769790649,-0.9819691181182861,0.5107461810112,0.46863090991973877,0.529796302318573,-0.617536187171936,-1.1073997020721436,1.195225477218628,0.6671294569969177,-1.3270857334136963,0.7635594010353088,0.7344447374343872,1.0127341747283936,-0.8153179883956909,0.5381492376327515,1.1453386545181274,0.7490398287773132,-0.8496679663658142,0.9306918382644653,1.0925148725509644,0.39501839876174927,-0.6547723412513733,-0.7654209733009338,0.7471003532409668,0.5065942406654358,-0.5102949142456055,0.5190818905830383,0.28866660594940186,-1.0241750478744507,1.0089174509048462,0.8681325316429138,-0.5021300911903381,0.6348299384117126,-0.42046165466308594,1.170479416847229,0.7834937572479248,0.9616794586181641,0.6865097284317017,-0.5749635696411133,0.6061590909957886,0.7979357838630676,0.8659038543701172,-0.22207774221897125,-0.8631797432899475,-1.1538251638412476,0.11973656713962555,-0.6659718751907349,-0.8496909141540527,0.9187091588973999,-1.074072241783142,-0.10619671642780304,-0.853990375995636,0.335491806268692,0.7879098653793335,-0.6155476570129395,0.5221401453018188,0.6167390942573547,0.9126357436180115,-0.5161556005477905,0.16586962342262268,-0.48829716444015503,-0.9608134627342224,0.7577152252197266,0.3197769820690155,-0.583882212638855,0.9961151480674744,-0.47703060507774353,-0.5884206891059875,0.6516043543815613,-1.1506783962249756,0.9942993521690369,0.03152260184288025,0.18590044975280762,-0.49294576048851013,0.7963502407073975,-0.8613188862800598,0.8249300122261047,0.05418282002210617,0.5228359699249268,0.21924762427806854,0.7213613986968994,0.2638377249240875,-0.7739513516426086,-1.1936482191085815,1.893934726715088,2.2509491443634033,0.11528474,-0.020952364,0.042886835,-0.19377391,0.057311006,0.12663808,0.03421997,-0.03702663,0.38912645,0.14458923,0.1600053,0.1037901,-0.22737296,0.05725327,-0.36674654,-0.105631046,0.11826178,-0.27614346,0.08580822,-0.064825274,-0.23743595,0.058540467,-0.024313224,0.22758542,0.09054982,-0.13313666,-0.09506064,0.38360828,-0.13900864,-0.012414294,0.081965335,0.059414424,-0.12232384,0.07512857,-0.1391642,-0.023315035,0.06844206,0.34193358,-0.11243895,0.013175445,0.10863868,-0.055563923,0.043126464,0.15664043,-0.19642502,0.17659183,0.27744,-0.14656924,-0.34975278,-0.019801121,-0.27448127,0.012940802,-0.39499018,0.080516614,-0.1153642,0.030256722,-0.06821738,0.03133108,-0.036109604,-0.13555723,-0.12774235,-0.2758842,-0.048637483,0.23981903,0.24194,0.118808664,0.026787557,-0.025296358,0.15174392,0.32662487,0.12544468,0.097391665,0.21218778,0.13264397,0.26103014,0.02793909,0.37184307,0.34137017,0.33122084,0.01890346,-0.13315545,0.35682392,-0.1469011,0.026081054,-0.26466697,0.040373694,-0.09517551,0.083826326,0.062961526,-0.24775904,0.056557085,-0.101064295,0.112720475,-0.02056424,-0.11239043,0.13281004,0.18856959,0.25443292,-0.07384832,0.23246403,0.11601267,0.2710708,-0.15767077,-0.17045231,-0.12935951,-0.15160413,-0.15210918,0.09219202,0.074451454,-0.09270777,0.06691876,0.09251509,0.13916197,0.27492282,0.15915014,0.11646973,-0.0982255,0.040819377,-0.2767552,-0.20056677,-0.12933359,0.15610549,0.18655097,0.004520051,0.007697328,0.054209203,0.005993349,0.16931266,-0.05949645,-0.275034,-0.19820617,-0.29876742,0.2146588,0.08064069,0.16060889,-0.22608617,0.04196399,0.08703502,0.11153134,0.15616621,-0.05606102,-0.026608456,-0.009222734,0.1815055,-0.31429484,-0.016561793,0.10029655,-0.030485036,-0.17570181,-0.20021608,-0.08489735,-0.17070946,0.14345552,-0.20162044,-0.21078704,-0.23613636,-0.2962671,0.03489616,-0.009008386,-0.0386753,-0.051249616,-0.009021115,-0.09066776,-0.015131929,-0.16757075,-0.014785352,-0.025805198,0.19559686,0.19790813,0.3387498,-0.18720229,0.056539733,-0.09767295,-0.22772846,-0.13416842,0.1842822,-0.1669156,-0.08381883,0.21573977,-0.044830073,0.06659475,-0.25053388,0.3063591,-0.0028030148,-0.10360293,0.18086527,0.06359681,0.118767835,-0.1868985,-0.23939471,0.14839706,0.29514542,0.14554259,-0.0071059875,0.105494976,-0.28963795,-0.0176878,-0.11339735,-0.05611359,-0.2844775
ccsbBroad304_09091,-0.40869057178497314,0.5623551607131958,-0.6742084622383118,0.5804236531257629,0.12640610337257385,0.47944724559783936,0.4459795355796814,0.8581817746162415,-0.8246038556098938,-0.24589526653289795,-5.125955104827881,1.0232340097427368,-0.3518920838832855,0.8327417969703674,1.200438141822815,0.29413849115371704,-1.6509212255477905,-0.6929903626441956,0.9968622326850891,0.01756305992603302,-0.5115765929222107,-0.4967661499977112,-0.8735979795455933,-1.4894323348999023,0.8847032785415649,-0.45838144421577454,-0.5670924782752991,0.22999969124794006,-0.3147120475769043,-0.6020844578742981,-1.0211844444274902,0.35812148451805115,1.037468671798706,0.4558601379394531,0.6767851114273071,-0.5847012400627136,0.7399358749389648,0.6354061961174011,-0.8209567070007324,1.1709072589874268,0.4614292085170746,-0.9301676154136658,0.5931501984596252,-0.828842043876648,0.5190088152885437,-0.9138088226318359,-0.5230734348297119,-0.9778469204902649,-0.6918018460273743,-0.4044705629348755,-1.5924756526947021,-0.29374584555625916,-1.3604110479354858,0.9797108173370361,-0.7986255288124084,-0.7105190753936768,-0.33992239832878113,-0.7484966516494751,-0.6572682857513428,0.617060124874115,0.2587859034538269,-1.155619740486145,-1.2309709787368774,0.3737160563468933,-0.697516143321991,0.36597326397895813,0.39285188913345337,0.761082112789154,0.3093215227127075,0.9298728108406067,-0.7567063570022583,0.17666001617908478,1.3712215423583984,0.3674546480178833,-1.449730396270752,-0.6512213945388794,0.7703590989112854,-0.6882720589637756,-0.4545806646347046,-0.39297521114349365,0.7133135795593262,-1.0276068449020386,0.9330354332923889,-0.901193380355835,-0.5413426160812378,-0.6505103707313538,0.19797790050506592,0.4782293736934662,-1.6842314004898071,0.3919695317745209,-0.42251327633857727,-0.587913990020752,0.43620091676712036,-0.7283862829208374,0.18096870183944702,-0.7131389379501343,0.9779012203216553,1.0346108675003052,0.9726642966270447,-0.9783976078033447,-1.0089058876037598,-0.516216516494751,-0.5222668647766113,-2.151381731033325,0.4730261266231537,0.7501963973045349,0.41738948225975037,-0.18667227029800415,-0.7403010725975037,0.1692925989627838,-0.6388194561004639,-0.7264068126678467,0.516817569732666,-0.4652664363384247,-0.3583511710166931,0.46862566471099854,0.22076402604579926,0.6651747822761536,0.8355322480201721,-0.08333925902843475,-1.3499705791473389,-0.5697911977767944,1.6712970733642578,-0.7451919317245483,-0.6823986768722534,0.8227450251579285,0.8384498953819275,0.47089558839797974,0.7862982153892517,0.7879660725593567,-0.37887802720069885,-0.673855185508728,-0.33599355816841125,0.8091362714767456,-0.5062708854675293,-1.3942627906799316,0.3530291020870209,0.6779786944389343,1.1459734439849854,-0.44285809993743896,-0.17269593477249146,-0.49459972977638245,-0.20970866084098816,0.7788019180297852,0.4809638559818268,1.2942547798156738,1.2476012706756592,-0.47542157769203186,0.4987435042858124,0.2919044494628906,0.561453104019165,1.233502745628357,0.5164024829864502,-0.3270368278026581,0.4122953414916992,1.6570030450820923,-0.379070907831192,0.2879098951816559,-0.621454119682312,-0.40959978103637695,-0.7121192812919617,0.4978722929954529,0.6905971169471741,-0.5516915917396545,-0.44289883971214294,-0.8876394033432007,-0.00949866883456707,0.6867331862449646,-0.7800251245498657,0.7077351212501526,0.8890762329101562,-1.0421338081359863,0.5202119946479797,0.4334215819835663,0.5782527923583984,-0.6614733934402466,-1.0737099647521973,1.1807054281234741,0.7319682836532593,-1.4668147563934326,0.6725780367851257,0.6707448959350586,1.016749382019043,-0.7824952006340027,0.5741642713546753,1.1077511310577393,0.6800141930580139,-0.8902731537818909,0.9566413760185242,0.9809719920158386,0.34138569235801697,-0.6509934663772583,-0.6669203639030457,0.8093699812889099,0.6736226081848145,-0.6332284212112427,0.5083822011947632,0.30470526218414307,-1.0550819635391235,1.0165457725524902,0.9385691285133362,-0.4881100058555603,0.6974540948867798,-0.39825090765953064,1.1179299354553223,0.7525418996810913,1.0402722358703613,0.7608006596565247,-0.7735041975975037,0.5285847187042236,0.7943711876869202,0.9893617033958435,-0.384048730134964,-0.8942481279373169,-1.1711580753326416,0.10629446059465408,-0.6936145424842834,-0.7850117087364197,0.9147903919219971,-1.0487953424453735,-0.2589556574821472,-0.8038268685340881,0.13069240748882294,0.7331058979034424,-0.6964005827903748,0.5616232752799988,0.5784323215484619,0.846123993396759,-0.6360810399055481,0.23371949791908264,-0.5486025214195251,-0.9165313839912415,0.7956920266151428,0.39197787642478943,-0.4364840090274811,0.9530897736549377,-0.5688387751579285,-0.6216656565666199,0.6694766879081726,-1.211811900138855,0.7949783802032471,0.20884732902050018,0.12598973512649536,-0.5650832056999207,0.7866657972335815,-1.0348656177520752,0.920329749584198,0.02726379781961441,0.474954754114151,0.16082942485809326,0.8339656591415405,0.24891173839569092,-0.8710750937461853,-1.2964760065078735,1.904370665550232,2.4232332706451416,0.06788629,0.07979025,-0.048778955,-0.1839576,0.29095262,0.15017599,0.024603963,0.12805778,0.47736925,-0.36470574,0.11631179,0.26540318,-0.5487763,0.022812588,0.20103975,-0.22796325,0.24173178,-0.04410083,0.018431226,-0.34034866,-0.12059805,-0.018510407,-0.23105855,-0.13557565,0.076705925,-0.13527103,0.04653242,-0.08953679,0.1393672,0.39280355,0.09992641,-0.07435508,-0.29790613,0.19760667,0.54700387,-0.07158004,-0.10507361,-0.090191126,-0.20770183,0.12880719,-0.18609554,0.08191272,0.06965038,-0.48498985,-0.15498084,0.10830118,0.23435858,0.5126621,-0.2999602,0.15671374,-0.41081646,0.033211887,0.1762588,-0.07658101,0.25718084,0.29815075,-0.059494566,0.24170525,-0.35704702,-0.14844947,-0.3998276,-0.2748215,0.1737144,-0.114604056,-0.04241279,0.27867734,-0.18589182,0.24431011,-0.3845164,0.048969295,-0.07784815,-0.010545352,-0.00072963996,-0.21822341,-0.32992765,0.051712774,0.030448398,-0.20508088,-0.31670263,-0.17199166,-0.34108293,0.27706742,-0.27417225,-0.49052715,-0.0057252813,0.18914165,0.2392845,-0.040055458,0.1738017,-0.25875694,-0.12057919,-0.35932714,0.17856456,0.06103199,-0.082978554,0.13048303,0.026133347,-0.089370914,0.008707684,0.19643834,-0.06985145,-0.18437758,-0.0110483905,0.040103234,0.19367002,-0.42161855,0.30132866,-0.051863316,-0.28074658,0.3847706,0.024000237,-0.33593705,0.17717531,-0.0127756735,0.09690537,-0.28409022,-0.1165539,-0.026814986,0.26244596,-0.01602388,0.027042586,-0.14663279,0.22389165,-0.26456428,-0.13093524,0.019981721,0.032895334,0.16768357,-0.045823757,0.21968456,0.26825967,-0.21863787,-0.16717066,-0.03624359,0.44429886,0.2863102,0.35409528,0.13659747,0.25500965,-0.11327337,0.21465042,0.12999512,-0.05225777,0.09314594,0.32495952,-0.20724787,-0.37270325,0.16421922,-0.032640263,0.15071966,-0.21453393,-0.26464707,0.5133362,0.045670353,-0.2512219,-0.042417075,-0.30223823,0.08881064,0.099531025,-0.47709322,0.094456226,0.2300818,0.14997122,-0.046335287,0.008635278,-0.13273013,0.14319955,0.01763989,0.15077654,-0.026768263,-0.3243728,0.19287018,-0.030503836,-0.048710957,-0.05320228,0.13924089,-0.12663975,-0.05450523,-0.20505865,-0.17116028,0.35603505,-0.34961385,0.116838336,0.07345708,0.2653518,-0.11730197,0.14529318,0.02717543,-0.0037555397,-0.16339526,-0.2271517,-0.29814273,0.13810822,0.041464258,-0.1572598,-0.015423712,-0.06879958,0.20586273,-0.13578863,-0.16591248
ccsbBroad304_06754,-0.4852774143218994,0.6261482238769531,-0.8573564291000366,0.5427700877189636,0.17558017373085022,0.5070478916168213,0.5394642949104309,0.881560742855072,-0.7881368398666382,-0.2558928430080414,-5.140850067138672,0.8034504055976868,-0.29895997047424316,0.7265502214431763,1.099690318107605,0.3639580011367798,-1.6424001455307007,-0.703025221824646,1.093794584274292,0.04944058507680893,-0.4021623432636261,-0.4353748559951782,-0.8680275082588196,-1.3718500137329102,0.7769718766212463,-0.45698001980781555,-0.40392810106277466,0.1963673233985901,-0.237038716673851,-0.4645844101905823,-0.9081956148147583,0.4177381098270416,0.9190112352371216,0.30481696128845215,0.7988221645355225,-0.6735317707061768,0.6817736029624939,0.631339430809021,-0.8973748087882996,1.1149786710739136,0.34318307042121887,-0.8331980109214783,0.6572424173355103,-0.9175176024436951,0.6633013486862183,-1.0640372037887573,-0.42670634388923645,-1.0579559803009033,-0.5963091254234314,-0.47606369853019714,-1.514451265335083,-0.2636733055114746,-1.486463189125061,0.9039051532745361,-0.8718063235282898,-0.7773785591125488,-0.4083057940006256,-0.7413386106491089,-0.6295897364616394,0.5954199433326721,0.2288612723350525,-1.1369080543518066,-1.1206825971603394,0.2766663134098053,-0.6517528891563416,0.5324485301971436,0.25125664472579956,0.6989724040031433,0.39003169536590576,0.9702413082122803,-0.5966809391975403,0.2068311870098114,1.3390361070632935,0.3708365559577942,-1.3718936443328857,-0.5829041004180908,0.7863916754722595,-0.5312091112136841,-0.44807448983192444,-0.3933674991130829,0.7007470726966858,-1.0157655477523804,0.8709529638290405,-0.8957424163818359,-0.5806337594985962,-0.6717864274978638,0.10072100907564163,0.5667285919189453,-1.6189297437667847,0.29462942481040955,-0.22871467471122742,-0.4617633819580078,0.38930201530456543,-0.7676300406455994,0.12209296971559525,-0.7712848782539368,0.8714134097099304,1.1790963411331177,1.0370380878448486,-0.8180348873138428,-0.9202633500099182,-0.6355545520782471,-0.5815873742103577,-2.021634101867676,0.36796635389328003,0.7371835708618164,0.5391340255737305,-0.12746663391590118,-0.7316221594810486,0.10733666270971298,-0.6232389807701111,-0.8554878830909729,0.4785704016685486,-0.45263925194740295,-0.46881726384162903,0.3752414584159851,0.2837649881839752,0.6533938050270081,0.8978192210197449,-0.16841477155685425,-1.2076735496520996,-0.46594589948654175,1.5812872648239136,-0.7696673274040222,-0.6282427906990051,0.7611388564109802,0.8808060884475708,0.3173362910747528,0.6673328280448914,0.7563442587852478,-0.3293430507183075,-0.6838017106056213,-0.20819784700870514,0.57960045337677,-0.6749470829963684,-1.35782790184021,0.24684394896030426,0.7663524746894836,1.1150342226028442,-0.3879703879356384,-0.17369462549686432,-0.6072232723236084,-0.11903956532478333,0.705794095993042,0.42143115401268005,1.2887245416641235,1.1549493074417114,-0.37491607666015625,0.4546497166156769,0.1957217901945114,0.5533682107925415,1.3612605333328247,0.4588979184627533,-0.39787787199020386,0.35757261514663696,1.6053277254104614,-0.489408016204834,0.31437137722969055,-0.6824806928634644,-0.42850184440612793,-0.6772730350494385,0.3446557819843292,0.5952713489532471,-0.4079601764678955,-0.44316232204437256,-0.8667781352996826,-0.0724603608250618,0.7982146143913269,-0.7828652858734131,0.6179307103157043,0.6447062492370605,-1.0553213357925415,0.49380603432655334,0.4139505624771118,0.48902735114097595,-0.6611505746841431,-1.1550763845443726,1.1240184307098389,0.7403789758682251,-1.3375182151794434,0.7176395058631897,0.6824190616607666,0.9961661100387573,-0.7504873275756836,0.5256857872009277,1.218615174293518,0.7920770049095154,-0.9294445514678955,0.9071651101112366,1.0047606229782104,0.3288305997848511,-0.7172234058380127,-0.8098957538604736,0.849356472492218,0.5906926393508911,-0.6452665328979492,0.5301221013069153,0.31836622953414917,-1.0203639268875122,0.9962607026100159,0.8856000900268555,-0.5542958974838257,0.7132267355918884,-0.3205869793891907,1.2355273962020874,0.8465750217437744,0.9720587134361267,0.6758567690849304,-0.6697249412536621,0.6116699576377869,0.7360295653343201,0.8097406625747681,-0.2590220868587494,-0.8490615487098694,-1.1478826999664307,0.2562330663204193,-0.6281432509422302,-0.7535725831985474,0.964755654335022,-1.1060923337936401,-0.13889896869659424,-0.8783934712409973,0.22979475557804108,0.676715075969696,-0.5816186666488647,0.5713882446289062,0.6638861894607544,0.724341094493866,-0.5992128252983093,0.16535936295986176,-0.4219421148300171,-1.0336403846740723,0.7847406268119812,0.33797815442085266,-0.5422098636627197,0.9385732412338257,-0.5702009201049805,-0.4835578501224518,0.6956596970558167,-1.2461984157562256,1.0329432487487793,0.1865132749080658,0.08226041495800018,-0.5082663297653198,0.9058895707130432,-0.9636867046356201,1.020661473274231,0.06122732535004616,0.5552031397819519,0.1694243848323822,0.756369948387146,0.21578730642795563,-0.7640584707260132,-1.2495182752609253,1.9458905458450317,2.2062604427337646,0.20884702,0.3070268,-0.20465347,-0.1025161,-0.03563302,-0.04113533,-0.10300273,-0.3793338,0.22598882,-0.23917761,0.16443093,0.14417596,0.13768408,0.1153519,0.28121528,-0.07717352,-0.19583103,-0.10592641,-0.09183411,-0.047373466,-0.1274046,-0.062469672,-0.22495234,-0.1041473,0.15192705,0.08768667,0.23954293,-0.050163735,-0.19634955,0.17477252,0.06341001,-0.18261577,0.06577059,0.052978486,0.05236926,0.22002546,0.12734213,0.29598218,-0.29369396,-0.06866339,-0.10311767,0.02966363,0.19563961,0.048625067,0.45947677,-0.02904172,0.036713697,0.25060338,0.0740384,-0.71583503,-0.18722117,0.10219215,-0.12880275,0.16465336,0.03293214,0.20846741,0.0585198,0.016341718,0.064572796,0.08838419,-0.15377253,0.055151828,-0.15648766,0.19629654,-0.14736146,-0.011261254,-0.27667055,-0.08134548,-0.038552977,-0.0706579,0.2720154,0.01018074,-0.039159726,0.250443,0.014572192,0.18856107,0.15150708,-0.15831378,-0.30088526,-0.15272513,-0.13050403,-0.39547512,-0.27983713,-0.2769023,0.22600482,-0.08430766,0.25797874,-0.109861456,-0.29224604,-0.07487968,-0.57571685,-0.08096925,-0.02726983,0.2796781,0.1593834,-0.49298066,-0.25615823,0.009397526,0.10961225,0.17978401,0.33134237,0.3308762,0.29700625,0.03471727,0.076751605,0.10032493,0.10154778,0.080462575,-0.12101404,-0.025234878,0.14452448,-0.071389586,0.046901315,0.32579008,0.19385643,0.064777985,0.009535981,-0.09051874,0.2545946,-0.20388001,-0.16227898,0.040540952,0.007652762,0.3187538,-0.079549775,0.24694167,-0.17947344,0.01991118,-0.1271105,-0.06067392,0.040094957,-0.09624394,-0.07939884,0.13592476,-0.024084589,-0.44428092,0.08382684,0.0025066452,0.061934114,-0.033712603,0.11683114,-0.18623501,-0.0909664,-0.096046515,-0.106331274,0.3034789,0.012926181,-0.23086374,-0.09703137,-0.08211672,-0.1785077,0.22912352,0.2084633,-0.23199292,-0.05020001,0.07350012,-0.10095363,0.28312397,-0.0030756453,0.0050959303,-0.11060109,-0.16749462,0.26369232,-0.3982139,0.20217706,0.048629086,0.074393444,-0.055116825,0.1616275,-0.1914374,0.020301906,0.044033583,0.08117953,0.061452508,0.017582769,0.13559452,0.024730459,-0.07705599,-0.19199952,-0.27837986,-0.09490701,0.35740843,-0.017659524,-0.31069034,0.08068591,-0.10057894,0.251909,0.28493872,-0.2720938,0.20126905,-0.14790225,-0.09961734,-0.10775704,0.037583295,-0.35495573,0.02656148,0.0074236817,0.05590734,0.0020163236,-0.07605803
ccsbBroad304_06846,-0.2766576409339905,0.6892344355583191,-0.6574393510818481,0.622859537601471,0.19200089573860168,0.5068659782409668,0.5244731903076172,0.6445001363754272,-0.792722225189209,-0.33171346783638,-5.059288024902344,1.193646788597107,-0.4578216075897217,0.7344397306442261,1.287316083908081,0.2523035705089569,-1.7494271993637085,-0.6987602710723877,0.6765915155410767,-0.1776105910539627,-0.5804833173751831,-0.3841111660003662,-0.7219247817993164,-1.5598728656768799,0.7733917832374573,-0.5101834535598755,-0.6660340428352356,0.18166792392730713,-0.3510145843029022,-0.6904793977737427,-0.8414801955223083,0.3618505895137787,1.0684301853179932,0.5416780114173889,0.4638707935810089,-0.5853213667869568,0.5320242047309875,0.40692397952079773,-0.782670259475708,1.2577650547027588,0.6166349649429321,-1.0900764465332031,0.6640514135360718,-0.7708922624588013,0.6152551770210266,-1.0259082317352295,-0.578458845615387,-0.9179944396018982,-0.807023823261261,-0.40465351939201355,-1.636814832687378,-0.4067855179309845,-1.333465337753296,1.0048633813858032,-0.6418560743331909,-0.4594019949436188,-0.3375815451145172,-0.7598623633384705,-0.5676252841949463,0.6286083459854126,0.29743361473083496,-1.126518726348877,-0.994695782661438,0.4653220474720001,-0.6887177228927612,0.38179802894592285,0.6297087073326111,0.7495037317276001,0.4445416033267975,0.8043448328971863,-0.8350872993469238,0.1695791333913803,1.3916159868240356,0.3747394382953644,-1.4202433824539185,-0.6285747289657593,0.608194887638092,-0.7958737015724182,-0.23849840462207794,-0.5721063017845154,0.6096471548080444,-0.9774630069732666,0.9276901483535767,-1.0237481594085693,-0.3919874131679535,-0.6807585954666138,0.34375324845314026,0.4150769114494324,-1.5728765726089478,0.6088958382606506,-0.530602216720581,-0.7125824093818665,0.5340633392333984,-0.6237873435020447,0.359669953584671,-0.5494418740272522,1.1042360067367554,1.0642815828323364,1.2033545970916748,-0.9953790307044983,-0.8809146881103516,-0.4134528636932373,-0.3480389714241028,-1.979971170425415,0.6406230330467224,0.604218065738678,0.3608192205429077,-0.21911217272281647,-0.6652361154556274,0.19446499645709991,-0.5171281099319458,-0.6820359230041504,0.619596540927887,-0.5467493534088135,-0.3846771717071533,0.5546492338180542,0.16857466101646423,0.7527199983596802,0.7696946859359741,-0.012894206680357456,-1.2875759601593018,-0.5672805309295654,1.6046282052993774,-1.0019481182098389,-0.744392991065979,0.905338704586029,0.8161931037902832,0.37463676929473877,0.8235910534858704,0.9079278707504272,-0.5623932480812073,-0.7491445541381836,-0.35166236758232117,0.6245701909065247,-0.6025745272636414,-1.383302092552185,0.41332727670669556,0.49837544560432434,1.0617866516113281,-0.4049662947654724,-0.25822147727012634,-0.42910483479499817,-0.36663496494293213,0.7936460375785828,0.2466738522052765,1.387136459350586,1.2108839750289917,-0.46040505170822144,0.5953037738800049,0.22275494039058685,0.5918371081352234,1.16733980178833,0.5360918045043945,-0.2773278057575226,0.5242335200309753,1.899499535560608,-0.429109126329422,0.19202712178230286,-0.46608731150627136,-0.6251952648162842,-0.6846958994865417,0.659082293510437,0.7995759844779968,-0.653492271900177,-0.6029712557792664,-1.0232335329055786,0.1482333242893219,0.7852280139923096,-0.7847111821174622,0.7137370705604553,0.9698050618171692,-1.1459752321243286,0.7122788429260254,0.3649807572364807,0.7251099944114685,-0.5564852356910706,-0.8637701272964478,1.1842854022979736,0.6311851143836975,-1.4600236415863037,0.6600128412246704,0.5360804200172424,1.0523215532302856,-0.6333341002464294,0.5588984489440918,0.971560001373291,0.5407441258430481,-0.741352379322052,0.8769882917404175,1.051389455795288,0.38222983479499817,-0.7079663872718811,-0.5361678600311279,0.7255144119262695,0.6052442193031311,-0.6210172176361084,0.34934186935424805,0.3379318118095398,-1.1139546632766724,0.8795328736305237,0.6058987379074097,-0.45832592248916626,0.6096407175064087,-0.49283549189567566,1.0812852382659912,0.6930170655250549,1.1537973880767822,0.8498490452766418,-0.860971987247467,0.5144864916801453,0.774278998374939,1.0973597764968872,-0.4881438910961151,-0.9704129099845886,-1.217995524406433,0.09087160229682922,-0.6817799806594849,-0.7101616859436035,0.8062751293182373,-1.0040833950042725,-0.41767439246177673,-0.7634646892547607,-0.08985666185617447,0.6387863755226135,-0.704482913017273,0.4285378158092499,0.5997763276100159,0.6367928981781006,-0.5356881022453308,0.26768335700035095,-0.5291773676872253,-0.7612824440002441,0.7798289656639099,0.39999479055404663,-0.012730160728096962,0.8490814566612244,-0.6596612334251404,-0.48204076290130615,0.4262474775314331,-1.2782917022705078,0.6260030269622803,0.309574156999588,0.08777191489934921,-0.6840432286262512,0.7459327578544617,-0.9395788908004761,0.7820984721183777,0.08926298469305038,0.5224128365516663,0.19669809937477112,0.8136283159255981,0.36980950832366943,-0.781437337398529,-1.3330146074295044,2.0004773139953613,2.428107738494873,-0.020167554,0.030205948,0.28387216,0.016790166,0.24421357,-0.014303466,0.02874964,0.12291402,0.11182564,-0.3152358,-0.08111628,0.06588707,0.091136396,0.5853527,0.05779663,0.15685554,-0.21546368,-0.067919046,0.0481991,0.03826392,-0.24362965,-0.08355177,-0.07523398,-0.058432408,-0.088062845,-0.17346339,0.025917,0.016872363,0.12422952,0.087105066,0.1046376,0.20859303,0.22000359,0.10866401,0.09532419,0.16540433,0.23316734,-0.4202478,-0.19330184,0.08651649,-0.40029466,-0.29305503,0.0021656055,0.087548174,0.335048,-0.41802925,-0.20671764,0.6645421,0.31775296,-0.12299436,-0.5904572,-0.29409307,0.05175068,0.16436431,0.4044595,0.37254336,-0.24479583,-0.02663645,0.18774854,-0.15626796,-0.18279853,0.062525176,0.15559418,0.034638286,-0.21511117,0.09580996,-0.013327743,-0.07220401,0.24587508,0.13667855,0.4006289,-0.23635028,0.044362716,-0.02050139,-0.07756838,-0.40278292,0.05618177,-0.16250242,-0.4372414,-0.077610485,-0.32218754,-0.32559082,-0.08477989,-0.2978595,0.05236226,-0.15350066,-0.16834122,-0.025828779,-0.11502566,0.053751126,-0.20729949,-0.33946714,-0.23519734,-0.027730161,0.23422243,0.06440554,-0.1046237,0.13572325,-0.054753955,-0.107786894,-0.27499467,-0.11815095,-0.4827916,0.14731249,-0.28489402,0.034441967,0.27977324,-0.086202964,0.0444589,-0.017678607,0.3887454,0.047115736,-0.16004373,0.40024105,0.28498498,-0.024132881,-0.25411552,-0.58350813,0.21848086,0.0222765,0.0501865,-0.028709967,0.041858796,0.25817138,0.3352877,0.0057012606,0.25171232,0.19026484,-0.38718486,-0.12826942,0.1475444,-0.1673781,0.08058099,0.039404277,-0.16861698,0.028648116,0.18734886,0.09894502,0.43642098,-0.5445959,-0.01239471,0.11386189,-0.008139262,0.077180184,0.46393314,-0.06376363,0.012704783,-0.6061277,-0.039663013,-0.098917946,-0.12679987,0.04183665,0.10780684,-0.15533198,-0.1412338,0.12165238,-0.15045466,0.103270225,-0.20116577,0.05032593,-0.043575544,-0.08190303,0.26897475,-0.37900037,0.16523606,0.4006375,-0.34184876,-0.05976338,-0.29638237,0.26733258,-0.33498552,0.15690455,0.16737787,0.20208435,0.1385438,0.35905,0.12646759,0.09814353,-0.2037144,-0.2026491,0.51607406,0.14691938,0.01623306,0.086967915,0.30494905,-0.012612328,0.31598797,0.04348511,0.10510524,-0.07138977,0.1487595,-0.023462033,-0.0050749877,0.15668,0.17156278,0.33653003,-0.5915209,-0.0425461,0.23543164,-0.26566938
