,latent_1,latent_2,latent_3,latent_4,latent_5,latent_6,latent_7,latent_8,latent_9,latent_10,latent_11,latent_12,latent_13,latent_14,latent_15,latent_16,latent_17,latent_18,latent_19,latent_20,latent_21,latent_22,latent_23,latent_24,latent_25,latent_26,latent_27,latent_28,latent_29,latent_30,latent_31,latent_32,latent_33,latent_34,latent_35,latent_36,latent_37,latent_38,latent_39,latent_40,latent_41,latent_42,latent_43,latent_44,latent_45,latent_46,latent_47,latent_48,latent_49,latent_50,latent_51,latent_52,latent_53,latent_54,latent_55,latent_56,latent_57,latent_58,latent_59,latent_60,latent_62,latent_63,latent_64,latent_65,latent_66,latent_67,latent_68,latent_69,latent_70,latent_71,latent_72,latent_73,latent_74,latent_75,latent_76,latent_77,latent_78,latent_79,latent_80,latent_81,latent_82,latent_83,latent_85,latent_86,latent_87,latent_88,latent_89,latent_91,latent_92,latent_93,latent_94,latent_95,latent_96,latent_97,latent_98,latent_99,latent_100,latent_101,latent_102,latent_104,latent_105,latent_106,latent_107,latent_108,latent_109,latent_110,latent_111,latent_112,latent_113,latent_114,latent_115,latent_116,latent_117,latent_118,latent_120,latent_121,latent_122,latent_123,latent_124,latent_125,latent_126,latent_128,latent_130,latent_131,latent_132,latent_136,latent_138,latent_139,latent_140,latent_141,latent_142,latent_144,latent_145,latent_149,latent_151,latent_154,latent_155,latent_156,latent_159,latent_162,latent_163,latent_166,latent_167,latent_169,latent_170,latent_173,latent_174,latent_175,latent_179,latent_180,latent_181,latent_184,latent_185,latent_186,latent_188,latent_190,latent_195,latent_197,latent_198,latent_200
docetaxel,-0.8339909835100269,1.845436159128537,1.9791437776999845,1.877162601890688,1.9114830670159049,1.832293442781417,1.7740374956753224,1.861319983171231,2.0803569802432067,2.133955008583753,1.8931971653197004,1.869007692328927,1.8551101943618256,1.8346811484148768,2.5721600828122817,2.5076053131914624,-0.242640596097312,0.5296356511238361,-0.8345676052412433,-0.7639502806091287,1.1165205427907148,2.93380832499085,-0.9349232348516195,-0.7434769193398648,0.999093745663198,1.995378947252322,-0.678287249817205,-0.6281561149144047,-0.5231777797938966,0.307249411172921,-1.360528708485434,1.9134855646087725,2.010944450521845,-0.0646451179600564,1.8817588913256635,1.2444237651331926,-0.1268868157090348,1.9046147681626424,1.0816735319338195,0.2575425870524968,1.0816735319338195,1.2984894141344578,-0.2861601324146102,1.2984894141344578,-1.5803503110779251,-0.2575425870524968,0.385316059419669,1.774384779022618,1.9955880385147504,1.273185567351251,1.8809913710935888,2.747153253545186,-0.1055473159814028,1.3522468075656264,1.0411048445876565,-0.6721809596566366,0.2662438048704187,1.941767783886469,1.5213986666216823,1.846449232207928,0.4802323254261574,3.23871048194722,0.2605239693676892,1.7994708216848747,1.927780971098103,1.7822544227440775,2.021871991963222,1.2322226972248675,-0.963048542677645,-0.5497464934375227,1.7063208090860815,-0.0814364161392982,1.5419279291840713,-0.3772492263321843,-0.3307679466196891,1.275776105096359,1.2020880443765034,0.1859948813855132,0.9486609844416782,1.3007236217004283,2.223299515954305,0.6239295428887361,-0.5064636167122946,0.7669123256419543,1.714766355545201,-0.457669052166815,1.3481923191607392,-0.6069739684085285,-0.625587827315421,0.0381356628577264,-0.5008846954721269,-0.5065615138558763,1.8656567010706109,1.3797109689952531,0.664758274790643,1.6011734278507714,1.539923889013667,-0.1690308509457033,-0.6403869598873415,2.0528960280756707,1.0939960871203565,-0.2595461158584206,1.7429907183590976,2.4467515245097684,-2.247144274503249,-1.7603581651636693,1.3633934177214748,-2.722641752886593,1.4902209867905096,-0.5236538439232974,-0.2830509147203129,2.5760376543425214,2.48273396620473,-0.229494692996586,-0.6138788892284813,-0.4023739080814781,-0.229494692996586,-0.2830509147203129,-0.2830509147203129,1.6447586319820156,1.707431862571261,-0.1690308509457033,-0.6688560540599386,-0.1458497805909761,-0.3820239790775022,-0.4023739080814781,-0.3017804310611087,3.218991264651826,-0.1690308509457033,-0.452601590337872,0.201186954040739,-0.4976895965835776,-0.4023739080814782,1.1435437497937313,1.5680424299574591,-0.1690308509457033,1.7655534609600856,1.368973749281836,-0.4648348401006841,-0.2426405960973119,-0.1690308509457033,1.247708522362718,1.6920868460976943,-0.4483137536088725,-0.5219902945417844,-0.2426405960973119,-0.2426405960973119,-0.2426405960973119,-0.3017804310611087,-0.229494692996586,-0.229494692996586,-0.3017804310611087,-0.1690308509457033,-0.1690308509457033,-0.2294946929965859,-0.2426405960973119,-0.1690308509457033,-0.2426405960973119,-0.1690308509457033,-1.4531460247228227
taxol,-0.968419885682694,2.410127987011294,2.19690818511036,2.0390863200499383,2.0797364921767936,2.178747758986377,2.004465350120252,2.11663596750873,2.029926376222288,2.079090958159774,2.158403736679804,2.1368416823993828,2.079964255118588,2.0628055644312857,2.577764650638569,2.0409337292675094,4.003569835605648,0.9185110962200868,-0.8345676052412433,-0.2568880502438503,1.1165205427907148,3.3653040657446742,-0.9349232348516195,-0.7434769193398648,0.999093745663198,2.249225010469572,-1.2124612502515963,-1.0907036553925613,-0.8553899147591083,-0.1492639284749274,-2.096631610882333,2.201227754775505,2.2971636530358888,2.846283730353045,2.013852706774348,1.5384055946686124,-0.1177102158869082,2.177281430236773,1.3056949550517292,0.2575347162197806,1.3056949550517292,0.5674172595868492,-0.407265867560627,0.5674172595868492,-1.6283732261681552,-0.2575347162197806,0.6341485431016275,2.061341755219768,2.249585977227765,0.7018843512321,1.8809913710935888,2.747153253545186,-0.1055473159814028,1.3522468075656264,2.145306952483655,-0.6721809596566366,0.9830540487523156,1.941767783886469,0.9022247906709976,1.846449232207928,0.9471248640349216,3.23871048194722,0.2605239693676892,1.7994708216848747,2.114537134767156,1.4396512637069154,1.0034777085167537,1.9149136261810276,-0.963048542677645,1.447087498939586,1.6934917563697485,1.636702082964531,0.7356164004410031,-0.3772492263321843,-0.3307679466196891,1.9502276896011983,0.7921668544367935,0.947853052934828,0.9486609844416782,1.7902432642758583,2.2066298626514684,1.0749627355815152,-0.5064636167122946,0.7669123256419543,1.2692361434101036,-0.457669052166815,2.5880096005717936,-0.6069739684085285,-0.625587827315421,-0.6512930307441407,-0.5008846954721269,-0.5065615138558763,1.709816523454467,1.72407235488789,0.664758274790643,1.4869501435241523,2.783789359781106,-0.1690308509457033,-0.6403869598873415,1.995304859968233,1.1480858791253257,-0.2595461158584206,2.430184308075412,1.6538769389408952,-1.9864201225805296,-2.367839680365341,2.730378426004292,-2.521864175475515,0.6491239517763923,-0.5236538439232974,-0.2830509147203129,1.7334085150716032,1.4099476845113283,-0.229494692996586,-0.6138788892284813,-0.4023739080814781,-0.229494692996586,-0.2830509147203129,-0.2830509147203129,2.2091365939366288,2.271206534174979,-0.1690308509457033,-0.6688560540599386,-0.1458497805909761,-0.3820239790775022,-0.4023739080814781,-0.3017804310611087,-0.3017804310611087,-0.1690308509457033,-0.452601590337872,0.201186954040739,-0.4976895965835776,-0.4023739080814782,2.2870874995874626,1.5680424299574591,-0.1690308509457033,2.55778898831397,1.368973749281836,-0.4648348401006841,-0.2426405960973119,-0.1690308509457033,1.247708522362718,1.6920868460976943,-0.4483137536088725,-0.5219902945417844,-0.2426405960973119,-0.2426405960973119,-0.2426405960973119,-0.3017804310611087,-0.229494692996586,-0.229494692996586,-0.3017804310611087,-0.1690308509457033,-0.1690308509457033,-0.2294946929965859,-0.2426405960973119,-0.1690308509457033,-0.2426405960973119,-0.1690308509457033,-1.5303126986732325
PP-2,0.350316117649473,-0.3408494045703303,-0.7601861112532561,-0.7363793547641665,-0.7098561789200752,-0.7661629778933106,-0.7973430104108121,-0.9030067737272476,-0.5989974776613227,-0.6720112334306594,-0.8150116384581177,-0.7920874301508019,-0.7826190318469203,-0.7952738150747949,-0.8861080355948394,-1.5498792782169135,-0.242640596097312,-1.1617925399582891,-0.5604955025501904,0.3614603522771887,-0.547484389129521,-0.8189497520470643,0.4504151081783477,1.4272999203969272,0.8821210570542296,-0.7991873765177117,-0.0537336197265096,0.0265214811681088,0.0839945122286901,-0.887936327828083,0.37997628503247,-0.7481296944335049,-0.7819804305916445,-0.3004549951015672,-0.8686783008216775,-1.0505945898831002,-0.3513720406892584,-0.7205779074419959,-2.620066954549209,-0.5069248696026162,-2.620066954549209,-1.25724051591729,-0.0056111924386542,-1.25724051591729,1.1699498721944568,0.5069248696026162,0.5025458978776886,-0.638236093216584,-0.7972911385971101,-0.4407180810062022,-0.7523965484374353,-0.6463890008341614,-0.8443785278512234,-1.01418510567422,-0.0630972633083428,1.6804523991415916,0.9830540487523156,-0.5245904900015865,-0.9552968371810562,-0.6605831304881811,-1.1538915597045172,-0.4178981267028671,-0.8792683966159514,-0.8997354108424374,-0.8202025800322497,-1.149198901968159,0.4750237182093408,-0.0921294949930715,-0.963048542677645,-0.5497464934375227,-0.778147935848775,-1.7995749152431273,1.5866868986223388,1.8929549288999672,-0.3307679466196891,-0.1563827556225268,-0.2479379787550647,-0.7044197992319636,-0.7522822355019446,-0.1678353060258618,-1.414384631767568,0.5200319954762963,1.388653933556345,-0.9384545851364904,-0.6078979522517547,-0.5076163600501058,-0.2862796799231681,0.4159345490639192,-0.5800488247802748,0.1852843865304375,-0.5008846954721269,1.3435300235392074,-0.998263469336836,-0.9566421470010166,-1.1031327350939808,-0.6713083644861575,-0.1503304663374369,5.7470489321539135,1.933663314199297,-0.7688889586568087,-0.8607170128232927,2.374842214059006,-1.1138293919465203,-0.7303695948288436,1.5895385070152872,0.6217714948615662,0.1917420140125198,-0.044741955160361,0.2620698722148719,-0.5236538439232974,-0.2830509147203129,-0.7944789027411515,-0.7356248788754757,2.447943391963584,2.250889260504432,-0.4023739080814781,-0.229494692996586,-0.2830509147203129,-0.2830509147203129,-1.1771311777910505,-1.1114414954473304,-0.1690308509457033,2.006568162179816,-0.99664016737167,1.28933092938657,-0.4023739080814781,-0.3017804310611087,-0.3017804310611087,-0.1690308509457033,-0.452601590337872,-0.8047478161629564,0.5910063959429985,-0.4023739080814782,0.0,-0.3920106074893648,-0.1690308509457033,-0.611153121101568,-0.8492707518692875,1.01418510567422,-0.2426405960973119,-0.1690308509457033,-0.4990834089450871,-0.4230217115244236,-0.4483137536088725,-0.5219902945417844,-0.2426405960973119,-0.2426405960973119,-0.2426405960973119,-0.3017804310611087,-0.229494692996586,-0.229494692996586,-0.3017804310611087,-0.1690308509457033,-0.1690308509457033,-0.2294946929965859,-0.2426405960973119,-0.1690308509457033,-0.2426405960973119,-0.1690308509457033,1.2664412368713358
MG-132,1.0189904175229771,-0.3768496656746286,0.2812617538696104,0.3649429617208403,0.340149744470113,0.1651727130971505,0.298316319588258,0.2262086135498662,0.3334143284595464,0.2334354412293068,-0.280727810298055,-0.3264544990770635,-0.3231973716008762,-0.3753084764864042,0.2223254269589876,0.202759326353137,-0.242640596097312,0.1538093298365279,-0.1230865233615691,-0.4032021761931229,-1.083216926911457,-0.8189497520470643,2.504784968179566,0.1645074272534851,-0.7725201949105847,0.1624172859606804,-1.4584148699206334,-1.5221701207780027,-1.264337970578168,0.5419831078670628,-0.1428631596606551,0.1870324236083763,0.1035869292141627,-0.3004529718529304,0.5781927835740548,1.2263608880280503,0.0952848224603789,0.2323616266727247,0.3082482158393618,0.1413394576029639,0.3082482158393618,1.2971703399301904,-0.2392005039650472,1.2971703399301904,0.3335922260908553,-0.1413394576029639,0.5570580340844266,0.3124070590705548,0.1620659407310984,0.1305831351129488,0.0376198274218718,-0.6463890008341614,-0.8443785278512234,-1.01418510567422,-0.0630972633083428,-0.6721809596566366,-0.4505664390114779,-0.5245904900015865,0.2830509147203131,-0.1034648276668236,1.88090994125245,-0.4178981267028671,-0.8792683966159514,-0.8997354108424374,0.2736549500293471,0.1757251410457843,1.096031313261958,-0.7237313777564135,0.929054660338656,-0.5497464934375227,-0.1474089600778109,-0.0814364161392982,-0.0706951283020651,-0.3772492263321843,-0.3307679466196891,1.6276885090822792,0.2112019412805661,-1.3502893710836088,-1.0882419685199392,-1.146874591176722,-0.1366043045432962,0.1879174760625959,0.8899030043415947,0.8693318827239772,0.7488880735905835,-0.8355784574851697,-0.276613183096308,-0.6069739684085285,0.5360025784721222,0.0381356628577264,-0.5008846954721269,-0.5065615138558763,-0.2839649751339076,0.4933656194158548,0.7709328540306156,0.8212478813118125,-0.1610317783540039,-0.1690308509457033,-0.6403869598873415,0.0326488810156999,-0.6213040402019315,-0.2595461158584206,0.8372802629820183,-0.5919918820710417,-0.1521342588103035,0.284263612907949,0.1015800767431126,-0.0754343892423045,1.4917177866661462,-0.5236538439232974,-0.2830509147203129,-0.7944789027411515,-0.7356248788754757,-0.229494692996586,-0.6138788892284813,-0.4023739080814781,-0.229494692996586,-0.2830509147203129,-0.2830509147203129,1.0803806700274023,1.1436571909675426,-0.1690308509457033,-0.6688560540599386,1.5557309929704115,-0.3820239790775022,-0.4023739080814781,3.218991264651826,3.218991264651826,-0.1690308509457033,-0.452601590337872,2.2130564944481304,-0.4976895965835776,-0.4023739080814782,0.0,-0.8820238668510707,-0.1690308509457033,-0.611153121101568,-0.4056218516390626,-0.4648348401006841,-0.2426405960973119,-0.1690308509457033,-0.4990834089450871,-0.4230217115244236,-0.4483137536088725,-0.5219902945417844,-0.2426405960973119,-0.2426405960973119,-0.2426405960973119,-0.3017804310611087,-0.229494692996586,-0.229494692996586,-0.3017804310611087,-0.1690308509457033,-0.1690308509457033,-0.2294946929965859,-0.2426405960973119,-0.1690308509457033,-0.2426405960973119,-0.1690308509457033,-0.5050446289540633
lactacystin,1.2951275337913226,-0.7702864440018808,-0.3300456901391059,-0.4545513285560998,-0.4094502301884102,-0.5279469766078826,-0.5612468010951729,-0.505106857049833,-0.4671191208402505,-0.3896698813220232,-0.5450353130170567,-0.2705921728237583,-0.6227309414290784,-0.2854076295694953,0.9141620937682472,1.1361024942010436,-0.242640596097312,-1.14683932536732,-0.5126416372136776,-0.7639502806091287,-0.4969859069699716,-0.1939773251426156,-0.9349232348516195,-0.2894847460431899,-0.7379560390826934,-0.3850511484323543,1.071439869835766,0.5189617854714245,-0.1368868635911246,1.02563232876395,0.7170701375319846,-0.4603875042667721,-0.3852983929053535,-0.3004549797628105,-0.1533646307818946,-0.2941761151745111,-0.2584095520848672,-0.4469042778311126,0.1680780151097687,0.5092032056253709,0.1680780151097687,0.4475694971996145,0.2006453467524615,0.4475694971996145,-1.028158353682898,-0.5092032056253709,-1.9883399117838103,-0.5482438495472391,-0.3853474059794313,1.273185567351251,0.3009586193749742,-0.6463890008341614,-0.1055473159814028,-0.4225771273642582,-1.1672993712043418,-0.6721809596566366,-1.1673766828933747,0.0234891264179814,1.5213986666216823,0.4536534751545338,0.2467860561217753,-0.4178981267028671,0.2605239693676892,0.0,-0.3666518968359778,0.207351502780841,-0.5513970159876772,-0.1042368088547602,1.7482807807010308,-0.5497464934375227,-0.1602380127941442,0.7776328334126164,-0.0706951283020651,-0.3772492263321843,-0.3307679466196891,0.1697204071241716,-1.528505017320376,-0.5768755521723754,-0.2568923569038256,-1.146874591176722,0.4288309382569237,1.0042402323247592,0.19171969381465,0.2667363934371545,-0.0312187702815259,-0.5065189257595246,-1.5164304645073616,-0.6069739684085285,-0.0447926244216494,-0.6512930307441407,-0.5008846954721269,1.3691971759210224,0.5211588077705029,0.0229773076191529,0.1462443243224166,-0.4446698092940361,-1.404897249121441,-0.1690308509457033,-0.6403869598873415,0.7512627286347761,-0.9936754358561716,-0.022586273875499,0.7021841630516388,1.205706058846194,-0.7960937366293679,-1.248395356587981,-1.2588048297600838,-0.9306028024358376,0.1785831469372403,-0.5236538439232974,2.193644589082425,0.8907793758006851,1.4099476845113283,-0.229494692996586,-0.6138788892284813,-0.4023739080814781,-0.229494692996586,2.193644589082425,2.193644589082425,1.0803806700274023,0.5798825193638244,-0.1690308509457033,-0.6688560540599386,0.7049406061897178,-0.3820239790775022,-0.4023739080814781,-0.3017804310611087,-0.3017804310611087,-0.1690308509457033,-0.452601590337872,1.2071217242444343,-0.4976895965835776,-0.4023739080814782,-1.1435437497937313,-0.8820238668510707,-0.1690308509457033,-0.611153121101568,-0.8492707518692875,-0.4648348401006841,-0.2426405960973119,-0.1690308509457033,-0.4990834089450871,-0.4230217115244236,-0.4483137536088725,-0.5219902945417844,-0.2426405960973119,-0.2426405960973119,-0.2426405960973119,-0.3017804310611087,-0.229494692996586,-0.229494692996586,-0.3017804310611087,-0.1690308509457033,-0.1690308509457033,-0.2294946929965859,4.003569835605647,-0.1690308509457033,-0.2426405960973119,-0.1690308509457033,-0.4499307079902871
cyclohexamide,-0.1820956636743127,-1.074880508436817,-0.7936787976681345,-0.7407857188102924,-0.8088026135471471,-0.8440431819259463,-0.6403230681952066,-0.8138116557321079,-0.4522705896165054,-0.621320471367033,-0.4423274508885467,-0.4896551177922532,-0.2945298890826782,-0.3462240441834494,-0.698340775370317,0.2312712591345775,-0.242640596097312,1.81964964997406,-0.1492062816829434,-0.8007814725918487,-1.083216926911457,-0.8189497520470643,-0.6035718425029353,-0.1522699459698855,-1.2154236800540303,-0.9092986443255918,0.1789911128268379,-0.0105598670475021,0.0162714488877095,1.2989992797056693,1.006007725388712,-0.8200652419751879,-0.9457206433361812,-0.3004550018643471,-0.7421027606996056,-0.757750523875415,-0.2988634599973548,-0.8293476643939388,-0.0706782704396149,-0.4081408423799574,-0.0706782704396149,-0.6033840933322828,-0.4032153313528929,-0.6033840933322828,0.4854442909679344,0.4081408423799574,-0.7739684019433837,-0.895351841875622,-0.9100252111174923,-0.4407180810062022,-0.7523965484374353,0.4847917506256211,-0.1055473159814028,0.1690308509457033,-1.1672993712043418,-0.6721809596566366,-1.1673766828933747,-0.7986302982113705,-0.3361229612303715,-0.9391422818988598,-0.6869990210957531,1.4104061776221766,0.2605239693676892,0.8997354108424374,-0.7668436761268059,-1.191274495957774,-0.573896134466337,-0.7237313777564135,0.929054660338656,-0.5497464934375227,-0.778147935848775,1.7302773579443649,-0.8770066570451334,-0.3772492263321843,-0.3307679466196891,-0.5227614535832137,-0.3336222785735117,0.1553114064075289,-1.0839678814962703,-0.6573549486012918,-0.3730254869698843,-0.3265143297615714,-0.5064636167122946,1.4719273720107997,-0.0181175566583357,-0.8355784574851697,-1.5164304645073616,-0.6069739684085285,-0.625587827315421,-0.6512930307441407,-0.5008846954721269,-0.5065615138558763,-0.7115528856926279,-0.3213840782734839,1.395621383738814,0.1529347745542136,-1.404897249121441,-0.1690308509457033,-0.6403869598873415,-0.5164719718568034,-0.9936754358561716,-0.2595461158584206,0.1329551123870798,-0.280259157735765,-0.3472431331513499,0.2395206916330389,-1.042733620122543,0.0081188409789671,-0.2248062140392729,-0.5236538439232974,-0.2830509147203129,0.0481502365297667,0.3371614028179263,-0.229494692996586,-0.6138788892284813,-0.4023739080814781,-0.229494692996586,-0.2830509147203129,-0.2830509147203129,0.5160027080727891,0.5798825193638244,-0.1690308509457033,-0.6688560540599386,-0.1458497805909761,-0.3820239790775022,-0.4023739080814781,-0.3017804310611087,-0.3017804310611087,-0.1690308509457033,-0.452601590337872,1.2071217242444343,-0.4976895965835776,-0.4023739080814782,-1.1435437497937313,-0.8820238668510707,-0.1690308509457033,-0.611153121101568,-0.8492707518692875,-0.4648348401006841,-0.2426405960973119,5.747048932153912,1.247708522362718,1.6920868460976943,-0.4483137536088725,-0.5219902945417844,-0.2426405960973119,-0.2426405960973119,-0.2426405960973119,-0.3017804310611087,-0.229494692996586,-0.229494692996586,3.218991264651826,-0.1690308509457033,-0.1690308509457033,-0.2294946929965859,-0.2426405960973119,-0.1690308509457033,-0.2426405960973119,-0.1690308509457033,1.3135562361896909
simvastatin,-0.4569762406493252,-0.5135066705027636,-0.0787885963138501,0.1004509995319362,0.065318613665419,-0.1246311098482442,0.2058700430045982,0.1237773681557259,0.4003968826499348,0.3063065539588721,0.3765027820048822,0.3372873193481255,0.2378625674918998,0.1939117124885123,-0.5317674589409638,-0.206888392007935,-0.242640596097312,1.001302438515819,0.132030269555133,0.6099116425558264,-0.6113436222676867,-0.8189497520470643,0.0591309421944332,1.5414101071420128,-0.3296167097671389,-0.1524186452339763,0.6747959778317977,0.7681484454803313,0.7091304815300513,1.1349791091406378,0.7377085366646081,-0.1007097665583563,-0.2183054184304725,-0.3004544852682376,0.0034437534491067,-0.0530935103655094,-0.2182306479462777,-0.0528664248581039,0.2162316163892421,0.3252995656254203,0.2162316163892421,0.2872108022858068,-0.2239893454614001,0.2872108022858068,0.6626083141550949,-0.3252995656254203,1.0783466692963255,-0.0214182459593228,-0.1527882000356022,-1.0120192971253534,-0.7523965484374353,1.6159725020854034,-0.1055473159814028,0.760638829255665,-1.1672993712043418,-0.6721809596566366,-1.1673766828933747,-0.5245904900015865,-0.9552968371810562,-0.9391422818988598,0.0133397868173932,-0.4178981267028671,0.2605239693676892,0.0,-0.0198190214505935,-0.5556706554544864,-0.0149165749297151,-0.7237313777564135,-0.963048542677645,-0.5497464934375227,0.4576719102604866,-0.0814364161392982,-0.8770066570451334,-0.3772492263321843,-0.3307679466196891,0.4093543415429372,1.1734503287901683,-0.5974889823380399,-0.2696928549518487,-0.1678353060258618,-0.1230161883847474,-0.767857222526471,-1.2046469272392393,2.02331308275661,0.8844637454768074,-0.8355784574851697,-0.694342159825088,-0.6069739684085285,-1.2063830302091925,-0.6512930307441407,-0.5008846954721269,-0.5065615138558763,-0.5042988769122103,0.0146925547413738,1.9672226238270265,1.043026778977076,-0.4288452961961295,-0.1690308509457033,-0.6403869598873415,-0.710386537889443,-0.171406272810092,-0.2595461158584206,-0.3523369446843093,-0.4679466237444013,-0.164000037504946,0.763560676766457,-1.042733620122543,1.6402978550921312,1.1628084001607422,-0.5236538439232974,-0.2830509147203129,0.0481502365297667,0.3371614028179263,-0.229494692996586,-0.6138788892284813,-0.4023739080814781,-0.229494692996586,-0.2830509147203129,-0.2830509147203129,-0.048375253881824,0.0161078477601061,-0.1690308509457033,-0.6688560540599386,-0.99664016737167,-0.3820239790775022,-0.4023739080814781,-0.3017804310611087,-0.3017804310611087,-0.1690308509457033,2.517596346254413,-0.8047478161629564,-0.4976895965835776,-0.4023739080814782,-1.1435437497937313,-0.3920106074893648,-0.1690308509457033,0.9733179336062012,0.038027048591162,-0.4648348401006841,-0.2426405960973119,-0.1690308509457033,-0.4990834089450871,-0.4230217115244236,2.16684980910955,-0.5219902945417844,-0.2426405960973119,-0.2426405960973119,-0.2426405960973119,-0.3017804310611087,-0.229494692996586,-0.229494692996586,-0.3017804310611087,-0.1690308509457033,-0.1690308509457033,-0.2294946929965859,-0.2426405960973119,-0.1690308509457033,-0.2426405960973119,-0.1690308509457033,0.7782385487033194
proteasome inhibitor I,1.291394388096906,0.2236956026435958,1.0543938648012656,1.0775987141907053,1.0806636894113846,0.8550558917258783,0.9191633665659732,0.9141123190458016,0.8856372779360145,0.8342053176477711,0.1711873419099836,0.1299378058663458,-0.1075382506873259,-0.1565127346997562,0.945817110337054,1.0790786286381622,-0.242640596097312,0.6377663463176559,-0.1300803719208076,-0.8635712634881557,-0.4969859069699716,0.9785768542060316,0.9300908515578812,0.61849960055016,-0.3296167097671389,0.9521375252255192,-1.037984464912608,-0.7892681795753358,-0.6500666638448783,0.5814110334836567,-0.8720865956800148,0.906387899025208,0.9023007848685192,-0.3002868647543742,1.4225647214587862,2.006449886114704,0.2440596442556774,0.9509778065047764,0.4604059942728035,0.3017592232183268,0.4604059942728035,1.2972721535541505,-0.4040841414501894,1.2972721535541505,-0.1544060723018802,-0.3017592232183268,0.3378073999643249,0.9893494385733236,0.95197149698508,0.7018843512321,1.0909749952342815,-0.6463890008341614,-0.8443785278512234,-1.01418510567422,-0.0630972633083428,-0.6721809596566366,-0.4505664390114779,0.2975289346277653,0.9022247906709976,1.0107717779758914,2.581248749165596,-0.4178981267028671,-0.8792683966159514,-0.8997354108424374,1.0206796047055595,0.8502369016295732,2.109020366399038,-0.7237313777564135,1.8751062618468064,-0.5497464934375227,0.47050096297682,1.636702082964531,-0.0706951283020651,-0.3772492263321843,-0.3307679466196891,1.352459657057134,0.9398998473682926,-0.9585474392218324,-1.0882419685199392,-1.146874591176722,0.6288312769335513,1.114160269684754,1.5880863148685391,0.2667363934371545,1.4799151337376566,-0.8355784574851697,-0.276613183096308,-0.6069739684085285,1.1167977813658936,0.0381356628577264,-0.5008846954721269,-0.5065615138558763,0.4603517968219333,1.5223074006548762,0.1462443243224166,1.4847013305425534,-0.1610317783540039,-0.1690308509457033,-0.6403869598873415,1.0423168282157216,-0.2416045612129458,-0.2595461158584206,2.074106193347815,-0.4357637310466354,-0.3419490080281789,-0.6635178441217184,-0.2201784770930724,-0.2505038551332432,1.98311088898554,-0.5236538439232974,-0.2830509147203129,-0.7944789027411515,-0.7356248788754757,-0.229494692996586,-0.6138788892284813,-0.4023739080814781,-0.229494692996586,-0.2830509147203129,-0.2830509147203129,2.2091365939366288,2.271206534174979,-0.1690308509457033,-0.6688560540599386,2.4065213797511054,-0.3820239790775022,-0.4023739080814781,3.218991264651826,3.218991264651826,-0.1690308509457033,-0.452601590337872,3.2189912646518257,-0.4976895965835776,-0.4023739080814782,0.0,-0.8820238668510707,-0.1690308509457033,0.1810824062523164,0.038027048591162,-0.4648348401006841,-0.2426405960973119,-0.1690308509457033,-0.4990834089450871,-0.4230217115244236,-0.4483137536088725,-0.5219902945417844,-0.2426405960973119,-0.2426405960973119,-0.2426405960973119,-0.3017804310611087,-0.229494692996586,-0.229494692996586,-0.3017804310611087,-0.1690308509457033,-0.1690308509457033,-0.2294946929965859,-0.2426405960973119,-0.1690308509457033,-0.2426405960973119,-0.1690308509457033,-1.4275268187740346
emetine,-0.9118071013560796,0.1312736364095935,0.1672579984987666,0.4319803340037448,0.4098076527037372,0.3294156919373429,0.504968729166075,0.455181206703469,0.3952751873787014,0.300734601112528,0.7531885091126045,0.7177048963955,0.8362752066972295,0.801027872170536,-0.8861080355948394,-1.5498792782169135,-0.242640596097312,-1.5489536441918816,0.1187840300857557,2.782565249818482,2.442448404728803,0.4645846444837716,-0.9349232348516195,2.3381155727235017,0.5561902605197524,0.1899865469196279,-1.3084234821880405,-1.1007515045864695,-0.6870065165763225,0.4223397473753286,0.1735922937062361,0.2589679711500595,0.1394924144683497,-0.3004364671971582,0.1179455602934242,0.1709632234783904,-0.2508708114119087,0.3115358392429146,-2.7755202025292265,0.647497228428285,-2.7755202025292265,-1.2929159817072344,0.2738426733973083,-1.2929159817072344,1.873478770858076,-0.647497228428285,1.265349951508895,0.4391548616723547,0.1897624657680468,-1.0120192971253534,-0.4890577564843329,-0.6463890008341614,1.372115107758238,0.760638829255665,1.0411048445876565,-0.6721809596566366,0.2662438048704187,-0.2505506817918025,-0.9552968371810562,-0.6605831304881811,0.2467860561217753,-0.4178981267028671,0.2605239693676892,0.0,0.2736549500293471,0.0940398663437843,-1.077066996426861,1.8484581299626608,-0.963048542677645,-0.5497464934375227,-0.778147935848775,-0.9216253627111372,-0.8770066570451334,-0.3772492263321843,-0.3307679466196891,-0.5413993084856689,2.48910910349404,0.1855570379875589,0.4526410805523731,0.8112039791249983,-0.4020212888498706,-1.698945166112569,0.1369765220569132,0.2667363934371545,-0.0397433758812307,1.9141925456218112,0.0903375880493434,1.4827573523144977,1.4441933772705444,-0.6512930307441407,2.304069599171784,-0.5065615138558763,0.0532044763365008,-0.4321339426703818,0.1462443243224166,0.6299316942847225,-0.4098048725074914,-0.1690308509457033,-0.6403869598873415,-1.086551635907646,0.5985737365838988,-0.2595461158584206,-1.3846636642026993,-0.8937396396374722,0.9611360584226626,2.3718668874617053,0.5374757768137712,0.8212529596505704,0.1393607751887554,2.117612265464469,-0.2830509147203129,-0.7944789027411515,-0.7356248788754757,-0.229494692996586,-0.6138788892284813,-0.4023739080814781,-0.229494692996586,-0.2830509147203129,-0.2830509147203129,-1.1771311777910505,-1.1114414954473304,-0.1690308509457033,0.0,-0.1458497805909761,-0.3820239790775022,-0.4023739080814781,-0.3017804310611087,-0.3017804310611087,-0.1690308509457033,-0.452601590337872,-0.8047478161629564,-0.4976895965835776,-0.4023739080814782,1.1435437497937313,1.0780291705957532,-0.1690308509457033,-0.611153121101568,0.9253248490516116,-0.4648348401006841,-0.2426405960973119,-0.1690308509457033,-0.4990834089450871,-0.4230217115244236,-0.4483137536088725,2.65534193310386,-0.2426405960973119,-0.2426405960973119,-0.2426405960973119,-0.3017804310611087,-0.229494692996586,-0.229494692996586,3.218991264651826,-0.1690308509457033,-0.1690308509457033,-0.2294946929965859,-0.2426405960973119,-0.1690308509457033,-0.2426405960973119,-0.1690308509457033,0.626933799634114
ALLN,4.159233514379921,-0.9123143882283972,-0.1850655505127197,-0.0754012595780442,-0.1174078284759046,-0.3527888926374712,-0.1294394266951594,-0.2477483205258856,-0.1238128160126238,-0.2639873756603747,-0.5666560108069532,-0.6152154088208108,-0.5830112623705054,-0.6389011903795655,-0.3285394840319622,0.202759326353137,-0.242640596097312,0.5170530698375337,-0.1230865233615691,0.1298186530857423,-0.4969859069699716,-0.8189497520470643,0.7218337268918015,0.1645074272534851,-1.2154236800540303,-0.3455923381631283,-1.0880657644080582,-1.3084070545938915,-1.3167731226873236,1.2989992797056693,0.5313245453383744,-0.3165164091834058,-0.4210549421828761,-0.3004549530397161,0.1951642269329319,0.8295478868337366,0.0760852890919167,-0.272521869784932,0.1316214196028484,-0.907740617975114,0.1316214196028484,-0.4314707933556492,-0.0615142707861497,-0.4314707933556492,0.477855908530868,0.907740617975114,-0.3033243112993964,-0.2147445000338872,-0.3461561884435878,0.1305831351129488,-0.2257189645312305,-0.6463890008341614,-0.8443785278512234,-1.01418510567422,-1.1672993712043418,-0.6721809596566366,-1.1673766828933747,-0.7986302982113705,0.2830509147203131,-0.3820239790775024,1.6474636719480678,-0.4178981267028671,-0.8792683966159514,-0.8997354108424374,-0.1798957331669247,-0.1420767792058595,0.5211999644627079,-0.7237313777564135,1.8751062618468064,-0.5497464934375227,-0.778147935848775,0.7776328334126164,-0.8770066570451334,-0.3772492263321843,-0.3307679466196891,0.7229178222253256,-0.3336222785735117,-0.927863964243848,-1.0882419685199392,-1.636394233752152,-0.3896951402727206,0.1734066969623262,0.8899030043415947,0.2667363934371545,0.891715073902479,-0.8355784574851697,-1.5164304645073616,-0.6069739684085285,0.5360025784721222,-0.6512930307441407,-0.5008846954721269,-0.5065615138558763,-0.2898532193189502,0.0229773076191529,0.1462443243224166,1.0594889953226982,-1.404897249121441,-0.1690308509457033,-0.6403869598873415,-0.1355683600069754,-0.9936754358561716,-0.2595461158584206,0.7517608650861237,-0.5926313946066859,-0.3472431331513499,0.1772573675669128,-1.3690195710622728,0.4824819089205812,1.3640128250504688,-0.5236538439232974,-0.2830509147203129,-0.7944789027411515,-0.7356248788754757,-0.229494692996586,-0.6138788892284813,-0.4023739080814781,-0.229494692996586,-0.2830509147203129,-0.2830509147203129,1.0803806700274023,1.1436571909675426,-0.1690308509457033,-0.6688560540599386,1.5557309929704115,-0.3820239790775022,-0.4023739080814781,3.218991264651826,-0.3017804310611087,-0.1690308509457033,-0.452601590337872,2.2130564944481304,-0.4976895965835776,-0.4023739080814782,-1.1435437497937313,-0.8820238668510707,-0.1690308509457033,-0.611153121101568,-0.8492707518692875,-0.4648348401006841,-0.2426405960973119,-0.1690308509457033,-0.4990834089450871,-0.4230217115244236,-0.4483137536088725,-0.5219902945417844,-0.2426405960973119,-0.2426405960973119,-0.2426405960973119,-0.3017804310611087,-0.229494692996586,-0.229494692996586,-0.3017804310611087,-0.1690308509457033,-0.1690308509457033,-0.2294946929965859,-0.2426405960973119,-0.1690308509457033,-0.2426405960973119,-0.1690308509457033,-0.2021604402239408
bryostatin,-0.2833690717953272,1.5648413694508527,2.463582642904126,2.429465648789153,2.485376011322365,2.2813243356416586,2.2992234964427705,2.44323045171774,2.2398806941860494,2.307502743248012,1.8404970901008475,1.8157855140454444,1.4988966899396194,1.4732867515336965,2.6086231757292597,2.5076053131914624,-0.242640596097312,1.9822252650717096,-0.8340662586117101,1.080096754045213,1.7201398837224249,1.2536747303859257,-0.3127899043282789,-1.1974690926365397,2.327804201093535,2.531391969857125,-0.9896917832562808,-0.5945911014433773,-0.3050875103312718,0.8104285588736606,-1.0578321878736252,2.3450988498588714,2.499657006908431,2.325301746790986,2.777111724340372,2.808393942923446,0.1710884169010288,2.391734080913693,0.455192491313093,0.3637940782965611,0.455192491313093,0.4943577727176345,-0.2694042751916404,0.4943577727176345,-1.72386233301432,-0.3637940782965611,0.918573322811188,2.2781449553722384,2.531716389469043,0.7018843512321,2.407668954999793,-0.6463890008341614,2.1109463196280585,1.3522468075656264,-1.1672993712043418,-0.6721809596566366,-1.1673766828933747,2.763887208515821,0.9022247906709976,2.403567535029285,0.7136785947305395,-0.4178981267028671,2.5401087013349706,1.7994708216848747,2.5147289140579843,2.3789503431668644,-0.0149165749297151,0.6062121796956886,-0.0362262645621743,-0.5497464934375227,2.311401679424379,-0.0814364161392982,1.5419279291840713,-0.3772492263321843,-0.3307679466196891,1.817376421109557,0.0024324149004493,2.0815942940833496,2.808270688333758,0.3216843365495682,2.9825720231425787,0.6287746928526758,-1.2046469272392393,0.1643168363551319,2.894169994120224,-0.0222267508284346,0.5474756076967038,-0.6069739684085285,-1.2063830302091925,-0.6512930307441407,-0.5008846954721269,-0.5065615138558763,2.5225782111162185,3.089090769141769,0.0400697450824442,2.3370092447473123,1.0455445598126458,-0.1690308509457033,-0.6403869598873415,2.3383003611650626,2.3086417805554187,-0.2595461158584206,1.542187666964667,2.165315786612882,-0.8274808917928378,-2.973133590335267,-1.042733620122543,0.1803472616441597,1.3602638388051724,0.3969497036015544,-0.2830509147203129,2.5760376543425214,1.4099476845113283,-0.229494692996586,-0.6138788892284813,-0.4023739080814781,-0.229494692996586,-0.2830509147203129,-0.2830509147203129,1.6447586319820156,1.707431862571261,-0.1690308509457033,-0.6688560540599386,-0.99664016737167,-0.3820239790775022,-0.4023739080814781,-0.3017804310611087,-0.3017804310611087,-0.1690308509457033,2.517596346254413,-0.8047478161629564,-0.4976895965835776,-0.4023739080814782,-1.1435437497937313,2.0580556893191653,-0.1690308509457033,3.3500245156678545,2.6999204499725105,-0.4648348401006841,-0.2426405960973119,-0.1690308509457033,-0.4990834089450871,-0.4230217115244236,2.16684980910955,1.0666758192810375,-0.2426405960973119,-0.2426405960973119,-0.2426405960973119,-0.3017804310611087,-0.229494692996586,-0.229494692996586,-0.3017804310611087,-0.1690308509457033,-0.1690308509457033,-0.2294946929965859,-0.2426405960973119,-0.1690308509457033,-0.2426405960973119,-0.1690308509457033,-1.742328390269796
AZ841,-1.0352037409800934,0.8490305363716504,0.3619507175195435,0.2941140572819449,0.2665520905395322,0.5425261670881659,0.3517566341008832,0.2854209276859479,0.0619064854773049,-0.0619411515575813,-0.0104258832603577,-0.0534746733097044,-0.055740844137734,-0.1039619687472902,-0.3465011663739295,-0.3092635601777383,-0.242640596097312,-0.2716344329722154,1.3237909147567126,0.5930294492983949,1.400883198480524,-0.5392701329050128,-0.0229319029273031,1.451023899005275,-0.3296167097671389,0.4268919284716984,0.5480488694846657,1.177994925758139,1.3232991531243714,-0.7197105118639481,-1.119747385271494,0.474774613775109,0.4731030447569173,-0.3003600075782041,0.2192320750949531,0.4137693030222211,-0.1879527471613328,0.405583274366573,0.6308817201352069,0.655942722072809,0.6308817201352069,-0.4005719707711017,-0.0034431214716147,-0.4005719707711017,0.002082485130739,-0.655942722072809,0.7808034368658722,0.4322568280538367,0.4264714598823837,0.1305831351129488,0.5642974113280766,-0.6463890008341614,-0.1055473159814028,-0.4225771273642582,1.0411048445876565,1.6804523991415916,1.6998642926342122,0.5715687428375493,0.2830509147203131,1.0107717779758914,0.9471248640349216,-0.4178981267028671,0.2605239693676892,0.0,0.3803727578402345,0.1718557065047868,2.1243531684408827,0.5775090445001558,-0.0169969411694944,-0.5497464934375227,-0.778147935848775,-0.1016357644613727,2.276032445233976,1.8929549288999672,-0.3307679466196891,-0.8111262529936472,0.0149003327868563,0.1366397387479107,0.9096105128199432,0.8112039791249983,-0.1828703755172677,0.9529162922225184,2.0868372440832896,-0.9384545851364904,-0.4694904073515275,0.902830003650523,0.5796983145595751,0.4378916919529845,1.5708931807651043,3.0835517826556647,0.9015924518498286,-0.5065615138558763,0.0051838085484338,-0.5400382491191084,0.1249878554780805,-0.7042327971774034,0.6066901281395926,-0.1690308509457033,0.618639227138266,0.0621734671973608,1.8760038316168144,-0.2595461158584206,-0.5123003387113169,-0.1921781907632763,-0.1205303341458881,0.040732194476057,0.1912123311498557,1.0442706998944506,-0.2972842268600417,-0.5236538439232974,-0.2830509147203129,-0.7944789027411515,-0.7356248788754757,-0.229494692996586,2.250889260504432,-0.4023739080814781,-0.229494692996586,-0.2830509147203129,-0.2830509147203129,-0.6127532158364373,-0.5476668238436121,-0.1690308509457033,2.006568162179816,1.5557309929704115,-0.3820239790775022,-0.4023739080814781,-0.3017804310611087,-0.3017804310611087,-0.1690308509457033,-0.452601590337872,0.201186954040739,2.7683983809961505,-0.4023739080814782,1.1435437497937313,-0.3920106074893648,-0.1690308509457033,-0.611153121101568,0.038027048591162,2.493205051449124,-0.2426405960973119,-0.1690308509457033,-0.4990834089450871,-0.4230217115244236,-0.4483137536088725,-0.5219902945417844,-0.2426405960973119,-0.2426405960973119,-0.2426405960973119,-0.3017804310611087,-0.229494692996586,-0.229494692996586,-0.3017804310611087,-0.1690308509457033,-0.1690308509457033,-0.2294946929965859,-0.2426405960973119,-0.1690308509457033,-0.2426405960973119,-0.1690308509457033,-0.8237644064855759
AZ138,-0.3555945468271952,0.6119076469494891,0.1227559181170146,0.1618575746490512,0.2310545114451325,0.2438595427636989,0.2135382523382632,0.3295958901587544,-0.0215008945679972,0.075983191294219,-0.0143827000611759,0.2041828618495818,-0.0798591467508127,0.1566517408303422,-0.8861080355948394,-0.6735599759318883,-0.242640596097312,-0.325155236578526,1.6852403765372768,-0.456130016001904,-0.123334228247378,-0.6128247022024402,3.1229510114369496,-1.1974690926365397,-0.2133083958682663,0.1563688676254868,0.041499007405295,0.3100847322286648,0.4088200649048876,-0.766439905187319,-0.411162348384759,0.1870324236083763,0.1636855745176696,-0.3004443964863084,0.0793102086164666,0.277038633924957,-0.2280028277853642,0.2334257838766314,0.553301571591075,-1.059044160130205,0.553301571591075,-0.1314306696431831,-0.2726660056364821,-0.1314306696431831,0.9709459760315337,1.059044160130205,1.1679389069622803,0.4448631576555452,0.1565476053979751,-0.4407180810062022,-0.4890577564843329,-0.6463890008341614,-0.8443785278512234,-1.01418510567422,1.0411048445876565,1.6804523991415916,1.6998642926342122,-0.2505506817918025,-0.9552968371810562,-0.3820239790775024,0.7136785947305395,-0.4178981267028671,-0.8792683966159514,-0.8997354108424374,0.0868987863602939,-0.820457974330646,-0.1613988142397867,-0.7237313777564135,-0.963048542677645,3.3263147473638117,-0.778147935848775,0.7368813310024367,-0.0388362171957798,-0.3772492263321843,1.963227087407264,1.0005472530712136,0.8220692842988906,-0.6115532666172704,-0.2584431137547145,0.3216843365495682,-1.1582122588938562,0.442696075185059,0.693009595067714,-0.3546193346512952,-0.3108802263748309,-0.0868667309561624,1.8999839277472064,-0.6069739684085285,0.0272342148010583,-0.6512930307441407,-0.5008846954721269,1.301403341792278,-0.5647242117802251,-0.8843996350117453,-0.3722696261458094,0.3874685893122114,1.5000795800920002,-0.1690308509457033,0.539387550287559,-0.5574783415535551,-0.8260957631165142,0.3604074524183037,0.0933734003648548,-1.029858120449085,1.7910945078988962,0.6638381505009141,2.0789102664378234,-0.081360109737903,0.0790723797157932,-0.5236538439232974,-0.2830509147203129,-0.7944789027411515,-0.7356248788754757,-0.229494692996586,0.8185051856379751,-0.4023739080814781,-0.229494692996586,-0.2830509147203129,-0.2830509147203129,-0.6127532158364373,-0.5476668238436121,-0.1690308509457033,1.3377121081198773,-0.99664016737167,1.28933092938657,-0.4023739080814781,-0.3017804310611087,-0.3017804310611087,-0.1690308509457033,-0.452601590337872,0.201186954040739,-0.4976895965835776,2.414243448488869,1.1435437497937313,-0.3920106074893648,-0.1690308509457033,-0.611153121101568,-0.8492707518692875,-0.4648348401006841,-0.2426405960973119,-0.1690308509457033,-0.4990834089450871,-0.4230217115244236,-0.4483137536088725,-0.5219902945417844,-0.2426405960973119,-0.2426405960973119,-0.2426405960973119,-0.3017804310611087,-0.229494692996586,-0.229494692996586,-0.3017804310611087,-0.1690308509457033,-0.1690308509457033,-0.2294946929965859,-0.2426405960973119,-0.1690308509457033,4.003569835605647,-0.1690308509457033,-0.3991711769471144
camptothecin,-0.3856468291685256,0.3373700372088083,-0.4764892314689751,-0.4935889185976806,-0.5519427242276668,-0.3639692711479245,-0.4022240079280197,-0.5499959113708771,-0.3933744724293183,-0.5572466890701935,-0.1845430009614681,-0.2293167805934423,-0.1787118431510151,-0.228721500518457,-0.5301863403378235,-0.206888392007935,-0.242640596097312,-0.249757195700011,0.0900159801522508,0.3519048615371298,-1.083216926911457,-0.0265476125281166,0.5166766140874609,-1.1974690926365397,-0.3065110495464072,-0.5397259069261828,0.6856927880516869,1.0077510031812038,1.1859970222150644,-0.9562780655635128,-0.2047783570585251,-0.388451956725089,-0.5045007911882508,-0.3004547602592262,-0.7312301585328668,-0.981685182245281,-0.3757125725424637,-0.4577884558677596,0.2764025114650261,0.2833849862390195,0.2764025114650261,0.6162942842040148,-0.1944587778655792,0.6162942842040148,-0.8588666810538254,-0.2833849862390195,-0.2314080127179272,-0.4478088060171375,-0.5402636337862111,-1.0120192971253534,-0.4890577564843329,-0.6463890008341614,0.6332838958884176,0.1690308509457033,-0.0630972633083428,1.6804523991415916,0.9830540487523156,-0.2505506817918025,-0.9552968371810562,-0.6605831304881811,-1.1538915597045172,-0.4178981267028671,-0.8792683966159514,-0.8997354108424374,-0.5267286085523091,-0.5670602829704248,-0.5022356476276109,-0.0972884489493194,-0.963048542677645,1.329480754986703,-0.1602380127941442,-0.9405056656912129,0.7674753115472884,-0.3772492263321843,-0.3307679466196891,-0.104900866201064,-0.6410392564611378,-0.3428039230420646,0.4921016041362656,0.8112039791249983,-0.6322793969878835,-0.3830860014800452,0.049569456298506,-0.9384545851364904,-0.4753257992701977,-0.8355784574851697,0.6748582097313666,0.4277903745305093,-0.5990999906278593,-0.6512930307441407,-0.5008846954721269,-0.5065615138558763,-0.970462593950827,0.676999624816551,-1.1031327350939808,-0.368074444977569,0.2843584734582222,-0.1690308509457033,1.933663314199297,-0.5538333309138441,-0.5184388494711393,-0.2595461158584206,-0.101313393871398,-0.3328896338000621,0.0763372098380577,0.1539836221930811,0.8576670069023502,-0.3191702925945158,-0.6656677677401616,-0.5236538439232974,-0.2830509147203129,0.0481502365297667,-0.7356248788754757,-0.229494692996586,0.8185051856379751,-0.4023739080814781,-0.229494692996586,-0.2830509147203129,-0.2830509147203129,-0.6127532158364373,-0.5476668238436121,-0.1690308509457033,0.6688560540599386,-0.99664016737167,-0.3820239790775022,-0.4023739080814781,-0.3017804310611087,-0.3017804310611087,-0.1690308509457033,-0.452601590337872,-0.8047478161629564,-0.4976895965835776,-0.4023739080814782,0.0,1.5680424299574591,-0.1690308509457033,0.1810824062523164,-0.4056218516390626,-0.4648348401006841,-0.2426405960973119,-0.1690308509457033,-0.4990834089450871,-0.4230217115244236,2.16684980910955,-0.5219902945417844,-0.2426405960973119,-0.2426405960973119,-0.2426405960973119,3.218991264651826,-0.229494692996586,-0.229494692996586,-0.3017804310611087,-0.1690308509457033,-0.1690308509457033,5.125381476923753,-0.2426405960973119,-0.1690308509457033,-0.2426405960973119,-0.1690308509457033,0.2963878396471823
mevinolin/lovastatin,-0.4858538821751092,-0.5880740217549754,-0.1705231923060979,-0.0103966205178677,-0.0498621143732597,-0.1737168439707397,0.1392068183064281,0.0499139592639293,0.1946966573831947,0.0825228466176475,0.2566068893086933,0.2162036102635688,0.2344962697586621,0.190496454156296,-0.698340775370317,-0.206888392007935,-0.242640596097312,1.4149536316956917,0.132030269555133,0.6099116425558264,-0.6113436222676867,-0.8189497520470643,-0.272220450154251,1.5414101071420128,-0.3296167097671389,-0.2297888287231132,0.8604175036464624,0.9829645316949066,0.9103236670523293,1.0939740664993798,0.7377085366646081,-0.1726453141000395,-0.2898602190589836,-0.3004546206977021,-0.0889845972302812,-0.0073708960634558,-0.2115748750996287,-0.1328640120167875,0.0823300377436768,0.3252995656254203,0.0823300377436768,0.2572676988527143,-0.2430706501346372,0.2572676988527143,0.6676524109790224,-0.3252995656254203,0.8744618722277858,-0.1154767846973507,-0.2301938897533271,-1.0120192971253534,-0.7523965484374353,1.6159725020854034,-0.1055473159814028,0.760638829255665,-1.1672993712043418,-0.6721809596566366,-1.1673766828933747,-0.5245904900015865,-0.9552968371810562,-0.9391422818988598,0.0133397868173932,-0.4178981267028671,0.2605239693676892,0.0,-0.0998573773087591,-0.5556706554544864,-0.0149165749297151,-0.7237313777564135,-0.963048542677645,-0.5497464934375227,0.4576719102604866,-0.0814364161392982,-0.8770066570451334,-0.3772492263321843,-0.3307679466196891,0.6659453386656272,0.5163468972738758,-0.5974889823380399,-0.2350934889408559,-0.1678353060258618,-0.1230161883847474,-0.767857222526471,-1.2046469272392393,2.0745228612976216,0.7258535645001108,-0.8355784574851697,-0.694342159825088,-0.6069739684085285,-1.2063830302091925,-0.6512930307441407,-0.5008846954721269,-0.5065615138558763,-0.5042988769122103,0.0146925547413738,2.020309913447013,0.8163882237849547,-0.4288452961961295,-0.1690308509457033,-0.6403869598873415,-0.710386537889443,-0.179630164822182,-0.2595461158584206,-0.3689656568560773,-0.4696436857772148,-0.0500365065330496,0.7549063062808895,-1.042733620122543,1.6585546310373147,0.7265074477655006,-0.5236538439232974,-0.2830509147203129,0.0481502365297667,0.3371614028179263,-0.229494692996586,-0.6138788892284813,-0.4023739080814781,-0.229494692996586,-0.2830509147203129,-0.2830509147203129,-0.048375253881824,0.0161078477601061,-0.1690308509457033,-0.6688560540599386,-0.99664016737167,-0.3820239790775022,-0.4023739080814781,-0.3017804310611087,-0.3017804310611087,-0.1690308509457033,2.517596346254413,-0.8047478161629564,-0.4976895965835776,-0.4023739080814782,-1.1435437497937313,-0.3920106074893648,-0.1690308509457033,0.9733179336062012,0.038027048591162,-0.4648348401006841,-0.2426405960973119,-0.1690308509457033,-0.4990834089450871,-0.4230217115244236,2.16684980910955,-0.5219902945417844,-0.2426405960973119,-0.2426405960973119,-0.2426405960973119,-0.3017804310611087,-0.229494692996586,-0.229494692996586,-0.3017804310611087,-0.1690308509457033,-0.1690308509457033,-0.2294946929965859,-0.2426405960973119,-0.1690308509457033,-0.2426405960973119,-0.1690308509457033,0.9275426786817698
vincristine,-0.9798445960585558,2.4655355904876823,1.9612463499475807,2.045457837727575,2.086357076763921,2.100772959758568,2.163777583294824,2.2931552504224726,2.202386184631424,2.266712022954952,2.7458117536189013,2.730069188676175,3.228704883189484,3.228253873663632,1.0685598127773477,0.6979428430585309,4.003569835605648,-0.6864983461815084,4.043960964294057,-0.0650918766891803,1.7238422712610768,-0.5451588758249651,1.470623305346326,0.5828935379211208,0.5561902605197524,2.089516338007832,-0.600130817895241,-0.0624737545493575,0.16213650839136,0.3362721916065715,-1.4224439058833045,2.0573566596921387,2.0946941289196146,4.205917382279791,1.6655754843816355,1.020256855427725,-0.216642466338203,2.0693900400423697,1.2383607524631497,0.6840950479789342,1.2383607524631497,0.6262980597428995,-0.1038649670097719,0.6262980597428995,-1.807742581966705,-0.6840950479789342,0.5201068545080485,2.119977078199146,2.089852242675168,0.1305831351129488,1.6176525791404863,0.4847917506256211,2.849777531497879,2.53546276418555,1.0411048445876565,0.5041357197424775,0.9830540487523156,1.3936881674669013,0.2830509147203131,1.567890080797249,0.4802323254261574,1.4104061776221766,1.40031633535133,1.7994708216848747,2.0078193269562687,1.085658477153815,-0.1057001774352026,-0.0410404488002539,0.9605706022705882,-0.5497464934375227,1.0755818333151177,2.533531938476596,-0.0706951283020651,-0.3772492263321843,-0.3307679466196891,0.6020399962572665,1.713922554297017,3.4208618817054304,1.1557852216170428,2.7692825494267184,1.168352254998073,1.4914801782059726,0.7367131279469176,0.2155266148961431,1.0691118123576746,2.536500108621867,0.9336363219037124,-0.0845411382277719,-0.1536815287040757,0.1665225662212121,0.2003538781888508,-0.5065615138558763,2.5781387966231883,2.282650751923372,0.0931570347024303,1.1122905446958116,0.586079218882947,-0.1690308509457033,0.618639227138266,1.0818651936565886,0.6821885844509197,-0.2595461158584206,1.6118243575152766,0.6753653696896275,-1.082997589993283,-0.4043198446147178,0.5978793571200821,0.8585333543610231,0.6903019400201234,1.0423373748006692,-0.2830509147203129,0.8907793758006851,-0.7356248788754757,-0.229494692996586,0.1023131482047469,2.414243448488869,-0.229494692996586,-0.2830509147203129,-0.2830509147203129,1.0803806700274023,1.1436571909675426,-0.1690308509457033,1.3377121081198773,-0.1458497805909761,-0.3820239790775022,2.414243448488869,-0.3017804310611087,-0.3017804310611087,-0.1690308509457033,-0.452601590337872,0.201186954040739,0.5910063959429985,-0.4023739080814782,1.1435437497937313,2.0580556893191653,-0.1690308509457033,1.7655534609600856,0.9253248490516116,-0.4648348401006841,-0.2426405960973119,-0.1690308509457033,-0.4990834089450871,-0.4230217115244236,-0.4483137536088725,1.8610088761924488,-0.2426405960973119,-0.2426405960973119,-0.2426405960973119,3.218991264651826,-0.229494692996586,-0.229494692996586,3.218991264651826,-0.1690308509457033,-0.1690308509457033,-0.2294946929965859,-0.2426405960973119,-0.1690308509457033,-0.2426405960973119,-0.1690308509457033,-1.5246982005521754
methotrexate,-0.5755306851270549,0.4053690379188892,0.1269135166738008,-0.0798784337969591,-0.1220600184449713,0.1080533950335056,-0.1663573793629089,-0.2886537199525177,-0.2996816353738069,-0.4553171437796577,-0.3867600278949402,-0.4335371847335652,-0.5028026448640379,-0.5575259909877256,-0.1512882861998111,0.2312712591345778,-0.242640596097312,0.5599667783785408,0.0919363360388105,-0.8544948578320003,-0.0559414970922559,0.0083116195391855,-0.3631441909916119,0.9588192665071934,0.3342562385604797,0.045755716561,-0.0721308317860636,0.1074262409112603,0.1787120833349572,-0.9562780655635128,-1.2779751119549403,0.1150968760666931,0.0914873704699694,-0.3004524959827813,0.0099187404757285,0.049327622001734,-0.188948976654897,0.0299003605158529,0.0100361106311469,0.5253267063977319,0.0100361106311469,0.438538396332723,-0.3856262744576141,0.438538396332723,-0.231823137163209,-0.5253267063977319,-1.178027198697261,0.035762500527551,0.0451710433695412,2.4157879995895533,1.3543137871873838,-0.6463890008341614,-0.8443785278512234,-1.01418510567422,-0.0630972633083428,1.6804523991415916,0.9830540487523156,0.8456085510473333,1.5213986666216823,1.28933092938657,0.7136785947305395,-0.4178981267028671,-0.8792683966159514,-0.8997354108424374,0.0335398824548502,0.6061369371026014,-0.5513970159876772,1.1755714047945982,-0.0104051221415141,1.447087498939586,0.4576719102604866,-0.0814364161392982,1.6056457513966418,4.061015083247224,-0.3307679466196891,-1.0359434478285936,-0.353172277793773,0.1578663128270521,-0.2355864980871375,-0.1678353060258618,-0.100183460793336,1.9247074979623555,2.1114554938786694,-0.9384545851364904,-0.6281005883282241,0.503739738458891,-0.0754392132672762,-0.6069739684085285,1.16233678390104,1.858439221079594,-0.5008846954721269,-0.5065615138558763,0.3098898951244837,-0.1956768632264715,-1.1031327350939808,-0.4054350024087572,-0.1556811223457205,-0.1690308509457033,0.6487730371539369,1.7993855380837518,-0.9936754358561716,-0.2595461158584206,0.9767577426979088,0.2551486197835985,2.8417961388770645,-0.7508873682287618,-0.1938863160203384,-0.148473472767142,-1.027070823880924,0.171504465120922,4.670340092885164,-0.7944789027411515,-0.7356248788754757,5.125381476923754,2.250889260504432,-0.4023739080814781,-0.229494692996586,4.670340092885164,4.670340092885164,0.5160027080727891,-0.5476668238436121,-0.1690308509457033,2.6754242162397546,-0.1458497805909761,2.9606858378506424,-0.4023739080814781,-0.3017804310611087,-0.3017804310611087,-0.1690308509457033,-0.452601590337872,0.201186954040739,2.7683983809961505,-0.4023739080814782,0.0,-0.3920106074893648,-0.1690308509457033,-0.611153121101568,-0.8492707518692875,-0.4648348401006841,-0.2426405960973119,-0.1690308509457033,-0.4990834089450871,-0.4230217115244236,-0.4483137536088725,-0.5219902945417844,-0.2426405960973119,-0.2426405960973119,-0.2426405960973119,-0.3017804310611087,-0.229494692996586,-0.229494692996586,-0.3017804310611087,-0.1690308509457033,-0.1690308509457033,-0.2294946929965859,-0.2426405960973119,-0.1690308509457033,-0.2426405960973119,-0.1690308509457033,-0.7826652955748714
demecolcine,0.4643865626446131,-0.1353774364044753,-0.3273514932858035,-0.2304332706521115,-0.278500145088463,-0.2786787207090332,-0.3570726504892765,-0.4999678307969546,-0.4973459390375493,-0.6703584769893502,-0.285606603685813,-0.3313816269874737,-0.2359346813347345,-0.2867766074599487,-0.8861080355948394,-1.111719627074401,-0.242640596097312,-0.7471767565390742,0.0709271752919756,1.2992145557357155,-0.4812322264541905,0.6912827977952611,-0.017000718406772,-0.7434769193398648,0.5561902605197524,-0.4124159543496424,-0.7732690247223697,-0.3854934990053482,-0.2633032484942882,-0.4193072690708504,-0.0259122312424564,-0.3165164091834058,-0.4210787719391425,-0.3004547843244372,-0.3754520756185154,-0.3539485496847645,-0.3101695843952411,-0.3277046230954407,0.0877847789346104,0.6458649737095169,0.0877847789346104,-0.6677657704035214,-0.3597347016527037,-0.6677657704035214,1.2385790204399674,-0.6458649737095169,0.2260653604532917,-0.2450461397390952,-0.4129280459743834,-1.0120192971253534,-0.4890577564843329,0.4847917506256211,-0.8443785278512234,-0.4225771273642582,1.0411048445876565,-0.6721809596566366,0.2662438048704187,-0.2505506817918025,-0.9552968371810562,-0.6605831304881811,-0.2201064824869888,-0.4178981267028671,-0.8792683966159514,-0.8997354108424374,-0.3399724448832559,0.0940398663437843,-1.077066996426861,1.2054107530328926,0.8271882889074381,-0.5497464934375227,-0.778147935848775,-0.9405056656912129,-0.8770066570451334,-0.3772492263321843,-0.3307679466196891,-0.8111262529936472,0.7900868819838794,-0.6422367415952545,0.4526410805523731,-0.1678353060258618,-0.4020212888498706,-1.698945166112569,-0.5064636167122946,-0.9384545851364904,-0.7780290110933995,1.1942472671028168,0.0591282426453085,2.4938100443203552,2.0372234282971657,-0.6512930307441407,2.304069599171784,-0.5065615138558763,-0.5001903098954603,-0.8933010893108884,-1.1031327350939808,-0.5790536149082094,-0.2131877148487528,-0.1690308509457033,0.6445033171580187,-0.8344991501716115,0.567510235981869,-0.2595461158584206,-0.919719677839724,-0.9293525016228747,0.5119980103687789,1.2933662778798856,0.1563797388797086,-0.008434806494725,-1.108539364543086,2.6197029199039283,-0.2830509147203129,-0.7944789027411515,-0.7356248788754757,-0.229494692996586,-0.6138788892284813,-0.4023739080814781,-0.229494692996586,-0.2830509147203129,-0.2830509147203129,-1.1771311777910505,-1.1114414954473304,-0.1690308509457033,-0.6688560540599386,-0.1458497805909761,-0.3820239790775022,-0.4023739080814781,-0.3017804310611087,-0.3017804310611087,-0.1690308509457033,-0.452601590337872,-0.8047478161629564,-0.4976895965835776,2.414243448488869,0.0,0.5880159112340472,-0.1690308509457033,-0.611153121101568,0.9253248490516116,-0.4648348401006841,-0.2426405960973119,-0.1690308509457033,-0.4990834089450871,-0.4230217115244236,-0.4483137536088725,2.65534193310386,-0.2426405960973119,-0.2426405960973119,-0.2426405960973119,-0.3017804310611087,-0.229494692996586,-0.229494692996586,-0.3017804310611087,-0.1690308509457033,-0.1690308509457033,-0.2294946929965859,-0.2426405960973119,-0.1690308509457033,-0.2426405960973119,-0.1690308509457033,1.832996385355704
nocodazole,-0.2281344703727832,-0.3244648355570806,-0.7978363962249199,-0.8669254991134867,-0.8379443843056158,-0.721676167958417,-0.9051323176872528,-0.9099004303857566,-0.978774936157466,-0.9575646034631032,-0.91700730275776,-0.7141326524054251,-0.908280094874906,-0.7177648433075364,-0.6986707331374068,-0.6735599759318883,-0.242640596097312,-0.7289366017310912,-0.2947457981314576,-0.8669950722048901,0.4786504722098885,0.2762137528413324,-0.3871279683415567,0.5121444124451335,-1.2154236800540303,-0.7995037486458891,0.9581130435489174,1.36145001693011,1.2300771226145193,-1.6885109698716885,0.0153645670227909,-0.7481296944335049,-0.7546596150323781,-0.3004549882011114,-0.9165021236788228,-0.9036503943984278,-0.3373515112114121,-0.7708392859448914,-0.0339516974482191,0.2242863056835872,-0.0339516974482191,1.3555517482341235,-0.3252264843259276,1.3555517482341235,0.6543728170537657,-0.2242863056835872,0.267249984931633,-0.7463005330554127,-0.7997964628383483,-0.4407180810062022,-0.4890577564843329,-0.6463890008341614,-0.8443785278512234,-1.01418510567422,-0.0630972633083428,1.6804523991415916,0.9830540487523156,-0.5245904900015865,-0.3361229612303715,-0.3820239790775024,-0.6869990210957531,-0.4178981267028671,-0.8792683966159514,-0.8997354108424374,-0.8468820319849715,-0.8816945293129549,-1.077066996426861,-0.7237313777564135,0.9157979720756828,-0.5497464934375227,-0.1474089600778109,0.0121388588405358,0.7674753115472884,-0.3772492263321843,1.963227087407264,-0.8111262529936472,-0.4025593496603254,-1.0108566063740545,0.0798378201281583,-0.1678353060258618,-0.64894905029072,1.4358493282541271,0.1043126280562428,-0.9384545851364904,-1.2106151622171233,-0.1247857105395621,0.0776691557367883,-0.6069739684085285,-0.625587827315421,0.8934749004415302,-0.5008846954721269,1.301403341792278,-0.7069279542489781,-1.0142492264976477,-1.1031327350939808,-0.8525238220640642,0.0595969516658237,-0.1690308509457033,0.6337061321461015,-0.5053546894056843,-0.6754243016566944,0.3586401871140176,-0.0376783517076,-0.8606793176306133,0.0925765389391379,0.539740654824532,0.4037366590850612,-0.4734772927711536,-1.108539364543086,-0.0360255495471577,-0.2830509147203129,-0.7944789027411515,-0.7356248788754757,-0.229494692996586,0.8185051856379751,2.414243448488869,-0.229494692996586,-0.2830509147203129,-0.2830509147203129,-0.048375253881824,0.0161078477601061,-0.1690308509457033,0.0,0.7049406061897178,-0.3820239790775022,2.414243448488869,-0.3017804310611087,-0.3017804310611087,-0.1690308509457033,-0.452601590337872,0.201186954040739,0.5910063959429985,-0.4023739080814782,0.0,-0.3920106074893648,-0.1690308509457033,-0.611153121101568,-0.4056218516390626,-0.4648348401006841,4.003569835605648,-0.1690308509457033,1.247708522362718,-0.4230217115244236,-0.4483137536088725,0.2723427623696266,-0.2426405960973119,-0.2426405960973119,-0.2426405960973119,-0.3017804310611087,-0.229494692996586,-0.229494692996586,-0.3017804310611087,-0.1690308509457033,-0.1690308509457033,-0.2294946929965859,-0.2426405960973119,-0.1690308509457033,4.003569835605647,-0.1690308509457033,1.18242650336905
mitomycin C,-0.3398950371441912,-0.4194540039806097,-0.5426358369122865,-0.597196622072605,-0.6596005224852708,-0.5438479454485687,-0.5912299960906009,-0.7594161224371744,-0.469688147167437,-0.6402692381781642,-0.1677481402676719,-0.2123555321250207,-0.0398564422459458,-0.0878465386183498,-0.1626163522167726,-0.2354003247893755,-0.242640596097312,1.33903575097217,-0.4877166718788884,-1.2710125109744073,0.1049987934872949,-0.8189497520470643,-0.7004267678608274,-0.7434769193398648,0.7425955678760342,-0.6169174392832252,1.3122593756953176,1.1575026017442482,0.8914618059096154,0.205531475938793,0.2079896255939416,-0.5323230518084553,-0.6000700286940851,-0.3004549431736947,-0.7428889563486117,-1.077813230318742,-0.3870697257202275,-0.5970621773901882,0.1766183446912425,0.1852821157604831,0.1766183446912425,1.2593179746989631,-0.2963420125632088,1.2593179746989631,0.2065564224320482,-0.1852821157604831,-2.181301375710251,-0.7414600936349764,-0.6176638051686026,1.273185567351251,0.3009586193749742,0.4847917506256211,1.372115107758238,1.3522468075656264,-1.1672993712043418,-0.6721809596566366,-1.1673766828933747,0.2975289346277653,0.2830509147203131,0.175094323743855,-0.6869990210957531,-0.4178981267028671,1.40031633535133,0.8997354108424374,-0.5534080605050309,0.5565344595315647,-0.5022356476276109,-0.0834271091659118,0.889357645756749,-0.5497464934375227,-0.1474089600778109,-0.0814364161392982,-0.0706951283020651,-0.3772492263321843,-0.3307679466196891,-1.0359434478285936,-1.480775367606087,0.531454418123665,0.1027803853830513,0.3216843365495682,-0.1396858416875839,-0.3216691797976316,0.1369765220569132,0.8318114051207224,-0.6440409216048409,0.3233626644260561,-0.7378926489266388,-0.6069739684085285,0.6270805835424147,0.0381356628577264,-0.5008846954721269,-0.5065615138558763,0.2955054298699682,0.0146925547413738,-0.4784442053857821,-1.1245854748704,-0.4805520772028849,-0.1690308509457033,-0.6403869598873415,0.6393609019956409,-0.2310849771325309,-0.2595461158584206,0.3029179293412313,-0.932644715654822,2.144923251120922,-0.1063242774775245,-1.024723612753715,-0.5442384247018317,-0.6857572714064722,0.057378937533451,-0.2830509147203129,-0.7944789027411515,-0.7356248788754757,-0.229494692996586,-0.6138788892284813,-0.4023739080814781,-0.229494692996586,-0.2830509147203129,-0.2830509147203129,0.5160027080727891,0.5798825193638244,-0.1690308509457033,0.0,-0.1458497805909761,2.9606858378506424,-0.4023739080814781,-0.3017804310611087,-0.3017804310611087,-0.1690308509457033,1.527530367390318,0.201186954040739,-0.4976895965835776,-0.4023739080814782,-1.1435437497937313,1.0780291705957532,-0.1690308509457033,-0.611153121101568,0.038027048591162,-0.4648348401006841,-0.2426405960973119,-0.1690308509457033,2.9945004536705238,3.807195403719812,-0.4483137536088725,0.2723427623696266,-0.2426405960973119,-0.2426405960973119,-0.2426405960973119,-0.3017804310611087,-0.229494692996586,-0.229494692996586,-0.3017804310611087,5.747048932153912,5.747048932153912,-0.2294946929965859,-0.2426405960973119,-0.1690308509457033,-0.2426405960973119,-0.1690308509457033,-0.2570656017284444
colchicine,0.4362022674413944,0.0345612726389816,-0.1705231923060979,-0.1213158471594534,-0.165117248153533,-0.148737264418298,-0.2651344585190529,-0.3980995473915838,-0.4028546757592088,-0.5675603143701194,-0.2771704715385653,-0.3228619175316661,-0.2014843459321533,-0.2518252144593804,-0.8861080355948394,-0.6735599759318883,-0.242640596097312,0.0676054207720238,0.7282159572424208,-0.0486887685156523,0.6186365083968953,0.4174919215731618,-0.3542832952759873,-0.7434769193398648,0.5561902605197524,-0.2578764452279395,-0.6050155948903636,-0.3059319855925426,-0.221388001510481,-0.4903116719128552,-0.3630060837419716,-0.1726453141000395,-0.254210903684659,-0.3004545181635001,-0.2365663140673335,-0.2342008877022455,-0.2860461625637967,-0.1954030682136194,0.1231278361964017,0.6458649735984731,0.1231278361964017,-0.6675702950884492,-0.0811275249348215,-0.6675702950884492,1.0068985831795807,-0.6458649735984731,0.1825288221405273,-0.1481354902314495,-0.2583594732935906,-1.0120192971253534,-0.2257189645312305,0.4847917506256211,-0.8443785278512234,-0.4225771273642582,1.0411048445876565,-0.6721809596566366,0.2662438048704187,-0.2505506817918025,-0.9552968371810562,-0.3820239790775024,-0.2201064824869888,-0.4178981267028671,-0.8792683966159514,-0.8997354108424374,-0.2065751851196466,0.0940398663437843,-1.077066996426861,1.2054107530328926,1.7732398904155884,-0.5497464934375227,-0.778147935848775,-0.0814364161392982,-0.8770066570451334,-0.3772492263321843,-0.3307679466196891,-0.8111262529936472,0.4556540958705253,-0.5884311995342937,0.8683050048489378,-0.1678353060258618,-0.1458489159761588,-1.23824634428346,-0.5064636167122946,-0.9384545851364904,-0.619418830116703,0.7911249558283004,0.0591282426453085,2.4938100443203552,2.0372234282971657,-0.6512930307441407,2.304069599171784,-0.5065615138558763,-0.5362834225999444,-0.5489397034182515,-1.1031327350939808,-0.352415059716088,-0.2131877148487528,-0.1690308509457033,0.6445033171580187,-0.5233974920722547,0.5625057153528034,-0.2595461158584206,-0.3563297383016667,-0.9546265270052192,0.3557495066207286,1.1043854211005613,0.0379807041444919,-0.0854760796406711,-0.7857979786351794,1.8278854075746904,-0.2830509147203129,-0.7944789027411515,-0.7356248788754757,-0.229494692996586,-0.6138788892284813,-0.4023739080814781,-0.229494692996586,-0.2830509147203129,-0.2830509147203129,-0.6127532158364373,-0.5476668238436121,-0.1690308509457033,-0.6688560540599386,-0.1458497805909761,-0.3820239790775022,-0.4023739080814781,-0.3017804310611087,-0.3017804310611087,-0.1690308509457033,-0.452601590337872,0.201186954040739,-0.4976895965835776,2.414243448488869,0.0,0.5880159112340472,-0.1690308509457033,-0.611153121101568,0.9253248490516116,-0.4648348401006841,-0.2426405960973119,-0.1690308509457033,-0.4990834089450871,-0.4230217115244236,-0.4483137536088725,2.65534193310386,-0.2426405960973119,-0.2426405960973119,-0.2426405960973119,-0.3017804310611087,-0.229494692996586,-0.229494692996586,-0.3017804310611087,-0.1690308509457033,-0.1690308509457033,-0.2294946929965859,-0.2426405960973119,-0.1690308509457033,-0.2426405960973119,-0.1690308509457033,1.655192572748669
AZ258,-1.045897349162647,0.8175440755519569,0.2916465135194471,0.2091618796589553,0.1782790751812344,0.4666117757314107,0.2328094699816668,0.1536264779029255,0.009392124097517,-0.1190721462513724,-0.0323069578648074,-0.0755725251400106,-0.1034415019969771,-0.1523564014789709,-0.3465011663739295,-0.3092635601777383,-0.242640596097312,-0.2716344329722154,0.9806514930646834,0.5930294492983949,1.400883198480524,0.3291952186718945,-0.9349232348516195,1.451023899005275,-0.3296167097671389,0.3495217449825615,0.6901104138165066,1.2732565400929805,1.379321295465745,-0.833262937639739,-1.119747385271494,0.4028390662334258,0.4015482441284065,-0.3003950657582732,0.1287849173636572,0.2740764555956683,-0.1981956855820882,0.3255856872078888,0.6224551638927438,0.6861805227238761,0.6224551638927438,-0.4005719707711017,-0.0024205792207806,-0.4005719707711017,0.0010588984976562,-0.6861805227238761,0.5769186397973328,0.3381982893158087,0.3490657701646584,0.1305831351129488,0.5642974113280766,-0.6463890008341614,-0.1055473159814028,-0.4225771273642582,1.0411048445876565,1.6804523991415916,1.6998642926342122,0.5715687428375493,0.2830509147203131,1.0107717779758914,0.7136785947305395,-0.4178981267028671,0.2605239693676892,0.0,0.3003344019820689,0.1718557065047868,2.1243531684408827,0.5775090445001558,-0.0169969411694944,-0.5497464934375227,-0.778147935848775,-0.1016357644613727,2.276032445233976,1.8929549288999672,-0.3307679466196891,-0.8111262529936472,-0.3136513829712902,0.1366397387479107,0.944209878830936,0.8112039791249983,-0.1828703755172677,0.9529162922225184,2.0868372440832896,-0.9384545851364904,-0.6281005883282241,0.9315964516605362,0.5796983145595751,0.4378916919529845,1.5708931807651043,3.0835517826556647,0.9015924518498286,-0.5065615138558763,0.0210995576822622,-0.5400382491191084,0.1249878554780805,-0.9308713523695248,0.6066901281395926,-0.1690308509457033,0.618639227138266,0.0621734671973608,1.849210054230353,-0.2595461158584206,-0.5160439548852166,-0.1955442895742766,-0.1239166300283424,0.0188541477332977,0.1801405004728337,1.0396700040076488,-0.8300399555008361,0.0814397235895027,-0.2830509147203129,-0.7944789027411515,-0.7356248788754757,-0.229494692996586,2.250889260504432,-0.4023739080814781,-0.229494692996586,-0.2830509147203129,-0.2830509147203129,-0.6127532158364373,-0.5476668238436121,-0.1690308509457033,2.006568162179816,1.5557309929704115,-0.3820239790775022,-0.4023739080814781,-0.3017804310611087,-0.3017804310611087,-0.1690308509457033,-0.452601590337872,0.201186954040739,2.7683983809961505,-0.4023739080814782,1.1435437497937313,-0.3920106074893648,-0.1690308509457033,-0.611153121101568,0.038027048591162,2.493205051449124,-0.2426405960973119,-0.1690308509457033,-0.4990834089450871,-0.4230217115244236,-0.4483137536088725,0.2723427623696266,-0.2426405960973119,-0.2426405960973119,-0.2426405960973119,-0.3017804310611087,-0.229494692996586,-0.229494692996586,-0.3017804310611087,-0.1690308509457033,-0.1690308509457033,-0.2294946929965859,-0.2426405960973119,-0.1690308509457033,-0.2426405960973119,-0.1690308509457033,-0.6976976342724084
etoposide,-1.0631083907581016,0.6867759888364611,0.6402229652217777,0.584857302928094,0.5686606851201438,0.8138278593167816,0.6489085297386055,0.6146677060984541,0.5694038189265053,0.4901711983330283,0.7828359073687351,0.7476460133498208,0.835679432600996,0.8004234329297075,1.1694659490966994,0.2882951246974588,-0.242640596097312,1.055122033196408,0.3405475894323673,-1.2710125109744073,0.120752474003076,0.5886999662935568,-0.9349232348516195,-1.1974690926365397,2.770707686236981,0.7855436279309571,-0.9643956166743952,-0.5667800902816691,-0.1764788083135438,0.2809430486123707,-0.4386802138949235,0.7625168039418416,0.8304183250913469,-0.2996033159903229,0.4239188015529868,0.2063110823173155,-0.2607490683590172,0.6985264780236531,0.4323193433919799,0.7403624215204876,0.4323193433919799,0.2730939860237161,-0.3531590898518212,0.2730939860237161,-0.4064424174221617,-0.7403624215204876,-0.6186898241195877,0.4449140882050038,0.7852625865714146,0.1305831351129488,1.3543137871873838,0.4847917506256211,2.1109463196280585,1.943854785875588,1.0411048445876565,-0.6721809596566366,0.2662438048704187,1.6677279756766852,0.2830509147203131,1.28933092938657,-0.2201064824869888,-0.4178981267028671,2.5401087013349706,1.7994708216848747,0.7538850851783407,2.354149104381346,1.047233846567431,3.255459387252677,1.0456610901862171,-0.5497464934375227,-0.1602380127941442,-0.9405056656912129,-0.8770066570451334,-0.3772492263321843,-0.3307679466196891,-1.0359434478285936,0.4626990084940319,-0.6281724573160241,1.210517873122832,1.7902432642758583,1.938131341200607,-1.23340119431952,-1.2046469272392393,0.2667363934371545,0.0709031459326466,1.1221439971742897,-0.1018231080218635,2.005190182495254,0.863398174376773,-0.6512930307441407,3.0053081728327617,-0.5065615138558763,1.304453710443365,0.6909881972099793,0.1462443243224166,-0.1847321217860236,-0.4098048725074914,-0.1690308509457033,-0.6403869598873415,0.8934181435835163,2.6517859765836707,-0.2595461158584206,-0.8806006386988547,1.1136603635748248,0.1230134327340924,0.023273527683196,0.096701006099987,-1.753657316169864,-0.6834462324978279,0.5711605772585936,-0.2830509147203129,0.8907793758006851,1.4099476845113283,-0.229494692996586,-0.6138788892284813,-0.4023739080814781,2.447943391963584,-0.2830509147203129,-0.2830509147203129,-0.6127532158364373,-0.5476668238436121,-0.1690308509457033,-0.6688560540599386,-0.99664016737167,-0.3820239790775022,-0.4023739080814781,-0.3017804310611087,-0.3017804310611087,-0.1690308509457033,-0.452601590337872,-0.8047478161629564,-0.4976895965835776,-0.4023739080814782,1.1435437497937313,1.0780291705957532,-0.1690308509457033,0.1810824062523164,3.143569350202735,-0.4648348401006841,-0.2426405960973119,-0.1690308509457033,-0.4990834089450871,-0.4230217115244236,2.16684980910955,1.0666758192810375,-0.2426405960973119,-0.2426405960973119,-0.2426405960973119,-0.3017804310611087,2.447943391963584,2.447943391963584,-0.3017804310611087,-0.1690308509457033,-0.1690308509457033,-0.2294946929965859,-0.2426405960973119,-0.1690308509457033,-0.2426405960973119,-0.1690308509457033,-0.1702158551737283
anisomycin,-0.1092735606196055,-1.023837392902351,-0.8964227876272559,-0.8569159265361896,-0.9294724291655792,-0.8845094469546306,-0.8618485868541144,-1.0592637777792335,-0.8714029158124222,-1.077299485007129,-0.8049526413606448,-0.8558728595552384,-0.7549429114519826,-0.813333472854013,-0.5105735151457945,-0.6450480431504476,-0.242640596097312,-0.7093957187971613,-0.4501258318163955,-0.442503824096209,-0.4969859069699716,-0.4980661529143553,0.2263566442996449,-0.7434769193398648,-0.3296167097671389,-0.997795761962588,1.3308986563346017,1.0960256297025768,0.7475160235046965,0.0688480004679335,0.7583469357972313,-0.8920007895168711,-1.017275443964692,-0.3004550018098706,-0.8679788981489185,-0.7582663539704227,-0.2986711179588333,-0.9121440119835212,-0.5398058060576417,0.6885604915805146,-0.5398058060576417,0.1956593331218363,-0.2882089090524547,0.1956593331218363,0.6048429705211668,-0.6885604915805146,-1.0558844735628916,-0.946424996871558,-0.9985558648667948,-0.4407180810062022,-0.7523965484374353,-0.6463890008341614,-0.1055473159814028,-0.4225771273642582,-0.0630972633083428,-0.6721809596566366,-0.4505664390114779,-0.5245904900015865,-0.3361229612303715,-0.9391422818988598,-0.4535527517913709,-0.4178981267028671,0.2605239693676892,0.0,-0.8735614839376934,-0.198960815122341,0.4853193396538587,-0.7237313777564135,-0.963048542677645,-0.5497464934375227,-0.1602380127941442,-0.9405056656912129,-0.8770066570451334,-0.3772492263321843,-0.3307679466196891,-0.5863090581587006,-0.6649040813182819,-0.5285606244870641,-0.5991052251777199,-0.6573549486012918,-0.3791885612584592,-1.23340119431952,-0.5064636167122946,-0.9384545851364904,-0.4868466771351461,-0.0545467408922985,-0.4861445001642774,-0.0845411382277719,-0.1081425261689296,-0.6512930307441407,0.2003538781888508,-0.5065615138558763,-0.263050205183696,-0.208720693964504,-1.1031327350939808,-0.9424739111882892,-0.4098048725074914,-0.1690308509457033,-0.6403869598873415,-0.8022408060101671,-0.2662241853465671,-0.2595461158584206,-0.9909773779123408,-0.2529771734336977,-0.0900229541790101,0.6243343286902061,0.2164262943076981,-0.4386740779666409,-0.7118305791175833,0.0987534062958167,-0.2830509147203129,0.0481502365297667,0.3371614028179263,-0.229494692996586,-0.6138788892284813,-0.4023739080814781,-0.229494692996586,-0.2830509147203129,-0.2830509147203129,-0.6127532158364373,-0.5476668238436121,5.747048932153912,-0.6688560540599386,-0.1458497805909761,-0.3820239790775022,-0.4023739080814781,-0.3017804310611087,-0.3017804310611087,-0.1690308509457033,-0.452601590337872,-0.8047478161629564,-0.4976895965835776,-0.4023739080814782,0.0,-0.8820238668510707,-0.1690308509457033,0.1810824062523164,0.038027048591162,-0.4648348401006841,-0.2426405960973119,-0.1690308509457033,-0.4990834089450871,-0.4230217115244236,-0.4483137536088725,0.2723427623696266,-0.2426405960973119,-0.2426405960973119,-0.2426405960973119,-0.3017804310611087,-0.229494692996586,-0.229494692996586,-0.3017804310611087,-0.1690308509457033,-0.1690308509457033,-0.2294946929965859,-0.2426405960973119,-0.1690308509457033,-0.2426405960973119,-0.1690308509457033,1.3993721903345588
DMSO,0.9682799852002084,-1.771561033776638,-1.9156014933715275,-1.8554191005928875,-1.8650788652156949,-2.0026532221825923,-1.9412542885831547,-1.814171595564008,-1.7815033917112806,-1.697208344590852,-1.7585416277301351,-1.8189091138861675,-1.59554111960593,-1.6661576321961835,-0.5538969187607329,-1.1652395467434271,-0.242640596097312,-1.5489536441918816,-1.1235147270040435,-1.2710125109744073,-1.083216926911457,-0.2542715824383331,-0.9349232348516195,-1.1974690926365397,-1.2154236800540303,-2.030734876303308,1.6664057078417172,-0.7892681795753358,-1.843508059783841,2.119100132530826,1.9553740854893868,-1.9710340026421187,-2.054280904842577,-0.3004550055705928,-1.783237140879906,-1.7595589681908226,5.493012315332127,-1.962860227497133,-1.1613688511617477,-1.7969842462903838,-1.1613688511617477,-2.821082740340974,0.8035699530461008,-2.821082740340974,0.6497016311530998,1.7969842462903838,-1.3210758245820575,-1.9662399842098357,-2.031439244173541,-1.5833205132445043,-1.8057517162498449,-0.6463890008341614,-0.8443785278512234,-1.01418510567422,-1.1672993712043418,-0.6721809596566366,-1.1673766828933747,-1.6207497228407224,-1.5744707131317408,-1.7748197361308962,-1.3873378290088991,-0.4178981267028671,-0.8792683966159514,-0.8997354108424374,-1.9140601100938464,-1.533877654994937,-1.077066996426861,-0.7237313777564135,-0.963048542677645,-0.5497464934375227,-0.778147935848775,-1.0454384615482983,-0.8770066570451334,-0.3772492263321843,-0.3307679466196891,-1.0359434478285936,-1.8093270833642336,0.0719489010396931,-1.503905892816504,-1.636394233752152,-1.1895029648771087,-0.8566906618849938,-1.2046469272392393,-0.9384545851364904,-1.2106151622171233,-0.1199264980138538,-1.5164304645073616,-0.6069739684085285,-1.2063830302091925,-0.6512930307441407,-0.5008846954721269,-0.5065615138558763,-1.0940906200699478,-0.5788032614440167,-1.1031327350939808,-1.3512240300625216,-1.404897249121441,-0.1690308509457033,-0.6403869598873415,-1.726615504240945,-0.317622965450215,-0.2595461158584206,-1.5130592383261503,-1.1620816501854878,-0.3472431331513499,0.4445965563296939,-1.042733620122543,0.3300764884687117,-1.108539364543086,-0.7576328213820449,-0.2830509147203129,-0.7944789027411515,-0.7356248788754757,-0.229494692996586,-0.6138788892284813,-0.4023739080814781,-0.229494692996586,-0.2830509147203129,-0.2830509147203129,-1.1771311777910505,-1.1114414954473304,-0.1690308509457033,-0.6688560540599386,-0.99664016737167,-0.3820239790775022,-0.4023739080814781,-0.3017804310611087,-0.3017804310611087,-0.1690308509457033,-0.452601590337872,-0.8047478161629564,-0.4976895965835776,-0.4023739080814782,-1.1435437497937313,-0.8820238668510707,-0.1690308509457033,-0.611153121101568,-0.8492707518692875,-0.4648348401006841,-0.2426405960973119,-0.1690308509457033,-0.4990834089450871,-0.4230217115244236,-0.4483137536088725,-0.5219902945417844,-0.2426405960973119,-0.2426405960973119,-0.2426405960973119,-0.3017804310611087,-0.229494692996586,-0.229494692996586,-0.3017804310611087,-0.1690308509457033,-0.1690308509457033,-0.2294946929965859,-0.2426405960973119,-0.1690308509457033,-0.2426405960973119,-0.1690308509457033,-0.3136590999437727
cytochalasin B,-0.4309344311851275,0.034913067280456,0.2307104070887748,0.2810302435431215,0.2529568217256141,0.2752149220904821,0.4332705107413034,0.3757389827741544,0.4505691097025108,0.3608895130238496,0.5776811506138286,0.5404587751083085,0.6040142149698163,0.5653887962166244,0.209435704178918,0.2597831919160183,-0.242640596097312,-0.3000869925712322,0.1402421867093903,0.5471218516595195,-0.0543068566178129,-0.8189497520470643,1.429591882785458,0.409494971056402,-0.7725201949105847,0.1842916452677342,0.0272141133355243,0.3231722668929981,0.5632654220264008,0.1395463498494127,-0.0052738321098328,0.2589679711500595,0.1513596330889471,-0.3004449337634188,0.2249039555492226,0.2216393384483449,-0.225763254979447,0.2848252218024707,0.5803471026306042,0.1405666911150052,0.5803471026306042,0.4951332515031324,0.1077427795826457,0.4951332515031324,-0.5823541878489372,-0.1405666911150052,0.5068316075315263,0.3586153279823142,0.1840675437042624,0.1305831351129488,-0.4890577564843329,0.4847917506256211,0.6332838958884176,0.760638829255665,-0.0630972633083428,-0.6721809596566366,-0.4505664390114779,-0.5245904900015865,0.2830509147203131,-0.6605831304881811,-0.9204452904001352,1.4104061776221766,0.2605239693676892,0.8997354108424374,0.2469754980766252,-0.1741595763368226,-1.077066996426861,-0.7237313777564135,-0.066024356409766,1.447087498939586,-0.1602380127941442,-0.9405056656912129,-0.0706951283020651,-0.3772492263321843,-0.3307679466196891,1.7713934579379054,0.4831651378989081,-0.2499058664295887,-0.2568923569038256,0.3216843365495682,-0.1032649979376235,-0.7727023724904107,-0.5064636167122946,1.4719273720107997,0.3884305664702479,-0.8355784574851697,0.9825752054222464,-0.6069739684085285,-0.625587827315421,-0.6512930307441407,-0.5008846954721269,-0.5065615138558763,-0.1693687480277358,0.1356406919281329,1.395621383738814,0.1248699993898255,1.3339819308963865,-0.1690308509457033,-0.6403869598873415,-0.2906635627266898,-0.5653485915620744,-0.2595461158584206,-0.2485903594182351,0.5652608701711128,-0.3155983181845658,-0.4308222251183144,0.5349239184601513,1.3872150568071984,0.7140433846880015,-0.5236538439232974,-0.2830509147203129,0.8907793758006851,1.4099476845113283,-0.229494692996586,-0.6138788892284813,-0.4023739080814781,-0.229494692996586,-0.2830509147203129,-0.2830509147203129,-0.048375253881824,0.0161078477601061,-0.1690308509457033,-0.6688560540599386,-0.1458497805909761,-0.3820239790775022,-0.4023739080814781,-0.3017804310611087,-0.3017804310611087,-0.1690308509457033,0.537464388526223,0.201186954040739,-0.4976895965835776,-0.4023739080814782,0.0,-0.8820238668510707,-0.1690308509457033,0.1810824062523164,-0.4056218516390626,-0.4648348401006841,-0.2426405960973119,-0.1690308509457033,-0.4990834089450871,-0.4230217115244236,-0.4483137536088725,-0.5219902945417844,-0.2426405960973119,-0.2426405960973119,-0.2426405960973119,-0.3017804310611087,-0.229494692996586,-0.229494692996586,-0.3017804310611087,-0.1690308509457033,-0.1690308509457033,-0.2294946929965859,-0.2426405960973119,-0.1690308509457033,-0.2426405960973119,-0.1690308509457033,-0.0976585675948272
epothilone B,-0.3296818910091894,-0.0512002328765354,0.3266026016378084,0.4537684348931478,0.5343763634632944,0.2001839642567692,0.4153578089666206,0.5532136419416294,0.6335358080737972,0.8250749132647001,0.5448779826703799,0.7396723704877302,0.2333933483933719,0.3981772347799286,0.2094357041789183,0.2597831919160183,-0.242640596097312,0.5359003276964003,-0.7900386591232188,1.3315605447648666,-1.083216926911457,0.6301674318881795,0.6073881770913362,-0.1806880728047959,-0.3296167097671389,0.3388497639288258,0.5129005117077298,0.5011627383279316,0.438238228166128,1.0560064344241409,0.7445880030421492,0.2589679711500595,0.2946002980054334,-0.3004499493580954,0.4682475290757167,0.2835924069098898,-0.1510463867995333,0.3498503861593416,0.3606666478164874,0.2776050750985642,0.3606666478164874,0.2585382554487745,-0.3223586802604387,0.2585382554487745,-0.1396716077188789,-0.2776050750985642,1.021858925468672,0.3945784075652118,0.3390003265170412,-0.4407180810062022,-0.2257189645312305,-0.6463890008341614,0.6332838958884176,0.1690308509457033,-1.1672993712043418,0.5041357197424775,-0.4505664390114779,0.2975289346277653,-0.3361229612303715,-0.1034648276668236,-0.9204452904001352,-0.4178981267028671,1.40031633535133,0.8997354108424374,0.3536933058875127,-0.2130674964173239,-0.0428209237177639,-0.7237313777564135,-0.963048542677645,-0.5497464934375227,-0.1602380127941442,-0.0814364161392982,-0.0388362171957798,-0.3772492263321843,1.963227087407264,0.2283736828824012,0.6193091744182677,-0.2692449807114235,1.691762488319057,-0.1678353060258618,0.1498258377918004,0.5756504724111959,-0.5501671495914982,0.8181221041829657,1.322735382546809,-0.8355784574851697,-0.7684800454222365,-0.6069739684085285,-1.2063830302091925,-0.6512930307441407,-0.5008846954721269,1.301403341792278,0.1795749267655245,0.0146925547413738,1.4487086733588008,1.4097888613877108,-0.9557234208014972,-0.1690308509457033,0.0612475533329421,-0.0466301003980205,-0.1501880678842101,0.4301052838338616,-0.0660833932549442,0.5604565639448722,-0.3054067843644,-0.1916409200431154,-1.042733620122543,0.0625022173786527,1.720750881321465,-0.5236538439232974,-0.2830509147203129,0.8907793758006851,1.4099476845113283,-0.229494692996586,0.1023131482047469,-0.4023739080814781,-0.229494692996586,-0.2830509147203129,-0.2830509147203129,-0.048375253881824,0.0161078477601061,-0.1690308509457033,0.0,-0.99664016737167,-0.3820239790775022,-0.4023739080814781,-0.3017804310611087,-0.3017804310611087,-0.1690308509457033,-0.452601590337872,-0.8047478161629564,-0.4976895965835776,2.414243448488869,-1.1435437497937313,-0.3920106074893648,5.747048932153912,0.1810824062523164,0.038027048591162,-0.4648348401006841,-0.2426405960973119,-0.1690308509457033,1.247708522362718,1.6920868460976943,2.16684980910955,-0.5219902945417844,-0.2426405960973119,-0.2426405960973119,-0.2426405960973119,-0.3017804310611087,-0.229494692996586,-0.229494692996586,-0.3017804310611087,-0.1690308509457033,-0.1690308509457033,-0.2294946929965859,-0.2426405960973119,5.747048932153912,-0.2426405960973119,-0.1690308509457033,-0.0847240006438962
latrunculin B,-0.4263923686159273,-0.6481073025276922,-0.3383608872526772,-0.2739904523097043,-0.2218311079012794,-0.3165786735744709,-0.1728984199874366,-0.0748136122195185,-0.1412136932411908,-0.0351135130138689,-0.190771444218584,0.022646457495042,-0.2013893911868319,0.0732453758064019,-0.3344642787053232,-0.206888392007935,-0.242640596097312,0.1099625095379005,-0.1838983134176752,1.879445447103836,-1.083216926911457,-0.5447232091723668,-0.6035718425029353,0.8853735560558436,-0.3296167097671389,-0.2799108461276986,0.8007146737060733,1.1142410288260354,1.1143112023735262,0.8889488532930905,0.950971994368383,-0.3165164091834058,-0.3015963740201163,-0.3004548263173831,-0.2448556417382882,-0.1531183744278948,-0.198065013113086,-0.2558690718949997,-0.0247262233653342,0.2907204543851692,-0.0247262233653342,0.4882700269586886,-0.0943993610190628,0.4882700269586886,-0.5033404328551391,-0.2907204543851692,0.408208020741387,-0.2498173136122696,-0.2800023844701013,-0.4407180810062022,-0.4890577564843329,-0.6463890008341614,1.372115107758238,0.760638829255665,-1.1672993712043418,-0.6721809596566366,-1.1673766828933747,-0.2505506817918025,-0.3361229612303715,-0.3820239790775024,-1.1538915597045172,-0.4178981267028671,1.40031633535133,0.8997354108424374,-0.2599340890250903,-0.198960815122341,-0.5459917856782881,-0.076478749260471,-0.963048542677645,1.2212908748924292,-0.1602380127941442,-0.9405056656912129,-0.0706951283020651,-0.3772492263321843,-0.3307679466196891,0.3134253559797972,0.018794262041779,0.1548880877028447,-0.6683039571997056,-0.1678353060258618,-0.1230161883847474,0.092508217802871,-0.5064636167122946,-0.3358590958496678,0.5397821723818493,-0.5065189257595246,-0.694342159825088,-0.6069739684085285,-0.625587827315421,0.0381356628577264,-0.5008846954721269,1.3691971759210224,-0.1641654011565335,-0.329668831151263,-0.4784442053857821,0.3631111134007116,-0.4288452961961295,-0.1690308509457033,-0.6403869598873415,-0.4911391479108097,-0.1665605841865043,0.2443454076860045,-0.3854106041259084,-0.200169136220819,-0.1185358648403228,0.0225755042855724,-1.123840781408378,1.5999440988863345,-0.2045383608276262,-0.5236538439232974,-0.2830509147203129,0.0481502365297667,-0.7356248788754757,-0.229494692996586,-0.6138788892284813,-0.4023739080814781,-0.229494692996586,-0.2830509147203129,-0.2830509147203129,-0.048375253881824,0.0161078477601061,-0.1690308509457033,-0.6688560540599386,-0.1458497805909761,-0.3820239790775022,-0.4023739080814781,-0.3017804310611087,-0.3017804310611087,-0.1690308509457033,2.517596346254413,0.201186954040739,-0.4976895965835776,-0.4023739080814782,-1.1435437497937313,0.0980026518723411,-0.1690308509457033,0.1810824062523164,0.038027048591162,-0.4648348401006841,-0.2426405960973119,-0.1690308509457033,-0.4990834089450871,-0.4230217115244236,-0.4483137536088725,-0.5219902945417844,-0.2426405960973119,-0.2426405960973119,-0.2426405960973119,-0.3017804310611087,-0.229494692996586,-0.229494692996586,-0.3017804310611087,-0.1690308509457033,-0.1690308509457033,-0.2294946929965859,4.003569835605647,-0.1690308509457033,-0.2426405960973119,-0.1690308509457033,0.2540088644970401
cytochalasin D,-0.2065810086587045,0.2882692034267329,0.4251889930401445,0.4356424385357108,0.4136129113638336,0.3771736114970748,0.4761829476794991,0.4232863207623868,0.5786472067031854,0.5002271891924243,0.7192744890117724,0.6834548878970228,0.8160353267021349,0.7804936163577495,0.5580527826421198,0.6979428430585309,-0.242640596097312,0.1041516272809769,-0.1671141228500604,-0.8635712634881557,1.1181551832651575,0.041989547154555,0.8480280064361452,-0.1817120023135773,-0.7725201949105847,0.3388311543894363,0.3455356041605509,0.3472250333031242,0.3740350745622049,0.0688480004679335,-0.2322962225686899,0.4028390662334258,0.3182275013434298,-0.3004359897892698,0.3782433276195628,0.116835951165443,-0.2449642011587113,0.417126776684293,0.7522072525627749,0.2720811413469842,0.7522072525627749,0.1977507236302976,0.1584798989926873,0.1977507236302976,-0.8985968784197096,-0.2720811413469842,0.2063092842441385,0.4591929770508963,0.3386361163850552,0.1305831351129488,-0.2257189645312305,1.6159725020854034,-0.1055473159814028,0.760638829255665,-0.0630972633083428,-0.6721809596566366,-0.4505664390114779,-0.2505506817918025,0.2830509147203131,-0.3820239790775024,-0.6869990210957531,1.4104061776221766,0.2605239693676892,0.8997354108424374,0.3803727578402345,-0.1741595763368226,0.4124581914276927,-0.076911160538386,-0.0169969411694944,-0.5497464934375227,-0.1602380127941442,0.7776328334126164,-0.8770066570451334,-0.3772492263321843,-0.3307679466196891,1.295487173497435,0.5145329404718672,0.5239312711863289,-1.0839678814962703,0.3216843365495682,0.1529073749360882,-0.3216691797976316,-0.5064636167122946,2.023313082756611,0.2643830190883962,-0.8355784574851697,0.982575205422246,-0.6069739684085285,-0.625587827315421,-0.6512930307441407,-0.5008846954721269,-0.5065615138558763,0.0136533733747679,0.4800020778207698,1.9672226238270267,-0.0523819067654266,1.3339819308963865,-0.1690308509457033,-0.6403869598873415,0.0204380953726669,-0.5825700282313333,-0.2595461158584206,0.3525523279181157,0.6340992005669506,-0.7095192298986953,-0.897148427398567,0.5187771577054485,0.6873735459275139,1.2115664759844775,-0.5236538439232974,-0.2830509147203129,0.8907793758006851,0.3371614028179263,-0.229494692996586,-0.6138788892284813,-0.4023739080814781,-0.229494692996586,-0.2830509147203129,-0.2830509147203129,0.5160027080727891,0.5798825193638244,-0.1690308509457033,-0.6688560540599386,-0.1458497805909761,-0.3820239790775022,-0.4023739080814781,-0.3017804310611087,-0.3017804310611087,-0.1690308509457033,0.537464388526223,0.201186954040739,-0.4976895965835776,-0.4023739080814782,0.0,-0.8820238668510707,-0.1690308509457033,0.1810824062523164,-0.4056218516390626,-0.4648348401006841,-0.2426405960973119,-0.1690308509457033,1.247708522362718,1.6920868460976943,-0.4483137536088725,-0.5219902945417844,-0.2426405960973119,-0.2426405960973119,-0.2426405960973119,-0.3017804310611087,-0.229494692996586,-0.229494692996586,-0.3017804310611087,-0.1690308509457033,-0.1690308509457033,-0.2294946929965859,-0.2426405960973119,-0.1690308509457033,-0.2426405960973119,-0.1690308509457033,-0.1765796811990423
cisplatin,1.2701916998689484,-1.7825201396099346,-1.82386689737928,-1.9262586774036237,-1.568225461817378,-1.9619708224667067,-2.0179772270182563,-0.4885861654323692,-1.8537677635463845,0.4853526932093062,-1.7585416277301351,-1.8189091138861675,-1.59554111960593,-1.6661576321961835,-0.4406946076693088,-1.5498792782169135,-0.242640596097312,-1.5489536441918816,-1.1235147270040435,-1.2710125109744073,-1.083216926911457,-0.8189497520470643,-0.9349232348516195,-1.1974690926365397,1.3484664727614382,-0.8222040274167028,0.3914789121146779,-1.723718154608736,-2.4999008275502708,-1.9814041315949589,2.669677120404209,-1.8990984551004355,-0.7322656015811602,-0.3004550055705342,-1.5905663987783898,-1.6951339610436,1.298437565157786,-1.79223305255418,-3.044018624780331,-4.5298930630198,-3.044018624780331,-2.976288570990864,5.559291256605909,-2.976288570990864,-2.407902536795859,4.5298930630198,-1.216232732318666,-1.9643983355414536,-0.817990414431657,0.7018843512321,-1.5424129242967424,-0.6463890008341614,-0.8443785278512234,-1.01418510567422,-1.1672993712043418,-0.6721809596566366,-1.1673766828933747,-1.3467099146309385,-0.3361229612303715,-0.9391422818988598,-1.3873378290088991,-0.4178981267028671,-0.8792683966159514,-0.8997354108424374,-1.753983398377515,-1.533877654994937,-1.077066996426861,-0.7237313777564135,-0.963048542677645,-0.5497464934375227,3.559156124175319,-1.7995749152431273,-0.8770066570451334,-0.3772492263321843,-0.3307679466196891,-1.0359434478285936,-1.8093270833642336,-1.3502893710836088,-1.503905892816504,-1.636394233752152,-0.6407406176847298,-0.2299108148209035,-1.2046469272392393,-0.0643220250327487,-1.2106151622171233,-0.8355784574851697,-1.5164304645073616,-0.6069739684085285,-0.2686199848687053,-0.6512930307441407,-0.5008846954721269,2.497404912416282,-1.6232416162885273,-0.3144922155534202,-1.1031327350939808,-1.3512240300625216,-1.404897249121441,-0.1690308509457033,-0.6403869598873415,-1.0892853938874296,-0.3083425294062056,-1.5874884976359287,-1.5130592383261503,-1.1620816501854878,-0.3472431331513499,0.4445965563296939,-1.042733620122543,-0.3478407547245498,-1.108539364543086,3.3293181560981475,-0.2830509147203129,-0.7944789027411515,-0.7356248788754757,-0.229494692996586,-0.6138788892284813,-0.4023739080814781,-0.229494692996586,-0.2830509147203129,-0.2830509147203129,-1.1771311777910505,-1.1114414954473304,-0.1690308509457033,-0.6688560540599386,-0.99664016737167,2.9606858378506424,-0.4023739080814781,-0.3017804310611087,-0.3017804310611087,-0.1690308509457033,-0.452601590337872,-0.8047478161629564,-0.4976895965835776,-0.4023739080814782,-1.1435437497937313,-0.8820238668510707,-0.1690308509457033,-0.611153121101568,-0.8492707518692875,2.493205051449124,-0.2426405960973119,-0.1690308509457033,-0.4990834089450871,-0.4230217115244236,-0.4483137536088725,-0.5219902945417844,-0.2426405960973119,-0.2426405960973119,-0.2426405960973119,-0.3017804310611087,-0.229494692996586,-0.229494692996586,-0.3017804310611087,-0.1690308509457033,-0.1690308509457033,-0.2294946929965859,-0.2426405960973119,-0.1690308509457033,-0.2426405960973119,-0.1690308509457033,0.922551029092154
chlorambucil,0.6278139500550595,-1.127927486884702,-0.8706206640089112,-0.8941439830677979,-0.7794201097587443,-0.8736266168145581,-0.8553791428715266,-0.8122894016049843,-0.9699633445136194,-0.9958433186680458,-0.9256157229656824,-0.8785249622920116,-0.9128863837056054,-0.8241318053510246,-0.7024831549578507,-1.111719627074401,-0.242640596097312,-1.1001495393613812,-0.1792631094792014,0.981792316114237,-1.083216926911457,-0.8189497520470643,0.2263566442996449,-0.7790735472522259,1.431453022752914,-0.7883132103134989,-0.01112954969386,-0.215483107186406,-0.4040502357346533,0.0688480004679335,1.2123917167149456,-0.8920007895168711,-0.7854834047627851,-0.3004550029394983,-0.65127203267,-0.0974031937145172,-0.1707797479766564,-0.7664095219232702,-0.7911746556610354,0.5253371683114715,-0.7911746556610354,0.1987747980428653,0.0143182986489093,0.1987747980428653,0.480253732885569,-0.5253371683114715,0.4471452608890576,-0.7300862833301366,-0.783848473725621,-1.0120192971253534,-1.27907413234364,-0.6463890008341614,-0.8443785278512234,-1.01418510567422,-0.0630972633083428,-0.6721809596566366,-0.4505664390114779,-1.3467099146309385,-0.9552968371810562,-0.9391422818988598,0.7136785947305395,-0.4178981267028671,-0.8792683966159514,-0.8997354108424374,-0.8468820319849715,-0.8625335683202613,-1.077066996426861,-0.7237313777564135,-0.963048542677645,-0.5497464934375227,-0.1602380127941442,-0.9405056656912129,-0.8770066570451334,-0.3772492263321843,4.364125082988571,-0.5863090581587006,-0.3602171904172799,0.9045453614849234,-1.503905892816504,-1.146874591176722,-0.8853702327173079,1.0196622716494987,-1.2046469272392393,-0.9384545851364904,-0.7693472528818786,0.8660698004717476,-0.4861445001642774,-0.6069739684085285,-0.6711268298505672,0.1665225662212121,-0.5008846954721269,3.1936215609342904,-0.486313426918444,-0.5489397034182515,-1.1031327350939808,-0.7487597886874138,-0.4098048725074914,-0.1690308509457033,-0.6403869598873415,-1.2988735056708274,-0.9936754358561716,4.849479354577589,-0.9184055838444936,-0.5605321808305406,0.1792797600818711,0.60490148909027,0.2966655268374228,-0.0019636577851811,-0.7688964067496238,-0.5236538439232974,2.193644589082425,-0.7944789027411515,-0.7356248788754757,-0.229494692996586,-0.6138788892284813,-0.4023739080814781,-0.229494692996586,2.193644589082425,2.193644589082425,-0.6127532158364373,-1.1114414954473304,-0.1690308509457033,0.0,-0.99664016737167,-0.3820239790775022,-0.4023739080814781,-0.3017804310611087,-0.3017804310611087,5.747048932153912,-0.452601590337872,-0.8047478161629564,0.5910063959429985,2.414243448488869,0.0,-0.8820238668510707,-0.1690308509457033,-0.611153121101568,-0.8492707518692875,2.493205051449124,-0.2426405960973119,-0.1690308509457033,-0.4990834089450871,-0.4230217115244236,-0.4483137536088725,-0.5219902945417844,-0.2426405960973119,-0.2426405960973119,-0.2426405960973119,-0.3017804310611087,-0.229494692996586,-0.229494692996586,-0.3017804310611087,-0.1690308509457033,-0.1690308509457033,-0.2294946929965859,-0.2426405960973119,-0.1690308509457033,-0.2426405960973119,-0.1690308509457033,1.1046081559709018
