,latent_1,latent_2,latent_3,latent_4,latent_5,latent_6,latent_7,latent_8,latent_9,latent_10,latent_11,latent_12,latent_13,latent_14,latent_15,latent_16,latent_17,latent_18,latent_19,latent_20,latent_21,latent_22,latent_23,latent_24,latent_25,latent_26,latent_27,latent_28,latent_29,latent_30,latent_31,latent_32,latent_33,latent_34,latent_35,latent_36,latent_37,latent_38,latent_39,latent_40,latent_41,latent_42,latent_43,latent_44,latent_45,latent_46,latent_47,latent_48,latent_49,latent_50,latent_51,latent_52,latent_53,latent_54,latent_55,latent_56,latent_57,latent_58,latent_59,latent_60,latent_62,latent_63,latent_64,latent_65,latent_66,latent_67,latent_68,latent_69,latent_70,latent_71,latent_72,latent_73,latent_74,latent_75,latent_76,latent_77,latent_78,latent_79,latent_80,latent_81,latent_82,latent_83,latent_85,latent_86,latent_87,latent_88,latent_89,latent_91,latent_92,latent_93,latent_94,latent_95,latent_96,latent_97,latent_98,latent_99,latent_100,latent_101,latent_102,latent_104,latent_105,latent_106,latent_107,latent_108,latent_109,latent_110,latent_111,latent_112,latent_113,latent_114,latent_115,latent_116,latent_117,latent_118,latent_120,latent_121,latent_122,latent_123,latent_124,latent_125,latent_126,latent_128,latent_130,latent_131,latent_132,latent_136,latent_138,latent_139,latent_140,latent_141,latent_142,latent_144,latent_145,latent_149,latent_151,latent_154,latent_155,latent_156,latent_159,latent_162,latent_163,latent_166,latent_167,latent_169,latent_170,latent_173,latent_174,latent_175,latent_179,latent_180,latent_181,latent_184,latent_185,latent_186,latent_188,latent_190,latent_195,latent_197,latent_198,latent_200
CC(=O)O[C@@]12CO[C@@H]1C[C@H](O)[C@]3(C)[C@@H]2[C@H](OC(=O)c4ccccc4)[C@]5(O)C[C@H](OC(=O)[C@H](O)[C@@H](NC(=O)OC(C)(C)C)c6ccccc6)C(=C([C@@H](O)C3=O)C5(C)C)C,-0.8339909835100269,1.8454361591285373,1.9791437776999845,1.8771626018906882,1.9114830670159049,1.832293442781417,1.7740374956753224,1.861319983171231,2.0803569802432067,2.1339550085837535,1.8931971653197004,1.869007692328927,1.8551101943618258,1.8346811484148766,2.5721600828122817,2.5076053131914624,-0.242640596097312,0.5296356511238361,-0.8345676052412433,-0.7639502806091287,1.1165205427907148,2.9338083249908506,-0.9349232348516195,-0.7434769193398648,0.9990937456631981,1.995378947252322,-0.678287249817205,-0.6281561149144047,-0.5231777797938966,0.30724941117292104,-1.360528708485434,1.9134855646087723,2.0109444505218455,-0.06464511796005641,1.8817588913256633,1.2444237651331926,-0.12688681570903487,1.9046147681626424,1.0816735319338195,0.25754258705249683,1.0816735319338195,1.2984894141344578,-0.2861601324146102,1.2984894141344578,-1.5803503110779251,-0.25754258705249683,0.38531605941966907,1.774384779022618,1.9955880385147504,1.273185567351251,1.8809913710935886,2.747153253545186,-0.10554731598140288,1.3522468075656264,1.0411048445876563,-0.6721809596566366,0.26624380487041877,1.941767783886469,1.5213986666216823,1.8464492322079276,0.4802323254261574,3.23871048194722,0.26052396936768923,1.7994708216848747,1.927780971098103,1.7822544227440777,2.021871991963222,1.2322226972248675,-0.963048542677645,-0.5497464934375227,1.7063208090860817,-0.08143641613929828,1.5419279291840713,-0.37724922633218433,-0.33076794661968917,1.275776105096359,1.2020880443765034,0.18599488138551326,0.9486609844416782,1.3007236217004283,2.223299515954305,0.6239295428887361,-0.5064636167122946,0.7669123256419543,1.714766355545201,-0.457669052166815,1.3481923191607392,-0.6069739684085285,-0.625587827315421,0.038135662857726495,-0.5008846954721269,-0.5065615138558763,1.8656567010706109,1.3797109689952531,0.664758274790643,1.6011734278507714,1.539923889013667,-0.16903085094570333,-0.6403869598873415,2.0528960280756707,1.0939960871203565,-0.25954611585842063,1.7429907183590976,2.4467515245097684,-2.247144274503249,-1.7603581651636693,1.3633934177214748,-2.722641752886593,1.4902209867905096,-0.5236538439232974,-0.28305091472031296,2.5760376543425214,2.48273396620473,-0.229494692996586,-0.6138788892284813,-0.40237390808147816,-0.229494692996586,-0.28305091472031296,-0.28305091472031296,1.6447586319820156,1.707431862571261,-0.1690308509457033,-0.6688560540599386,-0.14584978059097614,-0.38202397907750224,-0.40237390808147816,-0.3017804310611087,3.218991264651826,-0.1690308509457033,-0.452601590337872,0.20118695404073905,-0.4976895965835776,-0.4023739080814782,1.1435437497937313,1.5680424299574591,-0.1690308509457033,1.7655534609600856,1.3689737492818361,-0.46483484010068415,-0.24264059609731195,-0.1690308509457033,1.247708522362718,1.6920868460976943,-0.4483137536088725,-0.5219902945417844,-0.24264059609731195,-0.24264059609731195,-0.24264059609731195,-0.3017804310611087,-0.229494692996586,-0.229494692996586,-0.3017804310611087,-0.1690308509457033,-0.1690308509457033,-0.22949469299658595,-0.24264059609731192,-0.1690308509457033,-0.24264059609731192,-0.1690308509457033,-1.4531460247228227
CC(=O)O[C@H]1C(=O)[C@]2(C)[C@@H](O)C[C@H]3OC[C@@]3(OC(=O)C)[C@H]2[C@H](OC(=O)c4ccccc4)[C@]5(O)C[C@H](OC(=O)[C@H](O)[C@@H](NC(=O)c6ccccc6)c7ccccc7)C(=C1C5(C)C)C,-0.968419885682694,2.410127987011294,2.19690818511036,2.0390863200499383,2.0797364921767936,2.178747758986377,2.0044653501202516,2.11663596750873,2.029926376222288,2.079090958159774,2.158403736679804,2.1368416823993828,2.079964255118588,2.0628055644312857,2.577764650638569,2.0409337292675094,4.0035698356056475,0.9185110962200868,-0.8345676052412433,-0.2568880502438503,1.1165205427907148,3.3653040657446742,-0.9349232348516195,-0.7434769193398648,0.9990937456631981,2.249225010469572,-1.2124612502515963,-1.0907036553925613,-0.8553899147591083,-0.1492639284749274,-2.096631610882333,2.201227754775505,2.2971636530358888,2.846283730353045,2.013852706774348,1.5384055946686124,-0.11771021588690828,2.177281430236773,1.3056949550517292,0.25753471621978063,1.3056949550517292,0.5674172595868492,-0.40726586756062705,0.5674172595868492,-1.6283732261681552,-0.25753471621978063,0.6341485431016275,2.0613417552197677,2.249585977227765,0.7018843512321,1.8809913710935886,2.747153253545186,-0.10554731598140288,1.3522468075656264,2.145306952483655,-0.6721809596566366,0.9830540487523155,1.941767783886469,0.9022247906709977,1.8464492322079276,0.9471248640349216,3.23871048194722,0.26052396936768923,1.7994708216848747,2.114537134767156,1.4396512637069154,1.0034777085167537,1.9149136261810273,-0.963048542677645,1.4470874989395859,1.6934917563697485,1.6367020829645307,0.7356164004410031,-0.37724922633218433,-0.33076794661968917,1.9502276896011985,0.7921668544367935,0.9478530529348281,0.9486609844416782,1.7902432642758583,2.2066298626514684,1.0749627355815152,-0.5064636167122946,0.7669123256419543,1.2692361434101036,-0.457669052166815,2.5880096005717936,-0.6069739684085285,-0.625587827315421,-0.6512930307441407,-0.5008846954721269,-0.5065615138558763,1.7098165234544673,1.72407235488789,0.664758274790643,1.4869501435241523,2.783789359781106,-0.16903085094570333,-0.6403869598873415,1.995304859968233,1.1480858791253257,-0.25954611585842063,2.430184308075412,1.6538769389408952,-1.9864201225805296,-2.3678396803653414,2.7303784260042914,-2.521864175475515,0.6491239517763923,-0.5236538439232974,-0.28305091472031296,1.7334085150716032,1.4099476845113283,-0.229494692996586,-0.6138788892284813,-0.40237390808147816,-0.229494692996586,-0.28305091472031296,-0.28305091472031296,2.2091365939366288,2.271206534174979,-0.1690308509457033,-0.6688560540599386,-0.14584978059097614,-0.38202397907750224,-0.40237390808147816,-0.3017804310611087,-0.3017804310611087,-0.1690308509457033,-0.452601590337872,0.20118695404073905,-0.4976895965835776,-0.4023739080814782,2.2870874995874626,1.5680424299574591,-0.1690308509457033,2.55778898831397,1.3689737492818361,-0.46483484010068415,-0.24264059609731195,-0.1690308509457033,1.247708522362718,1.6920868460976943,-0.4483137536088725,-0.5219902945417844,-0.24264059609731195,-0.24264059609731195,-0.24264059609731195,-0.3017804310611087,-0.229494692996586,-0.229494692996586,-0.3017804310611087,-0.1690308509457033,-0.1690308509457033,-0.22949469299658595,-0.24264059609731192,-0.1690308509457033,-0.24264059609731192,-0.1690308509457033,-1.5303126986732323
CC(C)(C)n1nc(c2ccc(Cl)cc2)c3c(N)ncnc13,0.350316117649473,-0.34084940457033036,-0.7601861112532561,-0.7363793547641665,-0.7098561789200752,-0.7661629778933106,-0.7973430104108121,-0.9030067737272475,-0.5989974776613227,-0.6720112334306594,-0.8150116384581177,-0.7920874301508019,-0.7826190318469203,-0.7952738150747949,-0.8861080355948394,-1.5498792782169137,-0.242640596097312,-1.1617925399582893,-0.5604955025501904,0.3614603522771887,-0.547484389129521,-0.8189497520470643,0.4504151081783477,1.4272999203969272,0.8821210570542296,-0.7991873765177117,-0.053733619726509606,0.026521481168108808,0.08399451222869013,-0.887936327828083,0.37997628503247,-0.7481296944335049,-0.7819804305916445,-0.3004549951015672,-0.8686783008216775,-1.0505945898831002,-0.3513720406892584,-0.7205779074419959,-2.6200669545492086,-0.5069248696026162,-2.6200669545492086,-1.25724051591729,-0.00561119243865421,-1.25724051591729,1.1699498721944568,0.5069248696026162,0.5025458978776886,-0.638236093216584,-0.7972911385971101,-0.44071808100620224,-0.7523965484374353,-0.6463890008341614,-0.8443785278512234,-1.01418510567422,-0.06309726330834282,1.6804523991415916,0.9830540487523155,-0.5245904900015865,-0.9552968371810562,-0.6605831304881811,-1.1538915597045172,-0.41789812670286713,-0.8792683966159514,-0.8997354108424374,-0.8202025800322497,-1.149198901968159,0.4750237182093408,-0.0921294949930715,-0.963048542677645,-0.5497464934375227,-0.778147935848775,-1.7995749152431273,1.5866868986223388,1.8929549288999672,-0.33076794661968917,-0.15638275562252688,-0.24793797875506474,-0.7044197992319636,-0.7522822355019446,-0.1678353060258618,-1.414384631767568,0.5200319954762963,1.388653933556345,-0.9384545851364903,-0.6078979522517547,-0.5076163600501058,-0.28627967992316816,0.41593454906391925,-0.5800488247802748,0.18528438653043752,-0.5008846954721269,1.3435300235392074,-0.998263469336836,-0.9566421470010166,-1.1031327350939808,-0.6713083644861575,-0.15033046633743696,5.7470489321539135,1.933663314199297,-0.7688889586568087,-0.8607170128232927,2.3748422140590066,-1.1138293919465205,-0.7303695948288436,1.5895385070152872,0.6217714948615662,0.19174201401251983,-0.044741955160361065,0.2620698722148719,-0.5236538439232974,-0.28305091472031296,-0.7944789027411515,-0.7356248788754757,2.447943391963584,2.2508892605044317,-0.40237390808147816,-0.229494692996586,-0.28305091472031296,-0.28305091472031296,-1.1771311777910505,-1.1114414954473304,-0.1690308509457033,2.006568162179816,-0.99664016737167,1.28933092938657,-0.40237390808147816,-0.3017804310611087,-0.3017804310611087,-0.1690308509457033,-0.452601590337872,-0.8047478161629564,0.5910063959429985,-0.4023739080814782,0.0,-0.3920106074893648,-0.1690308509457033,-0.611153121101568,-0.8492707518692875,1.01418510567422,-0.24264059609731195,-0.1690308509457033,-0.4990834089450871,-0.4230217115244236,-0.4483137536088725,-0.5219902945417844,-0.24264059609731195,-0.24264059609731195,-0.24264059609731195,-0.3017804310611087,-0.229494692996586,-0.229494692996586,-0.3017804310611087,-0.1690308509457033,-0.1690308509457033,-0.22949469299658595,-0.24264059609731192,-0.1690308509457033,-0.24264059609731192,-0.1690308509457033,1.2664412368713358
CC(C)C[C@H](NC(=O)[C@H](CC(C)C)NC(=O)[C@H](CC(C)C)NC(=O)OCc1ccccc1)C=O,1.0189904175229771,-0.37684966567462863,0.2812617538696104,0.36494296172084034,0.34014974447011304,0.16517271309715056,0.29831631958825805,0.22620861354986624,0.33341432845954644,0.2334354412293068,-0.280727810298055,-0.3264544990770635,-0.32319737160087625,-0.3753084764864042,0.22232542695898766,0.202759326353137,-0.242640596097312,0.1538093298365279,-0.1230865233615691,-0.40320217619312293,-1.083216926911457,-0.8189497520470643,2.504784968179566,0.1645074272534851,-0.7725201949105847,0.16241728596068047,-1.4584148699206334,-1.5221701207780027,-1.264337970578168,0.5419831078670628,-0.14286315966065516,0.18703242360837632,0.10358692921416278,-0.30045297185293046,0.5781927835740548,1.2263608880280505,0.09528482246037898,0.2323616266727247,0.30824821583936185,0.14133945760296393,0.30824821583936185,1.2971703399301904,-0.23920050396504725,1.2971703399301904,0.33359222609085537,-0.14133945760296393,0.5570580340844266,0.3124070590705548,0.16206594073109845,0.13058313511294886,0.03761982742187187,-0.6463890008341614,-0.8443785278512234,-1.01418510567422,-0.06309726330834282,-0.6721809596566366,-0.4505664390114779,-0.5245904900015865,0.2830509147203131,-0.10346482766682366,1.88090994125245,-0.41789812670286713,-0.8792683966159514,-0.8997354108424374,0.2736549500293471,0.17572514104578438,1.0960313132619581,-0.7237313777564135,0.9290546603386561,-0.5497464934375227,-0.14740896007781096,-0.08143641613929828,-0.07069512830206512,-0.37724922633218433,-0.33076794661968917,1.6276885090822792,0.2112019412805661,-1.3502893710836088,-1.0882419685199392,-1.146874591176722,-0.13660430454329628,0.18791747606259598,0.8899030043415947,0.8693318827239772,0.7488880735905835,-0.8355784574851697,-0.27661318309630806,-0.6069739684085285,0.5360025784721222,0.038135662857726495,-0.5008846954721269,-0.5065615138558763,-0.2839649751339076,0.49336561941585483,0.7709328540306156,0.8212478813118125,-0.16103177835400395,-0.16903085094570333,-0.6403869598873415,0.03264888101569999,-0.6213040402019315,-0.25954611585842063,0.8372802629820183,-0.5919918820710417,-0.1521342588103035,0.28426361290794905,0.10158007674311267,-0.07543438924230458,1.4917177866661462,-0.5236538439232974,-0.28305091472031296,-0.7944789027411515,-0.7356248788754757,-0.229494692996586,-0.6138788892284813,-0.40237390808147816,-0.229494692996586,-0.28305091472031296,-0.28305091472031296,1.0803806700274023,1.1436571909675426,-0.1690308509457033,-0.6688560540599386,1.5557309929704117,-0.38202397907750224,-0.40237390808147816,3.218991264651826,3.218991264651826,-0.1690308509457033,-0.452601590337872,2.2130564944481304,-0.4976895965835776,-0.4023739080814782,0.0,-0.8820238668510707,-0.1690308509457033,-0.611153121101568,-0.40562185163906267,-0.46483484010068415,-0.24264059609731195,-0.1690308509457033,-0.4990834089450871,-0.4230217115244236,-0.4483137536088725,-0.5219902945417844,-0.24264059609731195,-0.24264059609731195,-0.24264059609731195,-0.3017804310611087,-0.229494692996586,-0.229494692996586,-0.3017804310611087,-0.1690308509457033,-0.1690308509457033,-0.22949469299658595,-0.24264059609731192,-0.1690308509457033,-0.24264059609731192,-0.1690308509457033,-0.5050446289540633
CC(C)[C@H](O)C1(NC(=O)[C@H](C)[C@@H]1O)C(=O)SC[C@H](NC(=O)C)C(=O)O,1.2951275337913226,-0.7702864440018808,-0.33004569013910595,-0.4545513285560998,-0.40945023018841026,-0.5279469766078826,-0.5612468010951729,-0.505106857049833,-0.46711912084025053,-0.3896698813220232,-0.5450353130170567,-0.27059217282375836,-0.6227309414290784,-0.28540762956949534,0.9141620937682471,1.1361024942010436,-0.242640596097312,-1.14683932536732,-0.5126416372136776,-0.7639502806091287,-0.4969859069699716,-0.1939773251426156,-0.9349232348516195,-0.2894847460431899,-0.7379560390826934,-0.3850511484323543,1.071439869835766,0.5189617854714245,-0.13688686359112465,1.02563232876395,0.7170701375319846,-0.46038750426677216,-0.38529839290535356,-0.30045497976281055,-0.1533646307818946,-0.2941761151745111,-0.25840955208486727,-0.44690427783111264,0.16807801510976875,0.5092032056253709,0.16807801510976875,0.4475694971996145,0.20064534675246157,0.4475694971996145,-1.028158353682898,-0.5092032056253709,-1.9883399117838105,-0.5482438495472391,-0.3853474059794313,1.273185567351251,0.30095861937497426,-0.6463890008341614,-0.10554731598140288,-0.42257712736425823,-1.1672993712043418,-0.6721809596566366,-1.1673766828933747,0.0234891264179814,1.5213986666216823,0.4536534751545338,0.24678605612177532,-0.41789812670286713,0.26052396936768923,0.0,-0.3666518968359778,0.20735150278084108,-0.5513970159876772,-0.10423680885476021,1.7482807807010308,-0.5497464934375227,-0.1602380127941442,0.7776328334126164,-0.07069512830206512,-0.37724922633218433,-0.33076794661968917,0.16972040712417163,-1.528505017320376,-0.5768755521723754,-0.25689235690382567,-1.146874591176722,0.42883093825692375,1.0042402323247592,0.19171969381465004,0.26673639343715455,-0.031218770281525983,-0.5065189257595246,-1.5164304645073616,-0.6069739684085285,-0.04479262442164942,-0.6512930307441407,-0.5008846954721269,1.3691971759210224,0.5211588077705029,0.02297730761915297,0.14624432432241663,-0.4446698092940361,-1.4048972491214413,-0.16903085094570333,-0.6403869598873415,0.7512627286347761,-0.9936754358561717,-0.022586273875499007,0.7021841630516388,1.205706058846194,-0.7960937366293679,-1.248395356587981,-1.2588048297600838,-0.9306028024358377,0.1785831469372403,-0.5236538439232974,2.1936445890824254,0.8907793758006851,1.4099476845113283,-0.229494692996586,-0.6138788892284813,-0.40237390808147816,-0.229494692996586,2.1936445890824254,2.1936445890824254,1.0803806700274023,0.5798825193638244,-0.1690308509457033,-0.6688560540599386,0.7049406061897178,-0.38202397907750224,-0.40237390808147816,-0.3017804310611087,-0.3017804310611087,-0.1690308509457033,-0.452601590337872,1.2071217242444345,-0.4976895965835776,-0.4023739080814782,-1.1435437497937313,-0.8820238668510707,-0.1690308509457033,-0.611153121101568,-0.8492707518692875,-0.46483484010068415,-0.24264059609731195,-0.1690308509457033,-0.4990834089450871,-0.4230217115244236,-0.4483137536088725,-0.5219902945417844,-0.24264059609731195,-0.24264059609731195,-0.24264059609731195,-0.3017804310611087,-0.229494692996586,-0.229494692996586,-0.3017804310611087,-0.1690308509457033,-0.1690308509457033,-0.22949469299658595,4.003569835605647,-0.1690308509457033,-0.24264059609731192,-0.1690308509457033,-0.44993070799028717
CC1CC(C)C(=O)C(C1)C(O)CC2CC(=O)NC(=O)C2,-0.18209566367431276,-1.074880508436817,-0.7936787976681345,-0.7407857188102924,-0.8088026135471471,-0.8440431819259463,-0.6403230681952066,-0.8138116557321079,-0.4522705896165054,-0.621320471367033,-0.44232745088854675,-0.4896551177922532,-0.29452988908267824,-0.3462240441834494,-0.698340775370317,0.23127125913457752,-0.242640596097312,1.8196496499740602,-0.14920628168294345,-0.8007814725918487,-1.083216926911457,-0.8189497520470643,-0.6035718425029353,-0.15226994596988555,-1.2154236800540303,-0.9092986443255918,0.17899111282683794,-0.010559867047502182,0.01627144888770954,1.2989992797056693,1.006007725388712,-0.8200652419751879,-0.9457206433361811,-0.3004550018643471,-0.7421027606996056,-0.757750523875415,-0.2988634599973548,-0.8293476643939388,-0.07067827043961496,-0.4081408423799574,-0.07067827043961496,-0.6033840933322828,-0.4032153313528929,-0.6033840933322828,0.4854442909679344,0.4081408423799574,-0.7739684019433837,-0.895351841875622,-0.9100252111174923,-0.44071808100620224,-0.7523965484374353,0.4847917506256211,-0.10554731598140288,0.16903085094570336,-1.1672993712043418,-0.6721809596566366,-1.1673766828933747,-0.7986302982113705,-0.33612296123037155,-0.9391422818988598,-0.6869990210957531,1.4104061776221766,0.26052396936768923,0.8997354108424374,-0.7668436761268059,-1.1912744959577741,-0.573896134466337,-0.7237313777564135,0.9290546603386561,-0.5497464934375227,-0.778147935848775,1.7302773579443649,-0.8770066570451334,-0.37724922633218433,-0.33076794661968917,-0.5227614535832137,-0.3336222785735117,0.1553114064075289,-1.0839678814962703,-0.6573549486012918,-0.3730254869698843,-0.3265143297615714,-0.5064636167122946,1.4719273720107995,-0.018117556658335785,-0.8355784574851697,-1.5164304645073616,-0.6069739684085285,-0.625587827315421,-0.6512930307441407,-0.5008846954721269,-0.5065615138558763,-0.7115528856926279,-0.3213840782734839,1.395621383738814,0.15293477455421361,-1.4048972491214413,-0.16903085094570333,-0.6403869598873415,-0.5164719718568034,-0.9936754358561717,-0.25954611585842063,0.13295511238707983,-0.28025915773576504,-0.34724313315134997,0.2395206916330389,-1.042733620122543,0.008118840978967128,-0.2248062140392729,-0.5236538439232974,-0.28305091472031296,0.04815023652976678,0.33716140281792634,-0.229494692996586,-0.6138788892284813,-0.40237390808147816,-0.229494692996586,-0.28305091472031296,-0.28305091472031296,0.5160027080727891,0.5798825193638244,-0.1690308509457033,-0.6688560540599386,-0.14584978059097614,-0.38202397907750224,-0.40237390808147816,-0.3017804310611087,-0.3017804310611087,-0.1690308509457033,-0.452601590337872,1.2071217242444345,-0.4976895965835776,-0.4023739080814782,-1.1435437497937313,-0.8820238668510707,-0.1690308509457033,-0.611153121101568,-0.8492707518692875,-0.46483484010068415,-0.24264059609731195,5.747048932153912,1.247708522362718,1.6920868460976943,-0.4483137536088725,-0.5219902945417844,-0.24264059609731195,-0.24264059609731195,-0.24264059609731195,-0.3017804310611087,-0.229494692996586,-0.229494692996586,3.218991264651826,-0.1690308509457033,-0.1690308509457033,-0.22949469299658595,-0.24264059609731192,-0.1690308509457033,-0.24264059609731192,-0.1690308509457033,1.3135562361896909
CCC(C)(C)C(=O)O[C@H]1C[C@@H](C)C=C2C=C[C@H](C)[C@H](CC[C@@H]3C[C@@H](O)CC(=O)O3)[C@@H]12,-0.45697624064932524,-0.5135066705027636,-0.07878859631385013,0.10045099953193622,0.06531861366541906,-0.12463110984824424,0.20587004300459827,0.12377736815572593,0.40039688264993484,0.3063065539588721,0.3765027820048822,0.3372873193481255,0.23786256749189988,0.19391171248851236,-0.5317674589409638,-0.20688839200793507,-0.242640596097312,1.001302438515819,0.13203026955513308,0.6099116425558264,-0.6113436222676867,-0.8189497520470643,0.0591309421944332,1.5414101071420128,-0.32961670976713897,-0.1524186452339763,0.6747959778317977,0.7681484454803313,0.7091304815300513,1.1349791091406378,0.7377085366646081,-0.10070976655835633,-0.2183054184304725,-0.3004544852682376,0.0034437534491067352,-0.053093510365509404,-0.21823064794627775,-0.052866424858103986,0.21623161638924218,0.32529956562542034,0.21623161638924218,0.28721080228580687,-0.2239893454614001,0.28721080228580687,0.6626083141550949,-0.32529956562542034,1.0783466692963257,-0.021418245959322835,-0.15278820003560223,-1.0120192971253534,-0.7523965484374353,1.6159725020854034,-0.10554731598140288,0.760638829255665,-1.1672993712043418,-0.6721809596566366,-1.1673766828933747,-0.5245904900015865,-0.9552968371810562,-0.9391422818988598,0.013339786817393215,-0.41789812670286713,0.26052396936768923,0.0,-0.01981902145059351,-0.5556706554544864,-0.014916574929715123,-0.7237313777564135,-0.963048542677645,-0.5497464934375227,0.4576719102604866,-0.08143641613929828,-0.8770066570451334,-0.37724922633218433,-0.33076794661968917,0.40935434154293726,1.1734503287901685,-0.5974889823380399,-0.2696928549518487,-0.1678353060258618,-0.12301618838474745,-0.767857222526471,-1.2046469272392393,2.02331308275661,0.8844637454768074,-0.8355784574851697,-0.694342159825088,-0.6069739684085285,-1.2063830302091925,-0.6512930307441407,-0.5008846954721269,-0.5065615138558763,-0.5042988769122103,0.014692554741373836,1.9672226238270265,1.043026778977076,-0.4288452961961295,-0.16903085094570333,-0.6403869598873415,-0.710386537889443,-0.171406272810092,-0.25954611585842063,-0.35233694468430937,-0.4679466237444013,-0.16400003750494607,0.763560676766457,-1.042733620122543,1.6402978550921312,1.1628084001607422,-0.5236538439232974,-0.28305091472031296,0.04815023652976678,0.33716140281792634,-0.229494692996586,-0.6138788892284813,-0.40237390808147816,-0.229494692996586,-0.28305091472031296,-0.28305091472031296,-0.048375253881824065,0.016107847760106177,-0.1690308509457033,-0.6688560540599386,-0.99664016737167,-0.38202397907750224,-0.40237390808147816,-0.3017804310611087,-0.3017804310611087,-0.1690308509457033,2.517596346254413,-0.8047478161629564,-0.4976895965835776,-0.4023739080814782,-1.1435437497937313,-0.3920106074893648,-0.1690308509457033,0.9733179336062011,0.038027048591162085,-0.46483484010068415,-0.24264059609731195,-0.1690308509457033,-0.4990834089450871,-0.4230217115244236,2.16684980910955,-0.5219902945417844,-0.24264059609731195,-0.24264059609731195,-0.24264059609731195,-0.3017804310611087,-0.229494692996586,-0.229494692996586,-0.3017804310611087,-0.1690308509457033,-0.1690308509457033,-0.22949469299658595,-0.24264059609731192,-0.1690308509457033,-0.24264059609731192,-0.1690308509457033,0.7782385487033194
CCC(C)C(NC(=O)OCc1ccccc1)C(=O)NC(CCC(=O)OC(C)(C)C)C(=O)NC(C)C(=O)NC(CC(C)C)C=O,1.2913943880969059,0.2236956026435958,1.0543938648012656,1.0775987141907053,1.0806636894113846,0.8550558917258783,0.9191633665659731,0.9141123190458017,0.8856372779360145,0.8342053176477711,0.1711873419099836,0.12993780586634582,-0.10753825068732592,-0.1565127346997562,0.9458171103370541,1.0790786286381622,-0.242640596097312,0.6377663463176559,-0.13008037192080762,-0.8635712634881557,-0.4969859069699716,0.9785768542060315,0.9300908515578812,0.61849960055016,-0.32961670976713897,0.9521375252255192,-1.037984464912608,-0.7892681795753358,-0.6500666638448783,0.5814110334836567,-0.8720865956800148,0.906387899025208,0.9023007848685193,-0.30028686475437427,1.4225647214587862,2.006449886114704,0.2440596442556774,0.9509778065047763,0.4604059942728035,0.3017592232183268,0.4604059942728035,1.2972721535541505,-0.4040841414501894,1.2972721535541505,-0.15440607230188025,-0.3017592232183268,0.3378073999643249,0.9893494385733235,0.9519714969850799,0.7018843512321,1.0909749952342815,-0.6463890008341614,-0.8443785278512234,-1.01418510567422,-0.06309726330834282,-0.6721809596566366,-0.4505664390114779,0.29752893462776536,0.9022247906709977,1.0107717779758914,2.581248749165596,-0.41789812670286713,-0.8792683966159514,-0.8997354108424374,1.0206796047055595,0.8502369016295732,2.109020366399038,-0.7237313777564135,1.8751062618468066,-0.5497464934375227,0.47050096297682,1.6367020829645307,-0.07069512830206512,-0.37724922633218433,-0.33076794661968917,1.352459657057134,0.9398998473682926,-0.9585474392218323,-1.0882419685199392,-1.146874591176722,0.6288312769335513,1.114160269684754,1.5880863148685391,0.26673639343715455,1.4799151337376566,-0.8355784574851697,-0.27661318309630806,-0.6069739684085285,1.1167977813658936,0.038135662857726495,-0.5008846954721269,-0.5065615138558763,0.46035179682193333,1.5223074006548762,0.14624432432241663,1.4847013305425534,-0.16103177835400395,-0.16903085094570333,-0.6403869598873415,1.0423168282157216,-0.2416045612129458,-0.25954611585842063,2.074106193347815,-0.43576373104663546,-0.3419490080281789,-0.6635178441217184,-0.22017847709307242,-0.25050385513324325,1.9831108889855402,-0.5236538439232974,-0.28305091472031296,-0.7944789027411515,-0.7356248788754757,-0.229494692996586,-0.6138788892284813,-0.40237390808147816,-0.229494692996586,-0.28305091472031296,-0.28305091472031296,2.2091365939366288,2.271206534174979,-0.1690308509457033,-0.6688560540599386,2.4065213797511054,-0.38202397907750224,-0.40237390808147816,3.218991264651826,3.218991264651826,-0.1690308509457033,-0.452601590337872,3.2189912646518257,-0.4976895965835776,-0.4023739080814782,0.0,-0.8820238668510707,-0.1690308509457033,0.18108240625231645,0.038027048591162085,-0.46483484010068415,-0.24264059609731195,-0.1690308509457033,-0.4990834089450871,-0.4230217115244236,-0.4483137536088725,-0.5219902945417844,-0.24264059609731195,-0.24264059609731195,-0.24264059609731195,-0.3017804310611087,-0.229494692996586,-0.229494692996586,-0.3017804310611087,-0.1690308509457033,-0.1690308509457033,-0.22949469299658595,-0.24264059609731192,-0.1690308509457033,-0.24264059609731192,-0.1690308509457033,-1.4275268187740346
CCC1CN2CCc3cc(OC)c(OC)cc3C2CC1CC4NCCc5cc(OC)c(OC)cc45,-0.9118071013560797,0.13127363640959358,0.16725799849876669,0.4319803340037448,0.40980765270373726,0.3294156919373429,0.504968729166075,0.455181206703469,0.39527518737870143,0.300734601112528,0.7531885091126045,0.7177048963955,0.8362752066972295,0.801027872170536,-0.8861080355948394,-1.5498792782169137,-0.242640596097312,-1.5489536441918816,0.11878403008575579,2.782565249818482,2.442448404728803,0.4645846444837716,-0.9349232348516195,2.3381155727235017,0.5561902605197524,0.18998654691962794,-1.3084234821880403,-1.1007515045864695,-0.6870065165763225,0.42233974737532864,0.17359229370623616,0.2589679711500595,0.1394924144683497,-0.3004364671971582,0.1179455602934242,0.17096322347839044,-0.25087081141190876,0.3115358392429146,-2.7755202025292265,0.647497228428285,-2.7755202025292265,-1.2929159817072344,0.2738426733973083,-1.2929159817072344,1.8734787708580762,-0.647497228428285,1.265349951508895,0.4391548616723547,0.18976246576804687,-1.0120192971253534,-0.4890577564843329,-0.6463890008341614,1.372115107758238,0.760638829255665,1.0411048445876563,-0.6721809596566366,0.26624380487041877,-0.25055068179180257,-0.9552968371810562,-0.6605831304881811,0.24678605612177532,-0.41789812670286713,0.26052396936768923,0.0,0.2736549500293471,0.09403986634378435,-1.077066996426861,1.8484581299626612,-0.963048542677645,-0.5497464934375227,-0.778147935848775,-0.9216253627111373,-0.8770066570451334,-0.37724922633218433,-0.33076794661968917,-0.5413993084856689,2.48910910349404,0.1855570379875589,0.4526410805523731,0.8112039791249983,-0.4020212888498706,-1.698945166112569,0.1369765220569132,0.26673639343715455,-0.039743375881230746,1.9141925456218112,0.0903375880493434,1.4827573523144977,1.4441933772705444,-0.6512930307441407,2.304069599171784,-0.5065615138558763,0.053204476336500856,-0.4321339426703818,0.14624432432241663,0.6299316942847225,-0.4098048725074914,-0.16903085094570333,-0.6403869598873415,-1.086551635907646,0.5985737365838988,-0.25954611585842063,-1.3846636642026993,-0.8937396396374722,0.9611360584226626,2.3718668874617053,0.5374757768137712,0.8212529596505704,0.13936077518875542,2.117612265464469,-0.28305091472031296,-0.7944789027411515,-0.7356248788754757,-0.229494692996586,-0.6138788892284813,-0.40237390808147816,-0.229494692996586,-0.28305091472031296,-0.28305091472031296,-1.1771311777910505,-1.1114414954473304,-0.1690308509457033,0.0,-0.14584978059097614,-0.38202397907750224,-0.40237390808147816,-0.3017804310611087,-0.3017804310611087,-0.1690308509457033,-0.452601590337872,-0.8047478161629564,-0.4976895965835776,-0.4023739080814782,1.1435437497937313,1.0780291705957532,-0.1690308509457033,-0.611153121101568,0.9253248490516115,-0.46483484010068415,-0.24264059609731195,-0.1690308509457033,-0.4990834089450871,-0.4230217115244236,-0.4483137536088725,2.65534193310386,-0.24264059609731195,-0.24264059609731195,-0.24264059609731195,-0.3017804310611087,-0.229494692996586,-0.229494692996586,3.218991264651826,-0.1690308509457033,-0.1690308509457033,-0.22949469299658595,-0.24264059609731192,-0.1690308509457033,-0.24264059609731192,-0.1690308509457033,0.626933799634114
CCCCC(NC(=O)[C@H](CC(C)C)NC(=O)[C@H](CC(C)C)NC(=O)C)C=O,4.159233514379921,-0.9123143882283972,-0.18506555051271978,-0.07540125957804424,-0.11740782847590465,-0.3527888926374712,-0.12943942669515945,-0.24774832052588563,-0.12381281601262381,-0.2639873756603747,-0.5666560108069532,-0.6152154088208108,-0.5830112623705054,-0.6389011903795655,-0.3285394840319622,0.202759326353137,-0.242640596097312,0.5170530698375337,-0.1230865233615691,0.1298186530857423,-0.4969859069699716,-0.8189497520470643,0.7218337268918015,0.1645074272534851,-1.2154236800540303,-0.34559233816312834,-1.0880657644080582,-1.3084070545938917,-1.3167731226873236,1.2989992797056693,0.5313245453383744,-0.31651640918340584,-0.42105494218287615,-0.30045495303971614,0.1951642269329319,0.8295478868337366,0.07608528909191677,-0.272521869784932,0.1316214196028484,-0.9077406179751139,0.1316214196028484,-0.4314707933556492,-0.061514270786149745,-0.4314707933556492,0.477855908530868,0.9077406179751139,-0.3033243112993964,-0.21474450003388726,-0.3461561884435878,0.13058313511294886,-0.22571896453123053,-0.6463890008341614,-0.8443785278512234,-1.01418510567422,-1.1672993712043418,-0.6721809596566366,-1.1673766828933747,-0.7986302982113705,0.2830509147203131,-0.3820239790775024,1.6474636719480678,-0.41789812670286713,-0.8792683966159514,-0.8997354108424374,-0.17989573316692473,-0.14207677920585954,0.5211999644627079,-0.7237313777564135,1.8751062618468066,-0.5497464934375227,-0.778147935848775,0.7776328334126164,-0.8770066570451334,-0.37724922633218433,-0.33076794661968917,0.7229178222253256,-0.3336222785735117,-0.9278639642438481,-1.0882419685199392,-1.636394233752152,-0.3896951402727206,0.17340669696232627,0.8899030043415947,0.26673639343715455,0.891715073902479,-0.8355784574851697,-1.5164304645073616,-0.6069739684085285,0.5360025784721222,-0.6512930307441407,-0.5008846954721269,-0.5065615138558763,-0.28985321931895025,0.02297730761915297,0.14624432432241663,1.0594889953226982,-1.4048972491214413,-0.16903085094570333,-0.6403869598873415,-0.13556836000697547,-0.9936754358561717,-0.25954611585842063,0.7517608650861237,-0.5926313946066859,-0.34724313315134997,0.17725736756691285,-1.3690195710622728,0.4824819089205812,1.3640128250504688,-0.5236538439232974,-0.28305091472031296,-0.7944789027411515,-0.7356248788754757,-0.229494692996586,-0.6138788892284813,-0.40237390808147816,-0.229494692996586,-0.28305091472031296,-0.28305091472031296,1.0803806700274023,1.1436571909675426,-0.1690308509457033,-0.6688560540599386,1.5557309929704117,-0.38202397907750224,-0.40237390808147816,3.218991264651826,-0.3017804310611087,-0.1690308509457033,-0.452601590337872,2.2130564944481304,-0.4976895965835776,-0.4023739080814782,-1.1435437497937313,-0.8820238668510707,-0.1690308509457033,-0.611153121101568,-0.8492707518692875,-0.46483484010068415,-0.24264059609731195,-0.1690308509457033,-0.4990834089450871,-0.4230217115244236,-0.4483137536088725,-0.5219902945417844,-0.24264059609731195,-0.24264059609731195,-0.24264059609731195,-0.3017804310611087,-0.229494692996586,-0.229494692996586,-0.3017804310611087,-0.1690308509457033,-0.1690308509457033,-0.22949469299658595,-0.24264059609731192,-0.1690308509457033,-0.24264059609731192,-0.1690308509457033,-0.20216044022394086
CCC\\C=C\\C=C\\C(=O)O[C@H]1\\C(=C\\C(=O)OC)\\C[C@H]2C[C@@H](OC(=O)C[C@H](O)C[C@@H]3C[C@H](OC(=O)C)C(C)(C)[C@](O)(C[C@@H]4C\\C(=C\\C(=O)OC)\\C[C@@H](O4)\\C=C\\C(C)(C)[C@]1(O)O2)O3)[C@@H](C)O,-0.2833690717953272,1.5648413694508527,2.463582642904126,2.429465648789153,2.485376011322365,2.2813243356416586,2.2992234964427705,2.44323045171774,2.2398806941860494,2.307502743248012,1.8404970901008475,1.8157855140454444,1.4988966899396194,1.4732867515336963,2.6086231757292593,2.5076053131914624,-0.242640596097312,1.9822252650717096,-0.8340662586117101,1.0800967540452133,1.7201398837224247,1.2536747303859257,-0.3127899043282789,-1.1974690926365397,2.327804201093535,2.5313919698571246,-0.9896917832562807,-0.5945911014433773,-0.3050875103312718,0.8104285588736606,-1.0578321878736252,2.3450988498588714,2.499657006908431,2.325301746790986,2.7771117243403713,2.808393942923446,0.17108841690102888,2.391734080913693,0.45519249131309303,0.36379407829656113,0.45519249131309303,0.4943577727176345,-0.26940427519164045,0.4943577727176345,-1.72386233301432,-0.36379407829656113,0.918573322811188,2.2781449553722384,2.531716389469043,0.7018843512321,2.407668954999793,-0.6463890008341614,2.1109463196280585,1.3522468075656264,-1.1672993712043418,-0.6721809596566366,-1.1673766828933747,2.763887208515821,0.9022247906709977,2.403567535029285,0.7136785947305395,-0.41789812670286713,2.5401087013349706,1.7994708216848747,2.5147289140579843,2.3789503431668644,-0.014916574929715123,0.6062121796956886,-0.036226264562174315,-0.5497464934375227,2.311401679424379,-0.08143641613929828,1.5419279291840713,-0.37724922633218433,-0.33076794661968917,1.8173764211095575,0.002432414900449372,2.0815942940833496,2.808270688333758,0.32168433654956824,2.9825720231425787,0.6287746928526758,-1.2046469272392393,0.16431683635513195,2.8941699941202237,-0.022226750828434633,0.5474756076967038,-0.6069739684085285,-1.2063830302091925,-0.6512930307441407,-0.5008846954721269,-0.5065615138558763,2.5225782111162185,3.0890907691417695,0.04006974508244425,2.3370092447473123,1.0455445598126458,-0.16903085094570333,-0.6403869598873415,2.3383003611650626,2.3086417805554187,-0.25954611585842063,1.542187666964667,2.165315786612882,-0.8274808917928378,-2.973133590335267,-1.042733620122543,0.18034726164415976,1.3602638388051724,0.39694970360155446,-0.28305091472031296,2.5760376543425214,1.4099476845113283,-0.229494692996586,-0.6138788892284813,-0.40237390808147816,-0.229494692996586,-0.28305091472031296,-0.28305091472031296,1.6447586319820156,1.707431862571261,-0.1690308509457033,-0.6688560540599386,-0.99664016737167,-0.38202397907750224,-0.40237390808147816,-0.3017804310611087,-0.3017804310611087,-0.1690308509457033,2.517596346254413,-0.8047478161629564,-0.4976895965835776,-0.4023739080814782,-1.1435437497937313,2.0580556893191653,-0.1690308509457033,3.3500245156678545,2.6999204499725105,-0.46483484010068415,-0.24264059609731195,-0.1690308509457033,-0.4990834089450871,-0.4230217115244236,2.16684980910955,1.0666758192810377,-0.24264059609731195,-0.24264059609731195,-0.24264059609731195,-0.3017804310611087,-0.229494692996586,-0.229494692996586,-0.3017804310611087,-0.1690308509457033,-0.1690308509457033,-0.22949469299658595,-0.24264059609731192,-0.1690308509457033,-0.24264059609731192,-0.1690308509457033,-1.7423283902697961
CCOc1cc(OC[C@H]2CCCN2)c3c(Nc4cnn(CC(=O)Nc5cccc(F)c5F)c4)ncnc3c1,-1.0352037409800934,0.8490305363716504,0.3619507175195435,0.2941140572819449,0.2665520905395322,0.5425261670881659,0.35175663410088326,0.2854209276859479,0.06190648547730492,-0.06194115155758137,-0.01042588326035774,-0.05347467330970447,-0.055740844137734044,-0.10396196874729027,-0.3465011663739295,-0.3092635601777383,-0.242640596097312,-0.27163443297221546,1.3237909147567126,0.5930294492983949,1.400883198480524,-0.5392701329050128,-0.022931902927303165,1.451023899005275,-0.32961670976713897,0.42689192847169843,0.5480488694846657,1.177994925758139,1.3232991531243714,-0.7197105118639481,-1.1197473852714939,0.474774613775109,0.47310304475691733,-0.30036000757820414,0.2192320750949531,0.4137693030222211,-0.18795274716133284,0.40558327436657304,0.6308817201352069,0.655942722072809,0.6308817201352069,-0.4005719707711017,-0.0034431214716147958,-0.4005719707711017,0.0020824851307390726,-0.655942722072809,0.7808034368658722,0.4322568280538367,0.4264714598823837,0.13058313511294886,0.5642974113280766,-0.6463890008341614,-0.10554731598140288,-0.42257712736425823,1.0411048445876563,1.6804523991415916,1.6998642926342122,0.5715687428375493,0.2830509147203131,1.0107717779758914,0.9471248640349216,-0.41789812670286713,0.26052396936768923,0.0,0.38037275784023455,0.17185570650478682,2.1243531684408827,0.5775090445001558,-0.016996941169494417,-0.5497464934375227,-0.778147935848775,-0.10163576446137278,2.276032445233976,1.8929549288999672,-0.33076794661968917,-0.8111262529936472,0.014900332786856313,0.13663973874791072,0.9096105128199433,0.8112039791249983,-0.1828703755172677,0.9529162922225183,2.0868372440832896,-0.9384545851364903,-0.46949040735152753,0.902830003650523,0.5796983145595751,0.43789169195298455,1.5708931807651045,3.0835517826556647,0.9015924518498286,-0.5065615138558763,0.005183808548433881,-0.5400382491191084,0.1249878554780805,-0.7042327971774034,0.6066901281395926,-0.16903085094570333,0.618639227138266,0.06217346719736084,1.8760038316168142,-0.25954611585842063,-0.5123003387113169,-0.19217819076327639,-0.12053033414588817,0.04073219447605709,0.19121233114985572,1.0442706998944506,-0.2972842268600417,-0.5236538439232974,-0.28305091472031296,-0.7944789027411515,-0.7356248788754757,-0.229494692996586,2.2508892605044317,-0.40237390808147816,-0.229494692996586,-0.28305091472031296,-0.28305091472031296,-0.6127532158364373,-0.5476668238436121,-0.1690308509457033,2.006568162179816,1.5557309929704117,-0.38202397907750224,-0.40237390808147816,-0.3017804310611087,-0.3017804310611087,-0.1690308509457033,-0.452601590337872,0.20118695404073905,2.7683983809961505,-0.4023739080814782,1.1435437497937313,-0.3920106074893648,-0.1690308509457033,-0.611153121101568,0.038027048591162085,2.493205051449124,-0.24264059609731195,-0.1690308509457033,-0.4990834089450871,-0.4230217115244236,-0.4483137536088725,-0.5219902945417844,-0.24264059609731195,-0.24264059609731195,-0.24264059609731195,-0.3017804310611087,-0.229494692996586,-0.229494692996586,-0.3017804310611087,-0.1690308509457033,-0.1690308509457033,-0.22949469299658595,-0.24264059609731192,-0.1690308509457033,-0.24264059609731192,-0.1690308509457033,-0.8237644064855759
CC[C@@H](N(CCCN)C(=O)c1ccc(C)cc1)C2=Nc3ccsc3C(=O)N2Cc4ccccc4,-0.3555945468271952,0.6119076469494891,0.12275591811701464,0.16185757464905123,0.2310545114451325,0.24385954276369898,0.21353825233826323,0.3295958901587544,-0.021500894567997263,0.07598319129421907,-0.01438270006117595,0.20418286184958181,-0.07985914675081278,0.15665174083034225,-0.8861080355948394,-0.6735599759318883,-0.242640596097312,-0.325155236578526,1.6852403765372768,-0.45613001600190406,-0.12333422824737805,-0.6128247022024402,3.1229510114369496,-1.1974690926365397,-0.2133083958682663,0.1563688676254868,0.04149900740529502,0.31008473222866484,0.4088200649048876,-0.766439905187319,-0.411162348384759,0.18703242360837632,0.16368557451766963,-0.3004443964863084,0.07931020861646666,0.277038633924957,-0.2280028277853642,0.23342578387663146,0.553301571591075,-1.059044160130205,0.553301571591075,-0.1314306696431831,-0.2726660056364821,-0.1314306696431831,0.9709459760315337,1.059044160130205,1.1679389069622803,0.44486315765554524,0.15654760539797516,-0.44071808100620224,-0.4890577564843329,-0.6463890008341614,-0.8443785278512234,-1.01418510567422,1.0411048445876563,1.6804523991415916,1.6998642926342122,-0.25055068179180257,-0.9552968371810562,-0.3820239790775024,0.7136785947305395,-0.41789812670286713,-0.8792683966159514,-0.8997354108424374,0.08689878636029397,-0.820457974330646,-0.16139881423978672,-0.7237313777564135,-0.963048542677645,3.3263147473638113,-0.778147935848775,0.7368813310024367,-0.038836217195779815,-0.37724922633218433,1.9632270874072641,1.0005472530712136,0.8220692842988906,-0.6115532666172704,-0.25844311375471457,0.32168433654956824,-1.1582122588938562,0.44269607518505905,0.693009595067714,-0.3546193346512952,-0.3108802263748309,-0.08686673095616247,1.8999839277472064,-0.6069739684085285,0.027234214801058327,-0.6512930307441407,-0.5008846954721269,1.3014033417922781,-0.5647242117802251,-0.8843996350117453,-0.3722696261458094,0.3874685893122114,1.5000795800920002,-0.16903085094570333,0.539387550287559,-0.5574783415535551,-0.8260957631165142,0.3604074524183037,0.09337340036485486,-1.0298581204490853,1.7910945078988962,0.6638381505009141,2.0789102664378234,-0.08136010973790307,0.07907237971579328,-0.5236538439232974,-0.28305091472031296,-0.7944789027411515,-0.7356248788754757,-0.229494692996586,0.8185051856379751,-0.40237390808147816,-0.229494692996586,-0.28305091472031296,-0.28305091472031296,-0.6127532158364373,-0.5476668238436121,-0.1690308509457033,1.3377121081198773,-0.99664016737167,1.28933092938657,-0.40237390808147816,-0.3017804310611087,-0.3017804310611087,-0.1690308509457033,-0.452601590337872,0.20118695404073905,-0.4976895965835776,2.4142434484888695,1.1435437497937313,-0.3920106074893648,-0.1690308509457033,-0.611153121101568,-0.8492707518692875,-0.46483484010068415,-0.24264059609731195,-0.1690308509457033,-0.4990834089450871,-0.4230217115244236,-0.4483137536088725,-0.5219902945417844,-0.24264059609731195,-0.24264059609731195,-0.24264059609731195,-0.3017804310611087,-0.229494692996586,-0.229494692996586,-0.3017804310611087,-0.1690308509457033,-0.1690308509457033,-0.22949469299658595,-0.24264059609731192,-0.1690308509457033,4.003569835605647,-0.1690308509457033,-0.39917117694711446
CC[C@@]1(O)C(=O)OCC2=C1C=C3N(Cc4cc5ccccc5nc34)C2=O,-0.38564682916852566,0.3373700372088083,-0.47648923146897515,-0.4935889185976806,-0.5519427242276668,-0.36396927114792454,-0.40222400792801977,-0.5499959113708771,-0.3933744724293183,-0.5572466890701935,-0.18454300096146814,-0.22931678059344235,-0.1787118431510151,-0.22872150051845708,-0.5301863403378235,-0.20688839200793507,-0.242640596097312,-0.24975719570001104,0.09001598015225082,0.3519048615371298,-1.083216926911457,-0.026547612528116667,0.5166766140874609,-1.1974690926365397,-0.30651104954640723,-0.5397259069261828,0.6856927880516869,1.0077510031812038,1.1859970222150644,-0.9562780655635127,-0.20477835705852515,-0.388451956725089,-0.5045007911882508,-0.30045476025922624,-0.7312301585328668,-0.981685182245281,-0.3757125725424637,-0.4577884558677596,0.2764025114650261,0.28338498623901953,0.2764025114650261,0.6162942842040148,-0.1944587778655792,0.6162942842040148,-0.8588666810538254,-0.28338498623901953,-0.23140801271792727,-0.4478088060171375,-0.5402636337862111,-1.0120192971253534,-0.4890577564843329,-0.6463890008341614,0.6332838958884176,0.16903085094570336,-0.06309726330834282,1.6804523991415916,0.9830540487523155,-0.25055068179180257,-0.9552968371810562,-0.6605831304881811,-1.1538915597045172,-0.41789812670286713,-0.8792683966159514,-0.8997354108424374,-0.5267286085523091,-0.5670602829704248,-0.5022356476276109,-0.09728844894931944,-0.963048542677645,1.329480754986703,-0.1602380127941442,-0.9405056656912127,0.7674753115472884,-0.37724922633218433,-0.33076794661968917,-0.10490086620106406,-0.6410392564611378,-0.3428039230420646,0.49210160413626564,0.8112039791249983,-0.6322793969878835,-0.38308600148004524,0.049569456298506065,-0.9384545851364903,-0.4753257992701977,-0.8355784574851697,0.6748582097313666,0.42779037453050933,-0.5990999906278593,-0.6512930307441407,-0.5008846954721269,-0.5065615138558763,-0.970462593950827,0.676999624816551,-1.1031327350939808,-0.368074444977569,0.2843584734582222,-0.16903085094570333,1.933663314199297,-0.5538333309138441,-0.5184388494711393,-0.25954611585842063,-0.101313393871398,-0.33288963380006215,0.07633720983805779,0.15398362219308118,0.8576670069023502,-0.31917029259451585,-0.6656677677401616,-0.5236538439232974,-0.28305091472031296,0.04815023652976678,-0.7356248788754757,-0.229494692996586,0.8185051856379751,-0.40237390808147816,-0.229494692996586,-0.28305091472031296,-0.28305091472031296,-0.6127532158364373,-0.5476668238436121,-0.1690308509457033,0.6688560540599386,-0.99664016737167,-0.38202397907750224,-0.40237390808147816,-0.3017804310611087,-0.3017804310611087,-0.1690308509457033,-0.452601590337872,-0.8047478161629564,-0.4976895965835776,-0.4023739080814782,0.0,1.5680424299574591,-0.1690308509457033,0.18108240625231645,-0.40562185163906267,-0.46483484010068415,-0.24264059609731195,-0.1690308509457033,-0.4990834089450871,-0.4230217115244236,2.16684980910955,-0.5219902945417844,-0.24264059609731195,-0.24264059609731195,-0.24264059609731195,3.218991264651826,-0.229494692996586,-0.229494692996586,-0.3017804310611087,-0.1690308509457033,-0.1690308509457033,5.125381476923753,-0.24264059609731192,-0.1690308509457033,-0.24264059609731192,-0.1690308509457033,0.2963878396471823
CC[C@H](C)C(=O)O[C@H]1C[C@@H](C)C=C2C=C[C@H](C)[C@H](CC[C@@H]3C[C@@H](O)CC(=O)O3)[C@@H]12,-0.4858538821751092,-0.5880740217549754,-0.17052319230609791,-0.01039662051786771,-0.04986211437325972,-0.17371684397073978,0.13920681830642812,0.04991395926392933,0.1946966573831947,0.08252284661764756,0.2566068893086933,0.21620361026356882,0.23449626975866217,0.190496454156296,-0.698340775370317,-0.20688839200793507,-0.242640596097312,1.4149536316956917,0.13203026955513308,0.6099116425558264,-0.6113436222676867,-0.8189497520470643,-0.27222045015425106,1.5414101071420128,-0.32961670976713897,-0.22978882872311324,0.8604175036464624,0.9829645316949066,0.9103236670523293,1.0939740664993798,0.7377085366646081,-0.1726453141000395,-0.2898602190589836,-0.3004546206977021,-0.08898459723028124,-0.007370896063455823,-0.21157487509962877,-0.1328640120167875,0.0823300377436768,0.32529956562542034,0.0823300377436768,0.2572676988527143,-0.24307065013463727,0.2572676988527143,0.6676524109790224,-0.32529956562542034,0.8744618722277858,-0.11547678469735075,-0.23019388975332714,-1.0120192971253534,-0.7523965484374353,1.6159725020854034,-0.10554731598140288,0.760638829255665,-1.1672993712043418,-0.6721809596566366,-1.1673766828933747,-0.5245904900015865,-0.9552968371810562,-0.9391422818988598,0.013339786817393215,-0.41789812670286713,0.26052396936768923,0.0,-0.09985737730875913,-0.5556706554544864,-0.014916574929715123,-0.7237313777564135,-0.963048542677645,-0.5497464934375227,0.4576719102604866,-0.08143641613929828,-0.8770066570451334,-0.37724922633218433,-0.33076794661968917,0.6659453386656272,0.5163468972738758,-0.5974889823380399,-0.23509348894085597,-0.1678353060258618,-0.12301618838474745,-0.767857222526471,-1.2046469272392393,2.0745228612976216,0.7258535645001108,-0.8355784574851697,-0.694342159825088,-0.6069739684085285,-1.2063830302091925,-0.6512930307441407,-0.5008846954721269,-0.5065615138558763,-0.5042988769122103,0.014692554741373836,2.020309913447013,0.8163882237849547,-0.4288452961961295,-0.16903085094570333,-0.6403869598873415,-0.710386537889443,-0.179630164822182,-0.25954611585842063,-0.36896565685607735,-0.4696436857772148,-0.050036506533049634,0.7549063062808895,-1.042733620122543,1.6585546310373147,0.7265074477655006,-0.5236538439232974,-0.28305091472031296,0.04815023652976678,0.33716140281792634,-0.229494692996586,-0.6138788892284813,-0.40237390808147816,-0.229494692996586,-0.28305091472031296,-0.28305091472031296,-0.048375253881824065,0.016107847760106177,-0.1690308509457033,-0.6688560540599386,-0.99664016737167,-0.38202397907750224,-0.40237390808147816,-0.3017804310611087,-0.3017804310611087,-0.1690308509457033,2.517596346254413,-0.8047478161629564,-0.4976895965835776,-0.4023739080814782,-1.1435437497937313,-0.3920106074893648,-0.1690308509457033,0.9733179336062011,0.038027048591162085,-0.46483484010068415,-0.24264059609731195,-0.1690308509457033,-0.4990834089450871,-0.4230217115244236,2.16684980910955,-0.5219902945417844,-0.24264059609731195,-0.24264059609731195,-0.24264059609731195,-0.3017804310611087,-0.229494692996586,-0.229494692996586,-0.3017804310611087,-0.1690308509457033,-0.1690308509457033,-0.22949469299658595,-0.24264059609731192,-0.1690308509457033,-0.24264059609731192,-0.1690308509457033,0.9275426786817698
CC[C@]1(O)C[C@H]2CN(CCc3c([nH]c4ccccc34)[C@@](C2)(C(=O)OC)c5cc6c(cc5OC)N(C=O)[C@H]7[C@](O)([C@H](OC(=O)C)[C@]8(CC)C=CCN9CC[C@]67[C@H]89)C(=O)OC)C1,-0.9798445960585558,2.4655355904876823,1.9612463499475807,2.045457837727575,2.086357076763921,2.1007729597585674,2.163777583294824,2.2931552504224726,2.202386184631424,2.266712022954952,2.7458117536189013,2.730069188676175,3.2287048831894833,3.228253873663632,1.0685598127773477,0.6979428430585309,4.0035698356056475,-0.6864983461815084,4.043960964294057,-0.06509187668918033,1.7238422712610768,-0.5451588758249651,1.470623305346326,0.5828935379211208,0.5561902605197524,2.089516338007832,-0.600130817895241,-0.062473754549357566,0.16213650839136004,0.33627219160657157,-1.4224439058833043,2.0573566596921387,2.0946941289196146,4.205917382279791,1.6655754843816355,1.020256855427725,-0.216642466338203,2.0693900400423697,1.2383607524631497,0.6840950479789342,1.2383607524631497,0.6262980597428995,-0.1038649670097719,0.6262980597428995,-1.807742581966705,-0.6840950479789342,0.5201068545080485,2.119977078199146,2.089852242675168,0.13058313511294886,1.6176525791404863,0.4847917506256211,2.849777531497879,2.53546276418555,1.0411048445876563,0.5041357197424775,0.9830540487523155,1.3936881674669013,0.2830509147203131,1.5678900807972487,0.4802323254261574,1.4104061776221766,1.40031633535133,1.7994708216848747,2.0078193269562687,1.085658477153815,-0.1057001774352026,-0.041040448800253926,0.9605706022705882,-0.5497464934375227,1.0755818333151177,2.533531938476596,-0.07069512830206512,-0.37724922633218433,-0.33076794661968917,0.6020399962572665,1.713922554297017,3.4208618817054304,1.1557852216170428,2.7692825494267184,1.168352254998073,1.4914801782059726,0.7367131279469176,0.21552661489614316,1.0691118123576746,2.536500108621867,0.9336363219037125,-0.08454113822777196,-0.15368152870407575,0.1665225662212121,0.20035387818885086,-0.5065615138558763,2.5781387966231883,2.282650751923372,0.09315703470243035,1.1122905446958116,0.586079218882947,-0.16903085094570333,0.618639227138266,1.0818651936565886,0.6821885844509197,-0.25954611585842063,1.6118243575152766,0.6753653696896275,-1.082997589993283,-0.40431984461471787,0.5978793571200821,0.8585333543610231,0.6903019400201234,1.0423373748006692,-0.28305091472031296,0.8907793758006851,-0.7356248788754757,-0.229494692996586,0.10231314820474692,2.4142434484888695,-0.229494692996586,-0.28305091472031296,-0.28305091472031296,1.0803806700274023,1.1436571909675426,-0.1690308509457033,1.3377121081198773,-0.14584978059097614,-0.38202397907750224,2.4142434484888695,-0.3017804310611087,-0.3017804310611087,-0.1690308509457033,-0.452601590337872,0.20118695404073905,0.5910063959429985,-0.4023739080814782,1.1435437497937313,2.0580556893191653,-0.1690308509457033,1.7655534609600856,0.9253248490516115,-0.46483484010068415,-0.24264059609731195,-0.1690308509457033,-0.4990834089450871,-0.4230217115244236,-0.4483137536088725,1.8610088761924486,-0.24264059609731195,-0.24264059609731195,-0.24264059609731195,3.218991264651826,-0.229494692996586,-0.229494692996586,3.218991264651826,-0.1690308509457033,-0.1690308509457033,-0.22949469299658595,-0.24264059609731192,-0.1690308509457033,-0.24264059609731192,-0.1690308509457033,-1.5246982005521754
CN(Cc1cnc2nc(N)nc(N)c2n1)c3ccc(cc3)C(=O)N[C@@H](CCC(=O)O)C(=O)O,-0.5755306851270549,0.40536903791888923,0.12691351667380082,-0.07987843379695911,-0.12206001844497139,0.1080533950335056,-0.16635737936290895,-0.2886537199525177,-0.29968163537380693,-0.45531714377965776,-0.3867600278949402,-0.43353718473356523,-0.5028026448640379,-0.5575259909877256,-0.15128828619981113,0.23127125913457783,-0.242640596097312,0.5599667783785408,0.09193633603881053,-0.8544948578320003,-0.05594149709225596,0.008311619539185518,-0.36314419099161194,0.9588192665071934,0.33425623856047976,0.045755716561000075,-0.07213083178606364,0.10742624091126038,0.1787120833349572,-0.9562780655635127,-1.2779751119549405,0.11509687606669317,0.09148737046996942,-0.3004524959827813,0.009918740475728516,0.04932762200173409,-0.18894897665489702,0.029900360515852917,0.01003611063114694,0.5253267063977319,0.01003611063114694,0.43853839633272307,-0.38562627445761416,0.43853839633272307,-0.23182313716320904,-0.5253267063977319,-1.178027198697261,0.03576250052755108,0.04517104336954124,2.4157879995895533,1.3543137871873838,-0.6463890008341614,-0.8443785278512234,-1.01418510567422,-0.06309726330834282,1.6804523991415916,0.9830540487523155,0.8456085510473333,1.5213986666216823,1.28933092938657,0.7136785947305395,-0.41789812670286713,-0.8792683966159514,-0.8997354108424374,0.033539882454850234,0.6061369371026014,-0.5513970159876772,1.1755714047945982,-0.01040512214151416,1.4470874989395859,0.4576719102604866,-0.08143641613929828,1.6056457513966418,4.061015083247224,-0.33076794661968917,-1.0359434478285936,-0.353172277793773,0.15786631282705219,-0.2355864980871375,-0.1678353060258618,-0.10018346079333608,1.9247074979623553,2.1114554938786694,-0.9384545851364903,-0.6281005883282241,0.503739738458891,-0.0754392132672762,-0.6069739684085285,1.1623367839010401,1.858439221079594,-0.5008846954721269,-0.5065615138558763,0.3098898951244837,-0.19567686322647151,-1.1031327350939808,-0.40543500240875724,-0.15568112234572054,-0.16903085094570333,0.6487730371539369,1.7993855380837518,-0.9936754358561717,-0.25954611585842063,0.9767577426979088,0.25514861978359854,2.8417961388770645,-0.7508873682287618,-0.1938863160203384,-0.14847347276714204,-1.0270708238809239,0.17150446512092204,4.670340092885164,-0.7944789027411515,-0.7356248788754757,5.125381476923754,2.2508892605044317,-0.40237390808147816,-0.229494692996586,4.670340092885164,4.670340092885164,0.5160027080727891,-0.5476668238436121,-0.1690308509457033,2.6754242162397546,-0.14584978059097614,2.9606858378506424,-0.40237390808147816,-0.3017804310611087,-0.3017804310611087,-0.1690308509457033,-0.452601590337872,0.20118695404073905,2.7683983809961505,-0.4023739080814782,0.0,-0.3920106074893648,-0.1690308509457033,-0.611153121101568,-0.8492707518692875,-0.46483484010068415,-0.24264059609731195,-0.1690308509457033,-0.4990834089450871,-0.4230217115244236,-0.4483137536088725,-0.5219902945417844,-0.24264059609731195,-0.24264059609731195,-0.24264059609731195,-0.3017804310611087,-0.229494692996586,-0.229494692996586,-0.3017804310611087,-0.1690308509457033,-0.1690308509457033,-0.22949469299658595,-0.24264059609731192,-0.1690308509457033,-0.24264059609731192,-0.1690308509457033,-0.7826652955748714
CNC1CCc2cc(OC)c(OC)c(OC)c2C3=CC=C(OC)C(=O)C=C13,0.4643865626446131,-0.1353774364044753,-0.3273514932858035,-0.23043327065211158,-0.27850014508846305,-0.2786787207090332,-0.3570726504892765,-0.49996783079695467,-0.49734593903754937,-0.6703584769893502,-0.285606603685813,-0.3313816269874737,-0.23593468133473458,-0.2867766074599487,-0.8861080355948394,-1.111719627074401,-0.242640596097312,-0.7471767565390742,0.07092717529197567,1.2992145557357155,-0.4812322264541905,0.6912827977952611,-0.017000718406772003,-0.7434769193398648,0.5561902605197524,-0.41241595434964246,-0.7732690247223697,-0.38549349900534824,-0.2633032484942882,-0.4193072690708504,-0.025912231242456424,-0.31651640918340584,-0.42107877193914256,-0.3004547843244372,-0.37545207561851546,-0.3539485496847645,-0.31016958439524117,-0.3277046230954407,0.08778477893461045,0.6458649737095169,0.08778477893461045,-0.6677657704035214,-0.35973470165270377,-0.6677657704035214,1.2385790204399674,-0.6458649737095169,0.22606536045329176,-0.2450461397390952,-0.4129280459743834,-1.0120192971253534,-0.4890577564843329,0.4847917506256211,-0.8443785278512234,-0.42257712736425823,1.0411048445876563,-0.6721809596566366,0.26624380487041877,-0.25055068179180257,-0.9552968371810562,-0.6605831304881811,-0.22010648248698889,-0.41789812670286713,-0.8792683966159514,-0.8997354108424374,-0.33997244488325595,0.09403986634378435,-1.077066996426861,1.2054107530328926,0.8271882889074381,-0.5497464934375227,-0.778147935848775,-0.9405056656912127,-0.8770066570451334,-0.37724922633218433,-0.33076794661968917,-0.8111262529936472,0.7900868819838794,-0.6422367415952545,0.4526410805523731,-0.1678353060258618,-0.4020212888498706,-1.698945166112569,-0.5064636167122946,-0.9384545851364903,-0.7780290110933995,1.1942472671028168,0.05912824264530858,2.4938100443203552,2.0372234282971657,-0.6512930307441407,2.304069599171784,-0.5065615138558763,-0.5001903098954603,-0.8933010893108884,-1.1031327350939808,-0.5790536149082094,-0.21318771484875287,-0.16903085094570333,0.6445033171580187,-0.8344991501716115,0.567510235981869,-0.25954611585842063,-0.919719677839724,-0.9293525016228749,0.5119980103687789,1.2933662778798856,0.15637973887970866,-0.008434806494725054,-1.1085393645430859,2.6197029199039283,-0.28305091472031296,-0.7944789027411515,-0.7356248788754757,-0.229494692996586,-0.6138788892284813,-0.40237390808147816,-0.229494692996586,-0.28305091472031296,-0.28305091472031296,-1.1771311777910505,-1.1114414954473304,-0.1690308509457033,-0.6688560540599386,-0.14584978059097614,-0.38202397907750224,-0.40237390808147816,-0.3017804310611087,-0.3017804310611087,-0.1690308509457033,-0.452601590337872,-0.8047478161629564,-0.4976895965835776,2.4142434484888695,0.0,0.5880159112340472,-0.1690308509457033,-0.611153121101568,0.9253248490516115,-0.46483484010068415,-0.24264059609731195,-0.1690308509457033,-0.4990834089450871,-0.4230217115244236,-0.4483137536088725,2.65534193310386,-0.24264059609731195,-0.24264059609731195,-0.24264059609731195,-0.3017804310611087,-0.229494692996586,-0.229494692996586,-0.3017804310611087,-0.1690308509457033,-0.1690308509457033,-0.22949469299658595,-0.24264059609731192,-0.1690308509457033,-0.24264059609731192,-0.1690308509457033,1.8329963853557039
COC(=O)Nc1nc2cc(ccc2[nH]1)C(=O)c3cccs3,-0.22813447037278328,-0.3244648355570806,-0.7978363962249199,-0.8669254991134867,-0.8379443843056158,-0.721676167958417,-0.9051323176872528,-0.9099004303857566,-0.9787749361574661,-0.9575646034631033,-0.91700730275776,-0.7141326524054251,-0.9082800948749059,-0.7177648433075364,-0.6986707331374068,-0.6735599759318883,-0.242640596097312,-0.7289366017310912,-0.2947457981314576,-0.8669950722048901,0.4786504722098885,0.2762137528413324,-0.38712796834155677,0.5121444124451335,-1.2154236800540303,-0.7995037486458891,0.9581130435489174,1.36145001693011,1.2300771226145193,-1.6885109698716885,0.015364567022790957,-0.7481296944335049,-0.7546596150323781,-0.30045498820111144,-0.9165021236788227,-0.9036503943984278,-0.33735151121141216,-0.7708392859448914,-0.03395169744821915,0.22428630568358723,-0.03395169744821915,1.3555517482341237,-0.32522648432592766,1.3555517482341237,0.6543728170537657,-0.22428630568358723,0.267249984931633,-0.7463005330554127,-0.7997964628383483,-0.44071808100620224,-0.4890577564843329,-0.6463890008341614,-0.8443785278512234,-1.01418510567422,-0.06309726330834282,1.6804523991415916,0.9830540487523155,-0.5245904900015865,-0.33612296123037155,-0.3820239790775024,-0.6869990210957531,-0.41789812670286713,-0.8792683966159514,-0.8997354108424374,-0.8468820319849715,-0.8816945293129549,-1.077066996426861,-0.7237313777564135,0.9157979720756829,-0.5497464934375227,-0.14740896007781096,0.012138858840535897,0.7674753115472884,-0.37724922633218433,1.9632270874072641,-0.8111262529936472,-0.40255934966032547,-1.0108566063740545,0.07983782012815831,-0.1678353060258618,-0.64894905029072,1.4358493282541271,0.10431262805624288,-0.9384545851364903,-1.2106151622171233,-0.12478571053956214,0.07766915573678836,-0.6069739684085285,-0.625587827315421,0.8934749004415302,-0.5008846954721269,1.3014033417922781,-0.7069279542489781,-1.0142492264976475,-1.1031327350939808,-0.8525238220640642,0.059596951665823704,-0.16903085094570333,0.6337061321461015,-0.5053546894056843,-0.6754243016566944,0.3586401871140176,-0.037678351707600026,-0.8606793176306133,0.09257653893913799,0.539740654824532,0.4037366590850612,-0.47347729277115363,-1.1085393645430859,-0.03602554954715773,-0.28305091472031296,-0.7944789027411515,-0.7356248788754757,-0.229494692996586,0.8185051856379751,2.4142434484888695,-0.229494692996586,-0.28305091472031296,-0.28305091472031296,-0.048375253881824065,0.016107847760106177,-0.1690308509457033,0.0,0.7049406061897178,-0.38202397907750224,2.4142434484888695,-0.3017804310611087,-0.3017804310611087,-0.1690308509457033,-0.452601590337872,0.20118695404073905,0.5910063959429985,-0.4023739080814782,0.0,-0.3920106074893648,-0.1690308509457033,-0.611153121101568,-0.40562185163906267,-0.46483484010068415,4.0035698356056475,-0.1690308509457033,1.247708522362718,-0.4230217115244236,-0.4483137536088725,0.2723427623696266,-0.24264059609731195,-0.24264059609731195,-0.24264059609731195,-0.3017804310611087,-0.229494692996586,-0.229494692996586,-0.3017804310611087,-0.1690308509457033,-0.1690308509457033,-0.22949469299658595,-0.24264059609731192,-0.1690308509457033,4.003569835605647,-0.1690308509457033,1.18242650336905
COC12C3NC3CN1C4=C(C2COC(=O)N)C(=O)C(=C(C)C4=O)N,-0.3398950371441912,-0.4194540039806097,-0.5426358369122865,-0.597196622072605,-0.6596005224852708,-0.5438479454485687,-0.5912299960906009,-0.7594161224371744,-0.469688147167437,-0.6402692381781642,-0.16774814026767199,-0.21235553212502079,-0.03985644224594585,-0.08784653861834987,-0.16261635221677265,-0.23540032478937556,-0.242640596097312,1.33903575097217,-0.4877166718788884,-1.2710125109744073,0.10499879348729492,-0.8189497520470643,-0.7004267678608274,-0.7434769193398648,0.7425955678760342,-0.6169174392832252,1.3122593756953176,1.1575026017442482,0.8914618059096154,0.20553147593879306,0.20798962559394166,-0.5323230518084553,-0.6000700286940851,-0.30045494317369476,-0.7428889563486117,-1.077813230318742,-0.3870697257202275,-0.5970621773901882,0.17661834469124257,0.18528211576048317,0.17661834469124257,1.2593179746989631,-0.29634201256320886,1.2593179746989631,0.20655642243204822,-0.18528211576048317,-2.181301375710251,-0.7414600936349764,-0.6176638051686026,1.273185567351251,0.30095861937497426,0.4847917506256211,1.372115107758238,1.3522468075656264,-1.1672993712043418,-0.6721809596566366,-1.1673766828933747,0.29752893462776536,0.2830509147203131,0.17509432374385508,-0.6869990210957531,-0.41789812670286713,1.40031633535133,0.8997354108424374,-0.5534080605050309,0.5565344595315647,-0.5022356476276109,-0.08342710916591183,0.889357645756749,-0.5497464934375227,-0.14740896007781096,-0.08143641613929828,-0.07069512830206512,-0.37724922633218433,-0.33076794661968917,-1.0359434478285936,-1.480775367606087,0.531454418123665,0.1027803853830513,0.32168433654956824,-0.13968584168758394,-0.3216691797976316,0.1369765220569132,0.8318114051207224,-0.6440409216048409,0.3233626644260561,-0.7378926489266388,-0.6069739684085285,0.6270805835424147,0.038135662857726495,-0.5008846954721269,-0.5065615138558763,0.2955054298699682,0.014692554741373836,-0.47844420538578214,-1.1245854748704,-0.48055207720288495,-0.16903085094570333,-0.6403869598873415,0.6393609019956409,-0.23108497713253098,-0.25954611585842063,0.3029179293412313,-0.9326447156548221,2.144923251120922,-0.10632427747752457,-1.024723612753715,-0.5442384247018317,-0.6857572714064722,0.05737893753345104,-0.28305091472031296,-0.7944789027411515,-0.7356248788754757,-0.229494692996586,-0.6138788892284813,-0.40237390808147816,-0.229494692996586,-0.28305091472031296,-0.28305091472031296,0.5160027080727891,0.5798825193638244,-0.1690308509457033,0.0,-0.14584978059097614,2.9606858378506424,-0.40237390808147816,-0.3017804310611087,-0.3017804310611087,-0.1690308509457033,1.527530367390318,0.20118695404073905,-0.4976895965835776,-0.4023739080814782,-1.1435437497937313,1.0780291705957532,-0.1690308509457033,-0.611153121101568,0.038027048591162085,-0.46483484010068415,-0.24264059609731195,-0.1690308509457033,2.9945004536705233,3.807195403719812,-0.4483137536088725,0.2723427623696266,-0.24264059609731195,-0.24264059609731195,-0.24264059609731195,-0.3017804310611087,-0.229494692996586,-0.229494692996586,-0.3017804310611087,5.747048932153912,5.747048932153912,-0.22949469299658595,-0.24264059609731192,-0.1690308509457033,-0.24264059609731192,-0.1690308509457033,-0.2570656017284444
COC1=CC=C2C(=CC1=O)[C@H](CCc3cc(OC)c(OC)c(OC)c23)NC(=O)C,0.4362022674413944,0.03456127263898163,-0.17052319230609791,-0.1213158471594534,-0.16511724815353304,-0.14873726441829807,-0.26513445851905293,-0.3980995473915838,-0.4028546757592088,-0.5675603143701194,-0.27717047153856533,-0.3228619175316661,-0.20148434593215336,-0.2518252144593804,-0.8861080355948394,-0.6735599759318883,-0.242640596097312,0.06760542077202387,0.7282159572424208,-0.048688768515652396,0.6186365083968953,0.4174919215731618,-0.35428329527598734,-0.7434769193398648,0.5561902605197524,-0.2578764452279395,-0.6050155948903636,-0.3059319855925426,-0.22138800151048108,-0.49031167191285524,-0.3630060837419716,-0.1726453141000395,-0.25421090368465904,-0.30045451816350016,-0.23656631406733353,-0.2342008877022455,-0.2860461625637967,-0.19540306821361947,0.12312783619640176,0.6458649735984731,0.12312783619640176,-0.6675702950884492,-0.0811275249348215,-0.6675702950884492,1.0068985831795807,-0.6458649735984731,0.18252882214052737,-0.1481354902314495,-0.2583594732935906,-1.0120192971253534,-0.22571896453123053,0.4847917506256211,-0.8443785278512234,-0.42257712736425823,1.0411048445876563,-0.6721809596566366,0.26624380487041877,-0.25055068179180257,-0.9552968371810562,-0.3820239790775024,-0.22010648248698889,-0.41789812670286713,-0.8792683966159514,-0.8997354108424374,-0.2065751851196466,0.09403986634378435,-1.077066996426861,1.2054107530328926,1.7732398904155884,-0.5497464934375227,-0.778147935848775,-0.08143641613929828,-0.8770066570451334,-0.37724922633218433,-0.33076794661968917,-0.8111262529936472,0.4556540958705253,-0.5884311995342937,0.8683050048489378,-0.1678353060258618,-0.14584891597615882,-1.23824634428346,-0.5064636167122946,-0.9384545851364903,-0.619418830116703,0.7911249558283004,0.05912824264530858,2.4938100443203552,2.0372234282971657,-0.6512930307441407,2.304069599171784,-0.5065615138558763,-0.5362834225999444,-0.5489397034182515,-1.1031327350939808,-0.352415059716088,-0.21318771484875287,-0.16903085094570333,0.6445033171580187,-0.5233974920722547,0.5625057153528034,-0.25954611585842063,-0.35632973830166675,-0.9546265270052193,0.3557495066207286,1.1043854211005613,0.03798070414449192,-0.08547607964067115,-0.7857979786351794,1.8278854075746906,-0.28305091472031296,-0.7944789027411515,-0.7356248788754757,-0.229494692996586,-0.6138788892284813,-0.40237390808147816,-0.229494692996586,-0.28305091472031296,-0.28305091472031296,-0.6127532158364373,-0.5476668238436121,-0.1690308509457033,-0.6688560540599386,-0.14584978059097614,-0.38202397907750224,-0.40237390808147816,-0.3017804310611087,-0.3017804310611087,-0.1690308509457033,-0.452601590337872,0.20118695404073905,-0.4976895965835776,2.4142434484888695,0.0,0.5880159112340472,-0.1690308509457033,-0.611153121101568,0.9253248490516115,-0.46483484010068415,-0.24264059609731195,-0.1690308509457033,-0.4990834089450871,-0.4230217115244236,-0.4483137536088725,2.65534193310386,-0.24264059609731195,-0.24264059609731195,-0.24264059609731195,-0.3017804310611087,-0.229494692996586,-0.229494692996586,-0.3017804310611087,-0.1690308509457033,-0.1690308509457033,-0.22949469299658595,-0.24264059609731192,-0.1690308509457033,-0.24264059609731192,-0.1690308509457033,1.655192572748669
COc1cc(OC[C@H]2CCCN2)c3c(Nc4cnn(CC(=O)Nc5cccc(F)c5F)c4)ncnc3c1,-1.0458973491626473,0.8175440755519569,0.2916465135194471,0.20916187965895533,0.17827907518123443,0.4666117757314107,0.2328094699816668,0.15362647790292552,0.00939212409751705,-0.1190721462513724,-0.03230695786480741,-0.0755725251400106,-0.10344150199697717,-0.15235640147897095,-0.3465011663739295,-0.3092635601777383,-0.242640596097312,-0.27163443297221546,0.9806514930646834,0.5930294492983949,1.400883198480524,0.3291952186718945,-0.9349232348516195,1.451023899005275,-0.32961670976713897,0.34952174498256156,0.6901104138165066,1.2732565400929805,1.379321295465745,-0.833262937639739,-1.1197473852714939,0.4028390662334258,0.4015482441284065,-0.3003950657582732,0.12878491736365724,0.27407645559566834,-0.19819568558208828,0.32558568720788883,0.6224551638927438,0.6861805227238761,0.6224551638927438,-0.4005719707711017,-0.0024205792207806407,-0.4005719707711017,0.0010588984976562846,-0.6861805227238761,0.5769186397973328,0.33819828931580875,0.34906577016465845,0.13058313511294886,0.5642974113280766,-0.6463890008341614,-0.10554731598140288,-0.42257712736425823,1.0411048445876563,1.6804523991415916,1.6998642926342122,0.5715687428375493,0.2830509147203131,1.0107717779758914,0.7136785947305395,-0.41789812670286713,0.26052396936768923,0.0,0.30033440198206895,0.17185570650478682,2.1243531684408827,0.5775090445001558,-0.016996941169494417,-0.5497464934375227,-0.778147935848775,-0.10163576446137278,2.276032445233976,1.8929549288999672,-0.33076794661968917,-0.8111262529936472,-0.3136513829712902,0.13663973874791072,0.944209878830936,0.8112039791249983,-0.1828703755172677,0.9529162922225183,2.0868372440832896,-0.9384545851364903,-0.6281005883282241,0.9315964516605362,0.5796983145595751,0.43789169195298455,1.5708931807651045,3.0835517826556647,0.9015924518498286,-0.5065615138558763,0.021099557682262203,-0.5400382491191084,0.1249878554780805,-0.9308713523695247,0.6066901281395926,-0.16903085094570333,0.618639227138266,0.06217346719736084,1.8492100542303527,-0.25954611585842063,-0.5160439548852166,-0.19554428957427666,-0.12391663002834243,0.018854147733297792,0.18014050047283373,1.0396700040076488,-0.8300399555008361,0.08143972358950272,-0.28305091472031296,-0.7944789027411515,-0.7356248788754757,-0.229494692996586,2.2508892605044317,-0.40237390808147816,-0.229494692996586,-0.28305091472031296,-0.28305091472031296,-0.6127532158364373,-0.5476668238436121,-0.1690308509457033,2.006568162179816,1.5557309929704117,-0.38202397907750224,-0.40237390808147816,-0.3017804310611087,-0.3017804310611087,-0.1690308509457033,-0.452601590337872,0.20118695404073905,2.7683983809961505,-0.4023739080814782,1.1435437497937313,-0.3920106074893648,-0.1690308509457033,-0.611153121101568,0.038027048591162085,2.493205051449124,-0.24264059609731195,-0.1690308509457033,-0.4990834089450871,-0.4230217115244236,-0.4483137536088725,0.2723427623696266,-0.24264059609731195,-0.24264059609731195,-0.24264059609731195,-0.3017804310611087,-0.229494692996586,-0.229494692996586,-0.3017804310611087,-0.1690308509457033,-0.1690308509457033,-0.22949469299658595,-0.24264059609731192,-0.1690308509457033,-0.24264059609731192,-0.1690308509457033,-0.6976976342724084
COc1cc(cc(OC)c1O)[C@H]2[C@@H]3C(COC3=O)[C@H](O[C@@H]4O[C@@H]5CO[C@@H](C)O[C@H]5[C@H](O)[C@H]4O)c6cc7OCOc7cc26,-1.0631083907581016,0.6867759888364611,0.6402229652217777,0.584857302928094,0.5686606851201438,0.8138278593167816,0.6489085297386055,0.6146677060984541,0.5694038189265053,0.49017119833302836,0.7828359073687351,0.7476460133498208,0.835679432600996,0.8004234329297075,1.1694659490966994,0.2882951246974588,-0.242640596097312,1.055122033196408,0.3405475894323673,-1.2710125109744073,0.12075247400307604,0.5886999662935568,-0.9349232348516195,-1.1974690926365397,2.770707686236981,0.7855436279309571,-0.9643956166743951,-0.5667800902816691,-0.17647880831354387,0.28094304861237074,-0.4386802138949235,0.7625168039418416,0.8304183250913469,-0.29960331599032297,0.4239188015529868,0.20631108231731551,-0.26074906835901723,0.6985264780236531,0.4323193433919799,0.7403624215204876,0.4323193433919799,0.2730939860237161,-0.3531590898518212,0.2730939860237161,-0.40644241742216175,-0.7403624215204876,-0.6186898241195877,0.44491408820500383,0.7852625865714146,0.13058313511294886,1.3543137871873838,0.4847917506256211,2.1109463196280585,1.9438547858755881,1.0411048445876563,-0.6721809596566366,0.26624380487041877,1.6677279756766852,0.2830509147203131,1.28933092938657,-0.22010648248698889,-0.41789812670286713,2.5401087013349706,1.7994708216848747,0.7538850851783407,2.354149104381346,1.047233846567431,3.255459387252677,1.0456610901862173,-0.5497464934375227,-0.1602380127941442,-0.9405056656912127,-0.8770066570451334,-0.37724922633218433,-0.33076794661968917,-1.0359434478285936,0.4626990084940319,-0.6281724573160241,1.210517873122832,1.7902432642758583,1.938131341200607,-1.23340119431952,-1.2046469272392393,0.26673639343715455,0.07090314593264667,1.1221439971742895,-0.1018231080218635,2.005190182495254,0.863398174376773,-0.6512930307441407,3.0053081728327617,-0.5065615138558763,1.3044537104433653,0.6909881972099793,0.14624432432241663,-0.18473212178602366,-0.4098048725074914,-0.16903085094570333,-0.6403869598873415,0.8934181435835163,2.6517859765836707,-0.25954611585842063,-0.8806006386988547,1.1136603635748248,0.12301343273409243,0.023273527683196012,0.09670100609998707,-1.7536573161698639,-0.6834462324978279,0.5711605772585936,-0.28305091472031296,0.8907793758006851,1.4099476845113283,-0.229494692996586,-0.6138788892284813,-0.40237390808147816,2.447943391963584,-0.28305091472031296,-0.28305091472031296,-0.6127532158364373,-0.5476668238436121,-0.1690308509457033,-0.6688560540599386,-0.99664016737167,-0.38202397907750224,-0.40237390808147816,-0.3017804310611087,-0.3017804310611087,-0.1690308509457033,-0.452601590337872,-0.8047478161629564,-0.4976895965835776,-0.4023739080814782,1.1435437497937313,1.0780291705957532,-0.1690308509457033,0.18108240625231645,3.143569350202735,-0.46483484010068415,-0.24264059609731195,-0.1690308509457033,-0.4990834089450871,-0.4230217115244236,2.16684980910955,1.0666758192810377,-0.24264059609731195,-0.24264059609731195,-0.24264059609731195,-0.3017804310611087,2.447943391963584,2.447943391963584,-0.3017804310611087,-0.1690308509457033,-0.1690308509457033,-0.22949469299658595,-0.24264059609731192,-0.1690308509457033,-0.24264059609731192,-0.1690308509457033,-0.17021585517372836
COc1ccc(C[C@H]2NC[C@H](O)[C@H]2OC(=O)C)cc1,-0.10927356061960557,-1.023837392902351,-0.8964227876272559,-0.8569159265361896,-0.9294724291655792,-0.8845094469546306,-0.8618485868541144,-1.0592637777792335,-0.8714029158124222,-1.0772994850071287,-0.8049526413606448,-0.8558728595552384,-0.7549429114519826,-0.813333472854013,-0.5105735151457945,-0.6450480431504476,-0.242640596097312,-0.7093957187971613,-0.45012583181639554,-0.44250382409620903,-0.4969859069699716,-0.49806615291435535,0.2263566442996449,-0.7434769193398648,-0.32961670976713897,-0.9977957619625881,1.3308986563346015,1.0960256297025768,0.7475160235046965,0.06884800046793359,0.7583469357972313,-0.8920007895168711,-1.017275443964692,-0.30045500180987067,-0.8679788981489185,-0.7582663539704227,-0.29867111795883333,-0.9121440119835211,-0.5398058060576417,0.6885604915805146,-0.5398058060576417,0.19565933312183634,-0.2882089090524547,0.19565933312183634,0.6048429705211668,-0.6885604915805146,-1.0558844735628916,-0.9464249968715581,-0.9985558648667949,-0.44071808100620224,-0.7523965484374353,-0.6463890008341614,-0.10554731598140288,-0.42257712736425823,-0.06309726330834282,-0.6721809596566366,-0.4505664390114779,-0.5245904900015865,-0.33612296123037155,-0.9391422818988598,-0.45355275179137094,-0.41789812670286713,0.26052396936768923,0.0,-0.8735614839376934,-0.198960815122341,0.4853193396538587,-0.7237313777564135,-0.963048542677645,-0.5497464934375227,-0.1602380127941442,-0.9405056656912127,-0.8770066570451334,-0.37724922633218433,-0.33076794661968917,-0.5863090581587006,-0.6649040813182819,-0.5285606244870641,-0.5991052251777199,-0.6573549486012918,-0.37918856125845923,-1.23340119431952,-0.5064636167122946,-0.9384545851364903,-0.4868466771351461,-0.0545467408922985,-0.48614450016427746,-0.08454113822777196,-0.10814252616892968,-0.6512930307441407,0.20035387818885086,-0.5065615138558763,-0.26305020518369604,-0.208720693964504,-1.1031327350939808,-0.9424739111882893,-0.4098048725074914,-0.16903085094570333,-0.6403869598873415,-0.8022408060101671,-0.26622418534656717,-0.25954611585842063,-0.9909773779123409,-0.2529771734336977,-0.09002295417901016,0.6243343286902061,0.2164262943076981,-0.4386740779666409,-0.7118305791175833,0.0987534062958167,-0.28305091472031296,0.04815023652976678,0.33716140281792634,-0.229494692996586,-0.6138788892284813,-0.40237390808147816,-0.229494692996586,-0.28305091472031296,-0.28305091472031296,-0.6127532158364373,-0.5476668238436121,5.747048932153912,-0.6688560540599386,-0.14584978059097614,-0.38202397907750224,-0.40237390808147816,-0.3017804310611087,-0.3017804310611087,-0.1690308509457033,-0.452601590337872,-0.8047478161629564,-0.4976895965835776,-0.4023739080814782,0.0,-0.8820238668510707,-0.1690308509457033,0.18108240625231645,0.038027048591162085,-0.46483484010068415,-0.24264059609731195,-0.1690308509457033,-0.4990834089450871,-0.4230217115244236,-0.4483137536088725,0.2723427623696266,-0.24264059609731195,-0.24264059609731195,-0.24264059609731195,-0.3017804310611087,-0.229494692996586,-0.229494692996586,-0.3017804310611087,-0.1690308509457033,-0.1690308509457033,-0.22949469299658595,-0.24264059609731192,-0.1690308509457033,-0.24264059609731192,-0.1690308509457033,1.3993721903345588
CS(=O)C,0.9682799852002083,-1.771561033776638,-1.9156014933715275,-1.8554191005928875,-1.8650788652156947,-2.0026532221825923,-1.9412542885831547,-1.814171595564008,-1.7815033917112806,-1.697208344590852,-1.7585416277301353,-1.8189091138861673,-1.5955411196059301,-1.6661576321961837,-0.5538969187607329,-1.1652395467434273,-0.242640596097312,-1.5489536441918816,-1.1235147270040435,-1.2710125109744073,-1.083216926911457,-0.2542715824383331,-0.9349232348516195,-1.1974690926365397,-1.2154236800540303,-2.030734876303308,1.6664057078417172,-0.7892681795753358,-1.843508059783841,2.119100132530826,1.9553740854893868,-1.9710340026421187,-2.054280904842577,-0.30045500557059285,-1.7832371408799061,-1.7595589681908226,5.493012315332127,-1.962860227497133,-1.1613688511617475,-1.7969842462903838,-1.1613688511617475,-2.821082740340974,0.8035699530461008,-2.821082740340974,0.6497016311530998,1.7969842462903838,-1.3210758245820577,-1.9662399842098355,-2.031439244173541,-1.5833205132445045,-1.8057517162498449,-0.6463890008341614,-0.8443785278512234,-1.01418510567422,-1.1672993712043418,-0.6721809596566366,-1.1673766828933747,-1.6207497228407224,-1.5744707131317408,-1.7748197361308962,-1.3873378290088993,-0.41789812670286713,-0.8792683966159514,-0.8997354108424374,-1.9140601100938464,-1.5338776549949367,-1.077066996426861,-0.7237313777564135,-0.963048542677645,-0.5497464934375227,-0.778147935848775,-1.0454384615482983,-0.8770066570451334,-0.37724922633218433,-0.33076794661968917,-1.0359434478285936,-1.8093270833642336,0.07194890103969317,-1.503905892816504,-1.636394233752152,-1.1895029648771087,-0.8566906618849938,-1.2046469272392393,-0.9384545851364903,-1.2106151622171233,-0.11992649801385381,-1.5164304645073616,-0.6069739684085285,-1.2063830302091925,-0.6512930307441407,-0.5008846954721269,-0.5065615138558763,-1.0940906200699478,-0.5788032614440167,-1.1031327350939808,-1.3512240300625216,-1.4048972491214413,-0.16903085094570333,-0.6403869598873415,-1.726615504240945,-0.31762296545021507,-0.25954611585842063,-1.5130592383261505,-1.1620816501854878,-0.34724313315134997,0.4445965563296939,-1.042733620122543,0.33007648846871174,-1.1085393645430859,-0.7576328213820449,-0.28305091472031296,-0.7944789027411515,-0.7356248788754757,-0.229494692996586,-0.6138788892284813,-0.40237390808147816,-0.229494692996586,-0.28305091472031296,-0.28305091472031296,-1.1771311777910505,-1.1114414954473304,-0.1690308509457033,-0.6688560540599386,-0.99664016737167,-0.38202397907750224,-0.40237390808147816,-0.3017804310611087,-0.3017804310611087,-0.1690308509457033,-0.452601590337872,-0.8047478161629564,-0.4976895965835776,-0.4023739080814782,-1.1435437497937313,-0.8820238668510707,-0.1690308509457033,-0.611153121101568,-0.8492707518692875,-0.46483484010068415,-0.24264059609731195,-0.1690308509457033,-0.4990834089450871,-0.4230217115244236,-0.4483137536088725,-0.5219902945417844,-0.24264059609731195,-0.24264059609731195,-0.24264059609731195,-0.3017804310611087,-0.229494692996586,-0.229494692996586,-0.3017804310611087,-0.1690308509457033,-0.1690308509457033,-0.22949469299658595,-0.24264059609731192,-0.1690308509457033,-0.24264059609731192,-0.1690308509457033,-0.3136590999437727
C[C@@H]1CCC[C@@H](O)\\C=C\\C(=O)O[C@]23[C@@H](\\C=C\\C1)[C@H](O)C(=C)[C@@H](C)[C@H]2[C@H](Cc4ccccc4)NC3=O,-0.43093443118512753,0.034913067280456074,0.2307104070887748,0.28103024354312156,0.2529568217256141,0.2752149220904821,0.43327051074130346,0.37573898277415446,0.45056910970251085,0.3608895130238496,0.5776811506138286,0.5404587751083085,0.6040142149698163,0.5653887962166244,0.20943570417891808,0.25978319191601834,-0.242640596097312,-0.3000869925712322,0.1402421867093903,0.5471218516595195,-0.05430685661781292,-0.8189497520470643,1.429591882785458,0.40949497105640204,-0.7725201949105847,0.18429164526773428,0.02721411333552432,0.3231722668929981,0.5632654220264008,0.13954634984941278,-0.005273832109832886,0.2589679711500595,0.1513596330889471,-0.3004449337634188,0.22490395554922263,0.22163933844834496,-0.225763254979447,0.2848252218024707,0.5803471026306042,0.14056669111500522,0.5803471026306042,0.4951332515031324,0.1077427795826457,0.4951332515031324,-0.5823541878489372,-0.14056669111500522,0.5068316075315263,0.35861532798231427,0.18406754370426245,0.13058313511294886,-0.4890577564843329,0.4847917506256211,0.6332838958884176,0.760638829255665,-0.06309726330834282,-0.6721809596566366,-0.4505664390114779,-0.5245904900015865,0.2830509147203131,-0.6605831304881811,-0.9204452904001351,1.4104061776221766,0.26052396936768923,0.8997354108424374,0.2469754980766252,-0.17415957633682266,-1.077066996426861,-0.7237313777564135,-0.06602435640976605,1.4470874989395859,-0.1602380127941442,-0.9405056656912127,-0.07069512830206512,-0.37724922633218433,-0.33076794661968917,1.7713934579379054,0.48316513789890814,-0.24990586642958876,-0.25689235690382567,0.32168433654956824,-0.10326499793762352,-0.7727023724904107,-0.5064636167122946,1.4719273720107995,0.3884305664702479,-0.8355784574851697,0.9825752054222464,-0.6069739684085285,-0.625587827315421,-0.6512930307441407,-0.5008846954721269,-0.5065615138558763,-0.16936874802773585,0.1356406919281329,1.395621383738814,0.12486999938982553,1.3339819308963865,-0.16903085094570333,-0.6403869598873415,-0.29066356272668986,-0.5653485915620744,-0.25954611585842063,-0.2485903594182351,0.5652608701711128,-0.31559831818456585,-0.4308222251183144,0.5349239184601513,1.3872150568071984,0.7140433846880015,-0.5236538439232974,-0.28305091472031296,0.8907793758006851,1.4099476845113283,-0.229494692996586,-0.6138788892284813,-0.40237390808147816,-0.229494692996586,-0.28305091472031296,-0.28305091472031296,-0.048375253881824065,0.016107847760106177,-0.1690308509457033,-0.6688560540599386,-0.14584978059097614,-0.38202397907750224,-0.40237390808147816,-0.3017804310611087,-0.3017804310611087,-0.1690308509457033,0.537464388526223,0.20118695404073905,-0.4976895965835776,-0.4023739080814782,0.0,-0.8820238668510707,-0.1690308509457033,0.18108240625231645,-0.40562185163906267,-0.46483484010068415,-0.24264059609731195,-0.1690308509457033,-0.4990834089450871,-0.4230217115244236,-0.4483137536088725,-0.5219902945417844,-0.24264059609731195,-0.24264059609731195,-0.24264059609731195,-0.3017804310611087,-0.229494692996586,-0.229494692996586,-0.3017804310611087,-0.1690308509457033,-0.1690308509457033,-0.22949469299658595,-0.24264059609731192,-0.1690308509457033,-0.24264059609731192,-0.1690308509457033,-0.09765856759482724
C[C@H]1CCC[C@@]2(C)O[C@H]2C[C@H](OC(=O)C[C@H](O)C(C)(C)C(=O)[C@H](C)[C@H]1O)\\C(=C\\c3csc(C)n3)\\C,-0.3296818910091894,-0.0512002328765354,0.3266026016378084,0.45376843489314783,0.5343763634632944,0.2001839642567692,0.4153578089666206,0.5532136419416294,0.6335358080737972,0.8250749132647001,0.5448779826703799,0.7396723704877302,0.23339334839337197,0.39817723477992867,0.2094357041789183,0.25978319191601834,-0.242640596097312,0.5359003276964003,-0.7900386591232188,1.3315605447648666,-1.083216926911457,0.6301674318881795,0.6073881770913362,-0.18068807280479593,-0.32961670976713897,0.3388497639288258,0.5129005117077298,0.5011627383279316,0.438238228166128,1.0560064344241409,0.7445880030421492,0.2589679711500595,0.2946002980054334,-0.3004499493580954,0.46824752907571676,0.2835924069098898,-0.15104638679953336,0.3498503861593416,0.36066664781648744,0.2776050750985642,0.36066664781648744,0.2585382554487745,-0.32235868026043873,0.2585382554487745,-0.13967160771887893,-0.2776050750985642,1.0218589254686719,0.39457840756521184,0.33900032651704126,-0.44071808100620224,-0.22571896453123053,-0.6463890008341614,0.6332838958884176,0.16903085094570336,-1.1672993712043418,0.5041357197424775,-0.4505664390114779,0.29752893462776536,-0.33612296123037155,-0.10346482766682366,-0.9204452904001351,-0.41789812670286713,1.40031633535133,0.8997354108424374,0.3536933058875127,-0.2130674964173239,-0.04282092371776399,-0.7237313777564135,-0.963048542677645,-0.5497464934375227,-0.1602380127941442,-0.08143641613929828,-0.038836217195779815,-0.37724922633218433,1.9632270874072641,0.22837368288240129,0.6193091744182677,-0.26924498071142355,1.691762488319057,-0.1678353060258618,0.14982583779180042,0.5756504724111959,-0.5501671495914982,0.8181221041829657,1.322735382546809,-0.8355784574851697,-0.7684800454222365,-0.6069739684085285,-1.2063830302091925,-0.6512930307441407,-0.5008846954721269,1.3014033417922781,0.17957492676552456,0.014692554741373836,1.4487086733588008,1.4097888613877108,-0.9557234208014971,-0.16903085094570333,0.06124755333294211,-0.04663010039802057,-0.1501880678842101,0.43010528383386165,-0.06608339325494426,0.5604565639448722,-0.3054067843644,-0.19164092004311545,-1.042733620122543,0.06250221737865277,1.720750881321465,-0.5236538439232974,-0.28305091472031296,0.8907793758006851,1.4099476845113283,-0.229494692996586,0.10231314820474692,-0.40237390808147816,-0.229494692996586,-0.28305091472031296,-0.28305091472031296,-0.048375253881824065,0.016107847760106177,-0.1690308509457033,0.0,-0.99664016737167,-0.38202397907750224,-0.40237390808147816,-0.3017804310611087,-0.3017804310611087,-0.1690308509457033,-0.452601590337872,-0.8047478161629564,-0.4976895965835776,2.4142434484888695,-1.1435437497937313,-0.3920106074893648,5.747048932153912,0.18108240625231645,0.038027048591162085,-0.46483484010068415,-0.24264059609731195,-0.1690308509457033,1.247708522362718,1.6920868460976943,2.16684980910955,-0.5219902945417844,-0.24264059609731195,-0.24264059609731195,-0.24264059609731195,-0.3017804310611087,-0.229494692996586,-0.229494692996586,-0.3017804310611087,-0.1690308509457033,-0.1690308509457033,-0.22949469299658595,-0.24264059609731192,5.747048932153912,-0.24264059609731192,-0.1690308509457033,-0.08472400064389621
C[C@H]1CC[C@@H]2C[C@H](C[C@@](O)(O2)[C@@H]3CSC(=O)N3)OC(=O)\\C=C(\\C)/CC\\C=C/1,-0.4263923686159273,-0.6481073025276922,-0.33836088725267727,-0.27399045230970437,-0.2218311079012794,-0.31657867357447095,-0.17289841998743669,-0.07481361221951857,-0.14121369324119087,-0.03511351301386899,-0.19077144421858408,0.022646457495042006,-0.20138939118683194,0.07324537580640196,-0.3344642787053232,-0.20688839200793507,-0.242640596097312,0.10996250953790056,-0.18389831341767526,1.8794454471038362,-1.083216926911457,-0.5447232091723668,-0.6035718425029353,0.8853735560558436,-0.32961670976713897,-0.2799108461276986,0.8007146737060733,1.1142410288260354,1.1143112023735262,0.8889488532930905,0.950971994368383,-0.31651640918340584,-0.3015963740201163,-0.30045482631738313,-0.24485564173828822,-0.15311837442789486,-0.198065013113086,-0.2558690718949997,-0.024726223365334272,0.2907204543851692,-0.024726223365334272,0.48827002695868865,-0.09439936101906285,0.48827002695868865,-0.5033404328551391,-0.2907204543851692,0.40820802074138707,-0.24981731361226964,-0.2800023844701013,-0.44071808100620224,-0.4890577564843329,-0.6463890008341614,1.372115107758238,0.760638829255665,-1.1672993712043418,-0.6721809596566366,-1.1673766828933747,-0.25055068179180257,-0.33612296123037155,-0.3820239790775024,-1.1538915597045172,-0.41789812670286713,1.40031633535133,0.8997354108424374,-0.25993408902509035,-0.198960815122341,-0.5459917856782881,-0.07647874926047106,-0.963048542677645,1.2212908748924292,-0.1602380127941442,-0.9405056656912127,-0.07069512830206512,-0.37724922633218433,-0.33076794661968917,0.31342535597979726,0.01879426204177902,0.1548880877028447,-0.6683039571997056,-0.1678353060258618,-0.12301618838474745,0.09250821780287105,-0.5064636167122946,-0.33585909584966783,0.5397821723818493,-0.5065189257595246,-0.694342159825088,-0.6069739684085285,-0.625587827315421,0.038135662857726495,-0.5008846954721269,1.3691971759210224,-0.16416540115653355,-0.32966883115126305,-0.47844420538578214,0.36311111340071167,-0.4288452961961295,-0.16903085094570333,-0.6403869598873415,-0.49113914791080976,-0.16656058418650438,0.24434540768600452,-0.38541060412590844,-0.20016913622081903,-0.11853586484032282,0.022575504285572475,-1.123840781408378,1.5999440988863343,-0.20453836082762628,-0.5236538439232974,-0.28305091472031296,0.04815023652976678,-0.7356248788754757,-0.229494692996586,-0.6138788892284813,-0.40237390808147816,-0.229494692996586,-0.28305091472031296,-0.28305091472031296,-0.048375253881824065,0.016107847760106177,-0.1690308509457033,-0.6688560540599386,-0.14584978059097614,-0.38202397907750224,-0.40237390808147816,-0.3017804310611087,-0.3017804310611087,-0.1690308509457033,2.517596346254413,0.20118695404073905,-0.4976895965835776,-0.4023739080814782,-1.1435437497937313,0.09800265187234117,-0.1690308509457033,0.18108240625231645,0.038027048591162085,-0.46483484010068415,-0.24264059609731195,-0.1690308509457033,-0.4990834089450871,-0.4230217115244236,-0.4483137536088725,-0.5219902945417844,-0.24264059609731195,-0.24264059609731195,-0.24264059609731195,-0.3017804310611087,-0.229494692996586,-0.229494692996586,-0.3017804310611087,-0.1690308509457033,-0.1690308509457033,-0.22949469299658595,4.003569835605647,-0.1690308509457033,-0.24264059609731192,-0.1690308509457033,0.25400886449704013
C[C@H]1C\\C=C\\[C@H]2[C@H](O)C(=C)[C@@H](C)[C@H]3[C@@H](Cc4ccccc4)NC(=O)C23C(OC(=O)C)\\C=C\\C(C)(O)C1=O,-0.20658100865870457,0.2882692034267329,0.4251889930401445,0.43564243853571083,0.41361291136383366,0.3771736114970748,0.4761829476794991,0.4232863207623868,0.5786472067031854,0.5002271891924243,0.7192744890117724,0.6834548878970228,0.8160353267021349,0.7804936163577495,0.5580527826421198,0.6979428430585309,-0.242640596097312,0.1041516272809769,-0.1671141228500604,-0.8635712634881557,1.1181551832651577,0.04198954715455506,0.8480280064361452,-0.18171200231357731,-0.7725201949105847,0.3388311543894363,0.3455356041605509,0.3472250333031242,0.3740350745622049,0.06884800046793359,-0.23229622256868998,0.4028390662334258,0.31822750134342986,-0.3004359897892698,0.37824332761956286,0.11683595116544307,-0.24496420115871131,0.417126776684293,0.7522072525627749,0.27208114134698425,0.7522072525627749,0.19775072363029764,0.15847989899268736,0.19775072363029764,-0.8985968784197096,-0.27208114134698425,0.20630928424413858,0.4591929770508963,0.33863611638505525,0.13058313511294886,-0.22571896453123053,1.6159725020854034,-0.10554731598140288,0.760638829255665,-0.06309726330834282,-0.6721809596566366,-0.4505664390114779,-0.25055068179180257,0.2830509147203131,-0.3820239790775024,-0.6869990210957531,1.4104061776221766,0.26052396936768923,0.8997354108424374,0.38037275784023455,-0.17415957633682266,0.41245819142769274,-0.07691116053838604,-0.016996941169494417,-0.5497464934375227,-0.1602380127941442,0.7776328334126164,-0.8770066570451334,-0.37724922633218433,-0.33076794661968917,1.295487173497435,0.5145329404718672,0.5239312711863289,-1.0839678814962703,0.32168433654956824,0.15290737493608825,-0.3216691797976316,-0.5064636167122946,2.023313082756611,0.26438301908839623,-0.8355784574851697,0.982575205422246,-0.6069739684085285,-0.625587827315421,-0.6512930307441407,-0.5008846954721269,-0.5065615138558763,0.013653373374767927,0.4800020778207698,1.9672226238270267,-0.05238190676542665,1.3339819308963865,-0.16903085094570333,-0.6403869598873415,0.02043809537266694,-0.5825700282313333,-0.25954611585842063,0.35255232791811575,0.6340992005669506,-0.7095192298986953,-0.897148427398567,0.5187771577054485,0.6873735459275139,1.2115664759844775,-0.5236538439232974,-0.28305091472031296,0.8907793758006851,0.33716140281792634,-0.229494692996586,-0.6138788892284813,-0.40237390808147816,-0.229494692996586,-0.28305091472031296,-0.28305091472031296,0.5160027080727891,0.5798825193638244,-0.1690308509457033,-0.6688560540599386,-0.14584978059097614,-0.38202397907750224,-0.40237390808147816,-0.3017804310611087,-0.3017804310611087,-0.1690308509457033,0.537464388526223,0.20118695404073905,-0.4976895965835776,-0.4023739080814782,0.0,-0.8820238668510707,-0.1690308509457033,0.18108240625231645,-0.40562185163906267,-0.46483484010068415,-0.24264059609731195,-0.1690308509457033,1.247708522362718,1.6920868460976943,-0.4483137536088725,-0.5219902945417844,-0.24264059609731195,-0.24264059609731195,-0.24264059609731195,-0.3017804310611087,-0.229494692996586,-0.229494692996586,-0.3017804310611087,-0.1690308509457033,-0.1690308509457033,-0.22949469299658595,-0.24264059609731192,-0.1690308509457033,-0.24264059609731192,-0.1690308509457033,-0.1765796811990423
N[Pt](N)(Cl)Cl,1.2701916998689484,-1.7825201396099346,-1.8238668973792798,-1.9262586774036234,-1.5682254618173779,-1.9619708224667067,-2.0179772270182563,-0.4885861654323692,-1.8537677635463845,0.48535269320930624,-1.7585416277301353,-1.8189091138861673,-1.5955411196059301,-1.6661576321961837,-0.4406946076693088,-1.5498792782169137,-0.242640596097312,-1.5489536441918816,-1.1235147270040435,-1.2710125109744073,-1.083216926911457,-0.8189497520470643,-0.9349232348516195,-1.1974690926365397,1.3484664727614382,-0.8222040274167028,0.39147891211467795,-1.7237181546087361,-2.4999008275502708,-1.9814041315949589,2.669677120404209,-1.8990984551004355,-0.7322656015811602,-0.3004550055705342,-1.5905663987783898,-1.6951339610436,1.298437565157786,-1.7922330525541799,-3.044018624780331,-4.5298930630197995,-3.044018624780331,-2.976288570990864,5.559291256605909,-2.976288570990864,-2.407902536795859,4.5298930630197995,-1.2162327323186661,-1.9643983355414536,-0.817990414431657,0.7018843512321,-1.5424129242967424,-0.6463890008341614,-0.8443785278512234,-1.01418510567422,-1.1672993712043418,-0.6721809596566366,-1.1673766828933747,-1.3467099146309385,-0.33612296123037155,-0.9391422818988598,-1.3873378290088993,-0.41789812670286713,-0.8792683966159514,-0.8997354108424374,-1.753983398377515,-1.5338776549949367,-1.077066996426861,-0.7237313777564135,-0.963048542677645,-0.5497464934375227,3.559156124175319,-1.7995749152431273,-0.8770066570451334,-0.37724922633218433,-0.33076794661968917,-1.0359434478285936,-1.8093270833642336,-1.3502893710836088,-1.503905892816504,-1.636394233752152,-0.6407406176847298,-0.2299108148209035,-1.2046469272392393,-0.06432202503274877,-1.2106151622171233,-0.8355784574851697,-1.5164304645073616,-0.6069739684085285,-0.26861998486870536,-0.6512930307441407,-0.5008846954721269,2.497404912416282,-1.6232416162885273,-0.3144922155534202,-1.1031327350939808,-1.3512240300625216,-1.4048972491214413,-0.16903085094570333,-0.6403869598873415,-1.0892853938874296,-0.30834252940620566,-1.5874884976359287,-1.5130592383261505,-1.1620816501854878,-0.34724313315134997,0.4445965563296939,-1.042733620122543,-0.3478407547245498,-1.1085393645430859,3.3293181560981475,-0.28305091472031296,-0.7944789027411515,-0.7356248788754757,-0.229494692996586,-0.6138788892284813,-0.40237390808147816,-0.229494692996586,-0.28305091472031296,-0.28305091472031296,-1.1771311777910505,-1.1114414954473304,-0.1690308509457033,-0.6688560540599386,-0.99664016737167,2.9606858378506424,-0.40237390808147816,-0.3017804310611087,-0.3017804310611087,-0.1690308509457033,-0.452601590337872,-0.8047478161629564,-0.4976895965835776,-0.4023739080814782,-1.1435437497937313,-0.8820238668510707,-0.1690308509457033,-0.611153121101568,-0.8492707518692875,2.493205051449124,-0.24264059609731195,-0.1690308509457033,-0.4990834089450871,-0.4230217115244236,-0.4483137536088725,-0.5219902945417844,-0.24264059609731195,-0.24264059609731195,-0.24264059609731195,-0.3017804310611087,-0.229494692996586,-0.229494692996586,-0.3017804310611087,-0.1690308509457033,-0.1690308509457033,-0.22949469299658595,-0.24264059609731192,-0.1690308509457033,-0.24264059609731192,-0.1690308509457033,0.922551029092154
