,0,1,2,3,4,5,6,7,8,9,10,11,12,13,14,15,16,17,18,19,20,21,22,23,24,25,26,27,28,29,30,31,32,33,34,35,36,37,38,39,40,41,42,43,44,45,46,47,48,49,50,51,52,53,54,55,56,57,58,59,60,61,62,63,64,65,66,67,68,69,70,71,72,73,74,75,76,77,78,79,80,81,82,83,84,85,86,87,88,89,90,91,92,93,94,95,96,97,98,99
AAACCG,0.285276,0.247217,0.305912,0.443601,-0.42188,0.364092,0.01496,0.406053,-0.075464,-0.237551,-0.070872,0.332422,-0.528995,0.278583,0.008172,0.279317,-0.578433,0.0049,-0.27163,0.420155,-0.25626,-0.536746,-0.261365,-0.038814,0.045302,-0.493009,0.146344,0.318547,0.543331,-0.661244,0.060686,-0.03778,0.140157,-0.662034,-0.233777,0.249204,0.113605,-0.294361,-0.114377,0.458905,0.601391,-0.530826,0.094026,-0.159433,-0.248834,-0.068834,-0.776869,-0.692127,0.190015,0.193261,-0.556642,-0.372058,0.034211,0.434182,-0.129631,-0.00738,0.40388,-0.128498,0.357134,0.216462,0.466816,-0.309039,0.060607,0.577565,0.17906,0.274023,-0.222651,0.536545,0.203824,-0.003267,-0.42877,0.08924,0.35216,-0.543238,0.438559,-0.225914,-0.123639,0.238213,-0.14605,-0.26266,-0.115788,-0.233557,-0.1649,0.252346,0.041292,-0.360181,0.387231,-0.16124,-0.178594,0.522453,-0.596822,-0.373937,0.045772,-0.108078,0.244177,-0.483194,0.011513,0.28695,-0.516382,0.632875
AAAGCG,0.319312,0.193589,-0.36261,0.033642,-0.120781,0.193218,-0.46975,0.447861,0.00931,-0.672033,-0.358952,-0.060337,0.053454,0.76255,0.204722,0.082286,-0.785076,-0.328579,-0.640339,0.606766,0.146655,0.113906,0.353421,0.506442,-0.188111,-0.143555,0.241749,-0.035691,0.316718,0.083553,0.203568,-0.066638,0.375819,-0.24386,-0.062989,0.079334,0.114232,0.148693,-0.128054,0.367644,0.271078,0.276914,-0.394963,-0.972874,-0.597935,0.277822,-0.525097,0.363012,-0.764413,0.894467,-0.689774,0.022669,-0.151289,0.088224,-0.64423,0.38349,0.125253,-0.539274,0.224711,-0.11626,0.648893,-0.224556,-0.332158,0.278915,0.184585,0.114631,-0.457574,-0.064681,0.334487,0.362909,-0.397363,0.476129,0.48818,-0.335977,-0.39603,0.052591,0.120971,0.436958,0.189708,-0.149455,-0.178827,0.308824,-0.264232,-0.32417,0.280114,-0.28063,0.271144,-0.155975,-0.262677,0.57791,0.279952,-0.52168,0.031189,0.306409,0.121232,-0.081898,-0.249193,-0.289856,-0.410289,-0.530847
AAAGGA,0.059523,0.346435,-0.2618,-0.355348,0.185862,-0.13293,-0.181768,0.177655,-0.121968,-0.423125,0.213755,0.191666,0.246457,0.326685,0.254298,0.015771,-0.717634,0.149551,-0.281079,0.707996,-0.264038,0.006918,-0.035172,-0.133551,-0.077661,0.108392,0.122203,0.670763,0.303658,0.245981,-0.361936,-0.015488,-0.277289,-0.496771,-0.38262,0.128291,-0.089705,0.061418,-0.424317,0.414205,-0.061615,-0.029818,-0.427496,-0.506897,0.205076,0.101635,-0.214602,-0.271215,-0.566634,-0.139793,-0.016963,-0.2529,-0.002988,0.48646,-0.312741,-0.416903,0.220964,-0.461064,-0.37525,-0.082973,0.424271,0.279888,-0.2841,-0.0687,0.041028,-0.033398,0.030583,-0.161807,-0.448365,0.029826,-0.849367,0.025242,0.135701,0.299789,-0.002626,-0.097735,-0.09881,0.428755,-0.291834,-0.304787,-0.10142,-0.023971,0.506561,0.139408,0.409833,-0.308418,-0.156096,-0.379947,-0.210449,0.729211,0.20226,-0.014527,-0.232777,-0.065766,-0.114033,-0.359992,-0.407028,-0.190224,0.055522,-0.234726
AACCAG,-0.072529,0.04073,-0.199167,-0.457077,0.008205,-0.05752,0.171435,0.358995,-0.260824,0.320773,-0.028207,-0.395809,0.184704,0.128144,-0.322452,0.215638,-0.053353,-0.190943,-0.013871,0.124079,-0.119165,-0.531357,-0.578106,0.263306,-0.044603,-0.380234,0.314422,0.050686,0.341841,-0.197708,-0.505063,-0.343698,-0.170996,-0.571083,0.17387,0.069444,-0.047016,-0.138632,-0.614529,0.593331,0.743945,0.17304,-0.05748,-0.044742,-0.249927,-0.133441,0.161632,-0.501795,-0.652466,-0.36352,-0.50988,-0.22296,0.408323,-0.089033,-0.090435,-0.643558,0.656477,0.009426,-0.092854,-0.296007,0.243542,-0.014478,0.256026,0.209338,0.105141,0.243015,-0.309724,0.324687,0.231438,0.47616,-0.839243,0.180172,0.463255,-0.82285,-0.242599,0.281858,0.012613,0.253651,-0.297435,0.131189,-0.217727,-0.215171,-0.177264,0.201785,-0.552833,0.021474,0.41407,-0.196357,0.046937,-0.261945,-0.403411,-0.153957,-0.232558,-0.267573,0.380759,-0.308132,-0.103151,0.328615,-0.114649,0.209661
AACCAT,-0.213567,0.177201,0.072426,0.242697,-0.00815,-0.232396,0.147904,-0.139522,-0.428374,0.306733,0.074993,-0.256429,-0.092176,0.296618,-0.246879,0.074899,-0.157657,0.322878,-0.324788,-0.154698,0.056691,-0.374192,-0.191783,-0.358935,-0.095082,-0.021873,0.168941,-0.138036,0.322128,-0.406423,-0.071263,-0.439437,-0.166423,-0.695337,-0.131654,-0.183301,0.037427,-0.124079,-0.203985,0.577303,0.098131,-0.413009,0.241792,0.273483,-0.407567,-0.106803,0.217531,-0.422333,-0.417679,-0.169618,-0.269924,-0.234971,0.30188,-0.286013,-0.260109,-0.342016,0.416937,-0.226812,0.312624,-0.7714,-0.122537,-0.054111,-0.267301,0.139315,0.278273,-0.690016,-0.126756,0.879163,0.010187,0.193888,-0.410806,-0.370985,0.879178,-0.763907,0.141112,-0.349563,0.199051,0.373432,-0.735535,-0.155412,-0.099143,-0.175253,-0.110962,0.109774,-0.186083,-0.127606,0.459426,-0.201336,0.005555,-0.457369,-0.171184,-0.313809,0.309828,-0.072511,0.533289,-0.139628,-0.369261,-0.095867,-0.827163,0.380869
AACCCT,-0.32762,0.450884,-0.069883,-0.051492,-0.590265,-0.055533,0.399962,-0.07277,-0.305633,0.299877,-0.180906,0.172088,-0.320211,0.031673,-0.271629,0.201441,-0.192633,0.178155,0.018368,0.289806,-0.333223,-0.137873,-0.338717,-0.150542,-0.035811,0.044345,0.313508,0.181506,0.904718,0.068782,0.257573,0.355003,0.578829,-0.452747,-0.217917,0.043215,0.324552,-0.49727,-0.122494,0.238109,0.432415,-0.19821,0.283977,-0.240337,-0.084429,-0.227199,-0.109395,-0.665168,-0.06154,-0.26636,0.011071,-0.193341,0.536903,0.287732,-0.400062,-0.042253,0.254529,-0.235691,-0.034388,-0.398698,-0.033069,-0.41116,-0.329652,-0.091158,0.452355,-0.203307,-0.412285,0.076937,-0.117456,0.138822,-0.409715,-0.035756,0.867033,-0.182655,0.345307,0.414691,-0.373456,0.603628,-0.182669,-0.192884,-0.151008,0.63685,-0.293847,-0.057083,-0.637401,-0.307595,0.364014,-0.550829,0.128055,-0.078381,0.501737,0.073193,-0.692535,0.116412,0.644093,-0.217139,-0.168592,-0.300322,-0.474651,0.455587
AACCGC,-0.17882,0.299162,0.532071,0.479324,-0.635669,0.020232,-0.120547,0.602494,0.204631,0.124537,-0.409469,0.242381,-0.263703,0.32375,-0.538911,0.393156,-0.323615,0.24996,-0.591653,0.446451,-0.088606,-0.158526,-0.090945,-0.299726,0.016661,-0.137885,0.287439,0.104177,0.451078,-0.111372,0.081765,0.081814,0.311596,-0.526319,-0.113471,0.030009,0.508782,-0.275522,-0.670666,0.224824,0.635897,-0.25335,0.223211,-0.023682,-0.299839,0.139152,-0.269427,-0.509181,-0.060119,0.037449,-0.552193,-0.31764,0.481219,-0.02965,-0.845348,0.042821,0.423761,-0.355265,0.087984,-0.411623,0.541334,-0.171529,-0.096662,0.609607,0.594455,0.338102,-0.237157,0.435787,0.120355,0.007172,-0.236596,0.09555,0.385896,-0.779401,-0.119297,-0.129314,-0.005924,0.307269,0.08832,-0.337221,0.051008,-0.451598,-0.369039,0.035703,-0.43908,-0.241939,0.352926,-0.17562,-0.086559,0.135975,-0.590531,-0.31192,0.059756,-0.188933,0.699097,-0.549609,0.307443,0.314021,-0.438252,0.349516
AACCTC,-0.391298,0.203713,-0.016956,0.291734,-0.696446,0.18313,0.109368,0.388214,0.059635,0.25075,-0.329269,-0.448107,-0.176002,0.624491,-0.277173,-0.267291,0.14129,0.2031,-0.766601,0.137796,-0.255008,0.44528,-0.368077,0.046649,-0.362952,-0.246541,0.342425,0.04007,0.747269,0.218461,-0.00765,0.024892,0.584667,-0.259631,0.188292,-0.145843,0.414687,-0.239224,-0.293401,0.363846,0.00932,-0.392882,0.08053,0.004772,0.285007,-0.145524,-0.183616,-0.556159,-0.098827,-0.091567,-0.777151,0.104691,0.371729,0.029896,0.121028,0.016914,0.93697,-0.226157,-0.18074,-0.679733,0.486511,-0.200023,0.039255,-0.087243,0.144369,0.281397,-0.102224,0.426116,0.041923,0.154733,0.192298,-0.216183,0.579841,-0.063155,0.514442,-0.152304,-0.349628,0.545534,-0.645025,-0.330777,-0.111251,0.394135,-0.164802,0.097313,-0.353281,0.105114,0.776519,-0.298007,0.159559,-0.169783,-0.379245,-0.410719,-0.175452,-0.615868,0.711811,-0.683303,0.287949,-0.109847,-0.492808,0.225512
AACCTT,0.001372,0.103037,0.195099,0.196624,-0.375179,0.311047,0.045819,0.048495,0.073801,0.634244,-0.10875,-0.048832,-0.085654,0.157695,0.082798,0.006594,0.292168,0.565683,0.247501,-0.09605,-0.257199,0.037371,-0.289923,0.073515,-0.255508,-0.41832,0.255979,-0.114872,0.978353,0.019523,0.093257,-0.204682,0.060778,-0.686001,-0.071938,-0.161247,-0.120328,-0.461242,-0.04415,0.368608,0.199608,-0.34117,0.189499,0.223957,-0.110081,-0.202498,-0.057923,-0.808418,0.09118,-0.290948,-0.253906,-0.088689,0.310035,0.367414,-0.730341,-0.215381,0.697735,-0.329405,0.187857,-0.667222,0.252496,-0.689334,-0.332891,-0.367155,0.419115,-0.020367,-0.477036,0.111881,0.129196,0.213347,0.013233,-0.589441,0.488561,-0.335453,0.007816,0.222038,0.269806,0.689928,-0.107085,-0.294225,-0.034585,0.665437,-0.223509,0.041551,-0.118051,0.087488,0.464867,-0.37249,0.306837,-0.020889,-0.168439,-0.335522,-0.003926,-0.091986,0.419631,-0.434261,-0.394249,0.393804,-0.162181,-0.256119
AACGTC,-0.780119,0.213327,-0.41665,0.064827,0.066039,0.684087,-0.561398,0.332312,-0.571373,-0.276717,0.022793,-0.210745,-0.056007,-0.010498,-0.547458,0.018282,-0.119062,0.368233,-0.35011,0.218885,-0.5038,-0.3894,0.106455,0.275261,-0.002735,-0.012611,-0.024615,-0.071198,0.445406,-0.04543,-0.012422,-0.284803,0.803265,-0.598388,-0.079105,-0.084886,0.71032,-0.031644,0.247562,0.300568,0.775198,-0.836929,0.181355,0.085387,0.117911,-0.212741,0.043837,-0.326859,0.062594,-0.225417,-0.364993,-0.052854,0.013247,-0.126742,-0.169088,-0.248791,0.385105,-0.437566,0.507577,-0.445938,0.497059,-0.192005,-0.47274,0.491511,0.115193,0.395069,0.192372,-0.022898,-0.012234,0.169541,0.167461,0.072096,0.582718,0.031933,-0.036668,0.230271,0.077851,0.010868,-0.572546,0.390341,0.036918,0.722332,-0.150324,-0.021992,0.0042,-0.543884,0.292838,-0.149177,0.090988,0.044104,-0.423583,-0.477634,-0.310535,0.07311,0.30166,0.031398,0.029099,0.459286,-0.099387,-0.731492
AACGTT,-0.496404,0.418259,-0.219567,0.036251,-0.086117,0.219664,-0.619919,0.273095,-0.44437,0.019103,-0.137545,-0.181587,0.282461,-0.18327,0.043153,0.053387,-0.12608,0.637124,-0.249175,0.00619,-0.136148,-0.475194,0.125044,0.202758,-0.167383,-0.408551,-0.174724,-0.050084,0.248126,-0.016433,0.277307,0.164078,0.331863,-0.669434,0.11844,0.018857,0.182321,0.436717,-0.187173,0.30765,0.624969,-0.771484,-0.58317,-0.190307,-0.165073,-0.380551,0.093954,-0.63618,-0.118516,-0.074834,-0.094642,0.133094,0.222396,-0.048891,-0.284286,0.272653,0.235664,-0.100148,0.442469,-0.526598,0.153192,-0.331992,-0.097263,0.329647,0.056958,0.108165,-0.259702,-0.178471,0.128485,-0.396107,-0.240978,-0.317749,0.440608,-0.179132,-0.05895,0.196805,0.358688,-0.049586,-0.345486,0.184314,-0.078056,0.506524,0.088539,0.04784,0.457737,-0.903657,0.154663,-0.455485,0.22996,0.032165,-0.619159,-0.553371,-0.217383,0.338431,-0.286629,-0.202044,-0.334104,0.505135,-0.623215,-0.698157
AACTAC,-0.003057,0.330919,0.26453,0.304938,-0.006661,0.228809,-0.518227,0.228267,0.1914,-0.206307,0.43361,0.302996,0.158246,0.187424,-0.150092,0.010332,0.318653,0.315415,-0.349881,-0.129216,-0.058494,-0.317905,0.248606,-0.549418,-0.114328,0.103041,-0.025725,-0.134714,-0.028541,0.098324,-0.264601,-0.13728,0.504974,-0.607768,-0.259965,-0.26132,0.470859,-0.552677,-0.013828,0.233675,0.09689,-0.259513,-0.164949,-0.143183,-0.104314,-0.828389,0.295755,-0.319489,-0.388204,-0.715407,0.184871,0.012517,0.449871,-0.130914,-0.075047,-0.115048,0.634247,-0.281875,0.447605,-0.211718,0.000619,-0.385937,-0.296908,0.076232,0.384699,0.088778,0.344188,0.039422,0.135696,-0.056541,-0.702547,-0.17001,0.684513,-0.456674,-0.54444,-0.356078,0.080425,0.216589,-0.181497,-0.544313,-0.149718,0.170161,-0.060416,0.414634,-0.567452,-0.484709,0.195305,-0.124806,0.386917,-0.026657,-0.255547,-0.739095,0.040314,-0.183997,0.11832,-0.25779,0.183532,0.025469,-0.407523,0.510691
AACTGC,-0.366706,0.905825,0.29362,-0.040661,-0.321579,-0.149596,-0.383952,0.446243,0.143285,-0.206384,-0.168456,-0.046726,-0.257463,0.559284,-0.389528,0.182898,-0.003189,0.268714,-0.379539,-0.094525,-0.134069,-0.247017,-0.140738,-0.236521,-0.062505,-0.275966,0.167766,-0.148941,0.255383,0.255467,-0.057047,0.242632,-0.155568,-0.750479,-0.156007,0.209623,0.57992,-0.274898,0.071032,-0.441173,0.005091,-0.648477,0.04421,-0.138501,-0.152189,0.051773,0.463049,-0.380007,-0.46588,-0.283176,-0.68261,-0.091916,0.769541,-0.029739,-0.084666,-0.02302,0.496489,-0.647442,0.401904,-0.126238,0.177427,0.058412,-0.194549,-0.313048,0.403567,0.250982,0.294869,0.24559,0.011447,-0.473825,-1.028527,0.132246,-0.092357,-0.810682,0.087963,-0.079995,-0.228757,0.106725,0.185313,0.225189,0.004997,-0.072824,0.150466,-0.02308,-0.127752,0.084643,0.232463,0.066156,0.155681,-0.225942,-0.107507,-0.195772,-0.437945,-0.148603,0.793619,-0.247626,0.325143,-0.031254,-0.315045,-0.093032
AAGAAC,-0.114167,0.540354,0.264747,-0.224878,-0.285564,0.068915,-0.08911,0.035005,-0.511299,0.49419,-0.164732,-0.062116,0.184963,0.364345,-0.13036,0.014595,0.331965,0.4087,-0.478699,0.211213,0.130264,-0.811396,0.107286,-0.55111,-0.113336,-0.163621,0.003202,0.360988,0.281983,0.269422,-0.663547,-0.374986,0.784541,-0.298589,0.092379,-0.356,0.271712,-0.202047,-0.234968,-0.152755,0.179852,-0.841819,-0.488824,-0.408344,-0.089844,-0.242726,-0.693856,-0.573987,0.0076,-0.351062,0.198536,0.308493,0.117433,-0.010127,-0.265814,-0.360385,0.394628,-0.164641,0.126091,-0.223753,0.437606,0.479127,-0.570226,0.194463,0.015198,-0.140722,-0.060958,0.418462,0.236693,-0.114377,-0.376225,-0.295026,0.097754,-0.074221,-0.416398,0.263003,-0.168125,0.014632,-0.003596,-0.180164,-0.081615,-0.011984,-0.233084,0.353458,0.319435,0.052743,0.073534,0.117092,-0.258052,0.222645,0.379043,-0.180495,0.045688,0.243618,-0.146609,-0.166412,0.142153,-0.21784,-0.269751,-0.002773
AAGGCC,-0.166168,0.434975,-0.074692,0.009146,-0.212603,0.634861,0.144223,-0.3943,-0.568845,-0.40503,-0.196252,0.602954,0.130772,0.377244,0.085785,-0.097062,-0.373391,0.449397,-0.200673,0.615292,0.500974,0.01626,0.372088,0.187979,0.193609,0.333439,0.176686,-0.051981,0.113878,-0.216971,-0.657498,-0.380246,0.577218,-0.333233,0.141483,0.354571,0.364096,-0.69178,-0.226844,0.186446,0.213753,0.089606,-0.256371,-0.222396,-0.193109,0.215916,-0.300057,-0.243488,-0.735358,-0.056446,-0.281135,0.437302,0.356728,0.29242,-0.034015,-0.079351,-0.037718,-0.746817,-0.342965,-0.309433,-0.128297,-0.234697,-0.121008,0.050491,-0.178912,-0.216965,-0.174116,-0.293331,-0.048884,-0.325703,-0.587458,-0.018077,-0.201745,-0.295755,0.01524,-0.274352,-0.169141,0.848773,0.051505,0.158886,-0.251936,-0.073859,-0.429218,0.53097,-0.066388,0.020071,0.057327,-0.221696,-0.367175,0.142297,-0.228754,-0.144529,-0.293118,-0.348742,-0.173985,0.146126,0.15421,0.383921,-0.464594,-0.62153
AAGGTG,0.055696,0.371205,-0.411553,-0.233042,-0.108994,0.460155,-0.463292,0.215799,-0.185334,-0.418205,-0.081997,-0.225665,-0.11674,-0.108081,0.393859,-0.174627,-0.098955,0.2327,-0.428032,0.182855,0.198327,-0.0574,0.542392,0.447447,-0.08184,0.055939,-0.099256,-0.121332,0.288507,0.405412,-0.266189,0.174329,0.424473,-0.593484,0.567888,0.759452,0.298111,-0.656235,-0.307744,0.788365,0.271715,0.368398,-0.007417,-0.383707,-0.541137,0.257608,0.126481,-0.244012,0.121941,-0.322993,-0.484056,0.216518,0.197019,-0.133788,-0.525975,-0.348681,-0.083383,-0.28495,-0.421177,-0.240703,0.115878,0.026032,-0.09973,-0.287169,-0.260168,-0.433181,0.01786,0.614599,-0.370119,-0.225489,-0.699211,0.088968,-0.330809,0.249001,-0.351699,-0.217168,-0.467615,0.235246,0.281085,-0.276694,0.322275,0.052692,0.600156,0.164119,0.136039,0.095954,0.187294,-0.379763,-0.216597,0.586658,0.081952,-0.036502,-0.009691,-0.316711,-0.014523,0.171521,-0.382203,0.156732,-0.159638,-0.354596
AAGTAT,-0.657654,0.127265,0.067253,-0.199856,-0.040236,0.071391,-0.013509,0.049414,-0.1943,-0.17696,-0.29026,0.279285,-0.511047,-0.034944,0.590627,0.541201,-0.032913,0.099548,-0.670425,-0.083865,-0.325604,-0.069917,0.244772,-0.105321,-0.751011,0.230893,0.601015,0.410812,0.068799,0.067136,0.212038,-0.623755,0.047415,-0.887353,0.074426,-0.447501,0.116905,-0.026251,-0.143698,0.548033,-0.070603,-0.179238,0.071151,-0.190724,-0.293601,-0.153374,0.049837,-0.268333,-0.21926,0.058782,-0.029881,0.647367,-0.048148,-0.151661,-0.325776,-0.164285,0.112164,-0.512141,-0.01669,-0.582505,-0.134283,0.380609,0.025484,0.010143,0.161303,-0.412145,0.052199,-0.164641,0.148604,-0.129024,-0.362323,0.02829,-0.120653,0.144315,-0.078698,-0.363842,-0.551674,-0.101545,0.156104,-0.48624,0.232278,-0.120963,-0.291806,0.372267,0.547651,0.265862,0.212078,0.223536,-0.028439,-0.03436,-0.077719,-0.986811,-0.535639,0.113348,-0.075942,0.390606,-0.542787,-0.138879,0.098749,0.083248
AAGTTT,-0.405076,0.398512,0.344246,-0.271507,-0.165669,-0.070659,-0.44355,-0.388982,-0.520435,0.141939,0.214662,-0.218436,-0.477941,0.031558,0.893384,0.500484,0.01735,0.118966,-0.537905,-0.416062,0.041819,-0.052592,-0.146612,0.221606,-0.451852,-0.019929,0.17009,-0.075138,0.110418,0.160518,0.005936,-0.079398,0.136765,-0.485564,-0.021439,-0.448895,0.194192,0.216727,0.166851,0.231578,0.44595,-0.034116,-0.581062,-0.448195,0.147189,0.079959,-0.354576,-0.799756,-0.717618,-0.113959,-0.151531,0.678333,0.122723,-0.147826,0.080856,0.222476,-0.052844,-0.116536,-0.186887,-0.922695,-0.228003,-0.287147,-0.143736,-0.394307,0.137452,-0.194964,0.067884,-0.317966,-0.022028,-0.268047,-0.215948,-0.211913,-0.161439,-0.419099,0.223536,0.124527,-0.49043,0.156765,-0.341013,-0.336114,0.300315,-0.154266,-0.044151,-0.043639,0.286603,-0.151693,0.231299,-0.391518,-0.086024,0.438938,-0.258274,-0.466807,-0.179645,-0.090219,-0.091168,0.572058,-0.168934,-0.269616,-0.52943,-0.469129
AATGAG,0.080692,0.055472,0.02176,0.003339,0.116613,-0.556653,-0.128487,0.194789,0.041661,-0.022057,0.050582,0.210222,-0.337183,0.055128,0.616493,-0.268752,-0.188087,0.129002,-0.20393,0.39122,0.062595,-0.354451,-0.162624,0.553129,0.17095,0.426427,-0.047485,-0.193606,0.002373,-0.010649,0.016708,-0.187056,-0.056302,-0.606637,-0.190092,0.443204,-0.299307,0.258991,-0.185422,0.430873,-0.16149,-0.185639,-0.344525,-0.38073,0.758636,-0.545254,-0.177712,0.064516,-0.481034,-0.193637,-0.407584,-0.305737,0.001808,-1.006902,-0.454609,-0.167643,0.350278,-0.310069,-0.090242,-0.611543,0.343252,-0.506577,-0.339994,0.243191,-0.040505,0.343469,0.121119,0.342932,0.208779,-0.016988,-0.635597,-0.330516,-0.023886,0.17359,-0.048824,-0.186711,-0.503049,-0.142962,0.037374,0.266383,-0.374106,-0.090275,-0.210197,-0.005232,-0.53143,-0.419939,-0.37215,0.053871,-0.28598,0.219516,-0.085975,-0.106706,0.123493,-0.121178,0.684164,-0.487516,-0.03913,0.202886,0.161585,-0.530498
AATTCT,-0.314231,0.138037,0.483711,0.138859,-0.55704,0.417402,0.262637,-0.254555,0.022652,-0.436146,0.159217,0.095109,0.167996,0.364327,0.274731,-0.094027,0.173589,0.112842,-0.829993,-0.273389,0.092554,0.2499,-0.268212,0.60486,0.115268,0.107074,0.190701,-0.599383,-0.295896,-0.307998,0.056328,-0.205166,0.071576,0.006432,-0.356021,0.232523,-0.078418,-0.470099,0.532386,0.801794,-0.094968,-0.219201,-0.692671,-0.19508,-0.012591,-0.035919,0.204624,-0.28833,0.206021,-0.352187,0.208413,0.265725,0.104799,-0.263949,0.084202,-0.446607,0.375792,-0.405614,-0.217158,-0.305883,0.242881,-0.038013,-0.093865,-0.128706,-0.073107,-0.404494,-0.553417,0.225904,0.052542,-0.039703,-0.656426,-0.356156,-0.009478,-0.272687,0.013708,0.117893,-0.460057,-0.066422,0.369777,-0.02791,-0.497322,0.703413,-0.462071,-0.378861,-0.140125,-0.662816,0.123389,-0.065361,0.209003,-0.730127,0.069894,-0.311939,-0.251318,-0.153323,0.328531,-0.136045,-0.140514,-0.417123,0.292622,-0.296019
ACAAAC,-0.244261,0.133944,0.097911,0.054594,-0.207939,-0.077863,-0.224813,-0.11033,0.370144,-0.403174,-0.072696,0.204373,0.03491,-0.189204,-0.163888,0.046408,0.13477,-0.140494,-0.008187,-0.215178,-0.216581,-0.969224,-0.313506,-0.606131,-0.09989,-0.561324,-0.448211,0.211678,0.307493,0.087017,-0.1571,-0.144801,0.381717,-0.16947,0.221731,0.440491,-0.077734,-0.497622,0.204271,0.077667,-0.183976,-0.670441,0.028256,-0.214857,-0.369854,0.251614,-0.305208,-0.360426,-0.471564,-0.527672,0.202127,0.15672,-0.114871,0.193371,-0.300505,-0.15999,-0.038861,0.109075,0.044081,-0.148433,0.447014,-0.036524,-0.371816,-0.375502,0.337082,0.500598,-0.164199,-0.029226,0.48936,0.071895,-0.555964,-0.374727,0.552477,0.229078,0.040947,-0.144386,-0.10806,0.802065,-0.470759,-0.046481,0.026048,0.218399,-0.404715,0.115172,0.143527,-0.353064,0.115361,0.509367,-0.201104,0.151847,-0.376687,-0.203732,-0.231356,0.181882,0.118117,-0.302723,0.142933,-0.073403,-0.335572,0.17489
ACAACA,-0.193365,0.183569,-0.338101,-0.527326,-0.339946,0.005794,-0.124944,-0.162456,0.266698,-0.051122,-0.045031,0.185423,0.33341,-0.278281,0.144398,-0.108787,0.225125,-0.044139,-0.349352,-0.261884,-0.288928,-0.782819,-0.164846,-0.550652,-0.057155,-0.142218,0.044032,-0.067653,-0.13967,-0.055458,-0.124573,-0.523337,0.000883,0.271585,0.239798,0.37562,0.026864,-0.153525,-0.318088,0.274795,0.04503,-0.16894,0.437472,-0.154788,0.003941,0.122143,-0.241541,0.044622,-0.506353,-0.668125,-0.162863,0.384315,-0.301506,0.183384,-0.443684,0.030568,0.196571,-0.125759,-0.038392,-0.251787,0.607262,0.025318,-0.088986,0.009925,0.279879,0.320473,-0.08494,0.405565,0.319232,-0.211181,-0.481331,-0.030453,-0.038544,0.504519,-0.114938,0.078044,-0.05646,0.725086,-0.493094,-0.074242,0.071321,0.136095,-0.06966,0.013681,0.000932,-0.735414,0.202591,-0.058276,-0.111102,0.07126,0.097212,-0.534626,-0.296834,0.699133,0.552534,0.019403,-0.184474,0.094057,-0.137481,0.285784
ACAAGA,-0.139079,0.172791,-0.305269,-0.037052,-0.020832,-0.092792,-0.432362,-0.511572,-0.038132,0.309427,0.062749,0.012933,0.731403,-0.029369,0.40641,-0.069841,0.341323,-0.464227,0.37609,0.249428,-0.330312,-0.678608,-0.205287,-0.361564,0.157277,-0.00327,0.429943,-0.257896,0.203146,0.353464,-0.276419,-0.322216,0.256095,-0.407021,0.077826,0.746746,-0.013845,0.234964,0.056695,0.337815,0.093129,-0.375235,0.18173,0.021015,0.133882,0.043677,-0.269598,-0.038368,-0.434119,-0.410638,0.472183,0.255733,-0.18439,-0.102557,-0.495407,-0.690737,0.086813,0.156162,-0.236602,-0.002846,0.61406,-0.368421,-0.289318,0.155328,0.366936,-0.028545,-0.558302,-0.158894,0.164656,0.051294,-0.504835,0.001158,-0.535701,0.243132,-0.326623,-0.244141,-0.43612,0.248102,-0.157835,0.494735,-0.099908,0.174469,-0.237483,0.163884,0.151238,-0.219248,0.250856,0.328184,0.096105,0.157376,0.300959,-0.331133,-0.301468,0.22862,0.465973,0.05717,-0.229704,-0.38569,-0.54828,0.224707
ACAAGC,-0.164846,0.292201,-0.067786,-0.156028,-0.156187,-0.652036,-0.099926,-0.563876,-0.071586,-0.43723,0.100412,-0.151538,0.499281,-0.271998,0.083518,0.201347,0.324411,-0.638585,-0.500314,0.089288,0.102789,-0.498628,0.015708,-0.414577,0.122015,-0.265541,0.534176,-0.312284,-0.213046,0.467497,0.033248,0.011602,0.008018,-0.317643,0.466528,0.305272,-0.079674,-0.129441,0.230335,0.382836,-0.027461,-0.060383,0.268187,-0.282549,-0.251229,0.482367,-0.189385,-0.023089,-0.639893,0.143368,-0.010967,0.283957,0.017799,-0.077961,-0.841454,0.029431,-0.47767,-0.254682,-0.427721,0.189964,1.049616,-0.172577,-0.36003,-0.027478,0.298234,0.541451,-0.41317,-0.051411,0.593845,-0.104771,-0.223951,0.13669,-0.088049,-0.189512,-0.170195,0.022278,-0.243074,0.591272,-0.024139,0.378874,0.316206,0.333725,-0.478635,0.217934,-0.37439,-0.085065,-0.003416,0.263524,-0.059877,-0.241167,-0.149451,-0.50667,-0.186738,0.008715,0.544473,-0.177195,-0.2903,-0.39449,-0.585135,0.151642
ACACAA,-0.049871,-0.058819,-0.320885,-0.078886,-0.314531,-0.371721,-0.135776,-0.738557,0.164542,-0.162835,0.148139,0.251294,0.656882,-0.225716,0.557866,0.184612,0.134401,-0.201697,-0.095143,-0.402874,-0.523198,-0.663387,-0.09838,-0.436026,0.251294,-0.276933,-0.266856,-0.147354,0.140281,0.209326,0.200778,-0.326225,0.191294,-0.359038,0.500796,0.374416,-0.018595,-0.173912,-0.259807,0.096456,-0.009148,-0.357229,-0.039331,-0.220587,0.103103,0.031858,-0.023302,0.025115,-0.785769,-0.609979,0.116425,0.496494,-0.118392,0.087115,-0.11912,-0.035365,-0.304667,-0.227688,-0.294406,-0.146603,0.408998,-0.081384,-0.120806,-0.059929,0.508288,0.132869,0.013546,0.280136,0.590988,0.19771,-0.472654,-0.114183,-0.275378,0.44887,0.066788,-0.235476,0.026152,0.449011,-0.385405,-0.155948,0.183413,0.36275,-0.102648,-0.341029,0.035273,-0.398265,0.050395,0.166363,-0.098815,0.080273,0.093435,-0.255786,-0.13855,-0.152768,0.51533,-0.453145,-0.172046,-0.389945,0.117311,-0.09095
ACAGAT,-0.242179,-0.098368,-0.342739,-0.21318,0.083987,-0.266163,-0.272505,-0.016884,0.507877,0.013835,-0.253656,0.280455,0.785585,-0.114785,0.038154,0.145811,0.328443,0.091048,0.294856,0.018002,-0.311556,-0.525515,-0.061776,-0.067472,-0.169753,0.07571,0.412092,0.296938,-0.109047,0.142909,-0.489998,-0.032382,0.242142,-0.125345,-0.320888,0.538138,0.340996,-0.131703,0.126314,0.795378,0.056966,0.152963,0.465613,-0.120698,0.270891,-0.052973,-0.182738,0.088779,-0.087232,0.136395,-0.065845,0.492394,-0.105792,0.502534,-0.336861,0.162225,0.713779,0.3467,-0.262203,-0.461792,1.009729,-0.308518,-0.033773,0.022509,-0.060598,-0.115572,-0.477294,0.041412,0.191886,-0.145169,-0.420623,-0.590202,-0.436203,0.096076,-0.347914,-0.408506,0.347945,-0.234777,-0.701992,-0.03188,0.430053,-0.161789,-0.07106,-0.004049,0.086237,-0.464665,0.041003,0.041384,-0.18934,-0.271716,-0.359995,0.197693,-0.18467,-0.235322,0.370311,0.357001,-0.326618,0.175134,-0.128725,0.072889
ACAGTA,-0.208745,-0.083814,-0.364036,-0.409686,-0.040525,-0.238171,-0.163321,-0.231399,-0.197441,-0.534311,-0.54862,0.425758,-0.031689,-0.302374,0.499444,0.521918,0.579569,0.187776,0.093761,0.008436,-0.583146,-0.417542,-0.105091,-0.266902,-0.431863,0.098567,0.321972,0.501794,-0.199843,0.249588,0.006465,-0.50647,0.026992,-0.337668,0.169875,0.320032,-0.352953,0.067346,0.068814,0.584821,0.100162,0.068629,0.127533,-0.153987,0.136376,-0.316289,-0.134422,0.141443,-0.472442,-0.490977,-0.161182,0.133535,0.122292,0.184896,-0.237234,0.330202,0.401512,-0.323526,0.378208,-0.422132,0.73043,0.105969,0.2085,-0.010089,0.203956,-0.19652,-0.388702,-0.192242,0.216709,0.034492,-0.320818,-0.351178,-0.119781,0.226701,-0.182865,-0.39302,0.128755,-0.059099,0.149528,0.093712,0.162654,-0.096947,-0.561984,0.370155,0.107965,-0.429435,0.328852,0.591972,0.087546,-0.160906,-0.598625,-0.224647,-0.019479,-0.079853,0.207451,0.062541,0.290406,0.130501,0.570198,0.675327
ACAGTC,-0.492343,-0.192793,-0.334993,-0.322619,0.077283,0.132847,0.096644,-0.320268,-0.47963,-0.667328,-0.192459,0.063019,-0.02434,-0.215433,0.154656,0.542541,0.364403,0.281688,-0.391212,0.027972,-0.426383,-0.326569,0.011979,-0.182851,-0.184477,0.233513,0.051291,0.282728,-0.198884,0.111586,-0.352461,-0.21005,0.115214,-0.133578,-0.16419,0.014768,0.149117,0.162441,0.242789,0.206701,0.845784,-0.297969,0.504431,0.045469,0.392315,0.153263,-0.420592,0.044743,0.024625,-0.408764,-0.274714,0.304937,-0.107895,0.314522,-0.135136,-0.268795,0.459451,-0.353754,-0.260863,-0.364036,0.593117,-0.111805,-0.239699,0.054157,0.166477,0.458235,-0.201991,-0.218862,-0.055825,0.028731,-0.164733,-0.420712,0.067019,0.261518,-0.015002,-0.115308,0.31651,-0.067854,-0.387044,0.431871,0.475929,0.310162,-0.94175,-0.198051,-0.329939,-0.64344,0.557691,0.26331,0.057659,-0.037617,-0.643464,0.043826,-0.156709,0.036505,0.579269,0.360195,0.705564,-0.098061,0.366858,0.01228
ACCAAG,0.073189,0.180175,-0.390918,0.030915,-0.119463,-0.381866,-0.239837,-0.245716,-0.730925,-0.021311,0.367496,-0.577891,0.734466,0.162494,0.206712,0.484098,-0.067924,-0.4913,-0.168119,0.215949,-0.174552,0.095372,-0.258896,-0.105156,0.065439,-0.347538,0.467754,-0.167115,-0.184455,0.014553,-0.152266,-0.431749,-0.099275,-0.519736,0.308825,0.84495,-0.169406,-0.023488,-0.185752,0.569969,0.417547,0.124468,-0.08527,0.205797,-0.08857,0.231018,-0.069141,-0.268216,-0.225819,-0.085563,-0.221865,0.359747,0.286203,-0.136087,-0.539681,-0.87395,-0.086024,-0.072659,-0.203471,0.18654,-0.071542,-0.107802,-0.03343,0.295633,0.261008,0.322042,0.058215,-0.043927,0.304933,0.315212,-0.122538,-0.236371,-0.433809,-0.230715,-0.41194,-0.170083,-0.414249,0.132772,-0.095748,0.138315,0.052332,-0.180939,-0.410456,0.098956,-0.277325,-0.175383,0.600203,-0.152841,0.281731,0.528988,-0.442106,-0.008044,0.204198,-0.224787,0.662268,-0.580959,-0.642157,-0.203633,-0.444805,0.393617
ACCATT,-0.272337,-0.109421,-0.052741,0.157648,0.425216,-0.448069,-0.148036,-0.168999,0.088022,0.023043,0.29145,-0.197822,0.438254,-0.1426,0.264972,0.26254,-0.207247,0.569302,-0.215531,-0.019652,0.313193,0.012709,0.148154,-0.468182,-0.163143,-0.285831,0.255739,0.01324,0.015141,-0.466884,-0.274526,-0.825695,-0.17113,-0.212562,-0.206847,0.240258,-0.500208,0.175275,0.418152,0.30567,0.429224,0.060034,0.281141,0.344861,-0.383746,-0.120013,0.220922,-0.529876,0.077998,-0.08985,-0.004639,0.055245,0.250623,-0.049944,0.034859,-0.124731,-0.088988,0.037759,0.192812,-0.477099,0.189479,0.040696,0.085423,0.069742,0.491089,-0.609403,-0.096116,0.780365,0.004303,0.203177,-0.255812,-0.573917,-0.103882,-0.505308,-0.063026,-0.457624,0.1155,0.556911,-0.593024,0.200978,-0.371787,-0.278779,-0.656191,-0.001175,0.090682,-0.161408,0.675048,-0.77494,-0.033055,-0.312035,-0.507966,-0.180367,0.294954,-0.07889,0.544325,-0.590415,-0.258918,-0.718829,-0.440606,0.355392
ACCGAG,0.671495,0.347024,0.269767,0.364247,0.043928,0.168341,-0.150085,0.10722,0.083525,-0.366709,0.206741,0.13819,0.260985,0.169188,0.437231,0.037002,-0.006231,0.200378,0.446141,0.096125,0.038604,-0.045884,-0.116896,-0.145969,0.135909,-0.404453,0.367937,0.374375,0.039429,-0.53355,-0.200772,-0.417777,-0.154596,-0.391495,0.151604,0.666137,-0.089576,0.347688,-0.083123,0.653884,0.517236,0.08164,-0.364465,0.210758,0.324341,0.277849,-0.50608,-0.588808,0.322927,0.229798,-0.508077,-0.339041,-0.020166,0.03562,-0.271001,-0.182428,0.419529,-0.344595,0.154218,0.299931,0.331212,-0.294227,-0.353978,0.465803,0.614071,0.340677,-0.199028,0.431346,-0.064716,0.205086,-0.390051,0.002199,-0.094363,-0.033305,0.067016,-0.394552,-0.412964,-0.234758,-0.4387,0.099914,-0.016807,-0.169569,-0.604237,0.087901,-0.2553,-0.119123,0.213902,-0.637419,0.603977,0.422574,-0.576935,0.219346,0.185349,-0.222912,0.906179,-0.496784,0.050811,0.034833,0.011764,0.287556
ACCGTA,0.406304,0.373782,-0.593869,0.476078,-0.551852,-0.03128,-0.201838,0.212483,-0.3743,-0.568846,-0.394019,0.133299,-0.185172,-0.249862,0.011907,0.027889,-0.330656,0.314978,0.053017,0.436323,-0.850881,-0.416584,0.01079,-0.263769,-0.442151,-0.406384,0.27474,0.459478,0.035409,-0.391856,0.007746,-0.477516,0.221181,-0.630738,-0.065746,0.055389,-0.182345,-0.053447,0.036307,0.650707,0.5177,-0.081201,-0.396297,0.457769,-0.03623,-0.430801,-0.461162,-0.066294,0.002628,0.197627,-0.360214,-0.114123,0.036163,0.183682,-0.374634,0.390765,0.365731,0.040329,0.309168,-0.192408,-0.094102,-0.01461,0.003065,0.250129,0.36312,-0.332219,-0.249888,-0.081113,0.731135,0.146976,0.107405,-0.283323,0.061111,0.145915,-0.107064,-0.163684,-0.411522,-0.19413,0.309728,0.15445,-0.19108,0.058434,-0.286122,0.534801,0.411772,-0.080132,0.640451,0.011164,0.137314,0.236792,-0.771564,-0.179078,-0.023983,-0.23976,0.430292,-0.188054,0.143589,0.059223,-0.120996,0.472258
ACGAAG,-0.196092,0.586307,-0.420076,0.147239,0.360641,0.327005,-0.16895,-0.266305,-0.346573,-0.383474,-0.320924,0.712065,0.787683,-0.23287,0.196606,0.407349,0.151594,-0.221319,0.422774,0.635309,0.196094,-0.116775,0.06959,0.287564,0.011655,-0.302565,0.221156,0.415541,0.395891,0.267055,-0.325109,-0.836067,-0.012181,-0.565252,0.58445,0.542343,0.259311,0.256141,-0.069839,0.663832,0.033431,-0.106471,-0.432941,-0.095322,-0.102619,0.218232,-0.263879,-0.409186,0.1723,-0.105244,-0.201826,0.792956,0.05998,-0.497769,-0.132857,-0.158019,-0.115164,-0.483161,0.17055,-0.200184,0.475846,-0.673607,-0.446449,0.710786,-0.046273,0.344714,-0.270491,-0.512305,0.250726,0.291549,-0.328865,0.481734,-0.400079,-0.067326,0.519031,0.127303,-0.18261,0.204789,-0.302201,0.316914,0.067084,0.000392,0.255007,-0.344409,0.524541,-0.262374,0.14188,-0.161419,0.530895,0.664232,-0.962775,-0.216414,0.325775,0.03146,-0.038811,-0.12356,-0.486663,-0.413489,-0.214353,0.074192
ACGACG,0.059591,0.57025,-0.149555,-0.176352,0.358664,0.058261,-0.47931,0.168597,0.090229,-0.186374,-0.265142,0.379209,0.498098,-0.090366,-0.356771,0.290479,0.047487,0.343512,-0.13301,0.649576,-0.1013,-0.315924,0.234814,0.16213,-0.1185,-0.204222,-0.132336,0.352534,0.196135,0.294864,0.207099,-0.419651,0.286226,-0.857262,0.434749,0.519515,0.292665,0.309954,0.270577,0.46078,0.747997,-0.098836,-0.216456,-0.019022,-0.353859,0.272313,-0.020168,-0.315777,-0.000346,-0.131349,0.062681,0.123481,-0.325034,-0.476161,-0.181123,0.334054,0.171724,-0.3442,0.218541,0.039219,0.60148,-0.224989,-0.111357,0.636279,0.096887,0.276729,0.330489,0.126754,0.416826,0.190783,-0.345432,0.545089,-0.08084,0.052453,0.227313,-0.467259,-0.374106,0.396744,-0.59945,0.249836,-0.408413,0.212287,-0.013747,-0.085971,0.274139,-0.883412,-0.205216,-0.488038,0.315484,0.237448,-0.64087,0.196946,0.114171,0.145998,-0.054358,0.14883,-0.120427,0.065418,-0.323325,-0.322953
ACGACT,-0.018522,0.551424,0.061098,0.102961,0.215114,0.160084,-0.502638,0.214147,0.148826,-0.430257,0.082427,0.301247,0.320241,0.248261,-0.250006,0.375618,0.291544,0.642798,0.106394,0.360596,0.135578,-0.246077,0.259305,-0.011086,-0.114273,-0.28841,0.229199,0.122415,-0.04086,0.045731,0.16752,-0.275504,0.360656,-0.40513,-0.168507,0.429227,0.129826,0.18605,0.306969,-0.099048,0.096947,-0.201538,-0.524383,0.003571,-0.045074,0.173481,0.21793,-0.571768,-0.002511,-0.520558,0.206055,0.461443,-0.109904,-0.445469,0.254266,0.537574,0.676799,-0.428018,0.378426,0.258775,0.63671,-0.090239,-0.125087,0.340867,-0.291311,0.170503,0.333311,-0.042813,0.59904,0.17481,-0.51723,0.457726,0.01508,0.005524,-0.069476,-0.710164,-0.281316,0.159871,-0.255698,0.153532,-0.078269,0.805252,0.093829,-0.053222,0.505519,-0.634695,-0.315591,-0.512468,0.364193,0.085994,-0.153333,0.347348,-0.19185,-0.147348,-0.130237,-0.000958,0.034062,-0.565473,-0.162077,-0.152874
ACGAGC,0.334394,0.567379,0.366948,-0.132183,0.416788,-0.244169,-0.484512,-0.154157,0.387738,-0.920978,0.151315,0.178604,0.379062,0.133123,-0.119552,0.175911,0.116339,0.33109,0.175024,0.512789,0.398966,-0.663812,0.197902,-0.226322,0.223177,-0.14795,0.318223,0.102685,0.279897,0.07953,0.170091,-0.597465,0.20167,-0.486552,0.405375,0.363206,0.066422,0.180003,0.243143,0.158918,0.291415,-0.216516,-0.517669,0.14248,0.133226,0.148122,-0.215629,-0.318926,-4.2e-05,-0.095254,-0.001814,-0.375001,0.139878,-0.626151,-0.524221,0.13094,0.00086,-0.293813,0.36146,0.163019,0.847326,-0.3634,-0.28683,0.393998,-0.003158,0.615706,-0.19568,0.185154,0.513586,-0.122089,-0.296604,0.298378,-0.169938,0.06728,0.02633,-0.081691,-0.400453,-0.016694,-0.786484,0.659702,0.19212,0.180659,-0.460553,0.140422,-0.201067,-0.216595,-0.542588,-0.376325,0.420052,-0.056571,-0.565485,0.159999,0.277237,-0.364287,0.253833,-0.452487,-0.469269,-0.213251,-0.215116,-0.439538
ACGCAA,-0.228533,0.357858,-0.008873,0.012389,-0.44348,-0.26722,-0.434006,0.128481,0.154756,-0.224895,0.207695,0.317,0.599226,0.277848,-0.097915,0.285553,0.015783,0.122537,-0.683184,0.561153,-0.04574,-0.080071,0.014414,-0.289729,0.024211,-0.489438,-0.559209,0.202728,0.118955,0.282066,0.128479,-0.049808,0.150541,-0.441708,0.29224,0.115027,0.248339,-0.042939,-0.426136,0.569579,0.254407,-0.236883,0.255978,0.258386,-0.149422,-0.145369,-0.05887,-0.057978,-0.368788,-0.441456,0.648786,0.591436,0.122278,-0.662505,-0.346257,0.105609,-0.556739,-0.07718,0.033423,-0.195633,0.869549,-0.05914,0.177059,0.770788,0.478087,0.364234,-0.040217,-0.196832,0.06117,0.621428,0.017353,-0.067669,-0.480023,0.255166,-0.036333,-0.543527,0.013217,-0.110499,-0.440712,0.274925,0.039598,0.27454,-0.554114,-0.120836,0.347829,-0.739716,-0.192387,0.114192,0.059914,0.121831,-0.339352,-0.103269,0.272631,-0.325333,0.039708,-0.586353,-0.332371,0.032204,-0.281757,-0.282259
ACGTCA,-0.286249,0.303947,-0.428339,-0.038241,0.372716,0.200048,-0.627161,-0.146683,-0.374873,-0.597871,0.457134,-0.273519,0.150285,-0.287294,-0.462237,0.222909,-0.078178,0.336195,-0.338579,0.266153,-0.399263,-0.191235,0.082208,0.100637,0.036748,-0.541215,-0.257365,0.182334,-0.00919,0.203321,-0.309309,-0.709289,0.517116,-0.667944,0.12938,0.210472,0.470968,0.113517,0.253215,0.12612,0.640428,-0.501415,-0.093221,0.298635,-0.120485,-0.214126,-0.159475,0.314118,0.173901,-0.433524,-0.355645,0.059026,-0.155165,-0.433761,-0.400153,0.21059,0.087376,-0.151046,0.134536,-0.520363,0.548116,-0.011227,-0.230575,0.633982,0.279941,0.326691,0.098196,-0.44876,0.077664,0.125057,0.221553,-0.075981,0.257388,0.560549,-0.051084,-0.435865,-0.059117,-0.11986,-0.584665,0.67934,0.081947,0.451056,0.056522,-0.010537,0.168234,-0.254067,0.135688,-0.192888,0.071342,-0.203062,-0.410357,-0.275327,0.075478,0.111919,0.165394,0.071949,0.1023,0.160462,-0.211871,-0.363134
ACTACA,-0.086855,0.223508,0.046217,-0.150083,-0.226416,0.144348,-0.513267,-0.242233,0.463751,-0.698926,0.569773,0.164198,0.348193,-0.424804,0.001028,-0.202213,0.242131,-0.196045,-0.111587,0.020126,0.167021,-0.151341,0.269355,-0.770975,-0.233747,-0.088743,0.061078,-0.145247,-0.745085,0.429229,-0.095896,-0.267711,0.516453,-0.133457,0.025952,0.028633,0.099416,-0.211496,-0.444638,0.158184,0.432643,-0.013348,-0.088805,-0.036084,-0.079798,-0.795401,0.379661,0.240549,-0.465462,-0.165583,0.014772,-0.010781,0.00385,0.095041,-0.048297,-0.175718,0.360039,-0.241328,0.041119,-0.059277,0.29916,-0.382929,-0.194876,-0.07017,0.521216,0.603542,0.419291,0.264759,0.333954,-0.036478,-0.590853,-0.206722,-0.255473,-0.020163,-0.451021,-0.85363,0.074574,0.033296,-0.349001,-0.357773,0.205118,0.215314,0.035434,0.32746,-0.208711,-0.297545,0.558873,0.168243,0.228773,0.212072,-0.205634,-0.572554,0.254588,-0.202527,0.429874,0.232715,0.11725,-0.126327,-0.238458,0.79117
ACTCAA,-0.204255,0.382198,-0.118114,0.0901,0.044179,0.08407,-0.29333,0.000317,-0.089118,-0.224275,0.530198,-0.152189,0.420917,0.142291,0.222097,-0.166272,0.042328,-0.314514,-0.438735,0.240762,-0.427735,-0.200903,0.136773,-0.423783,-0.489924,-0.490629,-0.366998,0.16695,0.015459,-0.072062,-0.247321,-0.23112,0.317126,0.072921,0.051396,0.755056,0.275996,-0.203103,-0.250757,-0.000484,0.296378,0.088886,-0.323157,-0.366841,0.486583,-0.233468,0.156767,0.446335,-0.37035,-0.489649,-0.175173,0.600183,0.358414,-0.381274,-0.151992,0.526124,0.037316,0.246547,-0.181195,-0.223978,0.162518,0.112755,0.272478,0.264515,0.324857,0.14079,-0.095052,-0.615219,0.235883,0.187737,-0.565441,-0.094487,0.027465,0.295188,0.317126,-0.510364,0.176765,0.065589,-0.045449,0.05943,0.314355,0.070166,-0.523928,0.202233,-0.269537,-0.102151,0.36155,0.467295,0.384851,0.365275,0.083194,-0.200066,-0.265534,-0.219254,0.375093,-0.443999,0.028519,-1.01225,-0.339917,0.015279
ACTCCA,-0.547549,0.029492,-0.289649,-0.216201,-0.501938,0.402464,-0.229962,0.467725,0.18364,-0.778634,0.640495,-0.394165,0.452168,0.664027,-0.304178,-0.167856,-0.213496,-0.220059,0.214663,0.166356,0.192657,-0.575584,0.218139,-0.103942,0.017619,0.068795,0.005484,-0.005845,0.398631,-0.086759,-0.645811,-0.44022,0.047126,-0.127959,0.120547,-0.006615,-0.002856,0.261857,-0.067156,-0.265523,0.210476,0.089038,0.03727,-0.120848,0.149247,-0.085642,0.18646,0.177297,-0.760718,-0.045935,-0.308039,-0.381773,0.418458,-0.45468,0.151068,0.425867,0.446786,0.065379,0.030226,-0.252524,0.379408,0.073594,0.212211,0.259453,0.122523,-0.076646,-0.089837,0.093588,0.277741,0.053358,-0.403372,-0.353056,-0.240114,0.143217,0.012912,-0.705362,-0.301689,0.190054,-0.507685,0.33444,-0.005465,-0.090053,-1.017282,0.415849,-0.20937,-0.036462,0.930804,0.08333,0.365044,0.302595,-0.074509,0.1689,-0.549025,0.133065,0.332159,0.049433,0.07627,-0.960079,-0.386539,0.177915
ACTCGG,-0.216485,0.294184,0.097931,-0.119556,-0.498075,0.631702,-0.147156,0.058258,0.106134,-1.080322,0.098434,-0.181062,0.365532,0.071797,-0.091805,-0.150397,-0.049814,-0.821462,-0.545789,-0.293586,-0.171015,0.012369,0.818695,0.40384,-0.109718,-0.508489,-0.581699,0.98519,0.204503,-0.078349,0.116395,-0.087315,0.153441,-0.890895,0.271741,0.61504,0.010277,0.937317,0.334234,0.071857,0.779932,0.484448,-0.112032,-0.642702,0.281564,-0.094492,-0.451821,0.501776,-0.663232,-0.518272,-0.142736,0.11516,0.698047,0.081165,0.268497,0.00837,-0.027076,0.544072,-0.850288,0.123724,0.457152,-0.24312,-0.58057,0.027381,-0.324609,0.129597,0.43232,0.153085,-0.122587,0.340705,-0.430969,0.250394,0.004236,-0.277252,-0.147612,-0.177622,0.508791,0.289935,-0.357083,0.128289,-0.650883,0.006129,-0.324937,0.492664,0.033147,-0.119711,0.228822,-0.449693,1.093804,0.129857,-0.176688,-0.042233,-0.301659,0.084531,0.545148,-0.339502,0.533667,-0.577259,-0.483649,0.239607
ACTCTG,-0.624191,0.671973,-0.232839,0.246593,-0.328277,0.633031,-0.057435,0.351573,0.06213,-0.59707,0.021497,-0.034436,0.03768,-0.045944,0.228981,0.217413,-0.183202,-0.019085,-0.355218,0.020993,-0.349485,0.090484,0.246023,0.126102,0.240264,-0.42812,0.19249,0.338187,0.347296,0.330941,0.044312,0.237726,0.224042,0.602534,-0.218895,0.546965,0.166947,0.391488,0.00106,-0.188865,0.423715,0.146438,-0.311395,-0.020363,0.248018,0.418685,0.282481,0.234119,-0.247452,-0.184568,0.10314,0.391838,0.456855,0.119193,0.037815,0.346512,0.458408,0.498527,-0.421741,0.342329,-0.089764,-0.150733,0.199006,0.207151,-0.081941,0.163868,-0.001952,0.194909,-0.026882,0.123782,-1.07034,-0.31992,-0.135836,0.066061,-0.499806,-0.266453,-0.203772,-0.346163,-0.889177,0.204106,-0.276044,0.123466,-0.588725,0.235611,-0.177325,-0.055306,0.243321,-0.232393,0.647411,0.031702,0.218722,0.028869,-0.067451,0.022838,0.790199,-0.337073,0.098681,-0.544404,-0.253235,-0.325822
ACTGCA,-0.311025,0.904398,0.014537,0.030278,-0.764229,-0.415081,-0.581783,0.138476,0.376624,-0.412767,0.166217,-0.178311,0.093055,0.487993,-0.364677,0.037125,0.162811,-0.1997,-0.36674,0.14207,0.085183,0.075548,-0.026699,-0.303433,-0.224311,-0.548752,-0.151355,0.049099,-0.170454,0.252138,-0.546672,-0.241356,-0.036071,-0.373945,-0.133999,-0.016226,0.036126,0.201541,-0.020632,0.097089,0.38739,-0.087135,0.410421,0.553966,-0.121828,-0.377507,0.188216,0.115243,-0.782731,-0.134264,-0.686932,-0.05284,0.449384,-0.245296,0.060475,0.311421,0.371461,0.142101,-0.029806,0.216467,0.697047,0.162135,0.221836,0.167137,0.353166,0.440495,0.431152,0.300195,-0.019173,-0.130107,-0.262131,-0.195821,-0.628688,0.087234,0.454695,-0.786216,-0.614534,0.069301,-0.259262,0.24671,0.181843,-0.021411,-0.117466,0.002404,0.074493,0.267216,0.575034,0.238568,0.472466,-0.266178,-0.26436,0.29649,-0.271545,-0.457284,0.618043,-0.256742,0.450699,-0.508405,-0.491725,0.04319
ACTTCC,0.061338,0.099036,0.219965,-0.498988,-0.435792,0.52519,-0.291084,0.324743,0.101982,-0.110179,-0.090139,0.029636,0.732131,-0.23751,-0.343334,-0.076417,0.049756,0.359063,-0.033601,-0.243212,-0.088078,0.131774,0.441281,0.28725,-0.163444,0.271924,0.219959,0.202473,0.175938,0.182964,-0.048121,-0.055888,0.229101,-0.147633,-0.400975,0.352111,0.058081,0.178213,0.449095,0.076195,0.069374,-0.608115,0.331164,-0.057261,-0.206629,-0.378202,-0.388984,-0.250985,-0.519229,0.055001,-0.005253,-0.108907,0.164378,-0.006374,0.001269,0.139687,0.095521,-0.075511,-0.254659,-0.304974,0.381695,0.245417,0.006188,-0.128853,0.242044,0.358862,0.695066,-0.353682,0.933607,0.633699,-0.17894,-0.404816,-0.50766,-0.163712,0.229846,-0.020665,0.121256,0.355342,-0.427875,-0.02035,0.30663,0.501745,-0.789138,0.711145,-0.463653,0.027244,0.426916,-0.168178,0.414654,0.070205,-0.058494,0.114455,-0.523864,-0.350474,0.027794,0.123577,0.006704,-0.690468,-0.06935,-0.19058
ACTTCT,-0.56865,0.347349,0.09048,-0.378609,-0.448395,0.349191,-0.105299,0.447591,0.201444,-0.319434,0.248263,-0.06989,0.412172,-0.181452,0.155765,0.49693,0.15905,0.353737,-0.466429,-0.328649,-0.168303,0.112836,0.218029,0.207895,-0.208171,0.115187,0.288132,-0.315983,-0.205397,-0.154242,-0.174159,-0.062265,0.64678,0.093811,-0.569187,0.350167,0.28147,0.307144,0.758883,0.153471,0.138733,-0.364952,-0.41545,-0.040365,-0.440216,-0.241425,0.124319,-0.104778,0.09637,-0.009457,0.401019,0.503823,0.129772,0.073784,-0.321894,0.510748,0.361449,0.022879,-0.376834,-0.408355,0.098491,-0.107365,-0.127557,-0.08816,0.090863,0.14894,0.318443,0.072746,0.539166,0.514215,-0.348674,-0.267136,-0.606785,-0.315215,0.04399,0.130226,0.118577,0.199518,-0.321268,-0.090033,-0.230946,0.519987,-0.697983,0.377991,0.041946,-0.11378,0.092942,0.12357,0.830111,-0.157253,0.050335,0.291531,-0.267648,-0.20994,0.486636,-0.294642,0.085735,-0.382268,0.005385,-0.29586
ACTTTG,-0.529103,0.496756,-0.035044,0.035175,-0.056639,0.689458,-1.071359,0.020543,-0.265295,-0.131607,0.49433,-0.173763,0.300034,-0.520762,0.323734,0.05751,0.050937,0.131811,0.431432,-0.128019,-0.048105,0.038989,0.380984,0.372571,-0.144762,-0.635141,-0.23943,0.252839,-0.157516,-0.686505,0.244333,-0.223168,0.440989,-0.134121,-0.136257,0.313387,0.015926,0.428235,0.572368,0.049454,-0.248905,0.082678,0.387764,0.404255,0.050044,-0.300133,0.007827,-0.067107,-0.27574,0.054339,-0.246667,0.401577,0.202697,-0.065127,-0.955083,0.439828,-0.140315,-0.10047,-0.28224,-0.129851,-0.069232,-0.067454,-0.043336,-0.412465,-0.101367,0.105298,0.156297,-0.017854,0.875953,0.205654,-0.736631,0.096783,-0.402293,-0.423892,-0.302915,-0.284338,0.056242,0.375528,-0.491278,0.337857,-0.402793,0.108576,-0.129635,0.382516,-0.408192,-0.102702,-0.224221,-0.695967,0.466143,0.569449,0.110871,-0.114489,-0.661239,-0.103556,0.315241,-0.100116,0.128486,-0.311175,0.0983,-0.198873
AGAACG,-0.130165,0.593319,0.1345,-0.026446,0.211363,0.220468,-0.706063,0.491978,-0.319396,0.134677,-0.465568,0.134585,0.546532,0.345699,-0.199058,0.137259,0.097951,0.074528,-0.29323,0.58333,0.129371,-0.925586,0.008119,0.195195,-0.287243,-0.412872,-0.111349,0.474844,0.506631,0.62103,0.226512,-0.410958,0.475031,-0.844567,0.436723,-0.114684,0.436514,0.394854,0.300286,-0.079748,0.538317,-0.274143,-0.514424,-0.367976,-0.278262,-0.285612,-0.132279,-0.106949,0.24913,-0.035465,0.240555,0.237807,-0.436331,0.132616,-0.144281,-0.058816,-0.123901,-0.255209,0.548288,0.060817,0.583616,0.086072,-0.497485,0.43677,0.0485,0.055033,0.36311,0.673169,0.127755,-0.095267,-0.095949,0.037894,-0.131161,-0.26447,0.088222,0.116692,0.101815,-0.050229,-0.269183,-0.302053,-0.070906,-0.125773,-0.293416,-0.089396,0.056681,-0.949003,-0.116227,0.204562,0.025051,0.23764,-0.010232,-0.004415,-0.18872,0.505121,-0.149488,-0.328049,0.055453,0.369854,-0.591605,-0.38617
AGAAGA,0.057507,0.287236,-0.060704,0.115451,-0.008872,0.136315,-0.358007,-0.237003,-0.333554,0.389764,-0.151327,0.300432,0.393093,0.325442,0.198715,0.086675,0.232558,-0.105641,0.237179,0.181409,0.083325,-0.818553,-0.212237,0.211724,-0.119194,-0.177883,0.242451,0.285691,0.323928,0.252071,-0.233516,-0.499006,0.289739,-0.527335,-0.4885,0.282973,0.215135,0.023007,-0.078817,0.094013,0.27883,0.163915,-0.258408,-0.233827,-0.079964,-0.378435,-0.349717,-0.177417,-0.030154,0.105694,0.071368,0.490037,-0.573181,-0.123948,-0.348135,-0.583159,-0.025662,0.179415,-0.354995,-0.121396,0.387845,0.054447,-0.383717,0.512903,-0.074933,-0.18495,-0.058114,0.191336,-0.266393,-0.021802,-0.534938,-0.217205,-0.462513,-0.131926,0.358489,0.109003,-0.277919,-0.115388,-0.060746,-0.129147,-0.289369,-0.052609,-0.115674,0.097566,0.208336,-0.021051,-0.198507,0.174003,-0.158004,0.211923,0.246375,-0.258102,0.003635,0.047678,-0.022557,-0.432223,0.289003,-0.150489,-0.079406,0.397211
AGAATA,0.127786,0.35351,0.201541,0.594503,-0.538768,0.172967,-0.496136,-0.271731,-0.184861,0.128289,-0.156738,0.541311,0.34223,0.176731,0.282057,0.303106,-0.059244,0.013599,-0.106556,0.644264,0.093832,-0.49675,-0.416287,-0.049158,0.050681,-0.022984,0.241224,0.657363,0.183767,0.436784,0.235299,-0.41201,-0.057911,-0.413912,-0.101275,-0.475049,0.284862,-0.19754,0.327289,0.1203,0.062699,0.189509,-0.484963,-0.070653,0.04251,-0.562095,-0.158619,-0.063664,-0.21916,-0.431628,-0.067654,0.181855,-0.828021,0.009526,-0.263637,0.141933,-0.147879,-0.299082,-0.45025,-0.431539,0.085655,0.288287,0.109996,0.062951,-0.083754,-0.338766,0.270794,0.460125,-0.095331,0.15218,-0.202398,-0.182468,-0.319679,-0.097684,-0.151855,0.232057,0.225029,-0.187281,-0.19258,-0.589775,0.120038,-0.294652,-0.50094,0.129761,0.092585,-0.254929,0.307934,0.134386,-0.080452,-0.007403,0.533121,-0.178904,-0.60219,-0.178464,0.052073,-0.222379,-0.30412,0.222568,0.046172,0.514472
AGACAC,0.128999,0.151389,-0.426606,0.057838,-0.730614,0.06624,0.334296,-0.921821,-0.21912,-0.080473,0.080327,0.246334,0.115912,0.468192,-0.175695,0.092799,0.17454,0.622105,-0.213144,-0.155429,-0.082334,-0.960659,-0.137617,0.053645,-0.042435,-0.083354,-0.114689,-0.037706,0.117895,0.125227,0.04549,-0.245957,0.080719,-0.601929,0.014144,0.144505,-0.100396,0.098526,-0.273916,-0.505055,0.310822,0.276607,-0.429383,-0.463794,-0.075916,0.204879,-0.108542,0.02438,0.033894,0.023914,-0.154224,0.37573,-0.676238,0.317145,-0.486715,0.230444,0.132761,0.17289,-0.293006,-0.105739,0.3189,0.485424,-0.275044,0.172753,-0.032433,0.436084,0.265652,0.806855,0.487152,0.190276,-0.554041,-0.368419,-0.262583,0.288971,0.160798,-0.467521,-0.062857,0.268231,-0.273343,-0.279654,-0.050135,0.583669,-0.380355,-0.193633,0.160062,-0.285767,0.140817,-0.467154,-0.650573,0.12022,-0.108606,-0.118001,-0.183102,-0.225823,-0.076708,0.020639,0.535667,0.059989,0.147234,0.199902
AGACTA,0.277076,0.215735,-0.347569,0.226984,0.094183,0.776628,-0.315689,-0.216831,0.04142,-0.254661,0.277797,0.195148,0.160885,0.187543,0.050399,0.268432,0.423814,0.311197,0.157001,0.280027,-0.000705,-0.606476,-0.281035,-0.213191,-0.38597,0.087779,0.356085,-0.005969,-0.226247,0.193367,0.3484,-0.214162,0.075568,-0.560859,-0.391821,-0.056418,-0.251639,0.109061,-0.223811,-0.190126,0.116756,0.289123,-0.723107,-0.646831,-0.039022,-0.864525,0.386896,-0.00128,-0.258398,-0.270976,0.050513,0.281402,-0.494398,0.094156,-0.266561,-0.110632,-0.194441,-0.213309,-0.095384,-0.251392,0.030175,0.296497,-0.061756,0.005302,-0.677703,0.072642,0.270243,0.209277,0.267298,0.125701,-0.566466,0.069481,0.020687,-0.026299,-0.507895,-0.615763,-0.181875,-0.154097,-0.232653,-0.051412,0.082438,0.505804,-0.154971,0.374908,0.310027,-0.342282,0.105154,-0.062776,0.06873,-0.077247,-0.044447,0.018457,-0.312815,-0.460109,0.120597,0.227151,0.257366,0.067218,-0.62226,0.789032
AGAGAG,0.316124,0.217897,0.13652,-0.06784,0.171075,0.431698,-0.528706,-0.134727,0.224605,-0.236544,0.008969,0.010674,0.340573,0.433812,0.215165,0.013383,0.072208,-0.236471,0.267685,0.056072,0.007634,-0.763398,0.276842,0.424602,-0.015928,0.116105,0.131755,0.264826,0.300651,0.111435,0.155735,-0.134757,-0.284568,-0.599719,0.04473,0.303188,-0.012193,0.252004,-0.318508,0.225928,0.241357,0.37115,-0.430624,-0.401231,-0.05058,0.278668,-0.100025,-0.121515,-0.231542,0.125052,-0.032996,0.114258,-0.209624,0.017944,-0.502029,-0.478092,0.18008,-0.020015,-0.120289,-0.15483,0.028839,-0.009061,-0.579006,0.566615,0.308359,-0.057021,-0.050062,0.239915,-0.570801,0.095131,-0.823865,-0.536996,-0.308883,0.037073,-0.014405,0.074363,-0.233969,-0.325307,0.104011,0.03682,0.128695,0.265391,-0.611853,0.210311,-0.12989,0.206685,-0.261842,-0.045794,-0.376292,0.296409,0.070631,0.001125,-0.244362,-0.081306,0.409408,-0.312109,0.218899,0.490197,0.102588,-0.009746
AGAGTA,-0.117271,0.00188,-0.096403,0.204394,-0.108352,0.484152,-0.193504,-0.076344,0.005581,-0.241502,0.030937,0.091762,-0.344205,0.279685,0.541734,0.124306,0.452967,0.079686,0.44519,-0.003417,-0.064494,-0.820536,0.219663,0.099472,-0.543291,-0.167221,0.516464,0.429215,0.416572,0.448517,0.530925,-0.739684,-0.2036,-0.872314,-0.110607,-0.014225,-0.351271,-0.011117,-0.13414,0.262061,-0.162878,0.415473,-0.310318,-0.242192,0.383901,-0.063862,0.045058,0.276835,-0.397836,-0.259287,-0.163569,0.11321,-0.038481,-0.100073,-0.193138,0.06952,0.194571,-0.626066,0.019335,0.023349,-0.121937,0.066218,0.043543,0.358217,0.325787,-0.368663,-0.100409,-0.028532,-0.109428,-0.130982,-0.251389,-0.32697,-0.218933,0.257786,-0.286987,0.122298,-0.147634,-0.512431,0.074458,-0.328904,-0.227884,0.269471,-0.67967,0.475645,0.136447,0.073608,0.159535,0.418307,-0.220535,-0.01921,-0.104853,-0.25087,-0.389238,-0.118519,0.33039,0.08451,-0.049305,0.511435,0.162264,0.598187
AGATAA,-0.094846,0.26979,-0.250192,0.177482,-0.313033,0.085244,-0.332161,-0.137705,-0.154801,0.228168,0.032314,0.279437,0.63646,0.056458,0.001997,0.198808,0.542726,-0.296837,0.035488,-0.113215,-0.339187,-0.748779,0.119701,0.395597,-0.343059,-0.255336,0.02292,-0.208662,0.183785,0.10168,0.007682,-0.103995,0.231017,-0.72681,-0.475766,-0.322359,-0.197152,-0.239361,0.082068,0.636457,-0.331266,-0.038892,-0.264657,-0.594299,0.184862,-0.162915,-0.548844,0.048005,-0.457512,-0.450165,-0.425599,0.313257,-0.400503,-0.084171,-0.294793,-0.144994,0.064534,-0.043817,-0.371239,-0.195221,-0.084144,0.11017,-0.011122,-0.034605,-0.346905,-0.019794,-0.105235,0.041743,-0.488752,-0.071727,0.040049,-0.430452,-0.380833,-0.07925,0.164114,-0.34889,0.68602,-0.132832,-0.527754,-0.463968,0.192728,-0.159129,-0.196499,-0.240051,0.347603,-0.197482,0.230239,-0.057926,-0.458051,-0.364341,0.189323,0.036554,-0.493414,-0.69054,0.373852,-0.124837,0.014604,0.438102,-0.191983,0.114402
AGATCA,0.150314,0.145933,0.361189,-0.12287,-0.047076,-0.118051,-0.025242,-0.379836,-0.208828,-0.118887,0.225078,-0.20329,0.534807,0.42524,0.21234,0.150543,-0.123104,0.07038,-0.449543,-0.138582,0.029761,-0.673842,-0.010242,-0.147564,-0.24727,-0.394981,0.055982,-0.076441,0.224379,0.162677,-0.566519,-0.861528,0.183222,-0.526509,-0.204989,0.386223,0.359952,-0.226782,0.170236,0.066245,-0.141528,0.110241,0.104337,-0.022699,0.347028,-0.295943,-0.249492,0.418278,-0.085111,-0.091911,-0.772168,-0.0065,-0.575033,0.083366,-0.920213,-0.202273,-0.112703,0.034276,0.138898,-0.456876,0.107216,0.195141,-0.09884,0.295778,-0.232467,0.024292,-0.293914,0.551647,-0.131283,-0.006972,-0.515243,-0.275355,-0.35404,0.320119,0.057942,-0.477757,0.431421,-0.319121,-0.374407,-0.288504,-0.075285,0.067942,-0.276333,-0.523792,-0.210208,-0.061955,-0.170651,-0.193259,-0.071954,-0.060455,0.077549,0.710108,0.381458,-0.621062,-0.118724,0.509516,0.345409,0.308628,-0.903086,-0.023937
AGATCG,0.168225,0.308981,-0.211789,0.012105,0.177042,0.283851,-0.193646,0.079822,-0.203101,-0.071237,-0.212558,-0.457853,0.408541,0.322771,0.030008,0.278782,-0.192444,-0.188454,-0.163488,0.509167,0.008785,-0.501769,0.304826,-0.359262,0.0915,-1.074441,0.066256,-0.015304,0.222084,0.173534,-0.094057,-0.775919,0.407184,-1.100356,-0.023236,0.162313,0.022233,0.313448,0.324178,0.127484,0.425661,-0.074139,0.17694,-0.344083,0.431615,-0.33697,-0.487524,0.368876,-0.265858,0.109908,-1.133268,-0.749241,-0.723549,0.095584,-0.985683,-0.709639,-0.054229,-0.269404,0.129285,0.086507,0.457384,-0.358439,-0.496968,0.540768,-0.13913,0.430873,0.022434,1.005089,-0.507108,-0.1749,-0.469964,0.037447,-0.56323,-0.041928,-0.149031,-0.383786,-0.240663,0.034263,-0.344236,-0.339975,0.228618,-0.276538,-0.660122,-0.116229,0.40487,0.063348,0.464575,-0.51441,-0.098773,-0.564093,-0.338013,0.766252,0.766548,-0.649175,-0.723385,0.106958,0.980867,0.197406,-1.417251,0.127805
AGCAGA,-0.023185,0.011732,-0.175242,0.236025,0.192938,-0.073336,-0.614774,-0.313316,-0.240472,0.188864,0.263669,-0.224707,0.384208,0.750172,-0.186664,0.129245,0.363196,-0.153855,0.015668,0.102647,0.304687,-0.326651,-0.079291,0.179215,-0.129075,-0.349268,-0.116823,0.255447,-0.052525,0.305603,0.191081,-0.218048,0.270622,-0.353796,-0.574637,0.134847,0.1792,0.287448,-0.185994,0.665568,0.20791,0.245587,-0.117758,-0.319278,-0.306817,-0.049529,-0.51411,-0.039731,-0.404785,0.046317,-0.353121,0.244716,-0.235791,0.146986,-0.136865,-0.130514,0.154461,0.368402,-0.197354,-0.011842,0.972052,0.031302,-0.026711,0.139994,0.348228,-0.055029,-0.317579,0.467334,-0.094745,0.231012,-0.501761,-0.240625,0.016793,0.120898,-0.229649,0.176053,-0.277164,-0.064761,-0.023211,0.244188,-0.069311,0.025297,0.197179,0.037939,-0.221982,0.141256,-0.758448,-0.274214,0.201151,0.086764,0.08459,0.287239,-0.810333,-0.455367,0.112469,0.014437,-0.251452,0.389197,-0.012866,0.285912
AGCCCA,0.035711,-0.294472,0.447964,-0.721075,0.211203,0.279128,-0.154134,-0.499541,-0.750775,0.005326,0.101467,-0.279677,-0.019476,0.33366,-0.60324,0.029134,0.095231,0.233107,-0.057243,0.141641,-0.04191,-0.578132,0.207832,-0.06833,0.070548,-0.091833,-0.198157,0.509112,0.508142,0.091291,0.15556,-0.41987,-0.067972,-0.468532,-0.022276,0.032692,-0.069919,-0.445139,-0.300881,0.385657,-0.190521,0.048641,-0.447631,-0.013307,-0.589964,0.07487,-0.334517,0.680612,-0.862077,0.411447,-0.087602,0.08394,0.113195,0.105423,-0.26142,0.218346,-0.248588,-0.327865,-0.442325,-0.265416,-0.060304,0.19061,0.056294,0.1302,0.034998,0.473439,-0.1722,0.405828,-0.161942,-0.222629,-0.480254,0.073282,-0.293129,-0.161136,-0.340571,-0.131584,-0.455278,0.332146,-0.38409,0.104394,-0.200878,0.02004,-0.282118,-0.367092,-0.632037,0.027963,-0.021695,-0.153637,0.361385,-0.423102,-0.010225,-0.081584,-0.087928,-0.495869,0.36852,0.002077,0.283721,-0.107671,-0.273132,-0.093674
AGCGAC,0.787907,0.141274,-0.075662,0.029442,0.016426,0.136298,-0.429841,0.198673,-0.392032,-0.061753,0.03629,0.090581,0.270122,1.03896,-0.342484,0.038173,0.378888,0.194715,-0.013951,0.246111,0.036997,-0.378769,0.309713,-0.050944,-0.178035,-0.398679,0.160724,-0.151816,-0.113005,0.45448,0.173752,-0.170663,0.363498,0.112574,-0.440784,-0.164103,-0.156249,0.164191,-0.16735,0.290242,0.065702,0.605113,-0.618959,-0.191741,-0.314115,0.497127,-0.264715,0.119258,-0.445449,0.270015,-0.17832,0.03708,-0.161726,-0.059079,-0.01378,0.343491,0.2624,-0.485971,-0.091949,-0.399541,0.581192,0.177513,-0.327912,0.549098,0.244428,0.122289,0.041126,0.687335,0.545101,0.232291,-0.343102,0.349457,0.270148,0.047059,-0.250513,-0.479466,-0.638079,0.544594,-0.108316,0.191098,-0.007138,0.963411,-0.028438,-0.298126,0.175706,-0.603939,-0.27305,-0.468353,0.014418,-0.175409,0.153413,0.007523,-0.349355,-0.030207,-0.085063,0.367246,0.440681,-0.272558,-0.076825,-0.068792
AGCTGA,0.35157,0.104039,0.122564,0.086366,-0.017862,-0.310376,-0.188083,-0.001126,-0.435038,-0.095159,-0.305572,0.30699,0.233781,0.528259,-0.046343,-0.196558,0.316274,-0.647894,-0.052339,-0.262674,-0.243195,-0.084806,0.376767,-0.302574,-0.160392,-0.580373,-0.287611,-0.004189,0.066409,0.540501,0.195402,-0.281715,0.253118,-0.489448,-0.683204,0.23481,-0.383879,0.615672,0.135725,0.24928,0.181388,0.11908,-0.177726,-0.219107,-0.442016,0.022178,-0.098912,-0.211422,-0.169371,-0.292329,-0.257796,-0.375863,-0.039446,-0.176219,-0.678332,0.063437,-0.294471,-0.013244,-0.000768,-0.017305,0.677816,-0.263611,-0.126932,0.050829,-0.13639,-0.241482,-0.065013,0.520029,-0.669843,-0.318793,-0.656531,-0.158235,0.298685,0.039353,-0.873234,-0.32847,-0.426236,-0.111234,-0.486069,-0.160816,0.066541,0.066266,0.098801,-0.156307,-0.566911,0.168416,-0.125087,-0.220016,0.22849,-0.074162,0.047927,-0.229178,-0.080575,-0.664083,-0.036545,0.280398,-0.257148,-0.262264,0.184204,0.04708
AGGAGA,0.240193,0.436737,0.041555,-0.601459,-0.029922,0.250069,-0.621662,-0.2172,0.025983,0.043537,-0.054487,0.15334,0.197791,-0.040161,0.123492,-0.304271,-0.004119,-0.087548,0.214587,0.310033,-0.20459,0.367748,-0.01991,-0.322618,-0.066271,0.048415,0.093247,0.357537,0.351638,0.011442,-0.215247,-0.150205,0.162727,-0.520936,-0.453309,0.463685,-0.114062,0.931531,-0.472687,0.505583,0.432171,0.048149,-0.347932,-0.07542,0.113653,-0.322028,-0.575643,0.098767,-0.137419,0.106606,-0.223426,0.204189,-0.320433,-0.002338,-0.507267,-0.390542,-0.10925,0.020264,-0.339805,-0.222918,0.371914,0.090969,0.011515,0.690894,0.180082,-0.033217,0.360236,0.473672,-0.46661,0.182374,-0.831286,0.096058,0.129775,0.475774,0.117187,-0.188084,-0.25436,-0.008031,-0.335009,-0.468501,0.170327,-0.288724,-0.258276,0.123286,-0.045904,0.333527,-0.377213,-0.241456,-0.589892,0.056833,0.371295,-0.019547,-0.772446,-0.43936,-0.385336,-0.369779,-0.082602,-0.116165,-0.131072,0.296433
AGGAGG,0.031398,0.354521,0.085307,-0.404935,0.333447,0.264756,-0.457194,0.19781,-0.253982,-0.466154,-0.091136,0.027,0.174856,-0.081982,-0.000755,-0.514537,-0.062553,-0.035105,0.018277,0.07139,-0.172507,0.215297,0.470912,0.075313,0.037638,0.032452,-0.005525,0.520595,0.35135,0.175157,-0.322427,-0.216839,0.126351,-0.351894,0.261346,0.325853,-0.213308,0.276619,-0.136633,0.324805,0.379736,0.547954,-0.29372,0.010518,-0.034616,0.330333,-0.587863,-0.046294,-0.308616,-0.195734,-0.092152,0.085288,0.119415,0.078451,-0.411251,-0.127781,-0.208222,-0.064327,-0.260168,-0.254363,0.24565,0.193004,-0.254378,0.410775,0.107109,0.059466,-0.039103,0.114718,-0.462976,-0.40289,-1.176199,0.51506,0.141351,0.274869,0.170875,-0.015832,-0.050123,0.141836,0.240115,-0.599203,-0.519224,-0.190442,-0.313049,0.437214,-0.207575,-0.486625,-0.001365,-0.293432,-0.225698,0.204753,0.138361,0.390227,-0.265543,-0.609053,0.198396,-0.507163,0.117898,0.054541,-0.046677,0.002742
AGGCCT,0.030338,0.473257,0.011997,0.023614,0.042334,0.528096,-0.047996,-0.423204,-0.181855,-0.48096,-0.562785,0.643744,0.024678,0.234469,-0.232831,-0.253842,-0.532532,0.046507,0.010813,0.516867,0.480513,0.246228,0.219195,0.025203,-0.229372,0.355302,0.247588,-0.04976,0.823719,-0.15863,0.092147,-0.007821,0.804747,0.172657,-0.44705,0.439198,0.09743,0.004639,0.115446,-0.376014,0.421516,0.810907,-0.092442,0.210656,-0.296372,0.024817,-0.318656,0.042094,-0.254202,0.034789,-0.433216,0.578879,0.081482,-0.030794,0.083004,0.09052,-0.065268,-0.675665,-0.183325,-0.4445,0.024606,-0.624674,-0.023266,-0.101049,0.006265,0.015279,-0.4399,-0.131327,0.148519,-0.264623,-0.29989,-0.129285,-0.074174,-0.107567,-0.366428,0.072147,0.087175,0.865848,-0.027433,-0.194215,-0.485758,0.29952,-0.481153,0.336577,0.02173,0.011737,0.284429,0.136219,-0.289748,0.165234,-0.011583,0.22336,-0.298197,-0.440549,0.177773,-0.220685,0.158954,0.398331,-0.565916,-0.309284
AGGCTC,0.056445,0.427394,0.051845,0.190207,-0.298626,0.308557,0.032325,-0.193851,-0.275188,-0.670975,-0.36959,-0.14552,0.17769,0.744415,-0.568723,-0.333799,0.16781,-0.125541,-0.639143,-0.22226,0.44149,-0.114387,0.474546,-0.168999,-0.469543,-0.45212,0.188815,-0.15165,0.388247,-0.103774,-0.447038,0.035639,0.57856,0.055935,-0.327215,0.522892,-0.531373,0.09889,-0.043739,0.086453,0.61518,0.140723,-0.005392,0.372082,0.03996,0.640049,-0.219739,0.345991,-0.149086,0.248974,-0.231371,0.503538,-0.26259,-0.002555,0.36587,0.231107,0.344603,-0.624511,-0.403615,-0.526496,0.1746,-0.50203,0.18562,0.151102,-0.272806,0.07758,-0.235026,0.072435,-0.409086,-0.117925,-0.177831,-0.1287,-0.200933,0.281067,0.384955,-0.10722,0.132745,0.230281,-0.05603,-0.272664,-0.219213,-0.131047,-0.44346,0.43384,-0.359316,-0.320249,-0.053075,0.004652,-0.436687,0.345536,-0.017972,-0.346864,-0.126308,-0.601091,0.183082,-0.473092,0.410676,-0.035606,-0.113929,-0.121438
AGGGTC,-0.040997,0.290358,0.171434,0.338611,0.042864,0.731879,0.189849,-0.245964,-0.863458,-1.005696,0.023064,-0.368917,0.128029,-0.232487,-0.201252,0.017333,-0.227379,-0.066409,0.018702,0.188701,-0.147148,0.027015,0.43671,-0.361937,-0.19115,0.004761,0.480576,0.041557,0.779523,-0.127676,-0.163818,0.246055,0.236722,-0.020972,-0.275932,0.120673,-0.101818,-0.054939,0.250738,0.081068,0.620578,-0.365099,0.211354,-0.088216,0.084597,0.368323,-0.305147,0.055952,0.282972,-0.056835,-0.277432,0.73926,-0.102164,-0.147891,0.175709,-0.152629,-0.005552,0.144881,-0.355312,-0.562418,0.30792,0.533672,-0.622297,0.669922,-0.150205,0.310188,0.169383,0.639895,-0.478989,-0.08037,-0.501202,-0.1249,-0.388898,0.209758,-0.102218,-0.141678,0.102313,0.173892,-0.345947,0.012241,-0.162486,0.007609,-0.787478,-0.507007,-0.287675,-0.645025,0.319574,0.03703,-0.151028,0.049962,0.058032,0.16577,-0.385824,-0.290506,0.095304,0.072459,0.399806,0.381138,0.346287,-0.023486
AGGTGC,-0.125121,0.517458,-0.472714,-0.362486,-0.065342,0.380551,-0.419115,0.149514,0.132331,-0.932709,-0.348535,0.031813,0.105572,0.076463,-0.083464,-0.118138,0.062334,0.34233,-0.037405,0.244383,0.344911,-0.152591,0.032528,-0.055844,-0.37179,-0.163567,-0.362228,-0.495788,0.519111,0.207539,-0.096941,0.21511,0.31895,-0.348297,-0.06925,0.773051,-0.055717,-0.282075,-0.101054,0.382927,0.296155,0.602229,0.569909,-0.100378,-0.625433,0.055455,0.011569,0.297509,0.333741,-0.262899,-0.474267,0.480943,-0.349319,-0.058904,-0.090888,-0.048823,-0.460295,-0.503581,-0.064875,-0.255381,0.242425,0.134829,-0.07365,-0.002166,-0.125551,0.359257,0.509982,0.832781,0.059521,-1.171388,-0.576952,0.058065,-0.394414,-0.019778,-0.172853,-0.126726,-0.066702,0.175617,0.019432,-0.03514,-0.04615,-0.05474,-0.073194,0.527224,0.040367,0.086091,0.275459,-0.357627,-0.418839,-0.070356,-0.222895,0.128179,0.280858,-0.599896,0.109289,-0.159759,0.226214,0.304925,-0.051231,-0.048325
AGGTTC,0.202398,0.413607,0.277111,-0.183927,-0.012789,0.238342,-0.385164,-0.025047,-0.314014,-0.753415,-0.229181,-0.593203,0.684186,-0.029501,0.050875,-0.5971,-0.248653,0.493481,-0.653808,-0.469269,0.253103,0.159986,0.226635,0.380246,-0.470263,-0.203921,-0.058784,-0.670481,0.512142,0.346007,-0.23109,0.164576,0.438887,0.29775,-0.554212,0.434127,-0.330511,0.081145,-0.267747,0.424887,-0.259558,-0.133506,-0.010064,-0.11146,-0.142334,-0.000622,-0.124874,-0.044349,-0.212225,-0.006029,0.046402,0.624345,-0.011042,-0.033501,0.396613,0.451866,-0.341588,-0.269502,-0.238094,-0.585874,0.308348,0.277119,0.249451,0.965026,0.018208,0.385832,-0.28998,0.686657,-0.253009,-0.158674,-0.250673,-0.399718,-0.021451,0.212292,-0.270562,0.125431,-0.318562,0.101676,0.155414,-0.256614,0.007771,0.15148,-0.364483,0.341431,0.221553,-0.449885,0.389465,-0.359315,0.275015,-0.15863,-0.19827,0.043179,0.047025,-0.453224,-0.378137,-0.35533,0.197987,0.278488,-0.36517,-0.401198
AGGTTG,-0.134213,0.417301,0.222079,-0.252929,0.169478,0.310477,-0.718329,0.00987,-0.432566,-0.477748,-0.190607,-0.149598,0.070092,-0.124155,0.335856,-0.333834,-0.400031,0.223129,0.225675,-0.393978,0.42627,0.450052,-0.033209,0.26389,0.451471,-0.874062,-0.381185,0.044176,0.406445,0.482845,-0.203076,0.380042,0.633776,-0.296357,-0.07058,0.140328,-0.505752,0.329597,0.048323,0.441611,0.304327,0.540486,0.358014,-0.226337,-0.316691,0.044575,-0.019422,-0.033267,-0.238903,0.022973,-0.167671,-0.098569,-0.11726,0.160546,-0.096961,0.310306,-0.634375,0.08195,0.085824,-0.783763,0.273013,-0.118607,0.160176,0.196643,-0.440495,0.213699,-0.561881,0.669817,-0.015129,-0.326046,-0.680202,-0.645546,9.2e-05,0.218864,-0.489321,-0.538612,0.02001,-0.168241,0.350914,-0.358858,0.110491,-0.019483,-0.202655,0.414931,0.100106,-0.293449,0.233963,-0.381824,-0.018796,0.425259,0.225142,0.156527,-0.110467,-0.073293,0.025698,-0.666934,0.052771,0.407553,-0.182658,-0.2171
AGTCCT,-0.241967,0.134507,-0.309159,0.249696,0.322219,0.481461,0.239411,-0.290518,-0.643757,-0.08771,-0.049481,0.086356,0.035018,0.111073,-0.2041,0.083339,-0.156418,-0.110798,-0.532513,0.167362,0.125671,0.361085,0.259754,-0.057107,-0.585138,0.420103,-0.062656,0.0289,0.771283,0.361284,0.265265,-0.412374,-0.009983,-0.162496,-0.559827,-0.271846,-0.097147,0.160692,0.08912,-0.047753,0.405245,0.312922,0.595063,-0.327667,0.215885,0.17049,-0.714234,-0.466431,-0.004494,-0.177479,-0.158382,0.641884,-0.127632,0.073844,-0.158126,-0.50814,0.118487,-0.638528,0.444686,-0.346181,0.1977,0.1244,-0.391148,-0.042953,-0.018631,0.277497,0.112284,-0.281551,0.63662,-0.115888,-0.282549,-0.525191,0.118196,0.179502,-0.178615,-0.004097,0.174237,-0.441378,-0.255801,0.117253,0.017448,0.643532,-0.586519,-0.016121,-0.460826,-0.172412,0.034203,-0.09014,-0.002224,-0.217693,-0.020268,0.03243,-0.470846,-0.246357,0.07264,0.123984,0.45789,-0.34065,0.183094,-0.326819
AGTCGG,-0.121235,-0.059986,0.230728,-0.001433,-0.018881,0.341916,0.278695,-0.154363,-0.5506,-0.314015,-0.004902,0.099199,-0.197773,-0.121159,-0.062036,0.115271,-0.319693,-0.64677,-0.535859,-0.03667,0.099869,0.196072,0.004622,0.314527,-0.434409,-0.433739,-0.596085,0.235554,0.535838,0.354746,0.351347,-0.451366,0.378789,-0.955878,-0.062891,-0.186468,-0.377065,0.345419,0.130651,0.516611,0.54498,0.277055,0.328137,-0.285697,-0.09988,0.659909,-0.758551,0.09327,-0.36418,-0.635488,-0.297438,-0.201986,-0.074526,0.688038,0.345655,-0.633847,-0.168387,-0.090333,-0.277398,-0.281891,0.276395,-0.259384,-0.50505,0.102429,0.009697,0.115379,0.435999,0.247421,-0.20101,0.134641,-0.309311,0.189519,-0.461666,-0.184427,0.093332,-0.071392,0.227095,-0.227196,-0.134877,-0.102139,-0.512463,0.289691,-0.402033,-0.030178,0.339572,-0.157011,0.056588,-0.027528,0.120547,-0.163797,-0.169788,0.110719,-0.411115,0.042062,0.39746,0.373927,0.71784,0.069328,-0.24129,-0.187192
AGTTGC,-0.617824,0.200016,0.428867,-0.105456,-0.137574,-0.083692,-0.199408,-0.383742,-0.278228,-0.158522,-0.091004,0.060646,0.026567,0.476545,0.256894,0.088263,0.132627,0.154672,0.050219,-0.066728,0.299901,0.312223,-0.473381,-0.138711,0.015139,-1.010695,-0.295591,0.290173,0.526445,0.513051,-0.136419,0.163096,0.531476,-0.372161,-0.049695,-0.279395,-0.377396,0.349893,-0.090054,0.087585,0.090558,0.414739,0.068245,-0.236267,-0.349787,0.204082,-0.066918,-0.252833,-0.323523,-0.057447,-0.282098,-0.070683,-0.131742,0.175231,-0.088099,0.076409,-0.572103,-0.867492,0.345336,-0.584641,-0.057318,0.105516,-0.131266,-0.010653,-0.320358,0.461863,0.249557,-0.330167,0.294047,-0.91808,-0.630495,-0.40369,-0.511088,-0.332493,-0.171057,0.041546,-0.012342,-0.707803,-0.376747,0.00438,-0.041889,0.148081,-0.492121,0.565154,-0.017231,-0.320818,0.251726,-0.122973,-0.032233,-0.283833,0.055077,0.122833,0.00055,0.122629,0.078397,0.198106,-0.08832,0.003015,-0.054851,-0.367539
ATAAGG,-0.190433,0.507375,-0.100962,-0.341242,0.04452,-0.318326,0.172059,-0.180795,-0.435046,-0.172467,-0.044025,0.47783,0.697976,-0.246506,0.035202,0.221284,-0.182591,-0.088127,-0.061513,0.716768,0.26163,0.02553,0.685359,0.524198,0.183105,-0.300057,0.406159,-0.337078,0.341534,0.274051,-0.148503,0.086293,-0.208356,-0.558908,0.587794,0.178012,-0.542183,-0.190608,-0.067895,0.556014,-0.039402,-0.178607,-0.499863,-0.225245,0.009992,-0.155904,-0.055816,0.030098,-0.176255,-0.624443,-0.42804,-0.038654,0.171504,0.220959,-0.512198,-0.276512,0.100254,-0.068047,-0.200359,-0.356386,-0.224466,-0.133247,-0.33994,-0.233385,0.08491,0.369431,-0.078687,0.166943,-0.805689,0.126788,-0.657712,-0.101783,-0.354834,-0.054774,0.148437,-0.27235,0.305716,0.363711,0.30158,-0.15462,0.102115,-0.223679,0.393837,0.559495,0.198442,-0.606535,0.244603,-0.14957,-0.508553,0.561209,0.193178,0.300912,-0.327205,-0.422119,0.012149,-0.157237,0.073023,-0.219005,0.185358,-0.186471
ATAGTA,-0.331043,0.229552,-0.395968,-0.080983,-0.538441,-0.008275,-0.161503,-0.1857,-0.120232,-0.258733,-0.49791,0.419442,-0.113775,-0.289743,-0.035998,0.53998,0.332684,0.039466,-0.094647,0.388563,-0.032384,-0.037896,0.259817,-0.062949,-0.225885,-0.332878,0.190845,0.392449,0.174348,0.118895,0.179358,-0.907743,-0.320264,-0.063856,0.018543,0.092558,-0.643462,-0.173502,-0.057468,0.636656,-0.322888,0.222367,-0.199707,-0.39422,-0.032156,-0.638416,0.256521,-0.18322,-0.349176,-0.798093,-0.640638,0.116301,-0.041373,-0.285028,-0.397905,0.261781,0.339215,-0.258325,0.587448,-0.183489,-0.258379,0.091676,-0.339593,0.060828,0.431156,-0.501571,-0.18902,-0.042539,-0.270258,-0.094828,-0.066257,-0.164518,0.183251,0.240038,-0.06569,0.046464,-0.202868,-0.286776,0.164697,0.015011,0.118517,-0.036379,-0.463078,0.408701,0.437696,-0.527835,0.278969,0.297754,-0.430221,0.281031,0.141677,-0.114154,-0.020461,-0.255066,-0.051107,0.539983,-0.176428,-0.225753,0.29785,0.3151
ATCAAC,-0.169771,0.353823,0.515094,-0.266193,-0.179457,0.116601,-0.308389,0.634189,0.259679,0.124659,0.051963,-0.21061,0.046873,-0.000441,-0.158079,0.586213,0.045609,0.213811,-0.639857,-0.215854,-0.350086,-0.689908,-0.281548,-0.770625,-0.462112,-0.209874,-0.180798,-0.279854,0.884073,-0.351307,-0.396592,-0.692297,-0.210148,0.062315,-0.003517,0.310516,0.463174,-0.457706,-0.333782,0.159693,-0.13791,-0.062346,-0.278871,-0.080197,0.290749,-0.247664,-0.414876,0.084634,0.011839,-0.806968,-0.851841,0.541026,-0.141939,-0.181141,-0.295186,0.238999,-0.216986,-0.377717,0.3511,0.137808,0.283309,-0.202607,-0.004439,0.23413,-0.053928,0.290615,-0.05791,-0.024957,0.270679,0.352342,-0.326115,-0.343271,0.255112,0.300156,-0.010853,-0.400597,-0.269654,0.234705,0.265238,-0.057931,0.172606,0.180787,0.218191,0.200379,-0.105103,-0.367055,0.040215,-0.279908,-0.396618,0.020226,0.558349,0.073809,-0.04923,0.375164,-0.04673,0.154128,-0.274191,0.282954,-0.456273,0.223007
ATCGTC,-0.903394,0.206755,-0.169671,-0.048531,0.282248,0.550456,-0.400398,0.021539,-0.320646,-0.544378,-0.093196,-0.385777,0.036076,-0.376228,-0.348408,0.446043,-0.28368,0.040732,-0.486565,0.253402,-0.506474,-0.051307,0.058959,-0.274784,0.240874,-0.398578,-0.14281,-0.104514,0.789202,-0.35876,0.311914,-0.545391,0.708634,0.01052,-0.145519,-0.143886,0.136261,0.252802,0.175927,0.510551,0.563314,-0.598996,-0.054426,-0.053024,0.192485,-0.456551,-0.616937,0.241104,-0.003977,-0.086139,-0.716859,-0.338128,-0.366072,-0.070747,-0.23528,-0.276557,-0.087637,-0.149322,-0.373134,0.119366,-0.023843,-0.537764,-0.509353,0.383865,-0.198727,0.280781,-0.204271,-0.045868,-0.526414,0.503172,0.124049,-0.040898,0.204738,0.001062,-0.023429,-0.228369,-0.608762,0.205222,0.119014,0.120625,0.058277,0.385745,-0.115089,-0.094221,0.229248,0.006973,0.507529,0.037493,-0.236898,-0.586885,-0.244215,-0.329079,0.064618,0.14611,-0.32182,0.332008,0.523445,0.058993,-0.206918,0.013536
ATCTCC,-0.877096,0.135421,-0.009676,-0.198979,-0.32337,0.288233,0.08395,0.595011,0.535712,-0.054886,-0.13061,-0.874038,0.817561,0.517079,-0.317496,0.344496,-0.206845,0.25748,-0.185931,-0.119279,0.123711,-0.39424,0.202544,-0.451179,0.199178,0.110198,-0.257379,-0.171478,0.947757,-0.026184,0.387425,-0.070688,0.035399,0.076224,0.073888,-0.164679,-0.335121,0.160711,0.135085,0.333987,-0.019936,-0.642103,0.082537,-0.321788,0.104793,-0.134449,-0.299921,-0.158459,-0.135564,0.145261,-0.260123,-0.084878,-0.34858,0.034217,0.004616,-0.070073,0.028782,-0.387434,-0.598343,-0.405097,-0.052113,-0.153494,-0.177667,0.276276,-0.214539,-0.233725,-0.377718,0.102882,0.206762,0.235204,-0.084311,-0.192757,0.381186,0.104988,0.2277,-0.951758,-0.652768,0.281129,0.427936,0.004875,0.055016,-0.056836,-0.273135,0.275646,-0.49605,0.157642,0.542945,-0.177528,0.170134,0.013887,-0.041306,-0.413416,-0.468146,-0.458594,-0.153111,0.149333,0.242446,-0.195695,0.510937,0.183088
ATCTGG,-0.167657,0.012199,0.09874,-0.2952,0.180187,0.712215,-0.228159,0.2702,0.17162,-0.010794,-0.236401,-0.47625,0.410048,-0.083712,0.170112,0.965971,-0.244789,0.071146,-0.496968,-0.072257,-0.170342,-0.341882,-0.124731,-0.170641,0.030436,0.132568,0.052989,-0.124548,0.451255,0.136338,0.47727,-0.206111,-0.019031,0.745005,0.535916,-0.168527,-0.130155,0.24269,-0.01556,0.500623,0.446712,-0.248402,-0.052075,-0.127269,0.278395,0.053077,-0.331798,0.318631,-0.099994,-0.197173,-0.100751,0.048911,0.339746,0.617731,-0.348638,0.148479,0.049635,-0.18641,-0.201349,0.177702,0.007993,-0.723116,-0.073407,-0.139244,-0.315997,-0.247669,-0.007848,0.422702,-0.287683,0.159762,-0.69405,-0.597166,0.080716,-0.375017,0.063683,-0.976416,-0.716918,-0.387058,0.293193,-0.230301,-0.420524,-0.072679,0.080058,0.335088,0.189546,0.312783,0.38913,0.054753,-0.299991,0.05065,0.303278,-0.16421,0.222384,-0.536159,0.288376,0.239419,0.083925,0.106603,0.045882,-0.095905
ATCTGT,-0.473929,0.273809,-0.332066,-0.137364,0.103797,0.223402,-0.160697,0.370471,0.180727,0.08952,-0.656985,-0.329293,-0.027416,-0.171201,0.115675,0.635647,0.028659,0.862887,-0.53802,-0.069491,-0.351391,-0.057708,0.147405,0.024066,0.032452,-0.218117,-0.042043,-0.135831,1.035645,-0.036033,0.265772,-0.018584,0.209315,0.824517,0.31789,-0.091226,-0.149015,0.137058,0.522889,0.215078,0.428023,-0.643669,-0.352952,0.284056,0.286292,0.018674,-0.274917,0.119421,-0.688047,0.04164,-0.2278,-0.127902,-0.130647,0.191603,-0.199208,-0.00207,-0.041318,0.178339,-0.374088,0.110654,-0.277174,-0.252556,-0.102739,-0.172638,0.207144,-0.618375,-0.28851,0.28513,-0.154662,0.221496,-0.692482,-0.356809,-0.061599,-0.124833,-0.553139,-0.69949,-0.415889,-0.402767,0.036723,0.018017,0.128687,0.125815,0.182321,0.114974,0.016156,-0.452945,0.075444,0.036618,-0.165543,-0.14117,0.125653,-0.170412,0.351756,-0.273919,-0.060927,-0.069177,0.073404,0.196519,0.078738,0.055559
ATGCCT,-0.071756,0.679961,-0.137232,-0.437416,-0.267879,-0.449548,-0.003139,-0.162661,0.422979,-0.284802,-0.244338,0.52078,0.079294,-0.066503,-0.398273,-0.085411,0.080423,0.152403,-0.253127,0.381741,0.238329,-0.322792,-0.364517,0.121975,0.149879,0.228952,0.098829,-0.420209,0.955151,-0.400818,0.570649,-0.111306,0.166284,0.174519,-0.046254,0.394648,0.503472,0.333446,0.344679,0.28101,0.063682,0.463267,0.320517,-0.317362,0.436871,-0.145546,0.05246,-0.489802,-0.450951,-0.392745,-0.343495,0.747685,0.143079,0.005595,-0.071119,-0.065577,0.272648,-0.540464,-0.514067,-0.234078,-0.446396,-0.054347,-0.075676,-0.054421,-0.365433,-0.271808,-0.166731,-0.043522,0.112833,-0.431451,0.278755,-0.362188,0.019466,-0.243869,-0.269233,-0.529636,-0.41314,0.258576,0.292056,0.381947,-0.474088,0.868061,-0.260487,0.395652,-0.398099,0.051788,0.50899,0.085255,0.007344,-0.211189,0.044992,0.234204,0.365738,-0.454426,0.201164,0.271245,0.099317,0.13236,0.019859,-0.199058
ATGGTC,-0.067027,0.043197,0.062422,-0.003301,0.512823,0.229701,-0.022829,-0.387902,0.015124,-0.46693,-0.232022,-0.523993,0.030143,-0.729935,-0.438735,0.531773,-0.14514,-0.127393,-0.308164,0.252315,0.404744,-0.549524,0.103911,-0.636907,0.450142,-0.162671,0.077021,0.165533,0.529729,0.01792,0.193769,-0.296948,0.366377,0.049679,-0.358948,-0.138571,0.291942,0.011466,0.080641,0.631826,0.502698,-0.632116,0.35666,-0.519872,0.406738,-0.53603,-0.408974,-0.174935,-0.070934,-0.408796,-0.49102,-0.084375,0.131241,0.10219,0.07939,-0.091852,0.383709,0.113384,-1.322989,-0.263122,-0.004407,0.16204,-0.131244,0.552589,-0.422976,0.077736,0.262755,0.136469,-0.230742,-0.336692,-0.012603,-0.080316,0.384676,0.320858,0.117297,-0.124714,-0.428544,0.221292,0.293966,0.071975,-0.008641,0.196147,-0.483232,-0.312563,0.079606,-0.101442,0.778506,0.147119,0.170953,-0.033688,0.111961,0.400575,-0.342753,-0.579156,-0.035097,0.303188,-0.059568,-0.093179,0.337094,-0.606137
ATGTGA,0.110757,-0.062461,-0.160176,0.376562,0.418395,-0.107066,0.002643,0.911339,0.063431,-0.140192,-0.18305,-0.111449,-0.470204,-0.1579,-0.125327,-0.10083,0.444132,-0.117299,-0.197899,0.248117,-0.087176,-0.606335,0.12539,0.180436,0.034293,0.108916,-0.356909,0.07909,-0.078607,-0.056704,0.153527,-0.305144,0.603264,-0.033891,-0.187534,0.066049,0.337807,0.383503,0.072637,0.653657,0.126101,-0.111075,-0.461481,-0.206189,0.204384,0.037175,-0.279487,-0.428937,-0.240226,-0.385389,-0.257824,0.135537,-0.331681,-0.454555,0.001076,-0.352436,-0.084385,0.084528,-0.751657,-0.366006,-0.172387,-0.457348,-0.26382,-0.258861,0.421048,-0.03417,-0.13701,0.099026,-0.171138,-0.058935,-0.051555,-0.370527,-0.482394,0.103091,-0.390774,-0.925591,-0.295802,0.1612,-0.089986,-0.259001,0.078469,0.239118,-0.039992,0.552524,-0.260439,-0.154132,0.025828,0.036935,-0.184731,-0.098656,0.277473,0.274303,0.21165,0.022426,-0.11393,-0.221719,-0.62667,-0.378159,-0.117059,-0.11094
ATTCAT,-0.290661,0.060955,0.303016,0.186742,-0.136302,0.105709,0.187347,-0.074328,-0.045359,-0.284315,0.583015,-0.051121,0.351434,-0.301046,-0.446481,-0.582462,-0.382391,0.464126,-0.618951,0.021188,-0.079891,-0.079748,0.334574,0.122592,-0.204801,-0.363649,0.155707,0.288082,0.094637,0.024712,0.174974,-0.232739,-0.09723,0.024401,-0.377783,0.190275,0.027298,0.347439,-0.052145,0.648031,-0.314587,-0.164902,0.052265,0.090184,-0.170232,0.10169,0.027396,0.389616,-0.143129,-0.357002,-0.430055,-0.121046,-0.465098,0.347295,-0.349607,-0.139522,0.109,-0.078806,-0.083457,-0.50608,-0.247008,0.478317,0.047263,0.041523,0.345913,-0.402304,-0.165762,0.063616,-0.335802,0.262744,-0.161566,-0.748308,0.239778,-0.432101,-0.138705,-0.27273,-0.017372,-0.399894,0.308673,0.236147,-0.017461,0.650273,0.074754,0.042098,-0.13749,-0.33539,0.20498,-0.152197,-0.363866,-0.5032,-0.12393,-0.181799,-0.094088,0.067739,0.229639,0.088699,-0.615295,-0.38416,-0.375749,0.131132
ATTGAT,-0.332889,-0.018691,0.082605,-0.080533,0.509684,-0.366531,-0.012466,0.40671,0.221241,0.530638,-0.043615,0.320597,0.146788,-0.135964,-0.18934,-0.300157,-0.398548,-0.136388,-0.338771,0.105619,-0.193645,-0.480079,0.34289,-0.261216,0.144587,-0.738477,0.356701,0.778103,0.152466,-0.560094,-0.44235,0.075784,0.133713,-0.179137,-0.672472,0.090375,-0.377249,-0.121136,0.53889,0.863537,0.00599,-0.023308,0.246873,-0.250218,-0.223322,-0.211788,0.131603,0.297715,-0.294606,-0.45218,-0.299985,-0.039592,-0.414826,-0.115235,-0.085811,0.21403,0.23225,-0.197402,-0.033167,-0.392264,0.169177,-0.249003,-0.378618,0.00161,-0.048426,-0.337867,-0.611889,-0.006157,0.078875,-0.068772,-0.210074,-0.437841,-0.474767,-0.16635,0.05953,-0.360437,-0.122763,-0.001021,0.406266,-0.077078,-0.138477,0.055678,0.040072,-0.332611,-0.03673,-0.35681,0.21453,-0.041472,-0.238304,-0.232363,-0.183987,-0.09463,-0.385646,0.18903,-0.193086,0.106529,-0.256415,-0.437219,0.083475,-0.204395
ATTTCA,-0.149187,0.204004,0.398757,-0.143802,0.186575,0.118215,0.234353,-0.391714,0.03063,0.222854,0.367989,-0.325401,0.18057,-0.411719,-0.604192,-0.180124,-0.445868,0.155843,-0.389281,0.13459,-0.174831,-0.391266,0.097112,-0.267015,-0.37139,-0.60664,-0.254961,0.336975,0.333643,0.627996,0.089525,-0.583487,-0.083884,-0.124055,-0.183069,0.073013,-0.048942,-0.067901,0.019983,0.309536,0.224266,-0.346345,-0.226592,0.25851,0.029414,-0.537075,-0.110828,0.594137,0.168859,-0.647677,-0.052617,0.123547,-0.483931,-0.370536,-0.021631,0.308569,0.474119,0.054963,-0.219074,-0.384951,0.119006,0.590286,0.119255,-0.027751,0.458114,0.066098,-0.353132,-0.263208,-0.333415,0.035398,-0.121901,-0.265894,-0.268397,-0.533545,-0.15398,-0.264002,-0.291657,0.226252,-0.017194,0.376347,-0.134076,0.426606,0.506784,0.232569,-0.196619,-0.056918,0.129762,-0.082155,-0.463056,0.161675,-0.553318,0.005715,0.046902,-0.106035,-0.015766,-0.094697,-0.530961,-0.002822,-0.097664,-0.056971
CAAACC,0.030367,0.281983,0.231944,0.334491,-0.435381,-0.255131,0.088852,0.061111,0.009681,-0.324952,-0.408104,-0.013489,-0.402704,0.15688,-0.083269,0.000192,-0.317791,-0.215948,0.136316,-0.203493,-0.025866,-0.491451,-0.408565,-0.290809,-0.427388,-0.219723,-0.518353,0.417329,0.791838,-0.453366,-0.063757,-0.064008,0.000457,-0.418193,0.207129,-0.000732,-0.201212,-0.81392,-0.108317,0.317482,0.030769,-0.694246,0.169781,-0.03007,-0.373997,0.122044,-0.254966,-0.297128,0.133515,-0.115629,-0.138045,0.114045,0.269377,0.305178,-0.382273,-0.362626,0.107229,0.131947,-0.135689,-0.089593,0.106422,-0.241809,-0.318727,-0.069955,0.282163,0.415297,-0.247522,0.04665,0.237375,0.108307,-0.456473,-0.497785,0.850437,-0.075905,-0.020982,0.09839,-0.480248,0.675644,-0.32194,0.404785,-0.151348,0.108273,-0.574196,0.28515,-0.170189,-0.181013,0.380532,-0.031874,-0.417387,-0.114188,-0.454669,0.234038,-0.170898,-0.251065,-0.21508,-0.473537,-0.049835,-0.224933,-0.554037,0.391798
CAAACG,-0.13729,0.387217,0.146308,0.205163,0.086716,-0.237992,-0.704916,0.475874,0.078612,-0.583948,-0.28742,0.284341,0.163318,0.309853,-0.125252,-0.037192,-0.70704,-0.209002,-0.109202,-0.105877,-0.032389,-0.282936,-0.083129,-0.159954,-0.291976,-0.32654,-0.677389,0.515351,0.678591,-0.158353,0.572627,-0.162787,0.137798,-0.685185,0.480623,0.249013,0.321145,0.068555,0.292149,0.647226,0.09775,-0.797171,-0.162585,-0.536994,-0.603759,0.422037,0.108524,-0.04228,0.243324,-0.186875,0.15054,0.28777,-0.298841,0.093338,-0.131937,-0.030962,0.206244,-0.05511,0.5073,-0.001985,0.478241,-0.354191,-0.258603,0.587622,0.156033,0.520859,-0.095409,0.164742,0.295299,0.227107,-0.162483,0.113387,0.313465,-0.214054,0.015005,0.109201,-0.008918,0.337715,-0.535628,0.434597,-0.277496,0.523288,-0.124317,-0.112896,0.301923,-0.770095,0.081436,0.218785,-0.166408,0.382526,-0.69092,-0.094686,-0.036199,0.2442,-0.44774,-0.314657,-0.214319,0.188598,-0.591013,-0.277527
CAAAGA,0.158996,0.361021,-0.148752,0.266287,-0.068452,-0.125561,-0.55231,-0.185546,0.072535,-0.056989,-0.301615,0.04069,0.307494,0.60529,0.626043,-0.147552,-0.34674,0.002223,0.43155,-0.049779,-0.187053,-0.279118,-0.082624,-0.271276,-0.335086,0.375895,-0.264766,0.508277,0.529377,-0.120188,-0.24434,-0.405624,0.193482,-0.410731,-0.361977,-0.012627,0.281189,0.145488,-0.238934,0.41204,-0.117757,-0.665635,-0.355616,-0.65143,-0.209147,-0.024804,-0.125487,0.278886,-0.158568,-0.152115,0.044444,0.442446,-0.50158,0.125041,-0.626013,-0.566201,0.349204,0.484124,-0.277417,-0.226631,0.229918,-0.291314,-0.297385,0.42966,0.307802,-0.002073,-0.000699,-0.30693,-0.118856,-0.03516,-0.318252,-0.369516,-0.108524,-0.126976,-0.254776,0.305448,-0.288414,0.236936,-0.332646,0.675172,-0.540978,0.188257,-0.098601,-0.149102,0.58685,-0.00063,0.178486,0.068334,-0.133708,0.579017,0.059583,0.085355,0.115353,0.216643,-0.079401,-0.304238,-0.221652,-0.427378,-0.197039,0.155231
CAAAGG,0.189139,0.5482,-0.323327,-0.0791,-0.105718,-0.121725,-0.26018,0.148738,-0.129723,-0.913763,-0.291735,-0.042953,0.35496,0.416523,0.477735,-0.123631,-0.820889,-0.087628,0.049024,0.073584,-0.204587,0.365308,0.183434,0.023656,-0.159464,0.112168,-0.164667,0.682317,0.455187,0.179182,-0.139552,-0.053637,-0.346975,-0.346953,0.375137,0.002666,-0.020603,-0.256795,-0.508213,0.718268,-0.148548,-0.259519,-0.311181,-0.582936,-0.08636,0.435893,0.256074,0.353736,-0.305393,-0.456625,-0.062017,0.235124,0.167509,0.60417,-0.346106,-0.447442,0.038266,-0.115347,-0.561446,-0.309183,0.079394,-0.099093,-0.564961,-0.102492,0.046798,0.18285,0.223352,-0.332348,-0.469026,0.159091,-0.636768,-0.004557,-0.034075,0.084569,-0.148927,0.109816,0.058008,0.786931,-0.041684,0.254813,-0.377939,0.169308,0.290108,-0.13512,0.143254,-0.379251,0.097218,0.050793,-0.3209,0.654995,-0.217125,0.255076,-0.139102,-0.202101,-0.078501,-0.323615,-0.118521,-0.130833,-0.211287,-0.191931
CAAATA,-0.0921,0.072519,-0.170843,0.643563,-0.565152,-0.429577,-0.752529,0.026848,0.126913,-0.359793,-0.230234,0.520412,0.2037,-0.031133,0.24746,-0.014083,-0.512563,0.223227,0.094989,-0.006544,0.152088,-0.212708,-0.178889,-0.543818,-0.387541,0.166011,-0.392078,0.615927,0.149025,-0.265311,0.337171,-0.242247,-0.094258,-0.263787,0.081349,-0.391778,-0.058737,-0.688783,0.12458,0.748189,-0.209114,-0.722721,-0.115411,-0.19589,-0.319893,0.1198,0.326842,-0.072883,-0.187643,-0.093453,0.033541,0.307641,-0.448663,0.037602,-0.732506,0.26955,0.269105,-0.027393,-0.294433,-0.710678,-0.009271,-0.226793,0.399697,0.110989,-0.068451,0.346422,0.122332,-0.15736,-0.383971,0.478637,-0.371299,-0.410679,-0.115424,0.214305,-0.152118,0.296572,0.014631,-0.033943,-0.215231,0.420099,0.10599,-0.122371,-0.285507,-0.010856,0.28058,-0.373479,0.103579,0.078785,-0.207569,0.338181,0.017151,-0.121713,-0.257105,-0.739677,-0.262943,-0.178404,-0.293071,-0.702374,-0.135487,0.266138
CAAATC,-0.509857,0.031785,0.280358,0.02636,-0.295857,-0.236715,-0.075518,0.114351,-0.148346,-0.604269,-0.41082,-0.532181,0.401074,0.181238,0.503629,-0.020127,-0.360149,0.208156,-0.374852,-0.350186,-0.161768,-0.306621,-0.388898,-0.453412,-0.266781,-0.111445,-0.478001,0.22434,0.368851,-0.581364,0.499359,0.244674,-0.119276,-0.162769,0.147749,-0.27671,0.141355,-0.460444,-0.303428,0.125833,0.068098,-0.646333,0.173873,0.158686,-0.026182,0.1485,-0.225969,0.201564,0.108585,0.201545,-0.076532,0.290533,-0.384404,-0.236586,-0.852545,-0.270321,0.483377,-0.254327,-0.392308,-0.304357,0.18622,-0.191167,-0.155532,0.16763,0.040366,0.291786,0.072712,-0.114768,-0.523747,0.322299,-0.514445,-0.418402,0.067836,0.333791,-0.090723,0.222357,0.013705,-0.076226,-0.167877,0.43156,-0.282753,0.653588,-0.498535,-0.045064,-0.099872,-0.309665,-0.296319,0.123859,-0.152966,-0.231297,-0.202799,-0.010344,-0.109835,-0.409703,-0.226079,0.130148,0.008567,-0.70013,-0.408527,0.258052
CAACCA,-0.182532,0.060259,0.123316,0.018518,-0.440482,-0.144529,-0.097426,0.250592,-0.421123,0.241207,-0.140683,-0.260601,0.004983,0.188501,-0.060405,0.143743,0.004602,-0.04662,-0.098042,-0.31914,-0.182005,-0.406121,-0.253391,-0.52557,-0.262704,-0.163783,-0.232289,-0.153865,0.255076,-0.425485,-0.52197,-0.5087,-0.431173,-0.336728,0.270241,-0.061378,-0.25911,-0.457586,-0.543001,0.544154,0.11259,-0.072045,0.233777,-0.022829,-0.324251,0.010628,0.009081,0.003313,-0.284671,-0.482331,-0.395001,0.445764,0.192198,-0.072029,-0.213739,-0.454364,0.523905,-0.124144,-0.062177,-0.124179,0.182509,-0.121306,0.054501,0.487278,0.191849,-0.055781,0.261797,0.424378,0.320388,0.106629,-0.331913,-0.148938,0.189994,0.007879,-0.081561,-0.027553,-0.125506,0.512736,-0.479873,0.420461,-0.021176,0.042364,-0.249607,0.319556,-0.347874,-0.363213,0.420006,-0.421289,-0.197065,-0.408384,-0.211577,-0.052679,0.136218,0.037736,0.140033,-0.454026,-0.253818,-0.113685,-0.659049,0.325618
CAAGGA,-0.045394,0.441713,-0.126055,-0.137893,-0.061169,-0.396267,-0.875991,0.159823,-0.543301,-0.128566,0.161455,0.071348,0.473904,0.161257,0.145342,-0.125203,-0.238566,-0.169841,-0.027094,0.362735,-0.328108,0.239514,0.049884,-0.551403,-0.053223,0.240667,-0.023041,0.3947,0.169667,0.152918,-0.146199,-0.200625,-0.460042,-0.614089,0.206647,0.301602,-0.047513,0.106409,-0.289128,0.605269,-0.187036,-0.13079,-0.342759,-0.06585,0.210798,0.613625,0.157273,-0.043622,-0.158894,-0.37741,0.057117,0.1247,-0.010685,0.662681,-0.451218,-0.996066,0.167639,-0.245066,-0.756709,-0.025785,0.175025,-0.075977,-0.00795,0.404137,0.050852,0.192562,0.048314,-0.243374,-0.096873,-0.14185,-0.426699,0.263002,-0.125341,0.399806,0.114307,-0.005594,-0.455054,0.347681,0.135606,0.125317,0.078895,0.304762,0.463062,0.584082,0.033711,-0.24607,0.03959,-0.145637,-0.332009,0.268399,0.121349,0.082407,-0.677414,-0.462659,-0.117486,-0.340178,-0.144066,-0.338041,-0.573046,0.012828
CAAGGC,0.014916,0.80639,-0.186322,0.156501,-0.564568,0.11683,-0.300183,-0.519272,-0.480545,-0.463404,0.016441,0.283948,0.481501,0.354112,0.050511,-0.137031,-0.259152,-0.218608,-0.118853,-0.13993,0.357474,0.568218,0.087065,-0.316148,-0.037283,-0.097329,0.307679,0.095859,-0.12288,-0.052985,-0.556917,-0.50631,-0.000564,-0.526125,0.533401,0.432,-0.105328,-0.298284,-0.206062,0.426386,0.053984,-0.059287,0.163616,0.083808,-0.175839,0.527138,-0.013455,0.185088,-0.088032,-0.221144,-0.247006,0.121351,0.00526,0.381134,-0.346272,-0.409491,-0.195982,-0.436262,-0.496453,0.117546,0.08739,-0.553391,-0.230729,-0.045358,-0.250007,0.296164,-0.099139,-0.250755,-0.025695,-0.009939,-0.480446,0.216895,-0.105374,-0.229602,-0.278585,-0.15103,-0.068293,0.420729,0.57033,0.327363,-0.137669,0.313611,-0.217754,0.506102,-0.34004,-0.428233,-0.068906,0.030401,-0.440358,0.284592,-0.122124,0.114445,-0.351824,-0.511603,0.059117,-0.229159,0.107072,0.163614,-0.900312,-0.163197
CACAGC,0.176549,0.232519,0.196075,0.041481,-0.657863,-0.148864,-0.138755,-0.152026,0.197882,-0.788285,0.212798,0.203591,0.644056,0.033689,0.02806,0.549202,0.346269,-0.277667,-0.096642,0.001432,-0.63016,-0.237389,0.152997,-0.277913,0.173893,0.355521,0.285371,0.500834,0.103785,-0.371892,-0.126276,-0.383636,0.35892,0.084629,0.505192,-0.20234,0.128399,0.133655,-0.258785,0.030697,0.272857,0.145758,-0.020877,-0.221056,-0.674835,0.076991,-0.394457,0.064657,-0.402947,-0.029091,-0.55333,-0.057107,-0.309109,0.492482,0.044258,0.002155,0.062388,-0.21819,-0.09456,0.129465,0.941566,-0.243482,-0.036008,0.055261,0.004276,0.22639,-0.434967,0.142205,0.229089,-0.501851,-0.347359,0.000879,-0.108209,0.040901,-0.435451,-0.030905,-0.740233,0.155089,-0.172301,0.442604,0.193489,0.193337,-0.217456,-0.140499,-0.485993,-0.418918,0.384991,0.005436,-0.214402,-0.404584,-0.391684,0.365267,0.127851,-0.029963,0.3229,-0.264752,0.037766,-0.047979,0.293664,-0.203354
CACCAA,0.063811,-0.021892,-0.154014,0.210446,-0.458239,-0.583537,-0.283914,-0.132057,-0.386808,-0.001915,0.204727,-0.353455,0.714767,0.416793,0.047012,0.468332,-0.028341,-0.122553,-0.004708,-0.273944,-0.296654,-0.022212,-0.177435,-0.234747,0.073944,-0.540281,-0.384066,0.11457,-0.118161,-0.266082,0.230799,-0.341148,-0.11329,-0.028372,0.107515,0.363518,0.004327,-0.536105,-0.292854,0.295829,0.471067,0.106256,-0.015423,-0.328616,-0.268371,0.201796,-0.265937,0.350107,-0.311447,-0.658829,-0.296324,0.329084,-0.170052,-0.012265,0.137027,-0.491849,0.030183,-0.464839,-0.156169,0.120538,0.077875,0.161628,0.220586,-0.044358,0.080479,-0.088981,0.306066,0.187234,0.343977,0.339294,-0.14379,-0.437907,-0.515181,0.509102,-0.569443,-0.090782,-0.402983,0.400938,-0.136873,0.142809,0.286301,0.218784,-0.502715,0.006282,-0.103051,-0.188579,0.222746,-0.20043,0.106463,0.560367,-0.67807,0.318601,0.425059,-0.172967,0.617157,-0.329626,-0.601941,-0.170041,-0.301444,0.01558
CACCCT,-0.041757,0.576605,-0.054785,0.206932,-0.707409,-0.582774,0.320716,-0.216447,-0.196577,-0.031194,-0.178325,0.029018,0.221156,0.180347,-0.092061,0.52828,-0.318437,0.095083,0.33806,-0.028708,-0.337386,0.086356,0.080075,-0.33276,0.151573,0.072088,0.203645,0.581232,0.560976,-0.129258,0.117267,0.321007,0.342775,-0.072832,0.103974,0.046435,-0.098873,-0.098514,0.217008,0.161839,0.693718,0.189026,0.086263,-0.340453,-0.258985,0.125194,-0.17101,-0.079231,0.013375,-0.130885,-0.121005,0.1469,-0.41518,0.42092,-0.112426,0.303899,0.095758,-0.525789,-0.212341,-0.072116,0.129795,-0.25836,-0.162957,-0.221278,0.205105,-0.199082,-0.168421,-0.147647,0.07247,0.299957,0.035805,-0.408011,0.008695,0.631239,-0.248062,0.209743,-0.717744,0.514667,-0.084069,-0.000452,-0.252233,0.811984,-0.409197,0.154641,-0.648322,0.016336,0.330062,-0.883751,-0.095244,-0.171057,0.269044,0.521887,-0.330636,-0.05173,0.536701,0.02595,0.273881,-0.596013,-0.433012,0.129998
CACTAC,-0.134852,0.174789,0.184483,0.597781,-0.39513,-0.275173,-0.575478,-0.092623,0.333558,-0.036767,0.507774,0.389269,0.241387,-0.392428,0.054848,0.031922,0.44855,0.068261,-0.039661,-0.117045,-0.162942,0.166603,0.356392,-0.35943,0.085415,0.031365,-0.023222,0.145873,0.255293,-0.02699,-0.417978,-0.378826,0.548977,-0.147837,0.054911,-0.218804,-0.085663,-0.332387,-0.162222,0.043677,0.437817,-0.007904,-0.003486,-0.128793,-0.531766,-0.523625,0.123598,0.24032,-0.242644,-0.474355,-0.020062,0.355767,-0.293356,-0.015952,0.088899,0.078393,0.452254,-0.230083,0.054907,0.258274,0.257454,-0.108809,-0.15203,-0.082,-0.122517,0.375863,0.48304,0.149418,0.22813,0.030536,-0.376627,-0.089887,-0.273654,0.302062,-0.465468,-0.617744,-0.572545,0.176229,0.043103,-0.368414,-0.211166,0.460271,-0.266926,0.396925,-0.456652,-0.19687,0.328785,-0.427221,0.188369,-0.282327,-0.78065,-0.056888,0.13969,-0.18047,0.022528,0.194183,0.386041,-0.267512,-0.453581,0.746432
CACTAT,-0.162095,0.098896,-0.074483,0.654751,-0.358281,-0.173878,-0.316746,-0.208064,0.345826,0.101664,0.127678,0.483308,0.188704,-0.512968,0.027884,0.503774,0.193893,0.092483,0.084392,0.123064,-0.469684,0.022985,0.361559,-0.342853,-0.005499,0.150001,0.423169,0.708446,0.103521,-0.510877,0.124136,-0.085789,0.385141,-0.315537,0.240156,-0.252963,-0.336859,0.205473,-0.417689,-0.237195,-0.108486,-0.468622,-0.1104,-0.061085,-0.489845,-0.525689,0.420042,0.414998,0.107229,-0.044264,-0.252829,0.225624,-0.25579,-0.073058,0.223936,-0.117521,0.131353,-0.343311,-0.256187,-0.314493,0.103238,0.435011,0.113499,-0.507667,-0.502527,0.082343,-0.09638,0.6338,0.242793,0.33102,-0.682618,0.130878,-0.530688,0.463769,-0.664944,-0.630144,-0.310612,0.176014,0.138748,-0.019219,0.112603,0.482331,-0.518151,0.403914,0.013689,-0.206556,0.319151,-0.252148,0.182493,-0.228207,-0.678236,-0.118086,-0.025763,-0.176311,0.262705,0.304334,0.130558,-0.418473,-0.528196,-0.032868
CAGAAG,-0.20909,0.281365,-0.004218,0.007133,0.086668,-0.199314,-0.443602,-0.099095,-0.346391,-0.189243,-0.445601,0.239182,0.439359,-0.035984,0.390832,0.447342,0.454647,-0.288126,0.572219,-0.189224,0.477647,-0.128253,-0.002707,0.528321,-0.302311,-0.282372,0.11584,0.321389,0.209274,0.365896,-0.391666,-0.525874,-0.014342,-0.328975,0.129013,0.088113,0.547155,0.003139,0.0558,0.439508,0.036096,0.405003,-0.375911,0.177332,-0.464986,-0.098358,0.059441,-0.196972,-0.100883,0.037313,-0.155345,0.761699,-0.356183,0.383297,-0.123055,-0.488767,-0.133395,-0.397219,-0.692216,0.004832,0.859902,-0.101739,-0.028863,0.6251,-0.108267,0.195004,0.023023,-0.050843,-0.266575,0.175136,-0.411761,-0.023778,-0.184357,-0.375265,0.136669,0.272079,-0.359537,-0.015688,-0.073165,0.409004,-0.429194,-0.148376,0.196955,-0.026821,-0.064531,-0.161355,-0.167581,0.187886,-0.150761,0.100354,0.029463,0.240117,-0.236402,-0.114379,0.162347,-0.311092,0.225213,-0.274332,-0.153048,0.642512
CAGATC,-0.35864,0.0412,0.187836,-0.010852,-0.030896,-0.070919,-0.042328,-0.110864,0.186259,-0.057013,-0.623492,-0.507207,0.771075,0.453018,0.032378,0.154254,0.01286,0.213863,0.269849,-0.611498,0.262589,-0.183734,0.197505,0.018294,-0.497068,-0.19993,0.179617,0.121717,0.370989,-0.187335,-0.732857,-0.276047,0.334709,-0.201558,-0.150131,0.057561,0.536884,-0.33844,0.304424,0.385983,0.10424,-0.252681,0.115601,0.4311,0.195171,-0.004751,-0.416099,0.104992,-0.101953,0.102613,-0.406495,0.333434,-0.741178,0.419683,-0.495289,-0.232137,0.367781,-0.071959,-0.389025,-0.09803,0.591084,-0.082295,-0.234369,0.334646,-0.486379,0.182393,-0.278708,0.566403,-0.100681,0.145512,-0.249841,-0.45038,0.027289,0.190759,0.054363,-0.261622,0.11066,-0.095182,-0.407982,0.152999,0.042,0.103476,-0.141802,-0.283374,-0.134834,-0.326877,-0.553316,0.014828,-0.12018,-0.343895,-0.225608,0.66251,-0.141168,-0.891638,-0.026809,0.466913,0.180793,0.063487,-0.722934,0.006001
CAGGAT,-0.357224,0.665886,-0.132421,-0.520497,0.420268,-0.28983,-0.290593,0.16405,0.092273,-0.047661,-0.508988,-0.216851,0.079346,-0.105988,-0.432845,0.267678,-0.472655,-0.398852,0.481195,-0.295175,-0.299636,0.104182,0.225012,-0.545488,-0.068317,0.42406,0.033269,0.869649,0.089836,-0.308875,-0.237713,0.014955,-0.367692,-0.427689,-0.436533,-0.198312,0.34378,0.311177,-0.003493,0.683611,0.243113,-0.061732,-0.426741,-0.003551,-0.154031,0.224122,-0.079919,0.093163,0.030321,0.125817,-0.035882,0.025703,-0.644415,0.295732,-0.118293,-0.285248,0.384391,-0.003819,-0.894583,-0.366615,0.164645,0.434683,0.595199,0.194549,-0.239876,0.286704,-0.444804,0.062476,0.145873,-0.465658,-0.419675,0.30246,0.075701,0.298995,0.019807,-0.271652,0.205855,0.075855,-0.287798,-0.318264,-0.2041,0.019522,-0.044329,-0.182055,0.125799,-0.476034,-0.044032,-0.004935,-0.357046,-0.195967,-0.242047,0.113559,-0.664752,-0.930449,0.310341,0.120116,-0.126692,-0.230835,-0.281132,-0.168794
CATACC,0.30293,0.403159,-0.11216,-0.027672,-0.516347,-0.443821,0.053723,-0.052318,-0.204769,-0.228036,0.136618,0.402906,0.379263,0.062429,-0.005178,0.117842,0.14551,0.588846,0.33703,0.118175,0.253513,-0.192869,-0.010052,0.168142,0.324327,-0.163657,-0.146284,0.004657,0.646129,-0.246164,-0.229406,-0.291412,-0.014759,0.390115,0.184568,-0.196188,0.09233,-0.318961,0.143882,0.670364,0.193003,0.150756,-0.082441,0.400759,-0.393179,0.26631,-0.349448,0.101219,-0.193187,-0.555265,-0.290454,0.331166,-0.405659,-0.007624,-0.406162,-0.270162,0.097777,-0.110013,0.241833,-0.106061,-0.239275,0.302055,-0.850335,-0.046163,-0.143231,-0.078799,0.166165,-0.460374,0.361882,0.370784,0.077423,-0.559061,0.493165,0.157315,0.017412,-0.271672,-0.905465,-0.186922,-0.192514,-0.064391,-0.282995,-0.090926,-0.405442,0.276177,-0.455652,-0.542391,0.767041,-0.226164,-0.153501,-0.425294,-0.269749,-0.051887,-0.105058,-0.375849,0.090122,-0.445769,0.047024,-0.487958,-0.262204,0.319287
CATCAA,0.276977,0.285395,-0.199701,-0.181669,0.155037,-0.121357,-0.556371,0.292955,-0.209105,0.096619,0.341038,-0.189652,0.512382,0.251662,0.466546,0.43012,0.195402,0.128186,-0.563215,-0.143294,-0.336763,-0.208927,0.123725,-0.550939,-0.240696,-0.344395,-0.515487,0.041487,0.548352,-0.20253,-0.419925,-0.47973,-0.331236,0.181258,0.081051,0.168104,0.287472,-0.398966,-0.320536,0.167904,0.15779,-0.367867,-0.043581,-0.197164,-0.221101,-0.334043,0.202712,0.767274,-0.334929,-0.489835,-0.538911,-0.070142,-0.35629,-0.431847,-0.026839,0.158972,-0.619908,-0.484728,-0.148089,-0.13308,0.044999,-0.144059,-0.373635,0.390555,0.081365,-0.002824,-0.042717,-0.684505,0.295636,0.499823,-0.206219,-0.36568,-0.057861,0.105203,0.101768,-0.450545,-0.283465,0.170025,0.031344,0.076916,0.225223,0.145374,0.193669,0.260918,0.141589,-0.321624,0.012872,0.507026,-0.643136,-0.142861,-0.112651,0.256001,0.071766,-0.301946,0.53791,0.063729,-0.232667,-0.248633,-0.594544,0.009198
