,0,1,2,3,4,5,6,7,8,9,10,11,12,13,14,15,16,17,18,19,20,21,22,23,24,25,26,27,28,29,30,31,32,33,34,35,36,37,38,39,40,41,42,43,44,45,46,47,48,49,50,51,52,53,54,55,56,57,58,59,60,61,62,63,64,65,66,67,68,69,70,71,72,73,74,75,76,77,78,79,80,81,82,83,84,85,86,87,88,89,90,91,92,93,94,95,96,97,98,99,100,101,102,103,104,105,106,107,108,109,110,111,112,113,114,115,116,117,118,119,120,121,122,123,124,125,126,127,128,129,130,131,132,133,134,135,136,137,138,139,140,141,142,143,144,145,146,147,148,149,150,151,152,153,154,155,156,157,158,159,160,161,162,163,164,165,166,167,168,169,170,171,172,173,174,175,176,177,178,179,180,181,182,183,184,185,186,187,188,189,190,191,192,193,194,195,196,197,198,199
A4GALT,0.13559963,0.32125583,-0.34113702,-0.19672783,-0.33041003,-0.09990384,-0.33249256,0.5522343,0.077681996,-0.0071128993,-0.08843028,0.09170195,-0.008664143,0.46727923,-0.06909915,0.07555396,0.066395134,-0.039622106,0.16505788,0.040999677,-0.32390988,0.17819512,-0.0668269,-0.07359238,-0.023756558,0.41017416,-0.15009621,-0.06608806,0.18923324,0.12672526,-0.040685717,-0.09446409,0.35208598,-0.008912785,-0.23116049,-0.23641075,-0.28697774,-0.063907765,-0.08392329,-0.101682134,-0.12034469,-0.2417393,-0.10061442,-0.028351344,-0.15790658,0.08990677,0.03568868,-0.057352137,-0.39658144,-0.09156417,0.12576948,0.24261329,0.015980989,-0.2421211,-0.12061777,0.30639616,-0.16464175,0.29161426,-0.41875187,0.045021277,0.26517472,-0.038595296,-0.18782765,0.17967716,0.06298116,-0.32286528,-0.24245079,0.22603181,0.42652005,-0.27988094,-0.10256786,-0.15156864,-0.29739884,-0.250725,-0.053294685,0.18789467,-0.15700413,0.040728703,0.0060768826,0.27598894,-0.14027405,-0.043515574,-0.30476013,0.24799116,0.009787227,-0.2539759,0.019374384,0.36687282,-0.48346734,-0.29909274,-0.0627493,0.38200998,-0.08343664,0.06423354,0.16532831,-0.24689564,-0.27543342,-0.029585551,0.045212004,-0.09221735,0.24280213,0.3134111,-0.06793264,-0.31892672,-0.00421487,0.35458836,-0.03158531,-0.5480225,0.13818501,-0.20024636,-0.035193417,-0.19328493,-0.05010245,-0.08696145,0.045809038,0.2800495,-0.037599802,0.14441596,-0.03384686,0.004467241,-0.17670962,-0.23740773,-0.20685433,0.20399359,-0.27491158,0.13075721,-0.013439782,0.05843836,-0.31299698,-0.2852832,0.19549702,0.09554559,-0.18893951,0.7222073,-0.39755276,0.09226119,-0.07237186,0.030358668,0.3026035,0.3443958,0.13716,0.20912868,-0.17076685,0.09172593,0.016163016,-0.19770968,0.26560077,0.05383883,0.20827031,-0.1685272,-0.17041361,-0.10593208,-0.011484943,0.10591516,0.080578074,-0.68858725,0.15005238,0.08597038,-0.2421334,-0.5149236,-0.011079922,0.09021413,-0.1500439,-0.07484974,0.24373642,-0.6425519,0.13194211,-0.14631143,0.32724285,0.038560443,-0.35806015,0.1133337,0.011067707,0.1606078,-0.2631919,0.060188375,-0.22502668,-0.010440067,0.26699695,0.13612683,-0.45100203,0.014142663,0.14105476,0.3617965,-0.114136145,0.054060295,-0.20892109,-0.12283053,0.17029649,0.056101512,0.3668482,-0.058002975,0.43562195,0.11280913,-0.18148059,-0.033943214,-0.40173844,0.13766861,-0.010563224,0.18551137
A4GNT,-0.23751557,-0.19654109,-0.37929612,-0.22051318,-0.40887332,-0.24178037,0.2595175,0.19277573,0.17923316,-0.17714725,0.015904529,0.4721812,0.0046010995,0.46723503,-0.16762766,-0.025292227,-0.11560692,-0.18718539,0.46325913,0.28627977,0.03387967,0.1505498,0.04787299,-0.06083247,-0.24583055,-0.03810813,-0.07414384,0.030795764,0.09343708,0.18178153,-0.16108024,0.03859033,0.10611617,-0.16762754,-0.024048906,-0.25462127,-0.22465207,-0.31372085,0.017791305,-0.025273886,0.15737061,-0.102721326,-0.08873303,0.10274576,-0.051749296,0.20336735,0.34923416,0.28332898,-0.1378499,0.05379762,-0.25575373,0.2436175,0.029652983,0.12218836,0.1555611,0.26263213,0.13012427,0.1572826,0.033799022,-0.01637429,0.11337833,-0.21202244,-0.2900921,0.2277403,-0.086302094,-0.24991725,-0.5839098,0.03769601,0.16409695,0.071100384,0.11057512,-0.08813895,-0.16392684,0.0941726,0.36037883,0.1418242,0.093330726,-0.23241204,-0.10037901,0.15346585,-0.052890066,0.061788894,-0.33338305,0.3934885,-0.14784057,-0.08886856,0.100889996,-0.07991811,-0.22041719,0.029879205,0.5060505,0.4880824,0.021416195,-0.14184067,0.080416255,-0.17718999,-0.094389915,-0.28021905,-0.2182876,-0.0056514926,0.35535178,0.11665532,-0.18334292,-0.2557906,-0.011719373,0.43768603,0.32475644,-0.17907691,-0.07118669,0.0999685,-0.040592685,-0.12021143,-0.060551457,0.21517174,0.40791896,0.1553275,-0.096046954,0.14905316,0.21327578,-0.13897699,0.23984171,0.03353096,-0.10449086,0.21287605,-0.12882628,-0.25212213,0.018901045,-0.36215872,-0.59934247,-0.18941635,0.022978844,-0.14704731,0.17132154,0.54271203,0.041074228,0.023158299,0.06119272,-0.21756719,0.042647492,0.34823588,0.4171315,0.30796558,0.5273006,0.044380285,-0.19448356,-0.11389079,0.19796517,0.15666722,-0.11406063,-0.26957,0.011290871,-0.16103259,-0.107449055,-0.059074726,0.28300086,-0.64900696,0.15199517,-0.25019494,-0.08348275,-0.26441383,0.10433389,0.03744159,-0.21776156,0.017489119,0.003717325,-0.29197502,0.15787224,-0.26444244,0.36280015,-0.05249779,0.051232982,-0.38319787,0.20944646,-0.24911387,-0.1951523,0.07769485,0.07656592,-0.21364272,0.1860655,0.042103607,-0.15976848,0.2122076,-0.25912625,0.1826051,-0.17708004,0.17370786,-0.16241197,-0.16524336,-0.19073138,-0.033536136,0.09870112,-0.019731764,0.14789373,0.31789857,0.08796529,-0.19270317,-0.25836846,0.0697457,-0.108650215,0.34141803
ABCA7,0.016811704,0.08621365,-0.038497757,-0.19296068,0.11821813,0.16242312,0.22957096,0.046745256,0.2990861,0.31768546,-0.2322762,0.2919748,0.12746407,-0.15578134,-0.0034700406,0.32788283,-0.036161724,-0.2504219,0.101179,-0.0855174,0.1494779,0.27589136,-0.08073598,0.35264537,0.13885483,0.549991,0.14801607,-0.43349147,0.23980401,0.5635615,-0.17193131,0.064380884,-0.15767032,0.17259574,0.5359473,-0.6315002,-0.30902866,-0.21767922,-0.27705452,-0.5707677,0.036694314,0.32073766,0.34560302,-0.22267716,0.44143912,-0.06272058,-0.28431973,0.03687158,-0.12023491,0.16146083,0.12698822,-0.22748394,-0.18955597,-0.03224154,-0.04443638,0.63695633,-0.18496831,-0.35378742,-0.47950494,0.32343057,-0.015520464,-0.33242267,-0.037448555,-0.18440552,-0.16529728,0.08167897,-0.023774344,-0.33628988,-0.096414454,-0.24202043,-0.15336375,-0.51066166,-0.1955268,0.2180213,0.5385364,0.62695307,0.07559737,-0.41573372,0.30657065,0.100907564,-0.0726287,-0.03554774,-0.055007253,0.54216087,0.16408972,-0.13929713,-0.039521452,-0.32715976,-0.36741567,-0.11664945,-0.09059242,0.265055,-0.2397069,0.17632528,-0.10235846,-0.011922626,-0.01285417,0.08536641,0.085887015,0.09677654,-0.29523975,0.09120861,-0.75357205,0.051056888,-0.18353589,-0.43305326,0.14185897,-0.2676521,0.14786828,0.2863411,0.45151612,-0.07996648,0.058771987,0.09642084,-0.14113103,-0.07034959,0.0061823307,-0.0413043,0.09718463,0.10264855,-0.48445645,-0.17939422,0.046950106,-0.25282767,0.15447219,0.18150315,0.08329441,0.2078884,-0.3841651,-0.09206154,0.2971035,-0.36151886,0.15427497,0.2513496,-0.36715528,-0.2022497,0.10447989,-0.40245563,-0.14392042,-0.24206415,0.08705798,0.041267134,0.6096383,0.13069285,0.071628615,-0.34965193,0.087753616,0.113992795,-0.1095264,-0.05946194,-0.36656296,-0.3373028,0.37493685,0.07651957,0.2929463,-0.30731893,0.29502165,0.035150226,-0.23549944,-0.2921143,0.120050915,-0.41979083,0.016207056,-0.05161357,0.4631928,-0.5064074,0.19062272,-0.19711399,0.052336052,0.13390793,0.24859795,-0.21694164,-0.07062317,0.42646658,-0.012319167,0.035331752,-0.5671015,0.07462963,0.13583514,0.12649527,0.09830869,0.20186526,-0.0040082987,-0.2544185,0.27903444,0.06104315,0.4133088,-0.14730965,0.22188818,-0.22423229,-0.23976347,0.07158424,0.11299149,0.212608,-0.68682927,0.2830931,0.42104003,0.31167406,-0.0042867125,-0.085806504
ABCA9,0.41829184,0.18104292,0.22745514,-0.044956956,-0.1503881,0.16106138,0.17898355,0.12813395,0.5887368,-0.39797512,-0.32059753,-0.066623546,-0.08574265,0.21321921,-0.25470454,-0.21876256,-0.12881145,0.07474755,0.36179653,-0.3759536,0.010838429,0.34159836,-0.05181923,0.30680558,-0.1656738,-0.1821013,0.25454897,-0.102240056,-0.45802304,0.3683915,-0.060040567,-0.17258859,-0.121354245,0.37305468,0.12873258,0.040913377,-0.09473304,0.09850813,-0.0011370383,-0.16169527,-0.12572512,0.37361872,0.12748705,0.20966415,-0.3331144,0.28104696,0.14314201,-0.018514406,-0.06546287,-0.08712948,-0.28033632,0.09950008,-0.30347884,0.09355654,-0.087521,-0.034095924,-0.11376949,-0.12074164,-0.15813072,-0.09767842,-0.104287624,0.18235826,0.073156774,0.10475891,0.17846529,0.3386708,-0.60035294,0.086008444,-0.14402929,0.16713251,0.032436397,-0.10975012,0.05867,0.19895542,0.41550756,0.19121546,0.074774094,0.17370754,0.532315,0.11306868,-0.39041525,0.21331444,-0.22395995,0.29931265,-0.12298698,-0.15978074,0.26794043,0.018931905,0.030437643,-0.22188929,-0.06932115,0.045590367,-0.12210034,0.41434893,0.19347352,-0.11219558,0.1399529,-0.2452751,-0.08613334,0.016838668,0.10273872,0.15656553,-0.41456518,-0.7282253,0.0076678586,-0.109336376,0.3427737,-0.07681915,0.22200142,0.25472245,0.05711077,0.30527917,-0.15283911,0.35392112,0.2187983,0.06995613,-0.14072081,0.2591369,-0.15627137,0.123222694,-0.23873852,0.09098166,0.33904824,0.054695938,-0.002840528,0.18537244,-0.14774838,-0.09461965,-0.1914884,-0.27445677,-0.14685355,-0.37759212,0.2682882,0.20606007,0.32082626,0.4114461,-0.018492078,0.22374749,-0.08572904,0.019905215,0.3481202,-0.008767981,-0.1374805,0.049576968,-0.19130725,-0.091678955,-0.04840463,0.0192519,-0.28077492,-0.4496589,-0.38088426,-0.24338786,0.114374354,-0.0030797955,0.30210862,-0.20314662,0.039881382,0.13614552,0.08319786,0.03856422,0.18103364,0.07188993,-0.052709926,-0.0680594,0.0897237,0.37900257,-0.005354768,0.17047648,-0.11979782,0.26262772,-0.03610782,0.2990999,-0.11884249,-0.44582346,0.25229317,0.07547091,-0.22452061,-0.24180953,0.32611337,0.09052415,-0.25876042,0.29499343,-0.0013317358,0.14818938,-0.22261918,-0.30543455,-0.08291487,-0.052613527,-0.12557806,-0.03076102,0.04046478,-0.12179764,0.0896322,0.11799331,0.120654956,-0.24115373,0.053114243,-0.11462966,-0.23261942,-0.2918803
ABCC4,0.11090171,0.2307139,-0.19460109,-0.24208027,-0.07954916,0.17105736,0.20255908,0.19953254,0.32924536,0.15148449,-0.10143065,0.24330623,-0.15350729,0.056182496,-0.15759107,0.12591049,0.06734448,-0.34645966,-0.16019097,0.016798032,0.10588951,-0.11612253,-0.03518934,-0.05338039,0.2549461,-0.07995864,0.3786427,-0.16045867,-0.44213295,0.057153612,-0.39109012,-0.02001903,-0.24997109,0.216646,-0.3114842,0.16912453,-0.30429152,0.10586318,0.1560722,-0.37456164,0.047974154,0.042204253,0.012174109,0.13745892,0.01404546,0.21229362,-0.15824057,-0.07382927,0.15731512,0.19321293,0.09850805,0.06956205,-0.1583209,-0.00086292205,0.1730178,0.21618113,-0.25290468,-0.008435326,-0.21982487,-0.16106255,0.24030942,-0.38364407,-0.018099042,0.09316095,-0.07064198,0.24720073,-0.20414649,-0.053750053,-0.30885163,-0.23515654,0.1161255,-0.04542066,0.033803537,-0.14807026,-0.023651218,-0.031033056,0.17829815,-0.035499558,-0.012164347,0.037014928,-0.21233004,-0.4271491,-0.30947384,0.14643568,0.19128159,-0.16798708,-0.16886301,-0.61461943,0.43326396,-0.27588966,0.16888542,-0.18492365,0.11505412,-0.16248511,0.30250022,-0.3476273,-0.12358569,0.024669137,0.0041902037,-0.16926925,-0.07856308,0.091284625,-0.073037505,-0.30821308,-0.14126706,0.04925773,0.32036665,-0.19531074,0.2665536,0.18607552,0.051229164,-0.056924574,-0.09145193,0.16820608,0.083222374,-0.062907085,-0.0058148648,0.013733173,0.23970634,-0.18412878,-0.2673662,0.074803464,0.2467745,0.19305313,-0.18588288,-0.040822804,0.22395262,-0.29836583,-0.23671405,0.0046697473,0.17817506,-0.15355673,0.123920895,0.06853068,-0.15803352,0.013260148,-0.24021517,0.35561812,0.08311504,-0.1045244,-0.1402003,0.0854581,0.05513654,0.04826677,0.13688484,0.018204363,-0.080950625,-0.35184014,-0.2626873,-0.12040238,-0.0048557604,-0.26119828,-0.030227298,0.1352056,0.19146603,-0.13874058,0.29537824,0.12675017,-0.021461805,-0.050686613,0.05196638,0.44334674,-0.035228357,0.030209297,0.20367771,0.19177832,-0.22441454,0.118044354,0.0740987,0.11135205,-0.054912314,0.2077396,0.19711435,-0.15216455,0.6225383,0.26815015,0.22495909,0.03609348,-0.04830502,0.09998654,-0.05240135,0.59261656,0.021655671,0.0499366,0.25456315,0.32191584,0.11750518,0.33661225,0.2219389,0.39681873,-0.12475107,-0.028055275,0.3717449,0.0024253936,0.38545486,0.04699769,-0.081182174,-0.19878335,-0.086720765,-0.2635354
ABHD1,-0.06506161,-0.2719383,0.03503448,-0.08642689,-0.06697617,-0.11254042,0.24350873,0.19439465,0.45356894,0.049814574,0.24032229,0.11016228,-0.064471245,0.34066564,-0.20178783,-0.09930672,-0.05405088,-0.58853924,-0.0054866807,0.18383272,-0.25681376,0.14201714,-0.24818051,0.21552561,-0.065997556,-0.2243385,-0.021121934,0.01840161,0.23007232,0.18791139,0.15933916,0.44356352,0.016788153,0.0018230597,-0.07821478,-0.341196,-0.036153622,0.19887348,-0.0676892,-0.13491356,0.052464493,-0.24852647,0.18029574,-0.046659958,0.088740624,0.053858675,-0.13515276,-0.1423142,0.07126065,-0.28354698,0.1490245,-0.00015827996,-0.17092618,0.234058,-0.08703915,0.30016866,-0.007631892,0.22464444,-0.015742889,0.2522979,0.15637772,-0.1187977,-0.42033005,-0.027396673,0.1349745,-0.22431414,-0.49516648,0.08385747,0.07647015,-0.2553181,-0.0035719227,0.14448439,-0.35513282,0.0014081119,0.16466393,0.028680485,-0.15512154,0.2484297,0.22261673,0.2345707,0.061707333,0.16816068,-0.15206403,0.4667432,-0.33722427,-0.009709331,0.2871765,-0.055124935,0.03882025,-0.19199565,-0.002113232,-0.06295213,-0.120398074,-0.10575034,0.06807571,0.076496206,-0.14444916,0.08640191,-0.22425374,0.18329853,-0.10503797,-0.05002581,-0.22848298,-0.13949296,0.038788743,0.35810766,0.27279067,-0.12057221,0.20446052,0.13039882,-0.032933503,0.052286353,-0.18400848,-0.005847406,0.26460156,0.3790081,-0.28555945,0.18076771,0.047562476,-0.047858395,-0.18315993,0.13705325,0.27399153,0.15160088,-0.03474126,0.09632421,0.38796914,-0.10350624,-0.10456594,0.062471516,0.114187144,-0.15133104,-0.05199051,0.055528,0.018757991,-0.020400256,-0.13892725,0.10185964,-0.16304316,0.05085906,0.34224832,-0.27532285,0.2274715,0.2228488,-0.11397372,-0.3027673,-0.2069048,0.07338083,0.024360068,0.07110594,0.11634794,-0.05124642,-0.048919786,-0.22237155,0.6957873,-0.39236763,-0.046334077,0.035173774,-0.10230178,-0.11904021,-0.23212408,0.18703926,-0.21184464,0.16633992,0.17532992,-0.26858804,-0.06509644,-0.21091002,0.24271064,-0.12913725,-0.12196034,-0.35058624,0.019523863,-0.10813475,0.044968326,0.33011445,-0.3483728,-0.16089267,0.03415471,-0.0595669,-0.10567454,0.24168132,-0.18585561,0.06824035,0.11151891,0.046400324,0.12593001,0.01616638,-0.13291143,-0.14704444,0.026346564,0.07532707,0.08025076,-0.15471393,-0.05046992,-0.102469005,0.17253065,-0.07425925,-0.08097511,0.26616988
ABHD11,0.08232556,0.01903561,-0.10456217,-0.21099548,-0.11507724,-0.36095798,-0.019972155,0.092418365,0.64811814,0.33563378,-0.2696718,0.6841522,-0.15830512,0.4059704,-0.2528327,-0.10986638,-0.11411124,-0.21553537,-0.06978877,0.08542987,-0.19751643,-0.07628051,-0.03871717,-0.016065117,0.050175067,-0.37429172,0.02520265,0.018542532,-0.2624333,-0.12733091,0.07932849,0.15255947,0.053894218,-0.10573027,-0.11803391,-0.31159556,0.109719016,-0.28339198,-0.00875364,0.104127154,0.05227217,-0.19565363,0.04521555,0.068938404,-0.22171134,0.3029272,0.114296615,0.23103565,-0.416265,-0.1368849,0.37029418,0.35045087,-0.17314476,0.21007967,-0.2419069,0.15446173,0.086023964,0.34131086,0.0401249,0.23157138,-0.026583826,-0.22614245,-0.13777182,0.16198273,-0.1260479,-0.18573233,-0.29550663,-0.02716697,0.11710801,0.036767602,-0.01983024,0.3263266,0.1783979,0.20025018,0.04501126,0.11428813,-0.07898097,-0.06577629,0.06703895,0.23666808,-0.1308402,0.04220673,-0.25682825,0.22538395,-0.10042025,-0.07444899,0.104734376,0.27436772,0.0916747,-0.15583454,0.07621198,0.06496464,-0.2490239,0.10241689,0.2891678,-0.10654961,0.015108384,-0.002572632,-0.19283101,-0.10431481,0.16133569,0.19466217,-0.2690602,-0.3151727,-0.16495374,0.38245803,0.072816186,0.046716455,0.02666322,0.20509918,0.08430749,-0.13370688,-0.11889782,0.32297072,0.27848384,0.4885288,-0.2612748,0.056840055,-0.04895484,0.015476699,0.28751773,-0.05628527,-0.048575863,0.17249204,-0.3078811,0.045476753,0.4511716,-0.13275586,-0.38408163,-0.14893676,-0.14072981,-0.09956053,0.0826082,0.14932567,-0.072722495,-0.061917663,-0.13691722,0.16751054,0.061065648,-0.04466742,0.21198808,0.08541089,0.2528062,0.018171104,0.038863953,0.11966982,-0.11184058,0.03661176,-0.381718,0.004449417,-0.075533345,-0.26944807,-0.1673575,-0.1151433,0.084050015,-0.23092492,0.34485453,0.05255988,-0.13295774,-0.20392348,0.14104618,0.22851752,-0.16592146,-0.016140666,0.13878834,-0.45883518,0.06791358,-0.27123204,0.17925836,0.08518135,-0.0059402697,-0.06611241,0.010362441,0.30128682,0.17987515,0.13942884,-0.21087825,-0.35197303,0.12051336,-0.09701193,-0.24172029,-0.13945603,-0.029719746,0.0134366015,-0.17106916,0.09665492,0.031973314,-0.3317743,-0.081982315,-0.27619693,0.06797875,-0.22747867,0.11362663,0.07643094,0.26387787,-0.17474094,0.3066415,0.00014604915,0.17527473,0.1166506
ABHD14B,0.12626658,0.14061397,0.16827875,0.10733691,0.28060848,0.13375603,-0.10987655,0.5381131,0.5418812,0.17663188,0.30107138,0.27698606,0.032701045,0.043746006,0.14399469,-0.24088813,-0.18728092,-0.16417421,-0.22096184,-0.024938498,0.018751023,-0.09285472,0.09375857,0.50683224,0.020911077,0.09961041,0.18215545,-0.044938073,0.20007958,0.6726856,-0.15949054,-0.06515656,-0.12365564,-0.042772107,0.60076374,0.010227709,0.018875731,0.25107488,-0.42564437,0.061477568,-0.19279784,-0.117467135,0.32731393,-0.38472012,0.53738713,0.3506289,-0.40606776,0.22685966,-0.25802907,0.16421025,0.11369575,0.17904131,-0.55969566,0.12908424,-0.069444716,0.613147,-0.28923032,0.0077627935,-0.1894988,-0.08943044,-0.14782193,-0.14830485,-0.18923113,-0.25727582,-0.10696521,0.17176369,-0.023482721,-0.032285694,-0.22549082,-0.6344637,-0.44746172,0.034713652,0.20332158,0.3125856,0.044257864,0.1842175,0.052891288,0.0070379353,-0.4971698,0.46385562,0.15970178,0.14357696,0.1096353,0.09536707,0.009332559,0.32318807,-0.14893709,-0.21596771,-0.056689683,-0.7071353,0.36104292,-0.37258247,0.4511007,0.035164982,-0.020999229,-0.207442,-0.3949172,0.18009454,0.2662535,-0.26655328,0.38941154,-0.22246116,-0.19308269,0.03610495,0.050965864,0.34641477,0.50818163,0.029090539,0.2780164,0.23124777,0.23991378,0.12746693,-0.1917487,0.6144292,0.16103178,0.20683154,0.13676557,0.07118807,-0.2502066,0.39978185,-0.10215994,0.23047738,-0.5580154,-0.14298992,-0.42490256,0.10084123,0.19952661,-0.17425518,-0.2232765,-0.08720508,-0.22169141,0.30947527,0.70411617,0.59479845,-0.1740771,0.23018834,-0.08191052,-0.11065013,-0.19502805,0.4336329,-0.12182825,-0.047800314,0.07337498,-0.19065887,-0.18180698,-0.33999434,-0.34428737,-0.0081423875,-0.035499938,0.063226156,0.052908823,-0.12692553,0.08237215,-0.3083524,-0.17501818,-0.11472398,0.750059,-0.142085,0.30332127,-0.47041073,-0.12229365,-0.08803999,-0.25166932,-0.43546504,0.20785378,0.19804655,-0.14200772,-0.18722534,-0.1203929,-0.25787577,-0.059677992,0.044735853,-0.5687207,0.26376355,-0.12396589,0.07581327,-0.61443096,0.040159732,0.18084043,0.14001882,-0.11560833,0.14240587,0.065155216,-0.8599593,0.024163319,0.28492925,0.35032725,-0.29030117,0.1826694,-0.24317472,0.18191749,0.25074956,0.5428756,-0.05101792,-0.36443347,0.055866756,0.2572985,0.034341145,-0.36692303,-0.20355567
ABI1,0.18906629,-0.19333228,0.10059728,0.008165008,-0.4194931,0.025510782,0.10968698,0.56785196,0.07652007,0.17447351,0.22648452,0.015959097,-0.30045745,0.01978103,0.021234648,0.18386596,0.1394173,-0.1353368,0.1614195,-0.3385542,-0.18981673,0.15237834,-0.19098288,0.008561167,0.23364776,-0.026065836,0.09983508,-0.122114584,-0.61428136,0.16976143,0.03513255,0.18126212,0.09750792,0.3521076,0.11752453,0.09095504,-0.061609883,-0.137759,-0.113059625,0.20837483,-0.10704708,0.2890042,0.04711612,-0.18392847,-0.015852155,-0.041430686,-0.21011174,0.3195698,-0.040777016,-0.19567871,-0.37452593,-0.27512604,-0.06700709,0.19287942,0.17711233,0.35346594,-0.17881654,0.024271917,-0.33685333,-0.14756984,-0.005557863,-0.15316273,0.3328609,0.323876,-0.10441267,0.11256693,-0.26167658,-0.06714726,-0.20033245,-0.26666135,-0.34856662,-0.305338,-0.09469621,-0.31058672,0.00049122586,0.08235678,0.34414914,-0.27939954,-0.1098698,0.4054093,-0.3369128,-0.3058952,-0.18840635,0.23754653,-0.1089874,-0.35698134,0.02381509,0.041417204,0.17229658,-0.39342526,0.13154067,-0.1954104,-0.39182478,-0.015006164,0.03670715,-0.17285334,0.06090586,-0.16098142,0.2599461,-0.18341096,0.16265315,0.13749322,-0.16232036,-0.00012122449,0.05162797,-0.083369255,-0.028007768,-0.4373401,0.11005968,-0.0812136,-0.008529412,-0.1895742,0.33943233,-0.03989116,-0.055914737,0.43951312,-0.23587753,-0.13934623,0.49508724,0.28835157,-0.023979489,-0.09020332,-0.07757039,0.0056138528,-0.012556609,-0.04839692,0.5382242,-0.31609657,0.078671314,-0.10562631,0.21141824,-0.0049359105,0.27680218,-0.122410044,-0.22839579,-0.19389123,-0.05186774,-0.017131358,0.12209507,-0.18350251,-0.4775926,-0.037845425,0.14861755,0.15539832,0.06872155,0.21114694,-0.16519918,-0.121508874,-0.28344125,-0.078272454,-0.13907923,-0.22805193,0.1828873,0.10485409,-0.045744188,-0.30771518,0.21831991,-0.22278799,-0.061706103,0.32474917,-0.07018769,0.2136632,-0.08045017,-0.119570896,0.58873236,0.03648449,-0.37439775,-0.115827,0.1520358,0.43641055,-0.18778364,0.19228296,0.2151816,-0.27322814,0.119929954,0.049716253,-0.12135546,0.10296526,0.22264801,-0.013804906,0.15023987,0.32325545,-0.3126463,-0.13072218,0.43072894,0.40899318,0.11107651,0.23472713,0.1627628,0.16019954,-0.094628885,0.06851299,0.45414835,0.04897408,0.15318502,0.39476448,-0.246803,-0.008814823,0.011119757,-0.3258265
ABI3,0.27647403,0.22982593,-0.30483276,0.009890726,-0.26546273,-0.24484363,-0.07335285,0.30008644,0.3160196,0.46263778,-0.103687674,0.28470173,-0.16679288,0.32380837,0.013797475,-0.054187022,0.28632972,-0.19883668,0.2443675,0.30444023,-0.010405416,0.23804823,-0.0686225,0.059380297,0.15828645,-0.15176524,-0.07372262,-0.26757225,0.056653846,0.34217393,0.20294221,0.30862832,-0.16516346,-0.23194772,-0.15168254,-0.33112437,-0.18236622,-0.24282074,0.2640672,0.07477993,-0.32668513,-0.021539168,0.20608082,0.12441503,0.38390422,0.27577248,-0.25673255,0.030049331,-0.24033971,0.08424727,0.08394385,-0.086984016,0.2690004,0.012143276,0.0790419,0.33636367,-0.095791355,0.060321406,-0.36882353,-0.02818968,-0.0305575,-0.23135339,-0.5139921,0.37655145,0.15791625,-0.12887001,-0.060690187,0.02416843,0.26211697,-0.02969229,-0.0970397,0.5729485,0.03573272,0.15715824,-0.13204013,-0.14643593,0.09011715,0.13852239,0.037127,-0.03150692,0.0459118,0.23192565,-0.09034233,-0.14852072,-0.07557251,-0.030610355,0.115919,-0.0200659,-0.0403717,-0.093964405,0.16007532,0.095434934,-0.025169166,-0.025558677,0.1906865,-0.21089263,-0.11001652,0.015383141,0.22195226,0.048206765,0.06841996,0.1193896,-0.40993375,-0.385696,-0.24028495,-0.037367888,0.34391585,-0.29426447,0.20550652,-0.022333397,0.0849374,-0.19402292,-0.14160989,0.01868076,-0.028907496,0.03737313,0.0056843627,-0.14620025,-0.24658279,-0.07048639,0.16091579,0.11031549,-0.27887443,0.106185004,-0.0945288,-0.2505578,0.16955754,0.07831049,-0.088021554,0.058936566,-0.05980817,0.210491,0.21598516,0.497223,-0.22611603,-0.15089478,-0.022778004,-0.18407774,-0.3231553,-0.124094725,0.02291261,-0.4754741,0.040058777,0.1382509,0.072688766,0.044221427,-0.09175959,0.013196223,0.07462838,-0.35874125,-0.06269874,0.09531684,0.12980285,-0.015989516,0.50718826,-0.18581943,0.022577731,0.056099165,0.1628317,-0.13689455,-0.3580385,0.08607368,-0.4117632,0.38830787,0.19335403,-0.26614323,0.09456626,-0.23535499,0.20578738,-0.37195176,-0.06101692,0.14220375,0.28648415,0.40232557,0.08865591,0.27251643,-0.52888584,-0.4633118,0.060174063,-0.26355398,0.061201707,0.07755267,-0.078790836,-0.029284647,0.17125033,0.2900112,-0.027514994,0.12966035,-0.11559282,-0.054963168,0.06885047,-0.063327014,0.2629455,0.19275682,0.08068102,-0.1370275,-0.09834479,-0.38147593,0.080965266,0.14555146
ABLIM2,0.12583394,-0.091283575,0.16913994,0.16355093,0.07403661,0.17743866,0.25086713,0.28734583,0.2816422,0.24143207,0.4483519,0.33478144,-0.052891083,0.107956365,-0.1386936,-0.014059007,-0.025156634,-0.23817974,0.025551135,0.1442632,0.016603855,-0.012215379,-0.19064686,-0.078974135,-0.46251255,-0.09787077,0.09312217,0.090248846,0.04030152,0.19620313,-0.0149258515,0.12451096,-0.104796246,-0.04971026,-0.021884136,-0.4546685,0.032940138,0.08481675,0.04662577,-0.009023392,0.011750031,-0.04272485,-0.04024844,-0.036088653,-0.06466159,0.2478996,-0.0525685,0.055959374,-0.1857452,-0.013662919,-0.00050542044,0.04108704,-0.19631204,0.37275812,0.06681938,-0.015990566,0.0042268126,0.3137248,-0.05437233,0.1642772,0.011828773,-0.15989397,0.03149458,0.36622897,0.3725567,-0.14085463,-0.26197422,0.07748794,0.16148135,-0.34815753,-0.15777901,0.27315465,-0.05536534,-0.2516922,0.4754959,0.20973706,0.28585368,-0.08244703,0.19166577,0.1840204,-0.20440933,0.090394944,-0.36650598,0.022170985,-0.08062445,-0.23732662,-0.015628545,0.08381018,-0.21250494,-0.074134834,-0.051553495,-0.076157816,-0.0017903391,0.1416576,0.14151947,0.052886397,-0.27390006,0.0044712313,-0.21547617,0.18215238,0.093618385,0.1782606,-0.29229632,-0.4269789,-0.0120756505,0.28734165,0.04519695,-0.04018904,0.014237368,0.053690065,0.026342902,-0.016603809,-0.14965025,0.1367791,0.01237459,0.30286404,0.05263529,0.11061084,0.079188764,-0.2492249,0.19812927,0.062028944,0.07761104,0.0415545,-0.2700688,-0.10249342,0.06816406,-0.2003236,-0.44626486,0.30051252,-0.021809885,-0.40480462,-0.17714903,-0.059904817,-0.17457013,-0.072729014,-0.15338793,-0.012433582,-0.0197345,-0.026554538,0.06750289,-0.134554,0.28945097,0.14128114,-0.037580907,-0.22832665,0.28582558,-0.009435246,-0.37366253,-0.23399138,0.0076114177,-0.14361215,0.004933592,-0.18349168,0.2530767,-0.25731057,0.007556457,0.28842103,0.070194386,-0.07104355,-0.04805237,-0.10769906,-0.2968402,-0.035556383,-0.005295036,-0.1787123,0.15927425,-0.28239554,0.25215948,0.051417958,-0.09089512,-0.20182896,-0.10969743,0.19464669,0.16715084,0.28853574,-0.21038187,-0.08981665,0.14299369,-0.13846251,-0.16993056,-0.0626153,-0.12665457,-0.0037219857,-0.05620972,0.13404235,-0.19411989,-0.14622001,0.1583202,-0.07084733,-0.19035143,0.13534105,-0.07404816,0.12091293,-0.07902615,-0.11829239,0.15271394,-0.2096969,-0.1236034,0.052792978
ACAA2,-0.011905806,0.08041824,0.06974077,-0.096537545,0.027233098,-0.0714758,-0.097999185,0.38570896,0.34622118,0.09192889,0.01456094,0.33606732,-0.055404168,0.07430329,-0.29406905,0.11540062,-0.08294138,0.42729056,0.12565714,-0.027177988,0.06260005,0.14852011,0.06301582,-0.21407974,0.0066140895,-0.10873483,0.34652433,-0.25216383,-0.07450148,0.20982905,0.14962107,0.09299756,-0.046182748,0.030601956,-0.06559119,-0.13886906,-0.19848222,0.3030882,0.025250975,-0.052673396,-0.30059296,-0.046252992,-0.05101114,-0.11786188,-0.051021654,0.28602925,-0.15870488,0.10117962,-0.50470024,0.26783147,-0.03863177,-0.041055147,0.08252061,-0.20834899,-0.12294883,0.32329053,-0.008022118,-0.013411918,-0.17274305,-0.004165564,0.16358712,0.0068195257,-0.104867645,0.066454396,-0.033570066,0.10816878,-0.3199203,0.07171611,0.13480037,-0.0793699,-0.36001754,0.24139792,-0.04372434,-0.051172405,0.08665083,0.0054832054,0.038694676,0.21631153,-0.07414266,0.002884244,0.007583882,0.07156523,-0.40921396,-0.07161034,0.29073024,-0.0870613,-0.012032811,0.018092182,-0.14186856,-0.39425313,0.26164502,-0.15687646,-0.24905777,0.0045839464,0.15909564,-0.086911656,-0.13362834,-0.099106506,0.30027995,0.09602163,-0.016703542,-0.061765313,0.13307561,-0.40290308,-0.0075106365,-0.16078913,0.37175825,-0.08803827,0.35927662,-0.14148483,-0.07526304,-0.29502752,-0.0111253,0.28675866,0.13668862,-0.101800025,-0.044786483,-0.08986098,-0.009245467,-0.094445445,-0.20382936,0.044230428,-0.13403897,0.12100247,-0.4242491,0.1985271,0.006725766,0.20866126,-0.30308604,-0.047072873,0.2503406,-0.34226254,0.012690885,0.44309053,-0.17488863,-0.2361823,0.041682877,-0.01206728,0.018331269,0.01803572,0.09774392,-0.06085144,-0.013818983,-0.1396024,0.17078608,0.14488734,-0.011340027,-0.049122833,0.2854674,-0.25040683,-0.32939526,0.012783413,0.13007745,-0.2327596,0.10357723,-0.33909774,0.19762476,-0.093904965,0.09382257,-0.1468513,-0.24561857,0.045600712,-0.10998963,-0.017742086,0.29203844,-0.08588805,-0.16558696,-0.037523348,0.06952081,-0.22950648,-0.20698091,-0.15790236,-0.16146876,0.38047692,-0.04811536,0.21505953,-0.29593548,0.016143564,-0.16591635,0.04009256,-0.031258587,0.102968946,-0.10653421,-0.08005438,0.18698293,0.18788317,-0.24626529,-0.16745391,0.23125054,-0.1460043,0.060103994,-0.010849693,0.06949587,0.1667627,-0.051105667,-0.04558492,-0.33346108,0.19870512,-0.13733633,-0.051830456
ACAD10,0.2692965,0.16645893,-0.1403613,0.37302083,-0.13220352,-0.04774149,0.13033175,-0.072430655,0.29776502,0.034344573,0.20052938,0.12048482,0.07829151,0.12770437,0.030715268,0.16302468,0.1882491,-0.18189874,-0.10523971,0.079893865,0.472052,0.26751253,-0.5012899,0.09255758,0.20621742,0.105213635,0.16158614,-0.13113011,-0.36056298,0.277978,-0.18409048,0.010209343,0.14385761,-0.008080826,0.10435994,0.02583407,0.16304868,0.16760421,-0.113990255,0.06342056,-0.08366867,0.29102877,0.07941353,0.2633731,-0.14769916,-0.062136568,-0.116634846,0.33167815,-0.029431093,-0.12258007,-0.079639494,-0.020699412,-0.27067855,-0.0454103,-0.05217838,-0.009290252,-0.060659986,-0.23148626,-0.33932054,-0.09758926,0.036567476,-0.16955006,-0.04453286,0.2788347,-0.016558813,0.050587874,-0.8230013,-0.005421991,0.2287607,-0.1535023,0.23390107,0.5350785,-0.1191513,-0.11877337,0.14510274,0.00026150286,-0.026438132,-0.38849568,-0.18426885,0.120707855,-0.2371676,-0.39711216,0.02281451,0.19809863,-0.0007874623,0.09650826,-0.080044374,-0.37539572,-0.12247767,-0.24905896,0.14160377,-0.25492275,-0.06303496,0.40896082,0.29289868,-0.22469303,0.13592091,-0.00010403684,0.30874863,-0.20537654,0.3996765,-0.24268317,0.09951139,0.09430748,-0.07340997,0.41292152,0.032458548,-0.47428477,0.14633384,-0.13065651,0.0037861692,-0.03894106,-0.16625388,0.16389003,-0.044050124,0.11064657,0.2299201,-0.26134032,0.13868648,0.27532893,-0.31484115,0.4722084,-0.11352479,0.2714482,-0.33666816,0.14107296,0.16158368,-0.06300097,-0.13994414,0.13890842,-0.14267203,-0.35236996,0.32066032,0.14719269,-0.13069153,-0.045657665,-0.065617085,-0.13499054,-0.006188067,-0.21352386,0.19717796,-0.30014887,-0.22475156,0.5210474,0.01931607,-0.05586492,0.039667763,0.11060221,-0.41271487,-0.13662349,-0.25972447,-0.14322393,0.41389582,0.36719856,0.019149907,0.28662986,0.117353566,0.041525323,-0.008919298,-0.16590522,-0.22080001,-0.097419314,0.1041839,-0.16867776,0.37075588,-0.21211714,0.38777754,-0.19634166,-0.107619286,0.10683376,-0.026268452,0.158753,0.022978175,0.21738051,0.42996982,0.15657756,0.023966165,-0.014854952,0.12444709,-0.20550652,0.2705402,0.38151726,-0.12615508,0.2252938,-0.1523835,0.1390665,-0.45329714,0.22431521,0.18851247,0.13270262,-0.16124414,0.22107342,0.2813493,0.10134528,-0.10653833,-0.036437526,0.0047724247,0.29228085,0.09865362,-0.3008177
ACCS,0.25147328,0.060187344,-0.10568657,0.24101683,0.6183193,-0.20785941,-0.015344575,0.10831547,0.15993112,0.1765176,0.27201363,0.008394481,0.27725285,-0.18167663,-0.2863134,-0.43606535,-0.24534707,-0.8241644,0.15136762,0.106233604,0.13470386,0.47336093,-0.047630224,-0.085579865,0.07440375,0.17530791,0.1565048,-0.024283864,0.118589334,0.38760465,-0.26935765,-0.017172316,-0.3574134,0.025965668,-0.2915181,0.04775768,-0.4493013,0.2023622,-0.19170696,-0.36612782,0.07564551,0.10390113,-0.10745013,-0.32652074,0.21919338,-0.2287946,-0.040093377,-0.09687735,-0.39949137,0.32001838,0.08266529,-0.19244142,-0.13456264,0.17894457,0.1164184,0.5924977,-0.17667478,-0.2721962,-0.45975605,-0.28230304,-0.20745465,-0.30774546,-0.3363994,0.37164253,-0.07401103,-0.018324804,-0.5599121,-0.3292777,-0.21511959,-0.6213143,-0.18396026,-0.046016525,0.02395742,-0.122450426,0.15474997,0.20751816,0.2634925,-0.11988564,0.02987754,0.61393476,0.032405708,0.19102263,0.026483757,-0.007827378,-0.2879816,0.36442232,-0.5068701,-0.17812935,-0.34785676,-0.5971788,0.12046442,-0.26941642,0.16577648,-0.16543874,-0.24703111,-0.27360806,0.18254668,-0.010103053,-0.29174855,-0.23161973,0.36466786,0.16283189,-0.47402874,-0.18872733,-0.37249312,-0.5048646,0.0875759,0.32915947,-0.17680034,-0.17630693,-0.12763867,0.33684382,-0.39575723,0.35487297,-0.32159665,0.8402809,0.06253903,-0.12583886,-0.08102207,0.3529656,-0.41645163,0.028000263,0.058568023,0.101947606,-0.11851444,-0.0077705607,0.37832698,-0.15902062,-0.40562263,-0.60958326,-0.08590602,-0.27741438,-0.036696333,-0.046440773,0.086595796,-0.17242329,0.04462706,0.035451338,-0.07136281,0.34339908,-0.11623148,-0.09903351,0.61399335,0.28399903,0.28822505,-0.02355181,0.057458013,-0.23154299,-0.14421052,-0.055458132,-0.3752984,-0.16768974,0.25074428,0.56199557,-0.04344284,-0.4143182,0.43254593,0.35478768,0.058562208,-0.33912197,-0.039237626,0.1821846,-0.051547565,0.2329052,-0.30484146,-0.10165932,-0.17487527,0.45003614,0.14868557,-0.19180758,-0.16641645,0.04912298,-0.3507944,0.2970893,-0.07101949,1.0254176,0.09875302,-0.17785089,0.092411324,0.2915999,-0.18547308,0.19828717,0.21306078,-0.12748724,-0.35670763,0.47871274,-0.0023305858,0.04331096,0.15357597,-0.23741038,0.15688382,0.26812938,0.02164839,0.076241374,-0.3886662,-0.5019289,0.17846583,-0.2975833,0.19086675,-0.32268962
ACOT2,0.14951646,0.30257827,0.08199449,0.07557201,0.1902699,0.07513825,-0.07613447,0.120371126,0.45942628,-0.03921303,-0.078504175,0.04858931,-0.17231423,0.15099406,0.18871447,-0.22195381,0.09691792,-0.15265551,0.347207,-0.042914726,0.06266394,-0.0742478,-0.2642322,-0.1885033,-0.14820999,0.025707383,0.2217369,-0.32043892,-0.3887727,0.62655807,0.045337535,-0.1397009,-0.35060892,-0.039627858,0.34786403,-0.24989484,0.06484831,0.13004911,0.0824141,-0.2465666,-0.06905271,0.3246176,0.46680292,-0.07986697,-0.22096162,0.4052569,-0.18394391,0.19196759,-0.41251397,-0.027073944,-0.26982933,0.08340614,-0.37477216,-0.16931118,-0.09632222,0.17745182,-0.46517438,0.16773239,-0.23162816,-0.2991011,-0.3379244,-0.18275994,-0.10910969,0.13292262,0.111694954,0.1668572,-0.42957407,0.31716132,-0.08892221,-0.18430668,-0.08679128,-0.11097577,-0.32487524,0.09189669,-0.13275209,0.19396178,0.28674534,0.029416298,-0.26668993,-0.06914616,-0.468236,-0.1977936,0.12736428,0.33292624,-0.15772836,-0.2657724,0.32675648,-0.17722747,0.1144448,-0.56844366,0.21807101,-0.17855576,0.2663275,-0.26675138,0.33763325,-0.31727603,0.45224625,-0.032043457,0.21821056,-0.19352429,0.17821953,-0.2519594,-0.013103226,-0.40334448,-0.24430811,-0.16652468,0.15187706,-0.06678966,0.0003413914,0.23745953,0.3839854,0.07209365,-0.2193108,0.30823493,-0.08454837,0.05300951,-0.3425819,0.0206013,-0.35812956,-0.023403754,-0.46053022,0.40789312,0.01680179,-0.14749162,-0.113706425,0.00978158,-0.22679871,-0.1636884,-0.7046655,-0.061510563,-0.18595687,-0.418786,-0.53358227,0.12656741,0.43285352,0.04661316,0.24285811,0.22909741,0.120181225,0.06315151,0.003319706,-0.04948142,0.24828047,-0.14854164,-0.118946515,0.018068956,-0.46601626,-0.3836771,-0.23265964,0.09489527,0.101830356,-0.32980403,0.48388553,0.040108193,0.27228755,-0.35440663,0.03326642,0.19312415,0.24274318,-0.4914224,0.15032004,-0.034879416,-0.16838437,-0.15585999,-0.08138584,-0.06724712,-0.10751879,0.5447294,-0.020642774,0.3596118,-0.03264038,0.083317906,-0.084841385,0.19230674,0.28080282,0.32183182,-0.3512317,-0.22756848,0.26657337,0.15085873,0.14033902,-0.051284365,0.14729667,0.12630486,0.51312894,0.14974584,-0.28521588,0.20554133,0.37023208,-0.298821,0.13224046,0.36619943,0.004250506,-0.055168647,-0.12628426,-0.13473146,-0.28588933,-0.019347802,-0.14552797,-0.07751772
ACSBG2,-0.02890193,0.04850987,-0.32292166,0.065233335,-0.3012903,0.38457194,0.03593712,0.5925201,0.2404381,0.057132397,0.2889823,0.20378953,-0.121972375,0.11154769,0.27324203,-0.09759014,-0.09863012,-0.30800816,-0.023252241,-0.122908294,-0.0018893032,0.31333452,-0.00869676,-0.01664648,-0.1070174,-0.35662177,0.33285746,-0.21057223,0.02436423,0.12891454,0.17128144,0.1400524,0.3165613,-0.30653572,0.14485097,-0.46970382,0.33506292,0.08711695,0.044582177,-0.15602607,-0.16356204,-0.2108952,-0.09518267,-0.075623535,0.055511035,-0.03789175,-0.21082275,-0.013433259,-0.12322872,-0.24937925,0.24186108,0.14078821,0.011373867,0.2643693,0.2492354,0.34345374,-0.37053356,0.176387,0.17169985,-0.011366072,0.271103,-0.36530274,-0.76273644,-0.20579079,0.5896345,-0.45808673,-0.624402,0.13298722,0.034455977,-0.52318275,-0.027691768,0.11158333,-0.29836679,-0.13971,-0.10840582,-0.0060402253,0.024672316,0.07488629,0.21999301,0.093370706,0.047768287,-0.013504647,-0.15717252,0.5596517,0.027928963,-0.10430196,0.30543065,0.25934562,0.17385633,-0.022191608,0.46001464,0.52637637,-0.0067333994,-0.20226677,0.54012537,-0.06441088,-0.18406197,0.27516273,-0.39475435,0.20871846,0.006136475,0.5847232,-0.0073066126,-0.37209618,-0.1845283,-0.010802547,0.3154448,-0.16820855,-0.015059379,-0.134781,0.047749583,0.20066027,-0.40690142,0.12652326,0.5413012,-0.24542166,0.08144648,-0.13267058,0.21700822,0.07464558,-0.032948997,0.11955636,0.31871942,0.4073948,-0.026360948,-0.1372032,0.5826922,-0.24971284,-0.19368285,0.025752272,0.006917671,-0.20964469,-0.07522371,0.19935286,-0.29660755,-0.26484996,-0.2175316,-0.08679875,-0.35146892,0.17151894,-0.25161254,-0.14071451,0.006890529,0.22992674,-0.1551013,-0.2112552,-0.14015204,0.16989675,0.35494524,-0.3669613,0.34569213,-0.13706455,-0.29379028,-0.2090838,0.49253303,-0.21072884,0.0935003,0.0677399,-0.269782,-0.16171157,-0.28822842,-0.060737092,0.014140006,-0.13719201,0.12844317,-0.36128417,0.14421292,-0.3492611,0.2763134,-0.32941276,-0.071295455,0.12285906,0.2238336,-0.26288283,0.19342974,0.45520702,-0.15906428,-0.15377247,0.51056165,0.020880997,-0.013693122,-0.105929404,0.03639389,-0.049825486,-0.18007645,-0.16817497,-0.09451458,-0.044656456,0.12502217,0.0215094,0.14239028,0.2626762,0.3900739,0.04407521,-0.07716571,-0.12919948,0.103562675,-0.031572796,-0.20225336,0.19828588
ACSS1,0.045929912,-0.14365819,0.077863894,-0.15193234,-0.026527382,0.07549181,0.3005793,-0.10658115,0.19452822,0.25554857,0.0040817615,0.29993474,0.109208,-0.01511893,-0.21818537,-0.05812752,-0.07604121,-0.08431241,0.22313537,-0.11296549,-0.21039525,0.11453611,-0.2702427,0.068989456,-0.090555176,0.36824065,-0.11616135,-0.40196282,0.0756199,0.35452947,0.4820511,0.009965756,-0.1321917,0.11824427,-0.114591844,-0.15227933,-0.12875642,0.13964432,0.063961685,-0.26594403,-0.28305542,0.080053076,0.1672482,-0.057206824,0.26398072,0.09735488,-0.2121319,-0.04516219,-0.33558434,-0.13338928,-0.32986137,-0.19144014,0.09116237,-0.016986456,-0.17673008,0.36109957,-0.066033326,0.0399703,0.055929802,0.2091042,0.0221035,0.05062771,-0.3490805,-0.05277004,0.0836621,-0.046549987,-0.458303,0.085352786,-0.033875965,-0.33531055,-0.14252092,0.110952415,-0.033659518,0.029117314,0.118890725,0.11564756,-0.11158254,0.050665744,0.036433276,0.01376305,0.09714835,-0.028551677,-0.25414395,0.18146934,0.06873187,-0.18084452,0.010095623,0.13031566,-0.10605711,-0.1485398,-0.35174504,0.07737421,-0.12529552,-0.054133296,0.12975843,0.06915495,0.07130327,-0.06842974,0.22781621,0.13380185,0.29933086,-0.10434164,-0.20652142,-0.11372132,-0.03191827,0.070048735,-0.009664082,-0.19816151,0.1563327,-0.21914099,0.035254374,-0.064587764,-0.25747797,0.32649997,-0.058678012,0.17584506,-0.04676572,0.16851588,-0.04062447,0.10562981,-0.21968603,0.059558645,-0.04035068,-0.11637521,-0.2640616,0.18624935,0.117726676,-0.08134322,-0.008880292,-0.11138745,0.010833822,-0.18445146,0.11366728,0.44931975,-0.06437254,-0.1624963,-0.12547193,0.0070556393,-0.11215865,0.17372368,0.2819646,-0.18683581,0.27923712,0.21132058,0.31867957,0.20521432,0.024502682,0.12344653,-0.07148047,-0.36116937,-0.42339933,0.080690935,0.2545879,0.075290374,0.3122743,-0.1467098,0.42546818,-0.16493675,-0.11816087,-0.033279903,0.10174767,0.051023446,-0.1794718,-0.052927252,0.15322101,-0.22580616,-0.11648736,-0.10334623,0.17236677,-0.06422398,-0.107506655,0.07514911,-0.108185165,0.1746481,-0.11293095,0.27619314,0.050212592,0.15629491,0.001962878,0.05458783,-0.313867,0.16488455,0.007146499,-0.11518939,-0.10286083,-0.013086301,-0.016390087,0.16686,-0.1237075,0.067003414,-0.011301284,-0.064900815,-0.043994877,0.22814687,-0.32740793,-0.2705906,0.004899849,0.018875392,-0.24137017,-0.22496894
ACTL7B,0.09382729,-0.016735518,0.032245234,-0.10873306,-0.13842936,0.059945565,-0.04099268,0.50595003,0.10183853,0.1130246,0.14224175,-0.016503496,0.1923321,0.34284288,-0.025207499,0.24203488,0.065552056,-0.07540745,0.18722104,-0.123585574,-0.32154217,0.37776387,0.11198575,-0.22715947,-0.03798554,0.026370613,0.009647733,-0.1730146,-0.017981907,-0.15720357,0.46723247,-0.148651,0.16282555,0.0440858,-0.24343458,-0.06623023,-0.1119655,-0.123357825,-0.018795524,0.0054195477,-0.16999204,-0.045357242,-0.016862217,-0.34535503,-0.14420286,0.24936044,-0.00812936,-0.24719824,-0.01514158,-0.169635,-0.08621629,-0.03643872,0.2591632,0.125235,-0.1400952,0.06505005,-0.3608369,-0.08209923,-0.035319664,0.37203756,0.055061415,-0.39932773,-0.19354184,0.2913549,0.05537936,-0.18305546,-0.2269985,0.010170675,0.36451295,-0.6343125,-0.0053860773,0.23251867,-0.22254303,-0.07003903,0.016678121,0.46339718,0.0008985696,-0.24419945,-0.018908195,-0.29690236,0.013567817,-0.12545285,-0.3390297,0.3901775,0.13986196,-0.30276725,-0.09466133,0.3327871,0.040807974,-0.020437669,0.23579013,-0.11133133,-0.1628164,-0.010759151,0.48056358,0.0022031968,-0.22360814,-0.14539704,-0.037701774,-0.10539362,0.03882922,0.34118852,0.17221169,-0.21637264,0.22699697,0.20276296,0.037660398,-0.20636876,0.44203436,0.16938129,0.5330247,0.041704495,0.016437953,-0.38782358,0.056379996,-0.011882198,0.1845851,-0.18829978,0.029949086,0.24379845,-0.05582819,0.06564294,-0.06894059,0.13630988,-0.2633096,0.0019510895,0.112505354,0.051076718,-0.35679725,0.12172825,0.23237091,-0.3752962,0.1383216,0.20141149,-0.38118815,-0.25656864,0.3469821,0.059605498,-0.07291934,-0.21979679,0.2374477,-0.23291937,0.13221473,0.08080391,-0.09380059,-0.41603866,-0.2270661,0.31027374,-0.22406645,-0.11732188,-0.20022668,-0.34703615,-0.28380314,0.0555299,0.19523634,-0.10864664,0.06814491,-0.07387907,-0.11538775,-0.013010306,-0.4957649,-0.18098812,-0.46640036,0.23061237,-0.004591974,-0.27675897,0.10141023,-0.08965131,0.17210886,0.10721091,0.0070540234,0.22023992,0.058532584,-0.100701176,-0.43403956,0.2946801,-0.06522851,0.03646199,0.15943135,-0.07396208,-0.29962897,0.01768451,-0.39632583,-0.18341585,-0.28458434,0.22302207,-0.13002463,-0.15890343,-0.20413679,0.12372557,0.11701164,-0.19030684,0.40865216,0.22297913,-0.18854553,-0.08260091,-0.24474663,-0.29701194,-0.15076269,-0.09092643
ACTR5,0.1280781,0.513367,0.06545508,-0.10609985,0.069488525,-0.1983228,0.13634907,0.002045065,0.4548806,0.07323746,0.4441073,0.36094853,-0.17948332,0.33839846,-0.16791311,0.2344606,-0.027752705,-0.3580186,-0.016197605,0.19984187,-0.09936353,-0.32403326,0.035299577,0.075670734,0.018351108,0.049518436,0.19258302,-0.17776248,0.09423173,0.22483437,-0.06762381,0.32300264,0.07714486,0.118969455,-0.10389841,0.03338275,-0.3847287,-0.012896199,-0.06247086,-0.18371128,0.32250673,-0.07936024,0.023378503,0.013634037,-0.18332577,0.30336368,-0.54245,-0.14540921,0.028756894,0.02859034,0.11718877,-0.2609208,-0.098244,0.10829226,-0.039422352,0.27591127,-0.38605976,-0.23412645,-0.34029895,0.1096914,0.27485818,-0.09140981,-0.13571745,0.15078132,0.08542682,0.06742678,-0.21791498,0.7608401,-0.24079731,-0.57330465,0.1650907,-0.13758323,-0.020810904,-0.15485068,0.2612015,0.048689317,-0.3114744,-0.20534882,0.04873359,-0.0056741154,-0.072404444,-0.28087655,-0.5011609,0.09594744,-0.1569943,-0.27849123,0.07560131,-0.11361386,-0.24180023,-0.018616104,0.055689413,-0.11606635,0.10127413,-0.2286266,-0.07238101,0.11072179,-0.27675065,-0.11323787,0.41413224,0.09376761,-0.06330448,0.34760606,-0.031804763,-0.04896263,0.057727937,0.345311,0.18332945,-0.019198328,0.30701873,-0.19888262,0.56565934,0.061063774,-0.10539605,0.21216658,-0.051747005,0.10868232,0.4968612,-0.27582166,0.002171992,0.040589985,0.035593744,0.46732235,-0.34480375,-0.118739896,-0.3341312,-0.106221475,-0.12645476,-0.046834454,-0.37125802,0.36083642,0.107918695,-0.18833247,0.14802265,0.45632637,0.067074746,0.2569476,0.21462104,0.2727557,-0.0918683,0.099462375,0.16131699,-0.31550774,0.0900729,-0.1847373,-0.031115066,0.030088421,-0.047368024,-0.23094006,-0.05714132,0.025942773,-0.10285456,-0.044239294,0.19735959,-0.23892997,0.57528126,-0.12530097,0.0917921,0.24576007,0.06768562,-0.051752076,-0.07532963,0.022865027,-0.24849606,-0.49075168,0.32739568,-0.017948503,-0.12250767,-0.11507566,0.21439901,-0.069304585,-0.029084446,0.13022295,0.09192055,0.36872116,0.21871468,0.08855409,-0.21696998,-0.04426673,0.13080256,0.26672733,-0.090085246,0.041597925,-0.4157437,-0.052459836,0.03341574,0.17817442,0.12253231,-0.1718887,-0.4035258,-0.2078494,0.0364286,-0.204592,-0.03548895,-0.10815145,-0.16568235,0.09115305,-0.050198205,0.17921914,0.04545747,-0.3119204
ACTRT3,-0.02538061,-0.04060807,0.004150575,-0.03185797,-0.30708137,-0.17330346,0.12152022,0.18885598,0.42975026,-0.23013721,0.076634996,0.18789847,-0.016317805,0.23044494,-0.53678817,0.10068202,0.17775282,-0.08828334,-0.0207623,0.0050004725,0.30742052,0.41295034,-0.2372926,0.052888725,0.107903555,0.15241091,-0.12872508,-0.2706795,-0.23572163,-0.29430017,0.3211857,0.06451793,-0.0027852005,-0.19092607,-0.12424825,-0.015820403,-0.044595413,-0.10146133,0.34734243,-0.064069845,-0.14094627,-0.30288416,-0.02655766,-0.099418335,0.027732,0.023935266,-0.07823958,0.14488661,-0.34989625,0.17753553,0.22678834,0.2205088,-0.31419563,-0.062122248,0.1872318,0.06713371,-0.010130595,0.14960404,0.22681381,-0.046098363,-0.104976624,-0.011092188,-0.50050426,0.32482624,0.39903212,-0.30211413,-0.19960642,-0.13730031,0.36309332,-0.07624015,0.07089334,-0.32383308,-0.023206307,-0.046744626,-0.109674506,0.24778466,-0.41677004,0.039501075,0.18708794,0.32352376,-0.33800232,0.15036598,-0.24065305,-0.02564157,0.11387843,-0.25166354,0.283533,-0.11420275,0.32641226,-0.42291525,0.5734571,-0.08638889,-0.073948115,-0.28544414,0.048693355,-0.17130591,-0.25226355,0.06083068,0.090925425,0.18559779,0.38649154,-0.29878026,0.15883958,-0.03299752,-0.056720164,0.009855821,0.029981581,0.29884046,-0.12519534,-0.13147844,0.13612594,0.04833843,-0.2800876,0.027849687,0.3010508,0.29603553,-0.026584636,0.007925367,0.00485174,0.05633865,-0.13075775,0.058163702,0.31837204,0.4087854,-0.21363619,-0.19131975,0.15422107,-0.31983685,-0.23247868,-0.10953561,0.12034018,-0.20551948,-0.20281573,0.46206078,-0.05859734,-0.10839236,0.15680294,-0.08009559,0.1961697,-0.07791777,-0.19606252,-0.11531005,0.11398462,-0.32083026,0.30408937,-0.06510223,-0.24687551,-0.090267904,0.0005456303,-0.39096016,-0.045461573,0.046921674,0.20366725,-0.12394667,0.1237417,-0.38504356,0.29790232,-0.2129878,-0.026627187,-0.13962084,0.15039743,-0.11083772,-0.2849101,0.23141457,0.099249326,-0.36038327,-0.10842165,0.2725406,0.273426,-0.27413535,-0.47642723,0.011703794,0.2590337,0.015981074,-0.17374933,-0.11815499,0.0918871,0.012445608,0.18832766,-0.18923445,0.15382873,0.13066612,0.020379543,-0.0071633686,0.07450174,-0.1520287,-0.3662513,-0.5514229,-0.55518246,-0.14188586,0.2207622,0.05951667,0.44629478,0.06605227,-0.081788294,-0.27563888,-0.11979742,-0.09434409,0.021502158,-0.22981496
ADAP1,0.18508439,0.2997951,-0.24535468,-0.045144625,-0.2037067,-0.24639395,0.023052711,0.078824066,0.28956518,0.18964158,-0.048005242,0.1396042,-0.07584797,0.34204322,-0.030822119,0.045230523,-0.14129189,-0.22973306,0.24095942,0.12111616,-0.26469952,0.16638103,-0.067363195,-0.03888605,0.12851022,-0.10534223,0.1456454,-0.15114604,0.21219592,0.24189892,-0.073951624,0.21640523,-0.031687826,-0.13710266,-0.01728493,-0.38624737,-0.292581,-0.22411081,-0.013287938,0.037187435,-0.20810716,-0.024990903,0.10428304,-0.41384023,0.057312127,0.22567669,-0.071957015,0.1198744,-0.10176644,0.041458193,-0.17781357,0.17317532,-0.009021762,-0.14882721,0.081230804,0.232479,0.19610928,-0.35331535,-0.061278213,0.0055896384,0.12901515,-0.2748451,-0.31700858,0.40823925,-0.18622775,-0.25107875,-0.41027412,-0.16010426,-0.0067106495,-0.20597862,-0.15003459,0.06433533,-0.15059513,0.18882562,0.13230284,0.020321589,-0.09198618,-0.056750335,-0.02829726,0.3153558,-0.11435595,0.14513873,-0.03776806,0.182658,-0.18981639,-0.013027973,-0.012309782,-0.28120154,-0.39967924,-0.112665035,0.14287853,0.41089556,-0.044730525,-0.0135663375,0.23951857,-0.01148842,-0.21362135,-0.09320286,0.16842504,-0.063045435,0.080226295,-0.12889369,-0.3003298,-0.30553666,0.048162956,0.11145124,0.26386762,-0.35049164,0.24360111,0.032865517,-0.0048672236,-0.17179869,0.097329944,0.071661234,-0.013163957,0.08142875,0.050117698,-0.19930728,-0.039049402,0.25406486,0.14637618,0.08750355,-0.14725538,-0.13375159,-0.23621222,-0.03671683,0.07310965,0.24350496,-0.263043,-0.14158523,-0.04291524,-0.13700424,0.17184559,0.57515574,-0.21043599,-0.31332132,0.14670849,-0.14355946,-0.16308494,0.047656495,0.23132761,-0.30011526,0.19296631,0.078213416,-0.16728559,0.06068463,0.01897566,0.2295195,-0.050694283,-0.2451336,-0.076537944,-0.010240325,-0.07035187,-0.043469757,0.5934279,-0.26940587,0.07151313,-0.15504548,0.13911279,-0.056225296,-0.36240473,-0.038725,-0.21775135,0.26278758,0.1284015,-0.28504172,-0.068106785,-0.28251293,0.07232653,-0.12331662,0.07906121,-0.056896016,0.20740825,0.2868673,-0.12214027,0.35542804,-0.33831176,-0.21290629,-0.031389117,-0.10711859,-0.010322507,-0.066430084,-0.2753461,0.0077911937,-0.013687268,0.39854485,-0.0671289,-0.020433398,-0.14010848,0.0031451494,0.10649385,-0.1071573,0.21387576,0.286441,-0.046177357,0.14675902,-0.007422684,-0.284719,0.2144855,-0.0014194072
ADIPOR1,0.4450183,0.3895345,-0.031369604,-0.15236628,-0.09976508,-0.007087721,0.03876911,0.10488974,0.5146032,0.48819226,-0.11518382,0.21450864,-0.30714902,0.09501395,0.036219355,0.19420561,-0.20802459,-0.0792535,-0.053059094,0.18291065,-0.11325892,0.369217,-0.10004519,-0.13297164,-0.2260185,-0.40611798,0.13517624,-0.5206787,-0.13648504,0.114066795,-0.4774822,0.16020416,0.09419132,0.007251077,-0.058800783,0.07613035,-0.00079739065,0.03748461,-0.19932976,0.035421867,0.010620676,0.15643394,-0.12007544,-0.31245342,-0.19587414,0.38937634,-0.37706202,-0.38751554,-0.06360831,-0.5515206,-0.008517651,-0.25881723,0.09039559,0.33631426,-0.039431833,0.34077436,-0.13042952,-0.44089493,-0.5305011,0.17569125,0.009137136,-0.09417829,-0.24997176,0.11867108,0.06072214,-0.16196862,-0.25659186,-0.025910307,0.036753155,-0.12065039,-0.18059805,-0.030598542,-0.10544543,-0.12530494,0.059158333,0.066432245,0.26907876,-0.17041177,-0.005074929,0.106208235,-0.05953734,-0.26062793,-0.18209563,0.061221965,0.081545256,-0.15311998,-0.06231928,-0.0140749365,-0.13589677,0.05310362,0.5099195,0.1792807,-0.06441686,-0.145998,-0.24820876,-0.16687591,-0.16711304,0.15320754,0.55129963,0.060009986,0.19495767,0.18227349,-0.24766038,0.11522021,0.007951598,0.17551877,0.27084053,0.04155848,0.20378253,0.27357566,0.3068978,0.011976818,-0.1974369,-0.2438166,-0.304275,-0.12329748,0.34019464,-0.03222748,0.42118844,0.15592,0.040759526,-0.14783977,-0.04375219,0.014046082,-0.07253345,-0.045316715,0.2825336,-0.17871,-0.47729734,0.21354593,-0.08357417,-0.27183148,0.26583543,0.4457199,-0.392003,-0.2368757,0.20842293,-0.1313178,-0.14455493,-0.17083016,-0.043044604,-0.35125458,-0.16900784,0.21513644,-0.03512373,0.028919803,-0.05442621,-0.039875254,-0.19125831,-0.17772046,-0.310748,-0.37416667,-0.015456051,-0.0620709,0.36929244,-0.256836,0.19551241,0.15314603,0.06938596,-0.16747801,-0.49159476,-0.064424396,-0.13063434,0.071717486,0.25322112,-0.28357348,-0.5305419,-0.13082974,0.28188127,0.19148834,-0.24095449,-0.0063641486,0.1082679,0.1497235,0.033338618,0.29974905,-0.17090526,0.025024466,0.03718753,0.20330732,-0.27336267,-0.106999084,-0.49694705,-0.52770483,0.059478007,0.23153089,0.03183021,0.29041293,-0.14219874,0.5892527,0.23802456,-0.35209653,0.32203364,0.13373628,-0.26503706,0.31068307,-0.35389614,-0.2623694,-0.32208785,-0.49453527
AGBL2,0.15489827,0.14966634,0.0656616,-0.25717482,0.20340414,0.43518874,0.37837562,-0.1860504,-0.016931066,-0.079110526,-0.05631656,0.3654486,0.015564025,0.95753527,-0.23856182,0.10992039,-0.22557016,-0.4312153,0.0042108637,0.08708769,-0.3245618,0.010018348,0.077326015,0.20145556,0.16266742,0.1128258,0.006920924,-0.42951676,-0.11675626,-0.017427193,0.12123229,0.4029009,0.51637393,-0.39572492,-0.4904129,-0.12526126,-0.17456993,0.06393714,-0.11120938,0.27984303,-0.044141967,0.4726433,-0.205889,0.16143662,0.010889646,0.12557364,-0.17509991,-0.14027198,-0.10306531,-0.22733016,-0.4524684,0.027143383,-0.20867114,0.50054455,-0.02747889,0.47558388,-0.5115294,0.12797748,0.07246179,-0.3746058,-0.26411307,-0.27327445,0.116464704,-0.19572759,-0.030896086,-0.1337467,-0.08900582,0.047011934,0.010088092,-0.47527456,-0.127187,-0.47910133,-0.3561739,-0.35161197,0.18995099,0.40311074,-0.29757798,0.00838251,0.011228608,0.037805453,-0.2265897,0.13124867,-0.108335115,0.26050296,-0.097820014,-0.6102895,0.22402468,-0.1318558,-0.15784222,-0.3234356,0.13636118,-0.56977993,-0.020246034,0.6162539,0.2996291,-0.6804914,0.28253055,0.26391843,-0.17814279,0.25898698,0.23458873,-0.056337956,-0.22114258,-0.3874097,-0.21666732,-0.070271626,0.115261525,0.16718638,0.0068193767,-0.35011303,-0.055162165,0.13204798,0.009657038,0.30195746,-0.4528135,0.62060475,-0.62586844,-0.054204717,0.28912005,0.117468655,0.26688778,0.04802551,0.3690817,-0.7194844,0.081978515,-0.08554909,0.03273074,0.10957861,-0.0752042,-0.12223241,0.6695234,-0.123005584,-0.1684519,0.19202596,0.15566868,-0.27320263,0.1135137,0.13398321,0.08568986,0.5624148,0.39158925,-0.6975508,0.060524628,0.2959186,-0.07354573,0.20425016,0.11611537,-0.17307568,0.15696703,0.087813355,0.121621795,-0.15629087,-0.033186313,0.19212988,0.096574716,-0.34282026,0.39588186,-0.10396101,-0.35256878,-0.14276788,-0.2689828,0.70924884,-0.30572006,0.2422228,0.30521974,-0.32883367,-0.013734174,0.45741385,-0.5653145,-0.28619978,0.025253957,0.2647777,-0.052634653,0.1887019,0.1967128,0.00445399,-0.33622023,0.3737091,0.05505003,0.02860088,-0.30833554,0.074360184,0.27057698,-0.1435704,0.34560814,-0.36940596,0.0017735495,0.030968646,-0.080173306,-0.6979902,0.1548868,0.2993549,0.38805088,-0.0712399,-0.18846567,-0.27127272,0.33052304,0.20367791,-0.0071072443,-0.4377451
AGBL4,-0.229244,-0.10133059,-0.12122556,-0.03817347,-0.4160893,-0.16439518,0.21998939,0.18310033,0.4728213,0.06444107,-0.23908402,-0.19506037,-0.26253486,0.4820885,-0.07527239,0.28386647,0.2267091,-0.27087,0.12609278,0.19434473,-0.05595408,0.20081422,-0.19492696,0.20077595,-0.28282452,0.12207783,0.20699821,-0.0043163667,0.067437544,0.21775559,0.27105078,0.21926601,0.3950697,0.036525294,-0.0028847978,0.034391228,-0.30983847,-0.20047796,0.15229245,0.17484197,-0.26500845,-0.33564705,-0.30197385,-0.09068878,0.054877967,0.16491266,0.08780472,-0.120196514,-0.12787427,-0.21185468,0.017615635,-0.10756898,-0.16011442,-0.117181644,0.0049793976,0.31367147,-0.27041078,-0.00580408,0.111908905,0.33934572,0.15977599,-0.46578717,-0.4760292,-0.14616905,0.33724356,-0.10440003,-0.55876845,0.4602278,0.5223605,-0.3922709,-0.23148295,0.035168037,0.20043144,-0.10929939,-0.032814756,0.16129741,0.00010471494,-0.08346353,0.013880386,0.049757384,-0.124083385,0.07490122,0.08330308,0.35851938,-0.20537055,-0.25456393,0.3221192,0.0049902047,0.22594428,-0.06904203,0.19816598,0.12765749,-0.3431234,-0.26651913,0.30901355,-0.14379612,-0.01990279,-0.14394814,0.09054996,0.08655672,0.11202064,0.5406167,0.2047014,-0.2314669,0.18503042,0.0034095158,0.13878493,-0.2278909,-0.05584043,-0.08938265,0.104754634,0.5982452,-0.078637995,0.44148836,0.22389036,0.25045106,-0.3638613,0.34646678,-0.050016075,-0.19773516,0.2866568,0.05431633,0.30691773,0.32250285,-0.07911335,0.14728379,0.234272,-0.30181685,-0.07880762,-0.048778266,-0.2624903,-0.5694459,0.18401225,-0.17484857,-0.47173536,-0.3713348,-0.12686522,0.0091564255,0.018019496,0.40027115,0.07498411,-0.018199628,0.36662,-0.022055944,-0.03239475,-0.3481555,0.27553594,0.42434874,-0.12421439,-0.3150211,0.10377679,-0.1838635,-0.2313257,0.32894918,0.15005943,-0.5444399,-0.26521674,0.2041656,0.10188652,-0.14949137,0.15300174,-0.1601839,-0.2656287,0.2134569,0.12130118,-0.23197393,0.15277517,-0.22615825,-0.2260275,-0.030130647,0.03899785,0.13164383,-0.0071768155,-0.04151414,-0.37561494,0.14171818,0.053686053,0.29957998,0.22528969,-0.036029257,-0.15058969,-0.04802446,-0.10094979,0.18133298,0.356808,0.20369753,-0.37809327,-0.3052145,-0.17034024,-0.017640565,0.0489698,0.09965808,0.20143135,0.16181391,-0.097700916,-0.40221646,0.17714292,-0.14505105,0.010643753,0.043764926
AGMAT,-0.16395925,0.04774993,0.123437345,0.066772126,0.071125,0.28948754,0.19063948,0.16538122,0.4104189,0.25209537,0.16190863,0.5048227,-0.41489545,0.06936703,-0.09784615,-0.14241058,-0.20394391,-0.37188336,0.21878353,0.09725419,0.14806998,-0.08118402,0.28051403,0.08733689,-0.117637105,-0.022506395,-0.028665222,-0.43856236,-0.09349307,0.06827258,0.19954613,0.09827437,-0.322195,-0.1559947,0.21379016,-0.22407044,-0.10808381,0.18705358,0.26816887,-0.57331216,-0.35413268,0.2968607,0.09901845,0.029594539,0.064677946,0.029344428,-0.2549349,0.08017029,-0.048810624,0.33030292,0.031582173,-0.018752215,-0.06981054,-0.17547035,0.14873709,0.17944176,-0.34430578,-0.03345381,-0.09067003,0.05123844,-0.29768103,-0.15466212,-0.41293103,0.16628322,0.020174257,0.31372634,-0.40251878,0.14017008,0.023931028,-0.5789815,0.4968104,0.072693095,-0.044135164,-0.09932408,0.36370766,0.0912377,0.14842741,0.11727451,-0.12789033,0.2284867,0.16178676,-0.031165028,-0.01861497,0.17388171,-0.014100274,-0.33708793,-0.31720877,-0.42494556,0.3641674,-0.38545114,-0.010701828,0.14113994,0.121144794,-0.0012287925,0.12056792,-0.027706916,0.25659963,0.023946054,0.06886078,0.008367897,-0.2861153,-0.06013671,0.20262322,-0.094041444,-0.09334325,-0.28782588,0.11818151,-0.24068491,-0.019940738,0.37353322,0.1988568,0.13865198,-0.17343006,0.17438117,0.031436954,0.09830259,-0.24033295,-0.16341722,-0.01390734,-0.19409287,-0.32134727,0.012631469,-0.193395,0.19809735,0.059104532,-0.032961342,-0.086850695,0.016059931,-0.34375927,0.045788176,-0.26251593,-0.43494657,0.17759846,0.36433947,0.3203271,-0.14989974,0.101415396,-0.20111948,0.12835696,0.16797557,-0.0435291,-0.24471986,0.3494219,-0.14491417,-0.09652493,0.12874836,-0.29114002,-0.13903284,-0.2656726,0.10256207,-0.42533195,3.4362027e-05,0.26685262,-0.15346193,0.2622048,-0.051322743,0.28741774,0.048581574,0.09753249,-0.3887809,0.11363657,0.4218066,-0.019743314,0.08587077,0.21766241,-0.104531854,-0.17917562,0.33095017,-0.37824494,0.14424193,0.18256405,-0.111784406,0.21557826,0.59859085,0.17529684,-0.17172812,-0.14675964,-0.030814985,-0.15518212,0.21436802,0.13585229,0.074808665,0.047459763,0.12291635,-0.0554625,0.37736556,0.117566,-0.069393106,0.15502422,-0.06192001,-0.0049708686,0.3723718,-0.01645765,-0.02040885,-0.21423772,0.20015936,-0.05721389,-0.014252173,-0.19475265,-0.14575016
AGPAT2,0.09499855,-0.23787746,-0.11304201,-0.031066021,-0.2421971,-0.014354242,-0.34766546,0.29726234,0.43276948,0.10149727,-0.22758111,0.30676523,-0.049579557,0.14996059,-0.14418225,-0.14420243,-0.20796937,0.1385572,-0.02158034,-0.17098185,-0.27105168,0.28712898,-0.048731487,0.08989307,-0.08950622,-0.14054905,0.16812856,0.013521484,0.018769855,-0.13129689,-0.09277211,0.034369394,0.034708306,0.079451434,0.1215841,-0.19838601,0.015962154,0.27107129,-0.040321853,-0.13137954,-0.1069484,0.025528619,-0.1579967,0.13358918,0.0727419,0.2402245,0.09399319,0.19174893,-0.32958215,-0.25440776,0.0022835324,-0.016102774,-0.07643287,0.0081769535,-0.11275483,0.20114732,0.11986949,0.094506025,-0.31851283,0.10057819,-0.13975321,-0.04165903,-0.43737984,0.0771663,-0.093641624,-0.0022173356,-0.39430177,-0.11423664,0.18973349,0.044967394,-0.07483064,0.25431472,0.09873045,-0.15801078,0.027044876,0.37812012,-0.14882037,0.05814538,-0.034838725,-0.058557946,-0.10214807,0.059446204,-0.14445488,0.26722252,0.35499486,0.014531805,0.036845073,0.08459765,-0.37462208,-0.124918796,-0.13355097,-0.013168426,0.07971751,0.23931547,0.08314394,-0.26547047,-0.022365436,0.016186478,0.17362706,-0.044605095,0.37526265,0.026193079,-0.16722928,-0.6394456,-0.19711326,0.10620326,0.2761848,0.023559354,0.10291554,0.21493466,0.154482,-0.31996906,-0.04043403,0.085974745,-0.021772662,-0.032429304,0.05626956,-0.13273172,-0.019860275,0.16408104,0.0040809102,-0.11315203,0.004845522,0.009839895,-0.22344102,0.19092879,-0.050016932,-0.10435009,-0.25162208,0.11595918,-0.10235484,-0.022625271,0.090597466,0.3248025,-0.31763032,-0.16002902,-0.13975428,-0.055645756,0.055035867,-0.0909894,0.13983162,0.107939705,0.15083964,-0.06968583,0.3140211,-0.120145954,-0.0037268978,-0.05744879,-0.0333689,-0.4720288,-0.041265372,0.21930107,-0.063064985,-0.21886662,0.33252266,-0.08126263,0.4938341,0.06316864,0.17799492,-0.06490914,0.09547519,0.065731175,-0.24701269,-0.13068904,0.28783688,-0.09871177,-0.14268826,-0.11744241,0.22853908,-0.15175496,-0.3632084,-0.3015559,-0.2668351,0.25174323,-0.05507327,0.3663456,-0.22663403,-0.2796872,-0.009814211,-0.08936456,0.0059380047,0.11575963,-0.11768518,-0.083497226,0.12687571,0.43816715,0.03108677,-0.057005066,0.11574142,-0.044687122,-0.03523123,0.1362725,0.2514295,0.52055013,-0.30156913,-0.2664065,-0.07597492,0.055526122,0.07325823,0.10567432
AGR2,0.36892226,-0.042356513,-0.18029651,-0.29345766,0.11607712,0.2724872,0.1485933,0.022464585,0.4949331,0.21581335,0.14365686,0.0040223426,-0.19066122,0.11833439,-0.057824947,0.13599496,-0.23582798,-0.116790384,0.2535347,0.092390575,-0.09570141,0.13142696,-0.053412545,-0.05632568,-0.08460206,0.336522,0.3478007,-0.050848417,0.09558623,0.08786899,-0.045453046,0.053489074,-0.005183213,-0.3795976,0.016412675,-0.084677406,0.064489484,0.1620006,-0.102218956,0.00064078305,-0.06708646,0.21180177,-0.07624264,0.065193966,-0.2263015,0.20219478,-0.035577737,-0.18146834,-0.10559952,-0.30638462,0.023264078,-0.16424605,-0.22769938,0.17102528,0.047947638,0.34660175,-0.094908886,0.16295631,0.006629279,0.014640606,0.1345039,-0.22184394,-0.19397193,0.19086276,-0.10992534,-0.18849061,-0.2550875,-0.23019765,-0.09241968,-0.03285867,-0.2249982,0.3274758,0.0732686,-0.23689729,0.011837776,0.13172552,0.09425621,-0.012960278,0.25409514,-0.06194506,-0.10859631,-0.109298944,-0.21295318,0.35541788,-0.030424424,-0.1539081,0.046934653,-0.03813608,-0.15366639,-0.13233848,0.2275758,-0.017167069,-0.03385684,-0.0417935,0.094145104,-0.12747282,-0.10390554,0.19244601,-0.259343,-0.024868319,0.17443593,0.0078933,0.029245313,-0.28613994,-0.025216615,-0.081867024,0.08522091,0.10043424,0.15304627,0.025280336,0.07127842,0.24688202,-0.19746336,0.12823075,0.01138278,0.112842,-0.11764766,0.054013774,-0.015087899,0.34789845,-0.08471055,-0.121872835,0.1821551,0.014277966,0.0014540093,0.042289156,-0.043368053,-0.033088744,-0.40135345,-0.16707887,-0.07558149,-0.111422405,0.0556495,-0.065216295,0.15069158,-0.16485348,0.046877496,0.17497405,-0.08035894,0.08995517,0.26525635,-0.17083824,0.16454606,0.04631012,-0.07712766,-0.16315672,-0.24181215,-0.18315977,-0.18681224,-0.3678022,-0.17830065,-0.120560296,0.20544781,-0.06677615,-0.04494397,-0.12447465,0.25426888,-0.12071362,0.0655838,-0.13138457,-0.10163729,0.22057106,-0.3456441,0.09713199,0.22771005,-0.3212173,-0.21582067,0.025217677,0.30653605,-0.05487438,-0.29245114,-0.0047147055,-0.17142381,-0.17609465,-0.21946791,0.21115188,-0.003456683,-0.089132324,0.17059593,-0.13032,-0.102205835,0.059576724,-0.014936118,-0.059580017,0.19280294,0.23814261,0.047565017,0.045152918,0.24320428,0.0766193,0.2896347,-0.072451375,-0.028336488,0.03239354,-0.12628557,-0.1244026,-0.43070218,0.01111842,0.050421465,-0.0014803874
AHCYL1,0.08739045,0.11964571,0.21335213,-0.19997524,0.045372434,-0.15905343,0.27836823,0.0743477,0.43433028,-0.020072315,0.29942614,0.4106844,0.024583686,-0.0071668783,0.017019762,-0.032030974,0.085257925,0.11348712,0.07483728,-0.060588144,-0.011864172,0.15621018,-0.008409704,-0.14707334,0.26536566,0.22936228,0.018630777,-0.16603927,0.085687995,0.4390429,-0.16969034,0.10767644,-0.074262425,0.17474215,0.07302902,0.0457277,0.05031161,-0.045253385,-0.17296612,-0.27581155,-0.2187286,0.09355245,0.19501689,0.15069413,0.04654943,-0.15382908,-0.0026676347,0.21688184,-0.45986652,-0.14407533,0.06443111,-0.0928484,-0.15579222,0.024819952,0.11314481,0.3920371,-0.06754272,-0.22379273,-0.43813536,-0.11705404,0.34497544,-0.17197062,0.22837569,-0.003056256,-0.1113221,-0.09154036,-0.20533422,0.10322574,-0.08738679,-0.12599005,-0.034699637,-0.08277477,-0.07076401,0.2508984,0.35425085,-0.033301607,-0.024627846,-0.34733415,-0.3491712,0.26786324,0.05837509,-0.15005681,-0.18930914,0.29570016,-0.01365503,-0.026400633,0.053180575,-0.1732695,-0.010904695,-0.12182275,0.3404033,0.26059863,-0.25652984,0.016022399,0.15445693,-0.11199496,0.18169679,-0.05363769,0.016538523,-0.2839576,-0.16744727,0.32199365,0.04568267,-0.15730894,-0.08670799,-0.15358222,0.39809054,-0.109987415,0.20264216,0.0740059,-0.028950507,-0.10741253,-0.05439938,0.051721253,-0.033180244,0.6182737,0.096600875,-0.058416404,0.41872495,0.3306046,-0.21655986,0.12695412,0.19287595,0.06524276,-0.015621533,0.15654607,0.0981507,-0.04411997,-0.5323765,-0.09363982,-0.15636736,-0.1827603,0.14015831,0.26413897,-0.07300756,-0.1494859,0.05492016,0.2664389,0.11515936,-0.2766889,-0.14877045,-0.14681917,0.33065942,0.09828202,-0.16532202,0.047891844,-0.3595084,-0.26884592,0.036402006,0.10891243,-0.28153712,0.13200949,0.406399,-0.030394327,0.21423955,0.09966859,0.03371235,0.37106174,0.108635016,-0.068060786,0.001958111,-0.091915116,-0.07682178,-0.17140421,0.17487726,-0.13846907,-0.48517284,0.03346973,0.004256826,0.101161875,-0.10481514,-0.12225042,-0.20337346,0.32866824,-0.16873,0.036387954,-0.028667582,-0.1272674,-0.18405828,-0.010427771,0.056693956,0.2056058,-0.06351857,-0.027603202,0.092039734,0.12379807,0.05941511,-0.23358153,0.35350478,-0.26228392,0.2199336,-0.29171652,0.20568283,0.2911037,-0.09868956,0.037405733,-0.10903479,0.30667686,-0.016594045,-0.3089345
AHSA1,0.16174635,0.07332771,0.15003878,-0.12495199,-0.3381467,0.035156105,-0.11451369,0.32465944,0.5759383,-0.14179367,0.40033442,0.47414234,-0.6537589,0.010630967,-0.047122993,-0.075042814,-0.10574138,0.014735349,-0.056737363,-0.024244597,-0.24308956,-0.10931565,-0.1494465,0.1404767,0.82207954,-0.12245542,-0.16159816,-0.17076991,-0.38936424,0.22243588,0.15625861,0.096568406,-0.12810074,0.07464662,0.29488084,0.16991875,-0.11390057,-0.17039852,-0.048518997,0.12409906,-0.21869887,0.49101514,0.38669658,-0.033717655,-0.3995867,0.056505654,-0.17571533,0.10475867,-0.5031376,-0.23638892,-0.31868964,-0.20935777,0.1386206,0.110998124,0.29347453,0.39800936,-0.30627742,-0.071181804,0.17954718,-0.38622165,-0.18370165,-0.3147134,0.40747413,0.042660218,-0.16223937,0.39849263,-0.3483705,0.059775937,0.01726771,-0.3093863,-0.42517123,0.15823007,-0.19264396,-0.15094678,0.3198388,0.1905388,0.077929676,-0.29219586,-0.04547683,-0.10511771,0.08785043,-0.123560965,-0.32192385,0.057187937,0.37905267,0.19159548,0.35591832,-0.3551985,0.43761587,-0.8176406,0.40251824,-0.1350765,0.10154274,-0.18696631,-0.46772113,-0.34321567,0.0035529777,-0.14629024,0.21391456,-0.018992374,0.22283053,-0.02642587,0.16243617,-0.30900323,0.07301897,-0.1812247,0.46567345,-0.32930648,-0.016973905,0.03783135,-0.1458278,-0.49259385,-0.18145691,-0.015567372,-0.11002367,0.10313557,-0.17060773,-0.19249249,-0.01717168,0.10484047,-0.060543597,-0.129693,0.16761866,-0.28253797,-0.16090143,-0.29250833,-0.0285695,-0.35751778,-0.21040152,0.10834635,-0.13099234,-0.002573429,0.19514379,-0.020468662,-0.115477495,-0.24560057,-0.22160806,0.56984085,0.1375836,-0.09179866,-0.0314107,-0.1492806,-0.05309711,0.3445002,0.0049479967,0.013508183,-0.4341211,0.02144371,-0.2668894,-0.38876036,-0.24218927,-0.083887585,0.1891679,-0.09462143,0.0136598665,-0.22081095,0.06040886,-0.28381288,0.01583794,0.21832503,-0.13096686,0.014562112,-0.4059189,0.04202461,0.6125666,-0.04071209,0.0655151,-0.14337006,0.34236148,-0.017424023,0.15450153,-0.040069196,-0.06688946,0.30292398,-0.15957837,0.1572014,-0.11716402,-0.060935438,-0.1779742,0.22131498,0.11154443,0.43007854,-0.19979581,-0.19277182,0.30014953,0.21771911,-0.42360222,0.3074403,0.16929601,0.09633775,-0.14448088,0.14788172,0.5208212,-0.20813243,-0.08456056,0.09897269,-0.03840225,0.28598922,0.23761126,-0.15001272
AKAP3,-0.071650974,-0.28645626,-0.18206014,-0.54278195,-0.33751276,0.09937419,-0.08575383,-0.15152708,0.4129367,-0.38529766,-0.10328445,0.037017092,-0.5314329,0.5875208,-0.5542558,0.06893071,0.19323923,-0.36637983,-0.05545079,0.24813548,0.077383146,-0.009868581,-0.15041679,-0.28861025,0.14046592,0.015746348,0.05712012,0.013217647,0.033536963,-0.0017084345,0.17788151,-0.027137797,0.103719726,-0.20460567,0.48034993,-0.20394857,-0.21341075,-0.20800264,0.5546854,0.13736148,0.3420078,0.1360318,-0.020290213,-0.15987037,-0.17071676,0.063499704,0.2924818,0.33457193,-0.17606099,0.093358,-0.057713743,0.08002241,-0.007382687,0.47146055,0.0119886175,0.004867554,-0.51522416,0.17318632,-0.39301717,-0.084912874,0.05770333,-0.0897024,-0.07851332,0.43629462,-0.037528697,-0.34411234,-0.1649765,0.26875594,0.56724,-0.38150936,0.011687075,-0.02166961,-0.14181122,0.1795773,0.13696808,0.27659255,0.12677638,0.047416836,0.04120374,0.35957164,-0.03744851,0.060993668,-0.39472973,0.09323912,-0.0028427897,-0.3152772,-0.003408997,0.20490892,-0.06941788,0.284053,0.27841568,-0.07362531,0.0083971,-0.022198511,0.27578887,-0.28414708,0.0073962747,-0.017187368,-0.20550331,0.18092287,0.1451904,-0.078645855,-0.031719815,-0.4812944,0.086202234,0.33242172,0.5318815,-0.15727419,0.1992477,0.13142547,-0.15863542,-0.03784051,0.21346912,0.19683532,0.5781165,0.4192951,-0.07169844,0.4011567,-0.0057874466,0.09703319,0.18374299,0.40690458,0.025655555,0.14425527,-0.14430323,0.0067916433,0.05219485,-0.07590424,-0.76139516,0.027827868,-0.38027948,-0.051034413,0.13569626,-0.13968022,0.0429302,-0.0572733,0.37516797,0.0115386015,0.2653862,-0.014513554,0.048339024,0.36178046,0.3174241,-0.07323857,0.13860649,-0.49098688,-0.009785397,0.09061895,-0.31378514,-0.22163141,-0.29245564,-0.04731934,-0.14094676,0.06181965,0.009914418,-0.13723889,0.16590454,0.004394689,0.070358716,-0.23461749,0.051529873,-0.25611478,-0.5532468,0.12805344,-0.37514424,-0.23377535,0.09213036,-0.19814982,0.1881114,0.06517286,0.23891176,-0.23473214,0.22052425,-0.31153154,0.2907823,-0.26226798,-0.19611163,-0.30636624,0.4554336,0.448953,-0.7140925,0.3376943,-0.14176024,-0.08078659,-0.05374949,-0.11116454,-0.14306623,-0.33720788,0.32506436,-0.38000017,0.17524892,-0.16559269,-0.2512495,0.23987019,-0.10412783,-0.080318324,0.056846585,-0.067426264,0.008671551,0.18387292
AKAP9,0.15128453,-0.057183642,0.2188264,0.13501605,0.026016342,-0.09096932,0.538585,0.25590834,0.22565345,0.022270938,0.21708526,0.17963848,-0.15064785,0.43426698,-0.09096798,0.19114715,-0.20597126,-0.018174589,0.27795404,-0.20238048,0.3087754,-0.10827683,0.03131942,-0.22845091,0.013905802,0.2470613,0.085145965,-0.18634,-0.4456122,0.08031436,-0.16089858,0.38644803,-0.21343394,0.2859879,0.2266044,0.042466197,-0.0077981413,0.050788093,-0.18353191,-0.33919838,-0.21000858,0.36378688,0.033582453,0.08235934,0.048040397,-0.30116907,-0.010012382,0.15361695,0.09983342,0.12620422,-0.25397658,-0.42335084,-0.06851213,0.24710618,0.20900063,0.06823901,-0.07542503,-0.11533937,-0.15280055,-0.112750895,0.12984462,-0.1027039,0.043176383,0.09097069,-0.030472554,0.14348711,-0.3504492,0.17116366,-0.023549765,-0.088723645,0.39763343,-0.07737067,-0.158231,0.17730841,0.20950097,-0.3395018,-0.13453266,-0.26636067,-0.20809247,0.0853352,-0.021461684,-0.5147404,-0.13413467,0.4350417,0.06662142,-0.3800756,-0.09979846,-0.04524727,-0.113031015,-0.42671445,0.051716696,-0.43680692,-0.2920398,0.16960984,0.42714903,0.015780408,0.038470007,0.07800706,0.16927728,0.062008765,0.29740658,0.008620351,-0.065754004,-0.094281554,-0.12762429,-0.048043765,0.28452808,-0.5178306,0.26057234,-0.01523992,0.10667964,-0.04373978,0.021470835,0.04567488,-0.004905844,0.17742658,-0.11986222,-0.38222003,0.19863763,0.17851049,0.05211779,0.0052944147,0.16970885,-0.16996343,-0.24979416,0.027732424,0.09510578,0.036083046,-0.19997534,0.012079026,0.08843365,-0.35044628,-0.05344273,0.13145849,-0.16872238,0.042883653,-0.115844004,-0.18438856,0.009457855,0.09008336,0.029105302,-0.09677416,-0.10323232,0.1534249,5.7345133e-05,-0.167166,-0.17009406,-0.08342393,-0.13984905,-0.08725246,-0.23912969,0.09182842,0.42099047,0.116390266,-0.018625123,-0.13770422,0.09720035,0.11750398,0.05830234,0.065982394,-0.012038821,0.13866019,0.04632502,0.09075612,0.17751555,-0.121624924,-0.016103333,-0.118950844,-0.11339747,0.098840535,-0.21764374,0.18824172,0.09547391,-0.006234486,0.2707918,0.17959625,0.19310594,0.06310136,-0.04979468,-0.34964284,-0.1371218,0.42211184,-0.11250529,-0.183741,-0.0941763,-0.13437873,0.0658127,0.022815187,0.2285657,-0.10382165,0.32435772,0.19075598,0.23985812,0.06399148,-0.13794458,0.11874915,0.091522194,0.09547667,-0.13629368,-0.18576436
AKR1A1,0.071980596,-0.05418027,-0.22123255,-0.13540027,0.01985212,0.12156508,0.24342567,0.4464592,0.7062588,0.08379399,0.34352437,0.28442115,-0.112658784,0.026982097,0.13055883,-0.22183155,-0.20758925,0.08457116,0.2773026,0.0042051254,-0.11314486,0.011684533,-0.13808352,-0.124652736,0.034327883,0.35011557,0.13254254,0.11069609,-0.05373484,0.40315142,-0.21430486,-0.02291582,-0.3614489,-0.38864982,0.6375171,-0.06865133,0.03861509,0.25210884,-0.1910398,-0.18209806,-0.003478758,0.168519,0.037197586,-0.13228638,-0.009859022,0.15891083,-0.02202875,-0.2204138,-0.36165667,-0.2623403,0.062284738,-0.17108849,-0.2437675,0.010335847,0.18125252,0.42567286,-0.2872739,0.2825071,-0.18332054,-0.19406775,0.018582672,-0.13483468,0.09258932,-0.034371234,-0.07344321,0.02779933,-0.10551798,-0.13204423,-0.081837974,-0.32211697,-0.123791076,0.08184034,0.28267378,-0.13578533,-0.09884892,0.007655098,0.07950977,-0.011150566,-0.16523322,-0.07700873,-0.026965292,0.16003452,0.13281135,0.24244338,0.33990487,-0.22431426,0.044813506,0.09385168,0.037100174,-0.40451127,0.17632502,-0.35845414,-0.09147363,0.09978482,0.13236928,-0.16117702,-0.1065142,0.1774032,-0.040982768,-0.5110978,0.18034655,-0.15822336,-0.022760374,-0.24042593,-0.04742503,-0.20449744,0.44130772,-0.25850952,0.051127374,0.46964785,0.06918316,-0.16325693,-0.20197953,0.37155744,0.017185628,-0.07269272,0.013118673,-0.02476011,-0.036757853,0.21226428,-0.32140157,0.25596768,0.22332844,-0.20098898,-0.14482681,0.18870352,-0.2815841,-0.2681774,-0.54440814,-0.07586108,0.015139754,-0.06482247,0.20857146,0.19611876,0.37838942,0.08418738,-0.00864029,0.16427855,0.18642566,0.06058203,0.23506622,-0.13217904,0.09932882,-0.28851297,0.11407274,0.0846349,-0.3836908,-0.13109463,-0.22948751,-0.0026603583,0.19488843,-0.12114951,0.28971565,-0.0899412,0.05487296,-0.10044782,0.3217434,-0.054124225,0.24422015,-0.5146491,0.095933445,0.24247834,-0.2484387,0.10871709,0.22825967,-0.38070706,-0.10484326,-0.013047371,-0.10072887,-0.17196575,-0.26111436,0.11823068,-0.078495376,0.25232923,-0.21157014,0.127082,-0.1885275,0.08678619,-0.07930218,-0.21517575,0.046483368,0.116770305,0.0034191152,-0.13617936,0.23853071,0.45968494,-0.2565311,0.25053918,0.1840532,-0.18356054,0.01795179,0.013015685,0.12725012,0.38293788,-0.31149808,0.04975314,-0.1733185,0.3538575,-0.13067721,-0.3625222
AKR1E2,0.07620049,-0.19775687,-0.14811158,-0.13222985,-0.218415,-0.04873653,-0.04452038,-0.0015176672,0.3022354,0.15211305,0.11783928,0.05163906,-0.23240265,0.33615375,-0.32688498,0.16535912,0.02314661,-0.43554828,-0.20102996,-0.12532802,-0.058037404,0.29039615,-0.101330146,0.230582,-0.17746069,0.1809258,0.05421165,-0.060526893,0.19819951,0.08070876,0.17824373,0.3011311,-0.04801248,0.005046363,-0.17500596,0.0004906475,-0.04489181,0.23828329,-0.09870374,0.21612385,0.1408598,-0.21941452,0.045036424,0.029301662,0.039432235,0.21430933,0.027666178,-0.111441426,-0.2613818,-0.058771957,0.05219669,-0.1879829,0.10798731,0.15901539,0.13495362,0.25530493,-0.08589424,0.04616409,-0.263006,0.20123844,0.056646563,-0.19716462,-0.07260965,0.15381421,0.10409769,-0.12394228,-0.4211211,0.122899555,0.17934008,-0.1319228,0.0067900647,0.13309366,-0.18042201,-0.08460036,0.01237411,0.023047145,0.17792363,0.14972407,0.26566932,0.17113431,-0.05909918,0.29648873,-0.212622,0.19761418,-0.040554717,0.016700447,0.14343295,0.024796553,0.042618085,-0.06431124,0.19205047,-0.102635525,0.073912606,-0.010859308,0.4115112,0.0015269868,-0.20036764,0.4509394,-0.12252636,0.16898893,-0.02224492,0.09403915,-0.07276028,-0.012094933,-0.12120292,0.2092023,0.1509132,-0.009427341,-0.058412027,-0.08537504,0.010960107,0.0723621,-0.15753521,0.16663066,-0.016154293,0.21778426,-0.036216162,0.17472333,0.035681326,-0.24064285,-0.22123314,0.009980731,0.17873481,0.17704007,-0.22226958,0.010215248,0.15926802,-0.13699663,-0.36141267,0.019657949,0.025801132,-0.22121787,0.41478267,-0.08049161,-0.22138871,-0.13921158,-0.03279569,0.12187219,-0.24316262,0.105872795,0.20369023,-0.12115946,0.42528903,0.33254582,0.010569229,-0.2498796,-0.07472291,0.09184694,-0.051050756,-0.043122854,0.02595843,-0.08965838,-0.017549044,-0.11378519,0.34836733,-0.4333164,-0.09176007,0.1913827,-0.08366073,-0.16499603,0.0783219,-0.17875426,-0.2655018,0.07745655,-0.004696439,-0.23776983,-0.13605328,0.004963973,0.17427084,0.08342961,-0.11481204,-0.11627472,-0.102657,0.010305335,0.16754903,0.31214294,-0.110472195,-0.23728043,-0.077300034,-0.08337479,-0.1334766,0.1127015,0.016172249,0.14215752,0.15823478,0.27738255,-0.05828172,-0.060632113,-0.0706909,0.019854702,0.017703464,0.25036693,0.2847366,0.030794252,-0.013122352,-0.31365415,0.09490563,-0.28005788,-0.04147238,0.1753112
ALDH1L1,0.21916233,0.00088699174,0.016262678,-0.16564588,-0.14081007,0.11969137,0.15702152,0.020492334,0.60086155,0.025801258,0.20416427,0.12003052,-0.31327426,0.4062671,-0.24535485,0.04725451,0.032377243,-0.2096194,0.05521534,0.16917132,0.1185697,0.13740768,-0.22642192,0.24314572,-0.25675216,0.06779107,-0.004893526,0.06739698,-0.08736442,0.31445056,0.24050331,0.15160471,0.35449937,-0.3964011,-0.08197906,-0.17025267,-0.0638314,0.1412566,0.318255,0.023635661,0.16275679,-0.0090902345,-0.08878307,0.007938649,-0.19068405,0.25706708,0.16893981,-0.16484772,-0.2934318,0.060913816,0.07955544,0.021541458,-0.40808356,0.09517032,-0.11572942,0.16337554,-0.5024068,-0.064324826,-0.083769694,0.12445607,0.150035,-0.29699522,-0.115876794,0.23296826,0.0042032986,-0.15543476,-0.26864642,-0.027401814,0.30994752,0.13176574,0.012800013,-0.01428966,0.25931972,-0.05598645,0.30163503,0.37538713,0.098169416,0.0045992583,0.14271156,-0.017825052,-0.013447317,0.25752187,-0.18669918,0.31729782,0.05098851,-0.3788855,0.055340093,0.3226254,0.057652455,-0.13772085,0.23542687,0.078610376,0.0029935113,-0.003525937,-0.07771548,-0.17121391,0.057331204,0.41666916,-0.0673433,0.21037908,0.19966361,0.17297967,-0.16892944,-0.6122762,-0.07041485,0.0033134546,-0.09987522,-0.06648237,0.28970197,0.024031552,0.10496571,0.029718148,0.14280236,0.30686906,-9.955478e-05,0.23862402,-0.2364297,-0.11727893,-0.114011325,0.051640064,-0.24613754,-0.10123324,0.06354624,0.040962074,0.02462334,0.07540189,-0.097695656,-0.061552726,-0.3686356,-0.19330637,0.012200814,-0.21702015,0.12844478,-0.17128585,-0.111527696,-0.108175755,-0.25928098,0.04086078,-0.014587991,0.21490607,-0.13298012,0.22287029,0.21397397,-0.12978776,-0.04006027,0.02834403,-0.016212476,0.15458165,-0.33698508,-0.2748243,-0.08969705,0.015178692,0.075263456,-0.038091253,-0.14354627,-0.29153782,-0.03451223,0.07089631,0.3107505,-0.47062978,0.020072265,0.38044655,-0.11784569,0.23405229,0.26272854,0.03478257,0.10073154,-0.1464496,0.030463291,0.13728106,-0.11643048,0.07207954,-0.077020645,-0.1298793,-0.26904622,0.25801224,-0.12728514,-0.15156826,0.29163176,-0.11220407,-0.21979265,-0.091486804,-0.12923801,0.19024538,0.3620148,-0.057286475,-0.11359713,-0.17899944,0.20728159,-0.161633,0.07794721,0.45634863,-0.065341316,0.054070875,0.1986126,-0.38282016,-0.11350453,0.08434353,0.017441435,-0.31869677
ALG3,0.22394983,0.26719123,-0.39898583,-0.24250084,-0.09791585,-0.13920301,-0.123771556,0.017548174,0.4445283,-0.06899017,0.3826815,0.70045435,-0.29530987,-0.018593913,0.26124224,-0.15132695,-0.11702665,-0.21332458,-0.16842306,0.09011556,0.06880024,-0.24825647,0.24313681,0.08772069,0.2222974,-0.012316291,0.16186488,-0.19221884,0.24738355,0.32662162,-0.4403796,-0.10464891,-0.57765394,0.08604492,0.19971593,-0.10313706,-0.15629065,0.2904162,-0.008101604,-0.018337788,0.03627929,-0.12536067,0.05410218,0.16638441,0.163479,0.20907842,-0.110172115,0.16951509,-0.44134322,-0.12219896,0.18974483,0.023826415,-0.0021049941,0.21784855,0.0859459,0.3512834,-0.26420552,0.09049129,-0.46700254,-0.19038625,-0.027364109,0.13605087,-0.26554766,0.16752091,-0.030181851,-0.12190465,0.09306038,0.10575037,0.2808744,-0.20094943,-0.18491955,0.09411158,0.032419886,-0.17519182,0.17293094,-0.009096946,-0.13168623,-0.14431667,-0.5397063,0.081967354,0.09069056,-0.16789688,-0.45539856,0.012828886,0.4978376,0.061495833,0.079208896,0.02889177,0.08929172,-0.22691393,0.09514507,-0.026519388,-0.22548042,0.006222509,-0.33860412,-0.34971693,-0.1662176,0.054479416,0.028777052,-0.13860945,0.2538645,0.25553524,-0.18561609,-0.078376524,0.005600535,0.21839869,0.5124382,0.08140041,0.5083993,0.22420017,0.60150224,-0.027737403,-0.32128334,0.101801924,0.46896657,-0.18942456,0.19525321,0.11581363,0.14907938,0.0631798,-0.27195507,0.23336114,-0.37847126,-0.0629769,-0.24775423,0.0012534729,-0.18921047,-0.26533964,-0.09654581,0.037088994,-0.11015692,0.11238592,0.39827833,0.4162258,-0.30642042,0.26297715,0.07621293,0.13358042,-0.016893042,0.021283196,0.1456172,-0.31653935,-0.020787846,-0.089341,-0.36205575,-0.017212879,-0.45905456,-0.09380599,-0.083575875,-0.22083406,0.00068745157,0.18244214,-0.029992476,-0.42573306,0.28035605,-0.21952662,0.24821652,0.2903672,0.28599247,-0.52089727,0.11824524,0.16463982,-0.27720165,-0.40774503,0.37551558,-0.13265982,-0.40743643,-0.19072056,0.40484068,-0.15274787,0.10392847,-0.05503199,0.057544038,0.46967927,-0.12788644,0.11586188,-0.03154499,-0.0037782085,0.20838867,-0.05611668,0.041020647,-0.07667381,-0.21761617,-0.16990754,0.15197349,0.16187711,-0.3732646,-0.062844485,0.19315115,-0.26567376,0.54754514,0.081026725,0.29334003,0.3454886,-0.044264086,-0.033424884,-0.078474395,-0.082414284,-0.12227236,0.011302869
ALG9,0.17176965,0.21742864,0.06922527,0.21242645,0.33790842,0.011422637,0.33546713,0.17415714,0.41596788,0.07210658,-0.088247545,0.18388723,-0.3205539,0.39703342,-0.054666508,-0.0500241,0.067770116,-0.12598193,0.032328695,-0.23750369,-0.042298015,0.01873895,-0.096272506,-0.20832564,0.15593715,0.07300002,0.14624311,-0.25529546,-0.3276603,0.62988913,0.040836815,-0.12022082,-0.20464875,0.2998012,0.21390527,-0.16199963,-0.03687217,0.24791077,-0.04624069,-0.29939654,-0.14434977,0.55551124,0.14390779,0.26758352,-0.0631573,0.007656723,-0.089298606,-0.039292883,-0.23930253,0.31261373,-0.16859446,-0.16773763,-0.33770758,-0.21890284,0.064892426,0.2302364,0.12155786,-0.20040452,-0.25725532,-0.31979546,-0.14439502,-0.18707898,0.16191405,-0.13777715,-0.0035694933,0.3856793,-0.53115016,0.18589026,-0.15022928,-0.25752258,0.37833348,-0.23247375,-0.0005267395,0.16928041,-0.07323508,-0.016565584,-0.006132284,-0.03940844,-0.28814498,0.10046166,-0.35440785,0.021423351,-0.17680724,0.2947386,0.10879856,-0.09478917,0.2364977,-0.3049771,0.21057111,-0.36988637,0.31923267,-0.25581858,0.38024852,-0.03535777,0.35888752,-0.084549755,0.06397716,-0.16796164,0.15440468,-0.24852642,0.18134001,-0.14461178,0.21874659,-0.20942137,0.029624535,-0.06351676,0.2408408,-0.32277536,0.09208267,0.41608828,0.32650468,-0.1569475,-0.27754563,0.19926381,0.050269686,-0.103392996,0.07871124,0.27885574,-0.04948627,0.19104493,-0.0859509,0.3322717,0.048874646,-0.17674732,0.021158872,0.02337477,0.05998263,-0.3139591,-0.40806228,-0.06559528,-0.050836664,-0.26413524,0.07773917,0.26389515,0.37335685,0.28372595,-0.061556295,0.3194144,0.086299285,0.16430995,-0.14059924,-0.04714614,-0.04703277,-0.03200781,-0.28020325,-0.092670746,-0.3890104,-0.12841685,-0.1712593,0.17529795,-0.02659981,-0.24305625,0.4941151,-0.06885288,0.027032228,-0.08147716,0.09596064,-0.023614794,0.13322596,-0.25786257,-0.02756874,0.26938516,-0.12309548,0.060945112,0.003951563,0.030198421,0.15281162,0.33354673,-0.14416082,0.120552294,-0.2874009,0.16543354,0.14000827,0.016670043,0.14700568,0.17268288,0.06116018,-0.06383924,-0.08045734,-0.013425938,0.0650921,0.26260003,0.002028037,-0.14267373,0.31772217,0.14982072,0.07651847,0.040524714,0.40359718,-0.23949942,-0.1715163,0.25036228,0.14074129,-0.121490195,-0.22446436,0.0014019909,-0.21513459,0.03470137,-0.050676674,-0.3755618
ALYREF,0.3915315,0.22868527,-0.016587615,0.03899801,0.13429335,0.3177266,0.15960105,0.04403069,0.8065258,-0.13378239,0.12636179,0.2910437,-0.30988204,0.057069637,0.014851121,-0.17864072,-0.12750852,-0.03860497,0.2267234,0.04038679,0.07731619,0.07641528,-0.12506655,-0.20523013,0.25038373,-0.065757744,-0.03346987,-0.2063806,-0.05371894,0.33880073,0.22048882,-0.0994388,-0.29040444,0.6509768,0.35868245,-0.023909166,0.11772333,-0.32920048,-0.013637098,-0.053866573,-0.0028229672,0.319251,0.20319828,-0.10416283,-0.091845974,0.15955685,0.1593778,0.54245263,-0.12880337,0.24502459,-0.14770077,0.110467955,-0.2681685,-0.24128002,0.42625266,0.172458,-0.35389817,-0.065157406,-0.10908635,-0.16248187,0.038657825,0.0060049957,0.4052591,0.24278991,-0.0878373,0.23592845,-0.34231836,0.3239604,-0.060226817,-0.04627803,-0.2822293,0.25584498,0.0019266966,-0.016619239,-0.09447172,0.18298021,-0.19175051,-0.22231609,-0.3523135,-0.27249387,-0.15387127,-0.057119027,-0.4006177,0.11870071,-0.058803104,-0.1367432,-0.035036687,-0.53835386,0.059564393,-0.13559118,0.4248535,0.1808143,0.20916842,0.065844834,-0.017009106,-0.31515366,-0.08452569,-0.15735622,0.3553861,0.07882833,0.032233957,-0.1999315,0.2440708,-0.05020198,0.04090436,0.015810832,0.25069436,-0.033714656,-0.17895477,0.0485363,0.016776737,-0.16915584,-0.070171885,0.08456306,0.19855428,0.13186286,0.00084793975,-0.008173524,0.23168822,-0.018474182,-0.51210296,0.06063693,0.17558537,0.16625029,-0.08013734,0.200414,0.24458738,0.12971535,-0.35213274,-0.15278809,-0.15659337,-0.18458395,-0.4390571,0.07258747,0.029522235,0.13456088,-0.12119193,0.42377907,0.09703854,-0.31827325,-0.14271314,-0.21063739,0.010788495,0.2175002,0.07628801,-0.045886397,-0.81456304,-0.13270353,-0.02447868,-0.056469604,-0.11282405,0.03380406,0.5349825,-0.015861746,0.10760236,-0.21919642,-0.12174983,0.1822605,0.18448694,-0.07943914,-0.050726406,0.0909438,-0.33767578,-0.12172506,0.05954546,-0.18407845,-0.14824529,-0.4059432,-0.022981483,0.31882256,-0.093812004,0.053086996,0.21250382,0.6117359,-0.14880565,0.2580503,-0.01046373,-0.14032309,-0.20375624,-0.005339928,0.09111845,0.015395867,0.13768542,0.026720045,0.62446415,-0.010650436,-0.16280584,0.18588373,0.33669588,-0.17049958,0.085307725,-0.1442415,0.21622293,0.028285874,0.00076134555,0.022887236,0.052354712,0.086475536,-0.060493194,-0.037521057
AMDHD2,-0.666533,0.6099578,-0.07224677,0.902748,0.48643368,-0.5195877,-0.17582211,0.6283609,0.9917196,-1.4124998,0.42487076,0.54212505,-0.77261245,0.48534322,-1.1539662,1.0318843,1.1996127,-0.92727935,-0.812563,-0.15257445,-0.8691047,1.0661907,-0.07111371,0.2153977,-0.5765866,0.612961,0.012956112,0.061607346,-0.42506516,-0.0736422,1.1686552,-0.89968127,0.107611984,0.01491089,0.49028957,-0.5793495,0.44950598,-0.4883408,-0.3569301,0.59509915,-0.42882213,-0.16764767,0.21197368,0.2874327,0.94046247,1.1902822,1.2135885,-1.3251966,0.33730233,1.0150219,-0.9452934,0.096468285,0.3409957,-0.4074886,0.34211108,0.532441,-0.37981147,-0.20107375,0.4917171,-0.58657473,-0.18673967,-0.97250384,0.012236919,0.5060795,-0.6312267,-0.86582875,-0.5494113,0.96916336,1.0730098,-0.18058464,0.35054016,0.19471377,-0.0805315,0.19474192,-0.1736965,-0.21587211,0.6361863,0.29071885,0.09625574,-0.83293384,-0.66341996,0.33123988,-1.0415033,0.63892245,1.097912,-0.28144556,0.5259729,0.16613412,-0.06119293,-0.04448212,0.41238084,-0.24450478,0.042425424,0.3430156,0.003519244,-0.6457769,-0.4140627,0.36912698,0.14102347,0.095815286,-0.4259819,-0.10532211,-0.7808093,-0.4714067,0.051682778,0.55343515,0.54963136,-0.39484265,1.6461235,0.07388375,0.17973459,-0.46929112,-0.8921737,0.74377054,1.1140507,0.5184273,0.9572263,-0.17181288,0.52438295,0.86804,-0.12587191,-0.9353611,0.39112848,0.8163472,0.016697688,-1.0802826,0.09260081,-0.18750118,-0.3433235,-0.7769364,-0.18946435,-0.40945253,0.11520265,1.2528856,0.59801626,-0.66073346,0.80674994,-1.1498034,0.8068017,-0.45937133,-0.51795197,-0.86379457,0.37808824,0.85857725,0.0827191,0.8131205,0.22229117,-0.19606873,-0.0915901,-0.64953566,-0.4275997,-1.3355125,0.75646114,-0.13001518,0.9898478,0.39958715,0.5034119,0.07774457,0.27204573,-2.0551665,-0.17149343,0.55684686,0.002959813,-0.33201042,-0.7587833,-0.6896753,1.2150543,-0.47667918,-0.6364856,-0.9672465,-0.058752544,0.7514035,-1.2981161,0.9776698,-0.40122312,0.29376662,0.123010814,-0.030467117,-0.6673472,0.18853647,-0.8573233,-0.13783273,-1.3272496,0.1011225,-0.14339453,1.8338133,0.99413425,0.8184776,0.47243384,-0.018934045,-0.054413017,0.5079579,0.23401082,0.47931767,1.0376024,-0.5531905,-0.44637308,0.4807486,0.5460003,0.016496414
AMMECR1,0.03691268,-0.0031382886,0.38094106,-0.18845858,0.02393442,-0.19680114,0.19966987,0.21041004,0.45692146,-0.0118491035,0.14772904,0.15563491,-0.14572941,0.29012245,0.03238907,-0.19386329,-0.024007037,-0.022766104,0.13385065,0.031986687,-0.0006942282,0.12512828,0.36282974,0.0013313227,-0.04210196,0.054652467,0.320857,-0.25592923,-0.03693971,0.3043852,-0.14982334,0.0035464799,-0.13211969,0.2689123,0.06463779,0.004383179,-0.23580918,-0.065839715,0.10369579,-0.17920972,0.12117653,0.33190528,-0.2785342,-0.0046647987,-0.300182,-0.085441,0.1941899,0.24047044,-0.05796101,0.31939375,-0.11632445,-0.08432671,-0.1255556,0.18393047,0.27507243,-0.15600629,0.04086987,-0.14146416,-0.28693643,0.1501633,-0.12637553,-0.108804055,-0.17789322,-0.14335836,-0.019822499,0.2774448,-0.7384381,0.4676196,-0.031024322,-0.08369077,0.1437611,0.15525204,0.18714052,-0.0064655705,0.096981764,0.043716595,-0.10958287,-0.10586836,-0.018823354,-0.0768561,-0.16409513,-0.19880968,-0.30647627,0.14172377,-0.16653666,0.0788508,-0.25723284,-0.51409256,0.21371804,-0.118077025,0.25947306,-0.061049514,-0.3812257,0.28717732,0.053676568,0.19738875,0.13702065,0.04241753,0.25744468,-0.025404623,-0.06261206,-0.25703114,-0.042879272,-0.03505458,0.21334618,-0.065111265,0.27011007,-0.19530265,0.22287698,-0.14294353,0.23658293,0.012449372,-0.10767307,0.18290542,0.21672456,-0.0808222,0.22049035,-0.40264517,-0.106557205,-0.0061225905,0.15105833,0.36286995,-0.07174237,0.22055668,-0.4215713,0.15508063,0.1882185,-0.06978486,0.03350199,-0.08409009,0.16506614,0.005309974,0.30651927,0.24057506,0.038897667,0.15759777,-0.034680292,0.15570955,0.31512067,-0.24506693,0.1181788,-0.22611672,-0.27589664,0.34292212,0.11528001,-0.22543247,-0.34670216,-0.1735337,-0.15640135,-0.23923773,-0.27331755,-0.3332,0.33968008,-0.018167851,0.1405759,-0.242137,0.09151769,-0.09347136,-0.1335005,0.025976177,-0.047713865,0.11959714,-0.16132064,-0.25465497,0.2646695,0.19169961,-0.1586183,0.15017503,-0.06368495,0.06438908,-0.32893917,0.1989901,0.18304642,0.030147923,0.40305683,0.28037155,-0.2826871,0.2543764,-0.011215192,-0.040228922,-0.033215974,-0.021258144,-0.09329291,0.19003655,0.45042643,-0.14786437,-0.0041781473,-0.036837023,0.28471836,-0.12253107,0.20960177,0.40168202,0.3402955,0.037982576,-0.025190236,0.34940198,-0.051691175,0.04961616,-0.054500997,0.19319835
ANAPC10,0.21417685,0.31694666,0.26349738,0.037626058,0.162549,0.1276314,-0.03988474,-0.06589931,0.31826302,-0.38312012,0.023826705,0.04162657,-0.016906437,0.13135406,-0.031711686,-0.08318428,0.17164885,-0.10523654,0.09329126,-0.20888427,0.096151546,-0.042965494,-0.042148013,-0.21099296,-0.0405272,-0.13908449,0.4392848,-0.12986809,-0.09882476,0.5945794,0.34998637,0.018608099,-0.0824589,0.5293284,0.4523139,0.025167806,0.11195901,0.12815969,-0.12647408,-0.3889748,-0.122173354,0.44109666,0.2704195,-0.43704575,0.0526363,0.26924464,0.13671903,0.43670171,-0.023826487,0.19067621,-0.38941228,-0.035049397,-0.39165932,0.07303753,0.08432997,0.616544,0.436355,0.1505959,-0.31032014,0.024225682,0.004653705,-0.048367746,0.17882973,-0.04983667,-0.03243538,0.5113136,-0.59246653,0.48890164,-0.14384262,-0.21704689,-0.099246725,-0.072888605,-0.25717497,0.3597881,-0.31053784,0.0717865,0.24001232,0.0051861675,-0.17382202,-0.07971431,-0.4590455,-0.21046437,-0.3587435,0.40918678,0.25906163,-0.19608374,-0.03659962,-0.1897699,-0.021576662,-0.12495949,0.46024063,0.020837603,0.00045370404,0.04187206,0.23919457,-0.20935532,0.15258202,-0.08733229,0.39188337,-0.03974707,0.32730693,-0.25854635,-0.035660993,-0.44351456,-0.038481005,-0.046306632,0.33729395,-0.15093826,-0.013901432,0.20730256,0.29750463,-0.038027156,-0.35862607,-0.06988297,0.006550486,0.09182027,-0.1283482,0.22859128,0.09652817,-0.10165752,-0.4411147,0.09849568,-0.052167922,-0.16764624,-0.22500707,-0.08427381,0.18300545,0.16789247,0.09405521,0.14105202,0.26544565,-0.20262964,-0.28160053,-0.015875988,0.38616782,0.3061114,0.021465816,0.112523615,0.35238546,0.030598693,0.01724654,0.12455201,-0.098922476,0.22855479,0.10549502,0.14182788,-0.52734345,-0.06270095,-0.08708335,-0.20523751,0.0007653591,-0.091107376,0.34670866,0.10074197,-0.084968366,-0.20641938,-0.05982937,0.095845886,0.22265422,0.011052773,0.119565986,0.07359224,-0.29602027,-0.3927185,0.10654608,-0.26061258,-0.16973084,0.24728423,0.1225313,0.1686352,-0.18403183,0.39372554,-0.16640393,0.18368635,0.34409437,0.25297725,-0.44979405,-0.22440109,-0.03141402,0.117794566,-0.1786963,-0.021364596,0.11228721,0.14657517,0.5672995,-0.14687747,-0.27724776,0.2165457,0.30458635,0.016145002,0.031696584,0.1345318,-0.07619969,0.052055173,0.051022068,-0.05370118,-0.18007351,0.26416296,0.054778345,0.029868066
ANAPC11,0.054741643,0.046648774,0.13534398,0.07208384,-0.15713066,-0.043639973,-0.24476929,0.32983056,0.4937686,0.1336767,0.10381641,0.37586468,0.13009755,-0.10793273,-0.22836162,0.033239312,-0.27843717,-0.27398896,0.122780494,-0.106609344,-0.4538109,0.33938766,0.037047263,0.07514848,0.24434741,-0.11172052,0.12835279,0.003334134,-0.18717031,0.17348312,0.21757434,0.22070913,-0.3691335,0.0856697,0.28447968,0.27505872,0.07699583,0.008674176,-0.24467583,-0.022038441,-0.05855296,0.20640697,0.14993396,-0.34547305,-0.17060964,-0.15859392,0.024565136,0.1810977,-0.0031289433,-0.18751164,-0.0024704402,-0.3747394,-0.15460168,0.2097238,-0.069630094,-0.012564428,-0.31059554,0.3172831,-0.102991745,-0.17431812,-0.3089134,-0.053330496,0.23948729,0.2716675,0.011779906,-0.118406355,-0.26469842,0.080339916,-0.079724126,-0.15082315,-0.2752124,0.2006666,0.02840985,-0.53870916,0.28759927,0.09435731,0.2741038,-0.17336775,-0.17591058,0.31620532,0.16840789,0.008400754,-0.179703,0.21005246,-0.032027725,0.027532613,-0.059178356,-0.23174316,-0.23135886,-0.21085778,0.16170016,-0.14257133,-0.033111297,0.0016474135,0.21026662,-0.100047,-0.0499381,-0.03115187,-0.016444704,-0.22586009,0.04991359,-0.22474915,-0.53253376,-0.07233567,-0.11918966,-0.29506755,0.25585562,-0.234619,-0.09405132,0.39223713,0.13824494,0.07911834,0.32429716,-0.14743388,0.069684915,0.38134757,-0.09530119,-0.09143223,0.35462868,0.1240159,0.073066965,0.06756126,0.5082449,0.07593688,-0.1321085,0.13401178,0.032360855,0.027307509,-0.018803114,0.17728077,0.023732835,0.16482952,0.034789834,0.24214299,-0.30346313,-0.06431753,-0.21447441,-0.081849255,0.084972166,-0.54007655,0.06333547,0.28401744,0.42939943,0.2550859,-0.048374943,0.013736391,-0.4623319,0.042011738,-0.09443549,-0.005772661,0.10051568,-0.24742806,0.31776166,0.10552467,0.30214414,-0.122523524,0.4156512,0.08506877,0.23698531,-0.099222034,-0.064417444,0.035718545,-0.49306569,-0.30542397,0.21678793,-0.35015827,-0.046179008,0.21931006,-0.10213909,0.040084343,-0.16819875,-0.26810774,-0.004089527,0.10027351,-0.26128286,0.062183615,0.015584259,-0.045443848,-0.090074226,0.14150429,-0.011373805,-0.006128223,-0.37774217,-0.112605624,0.030984432,0.1359253,-0.18868767,-0.017957322,0.1820476,-0.1326818,0.28818926,-0.06926173,0.3201374,0.13577516,-0.13024421,-0.23850651,-0.21221453,0.21013431,-0.24873617,-0.3150788
ANAPC7,-0.09738242,0.06010311,-0.021405503,-0.0056239003,0.16158466,0.15544128,0.21661593,0.20296593,0.48433435,0.005557589,0.23699248,0.29130518,-0.20873077,0.10106427,0.015273546,0.0017263901,0.21052428,-0.24925208,-0.11272062,-0.1838899,-0.2361231,0.17284946,-0.0469999,0.097018056,0.01929952,0.020630047,-0.14113624,-0.047421392,-0.17140341,0.5792064,-0.35682297,0.116107866,-0.2218512,0.24843735,0.3419883,0.033108067,-0.09621126,0.025450239,-0.354773,-0.08988783,-0.09751198,0.25816178,0.113642044,-0.32308286,0.32051408,-0.17865948,0.14476539,0.25515583,-0.21133542,-0.20065096,-0.21985382,-0.24821293,-0.035646398,-0.27818045,0.36129466,0.2978668,-0.21712466,-0.2269593,-0.3042944,-0.19273378,0.02515978,-0.1346736,0.32189342,0.22936924,-0.24057746,0.10127298,-0.10037139,0.00016277666,-0.08067647,-0.043694563,-0.041871328,-0.07491269,-0.031065509,-0.21057305,-0.124582104,-0.014029142,-0.28781143,-0.2612675,-0.65255976,0.0911449,-0.069443524,-0.021676954,-0.31311515,-0.03236162,-0.05625349,-0.22500737,-0.027828103,-0.31693986,0.20203319,-0.3306056,0.25390112,0.053460594,0.0065162317,0.024348553,0.12736274,0.032221768,0.008820836,0.03786822,0.15864174,-0.20504361,-0.118895166,0.15574168,-0.021124816,-0.16509804,-0.082625635,-0.35363916,0.16818203,-0.22420268,-0.40341482,0.25612342,0.22999577,0.12029444,-0.035496984,-0.09835153,0.03260996,0.4244217,-0.07758321,-0.12709226,0.30958605,0.3199186,-0.24447261,0.33465368,-0.088855244,0.07622348,-0.3572385,-0.12819603,0.15865417,0.008317977,-0.18042219,0.14475407,0.17237307,-0.40758035,-0.015299431,0.41258267,0.18072893,-0.1284104,-0.4466508,0.1941283,0.08772426,-0.16574952,-0.34087542,0.22769912,0.12503889,0.31959215,0.020684391,-0.14717935,-0.20699064,0.112066545,0.014618636,0.10018503,-0.27918103,-0.23654248,0.60402834,0.07227298,0.0071308464,0.084731966,0.23535706,-0.029729666,-0.22874795,-0.17148554,0.00039134573,0.35366043,-0.40639746,0.09868093,0.28357434,-0.34723264,-0.30002728,0.22911811,-0.030242404,0.061485514,-0.15661284,0.1785904,0.019590383,0.18887337,0.25233886,-0.16711694,0.07920656,0.085620075,-0.012620966,-0.07069202,-0.05542644,0.17553355,-0.22916323,-0.14170559,0.18537253,0.0835245,-0.047377735,0.20907724,0.07323092,-0.23354164,-0.39151946,-0.29657567,-0.17952824,0.14655007,0.07848111,-0.20189142,-0.07698759,0.17491116,-0.16343415,-0.36329913
